{"input_spec":[{"kind":"feat","name":"n","log":true,"mean":8.301955712206368,"std":0.898935948123651},{"kind":"feat","name":"nnz","log":true,"mean":10.251214061096272,"std":1.3957775135759658},{"kind":"feat","name":"deg_mean","log":true,"mean":2.105665176013443,"std":0.8012391145319375},{"kind":"feat","name":"deg_max","log":true,"mean":2.2113432704282707,"std":0.9823498346754409},{"kind":"feat","name":"deg_cv","log":false,"mean":0.10980458646596832,"std":0.3143946117935782},{"kind":"feat","name":"bandwidth_max","log":true,"mean":4.900225794597956,"std":1.5636795886354082},{"kind":"feat","name":"bandwidth_mean_rel","log":false,"mean":0.024949137941329733,"std":0.053083706301833934},{"kind":"feat","name":"diag_dominant_frac","log":false,"mean":0.7331290497377109,"std":0.41079505389930543},{"kind":"feat","name":"diag_present_frac","log":false,"mean":1.0,"std":1.0},{"kind":"feat","name":"n_supernodes","log":true,"mean":4.066991667806927,"std":0.9091343190880995},{"kind":"feat","name":"fill_nnz","log":true,"mean":12.878042297210028,"std":1.0417699313387014},{"kind":"feat","name":"fill_ratio","log":true,"mean":2.7144455616388368,"std":0.5206622177722104},{"kind":"feat","name":"supernode_cols_mean","log":true,"mean":4.274655804972261,"std":0.30523826969827794},{"kind":"feat","name":"front_nrow_max","log":true,"mean":5.810385838526932,"std":0.5286896084344123},{"kind":"feat","name":"tree_depth","log":true,"mean":1.8108788049253597,"std":0.3845378931320934},{"kind":"feat","name":"tree_width_max","log":true,"mean":3.832944929366566,"std":0.9090651435336834},{"kind":"feat","name":"tree_width_mean","log":true,"mean":2.525533382247031,"std":0.6459231621303814},{"kind":"feat","name":"factor_flops","log":true,"mean":19.057730141076366,"std":1.2592358824555605},{"kind":"feat","name":"arith_intensity","log":true,"mean":6.181845199274908,"std":0.34287061618315195},{"kind":"feat","name":"flop_top1_frac","log":false,"mean":0.2357686706422055,"std":0.16864902791780872},{"kind":"feat","name":"flop_top1pct_frac","log":false,"mean":0.250701572514737,"std":0.18100598746847532},{"kind":"knob_log","name":"nemin","mean":2.8506407949688173,"std":0.9620401517712133},{"kind":"knob_log","name":"relax_width","mean":4.906123290963898,"std":1.791416121995656},{"kind":"knob_log","name":"panel_nb","mean":4.187032515792974,"std":0.4118716112665765},{"kind":"knob_log","name":"scalar_gate","mean":8.319390672991391,"std":0.7237288760415909},{"kind":"knob_log","name":"par_gemm","mean":13.87721923677869,"std":0.7806963331271979},{"kind":"knob_log","name":"par_cdiv","mean":15.800921953426206,"std":0.7486991092571137},{"kind":"pivot_u","name":"pivot_u","mean":0.26610927932171874,"std":0.32522796284005684},{"kind":"ordering_onehot","value":"auto"},{"kind":"ordering_onehot","value":"amd"},{"kind":"ordering_onehot","value":"metis"},{"kind":"method_is_mf"},{"kind":"use_gemm_schur"},{"kind":"scaling_onehot","value":"onepass"},{"kind":"scaling_onehot","value":"identity"},{"kind":"scaling_onehot","value":"infnorm"},{"kind":"scaling_onehot","value":"auto"},{"kind":"memory_is_eager"}],"orderings":["auto","amd","metis"],"layers":[{"w":[[0.04292129687960477,-0.13638721622792016,0.07729708179659431,-0.15740373753090464,-0.09073617988343632,-0.10737496114809648,0.12270124841868096,0.17421760599412478,8.514467792516104e-34,-0.1441213625769767,0.19334627932150053,-0.11771239181662192,0.23381443035907093,0.15070906814423618,0.16112258952621117,-0.10896426171136309,0.19520081585740767,0.22939845138136722,-0.08804780225655526,-0.09815587867820902,0.038928552814734896,0.08066492925593566,0.10205652676038872,-0.07323463062195688,0.12249516931998278,0.1342937102126978,-0.020920356395407694,-0.04472942326793654,-0.5304817534873701,-0.33867803231614807,-0.33633788239400136,0.061598130560468596,0.19341322497553573,-0.09340587188100236,0.01387706668818871,0.08873042348462108,-0.0035929791430380767,-0.029204325606162297],[0.1198185262582328,-0.07172112805883751,-0.1410631180875235,0.170775712550397,-0.0009821541068105232,-0.17993510926370607,0.13341796593614355,0.2066877620262831,1.2076753067173307e-41,0.20504850823109386,0.21501268073624955,-0.16398881315114028,0.13510206548373743,0.06050604950671041,0.04821364133522619,0.08777295316244324,0.20136390600744167,0.011644795997296157,-0.12170941347116451,-0.1448635675381359,0.05687809237179068,0.1538694736031847,0.08230814456178713,0.2143156021355653,0.14754022080258802,-0.12710424661826675,-0.023222417075093572,-0.00825812440755988,-0.06454031854932626,-0.11253868623899947,-0.1416721242993327,-0.02294712650614802,-0.10223903606200893,-0.05377501268245049,-0.1356620732033251,0.08305340231592345,0.09175393973514037,-0.06294094487206911],[0.04334400375714079,0.15030553627788365,0.05252667502767484,0.12840179769200266,0.23833994380006696,-0.192171367264461,0.1657696665541617,-0.1191203761142699,-1.533360278321662e-49,-0.022517925784793443,0.2296351182066873,-0.10349855806884387,0.03347644809797267,0.14090211760903174,-0.05225605947223829,-0.18648370772120204,0.01033786694968447,-0.075274592966599,0.1407802928822087,0.14956825736766458,-0.1923229740206115,-0.12185870542111615,-0.2117692080548131,-0.02439582628045526,0.08145483799376449,-0.0849882527340315,-0.11932319219201458,-0.19649791518447152,0.201564702625478,0.15270208209838254,0.24393544335111794,-0.28062593049039974,0.24576835133464262,0.10618440702220258,0.43459322736951694,-0.09278515574599788,0.18174334060375535,-0.208426241501171],[0.04538584672050261,-0.18157049093740005,-0.0445028041733526,-0.009310514360593072,-0.152456276604277,-0.05103068060595186,-0.19403281077401782,0.09966423293379065,-5.88080980072762e-37,0.20081079450263042,-0.023901459546876423,-0.1739646127632336,0.05564779020658712,0.021595770455067977,-0.04135298544903928,-0.01973390974801195,-0.14583858782676604,-0.16030874866080705,0.23833838651450093,-0.018320179951324858,-0.24811948746465787,-0.10621243161871256,0.08481454141778089,0.08448471460311428,-0.07213492512956561,0.10674636337780644,0.21443426233648175,-0.16528427459380723,0.09636898216629897,-0.1444343758348116,-0.20757794248071515,-0.31126801266476195,-0.2628278409489481,0.008450946553867893,0.10119492344154497,-0.16491270574625794,-0.006982061978133473,-0.18121921891694928],[-0.03681857687522315,0.16547975261713432,-0.1741782857280932,-0.14250198577847192,-0.13827254129299218,-0.11917880300269545,-0.014975532370723126,-0.07662428713389377,-3.07966656617674e-24,-0.1547125160599732,-0.042066967935082286,-0.19408550541791778,-0.1783203729582578,0.23620630044845958,0.17342641587350846,-0.08470952828709062,0.2330207505449658,0.14541061973358319,-0.046464138192272776,0.27705779635162664,-0.049170485412802334,-0.09677117713511212,0.1066293680361998,0.008864337617165768,0.019808671811911628,0.15756573647882333,-0.16295025352940745,0.04360965525297695,0.13503820870931474,0.04237211182763323,0.3359150499648402,0.17611086375805227,0.14070670694810583,0.006147197942996158,0.20161777568473851,-0.016346224459285,0.24675658583123983,-0.11391538861992828],[0.040449187454140424,-0.24185857791407253,-0.1842136901279522,-0.20363424888864376,-0.28135133093335396,-0.0929505851346604,-0.09166995590682943,-0.10773077520416323,8.330016724323053e-45,0.04696373591589921,-0.20477504340033514,0.27082324719689543,-0.18452422642655558,-0.285486545351284,-0.12709949162265713,-0.11097677841212905,-0.19594805334764798,0.14993048149437424,0.10441538070524804,0.2335166878582061,0.22535204368504327,0.09498159383748724,-0.16710243035612035,-0.1802132303854565,0.06838706862100502,-0.11822741093813748,-0.13550665564651904,-0.20698789052782457,0.0721527094793881,-0.3448644812800364,-0.0679230886896037,0.06516354294905122,-0.07141214825372841,0.1950927705434372,-0.022545260653353813,-0.08948500578721799,0.15392983560133822,0.0939892141997494],[-0.04351233211897675,0.21194672380384552,0.0015166141442907626,-0.24933003410050777,-0.27608940764995626,0.06369041521263778,-0.2877666329673634,0.14709732748216695,-3.7967559731373644e-42,-0.033939493938643726,0.06942046530983476,-0.15079171856948634,0.1403326006869563,-0.09748869619631186,-0.13438187829104192,-0.00824289956223249,-0.028019504923015463,-0.2168745420527611,-0.23775102153881217,0.23779166521609296,-0.1792996002125423,-0.14237355393037804,-0.22761856824874516,0.1705097111573468,-0.1774029987122739,0.1146546052775771,0.14197437697304066,-0.12951363666845278,0.20916920970889935,0.004248663412295431,-0.05409352378533622,-0.2669224293679507,0.16499003180707153,-0.08934923951833879,0.018187282806732034,0.15238329768775666,0.036705398912935505,-0.0933540832310646],[0.16239043322511743,-0.05430309539703512,-0.005394478239283319,-0.06623954934972648,0.2308271420327485,0.06477644206167346,0.014897691949017902,-0.10381694433882414,4.905607300200966e-17,-0.23880494372251687,0.03410828992919117,0.05680851666061018,-0.10711194844087889,0.04768923933409919,-0.2529359843258805,0.07899242678836571,-0.2071955275946997,0.07755328847475379,-0.007004412700889122,-0.19443773769407768,-0.07539234923958475,-0.15634004365021564,-0.17234976040457606,0.20259079315296266,-0.08693547494628316,-0.11038397970724358,0.10273261538085503,-0.18486226371152764,-0.19433661700107047,-0.02952376309337354,0.23758024291846322,0.16655417674791634,-0.25502530589596484,-0.10967991236241754,-0.1881204688365469,0.2242461190693792,0.18849697786667466,-0.06795543053425616],[0.2629794694832923,0.251796897121381,0.03941213812458429,-0.0762213249600673,0.08750181426388792,-0.009194425895646901,-0.08541383571506704,0.06231104998796998,5.403765326575123e-58,0.11534302200580497,0.19757259581270012,0.11118320318028063,0.04842068624157181,-0.020195421857717714,0.1961164310429443,-0.20212681698993412,0.24655575770839988,-0.22204777682557494,0.10959259840106635,0.21002573588666465,-0.19053845301535846,-0.1486262905289138,-0.302730185134599,-0.10796578041005424,-0.021111483852623927,0.03604143757490237,0.003688111381581238,0.016936776067793164,-0.025219548004055556,-0.24467719660018988,-0.00509701604421457,-0.07255121487553336,-0.010005587047680196,0.07271245924539521,0.22706859994932893,-0.031676424481999386,-0.030714659491035794,0.10574375009380114],[-0.10348137946780346,0.03362476757748469,0.09408975853691295,0.08379129460870102,0.11125508204997096,-0.13254843608852057,0.1721100398737623,-0.20478084457021994,-2.8586055579816123e-36,-0.16520066575639628,-0.20696048828805302,-0.009955587892057836,-0.01921824744398996,-0.12500473781496146,0.16396851060382311,0.14563488977033318,0.197368480958801,0.23159175996916587,-0.10711025793514076,-0.07279204491110233,-0.08461813992527281,0.015192030542414112,-0.31462968417590137,-0.13065704194067335,-0.0027704315104013994,0.09634201977484286,-0.12266606436123734,0.21418089210393998,-0.19855066570932817,-0.29033476033942895,-0.2546837578656615,0.15786076062258178,0.14560241243288177,-0.09925453240773367,0.030188411608175557,0.10116798218593129,-0.10161278517182877,0.015439166719368628],[0.13428549182563865,0.08594473069167993,-0.01966173329470374,-0.12995082326085206,-0.15476581241131934,-0.16662822632303909,-0.3119368651907105,-0.02856805504597522,-7.590620860227354e-13,-0.2334756680955831,-0.009980361329155946,-0.044744131457202484,0.17127526225630474,-0.20939302269900223,-0.17386377528692334,0.10565293113748614,0.08123645186357978,0.04741764468864951,-0.04020357835864774,-0.012981502251527237,-0.08459329296019287,0.0015044049032468022,-0.0774318406884716,-0.16091012010568845,0.25077631182425236,0.07726095669866671,0.2814186775086513,0.1350275204775952,0.14731191497782914,-0.2618970836566414,-0.2333201549605949,-0.2343314688916171,-0.01622134922471694,-0.23842086605743665,0.07617660695929133,0.31744372862603065,0.24778678149127034,0.045732693289187644],[-0.029650800460422,-0.25831914894745006,-0.030710944908634293,-0.13439267420857773,0.09059787283323942,0.06207009407599364,0.23151626101055356,0.09923107673961386,-5.5079923881463745e-37,-0.2602985687207016,-0.002278516491571042,-0.13127401825813584,0.1858540836617867,0.09179901921246877,-0.15693420235417024,-0.19111440215791461,-0.08693187983663536,-0.017890441477325273,0.15907289474187172,0.09727836430067331,0.18888347304912942,-0.13299546243559637,0.06871409743660536,0.23775945735644088,0.01041396288866237,-0.10707654462692896,0.1326501800794031,-0.2654689867538836,-0.27683922774888375,0.14878931015530547,-0.1392973179275027,0.023949533213084108,-0.09306675971700079,-0.02118707242546378,-0.13873686142774672,-0.027432751988765828,-0.03600327894601819,0.26741895134342725],[0.010675343294967792,-0.14554327307907705,0.12126398698761384,-0.2964638594467583,-0.27725063294384467,-0.3294125015705762,-0.18027774214385042,-0.056348157455156936,-4.36043580055124e-12,-0.22364543377114468,-0.15516648126556135,0.048236279459843906,-0.2635778397498436,-0.06595703735633948,-0.20383464558013661,0.2212571824410512,-0.10625911938815662,-0.1316938933809889,-0.24190320363034654,-0.12977824977334954,0.18064086826754025,-0.10465685476752316,-0.22653761669353736,0.1463620902648657,-0.10335472785200356,-0.07903955286729768,0.10043601073466497,0.028986053760912768,-0.3940678926711287,-0.010498989829647238,-0.4880351221182008,-0.018224482287276546,-0.017167862643574765,0.16807717731189256,-0.0023906177019818163,0.16919039070531053,0.1624564015310559,-0.16062266148696322],[0.21133628263132878,-0.21886417962844815,-0.18023473092076536,-0.2985345061508275,-0.04610156280988924,0.02793763714596297,-0.1049520488659181,0.002261802062481771,-6.068401508679178e-49,0.216107153725374,-0.16422827812992877,0.13873989251184196,-0.1143732753140675,0.20083897699739245,-0.19332579055324317,0.02699166496493753,-0.08030635948912267,0.20755656837965114,-0.20609211461449867,0.13704911723939575,0.0329758346079773,-0.06954924547988567,-0.1486925019774937,0.13359200151980175,0.19504466286035743,-0.09478566324549793,-0.072363294873372,0.09608904895332561,-0.3251822328991787,-0.2804029463855703,0.0030469884704412715,-0.0967724999946156,-0.014860015929075463,0.08929211019568094,0.24604130244443922,-0.2526071138698432,0.011365238023781915,0.044605882712475745],[-0.22605977309296263,-0.1337047473359999,-0.07469657485263848,0.03631582402860076,0.20880334135874634,0.11091828639307287,-0.19810280883827827,-0.021301172216271067,-1.0567773387357774e-58,0.10261892768910462,0.1570688563496703,-0.006303878919908898,0.15437829081494756,0.08607825917763759,0.19263047330419095,0.22988238228749475,-0.19416920025525042,-0.1313051998047668,0.023573088521516287,-0.13792631590446322,-0.24474447898633256,0.06505501938996189,-0.1624082720870474,0.00446421853108405,0.1478184818142043,0.07923920143537519,-0.11652439291168457,-0.07789543123526269,0.1439245557500734,0.26567693407621373,0.17920623622269535,0.06853458542322421,-0.09142223760259834,-0.12047444024264027,0.34102582172507256,-0.05251570195260881,-0.035985391620209174,-0.255272752171108],[-0.18252816864799018,-0.17770543285651058,0.17816442639258964,-0.037514018322487075,0.17479259460974073,0.11284653076097777,-0.18650210791848224,0.008833867256735156,8.759886277186522e-15,0.21085118981200818,-0.19200829477554118,0.19554896806850244,0.16775469461719064,-0.0020820707440431987,-0.18170687055586204,-0.12931204997173537,0.01850301395404394,0.18548485578000254,0.02376498874794456,-0.1351952535202447,0.1905261616872502,0.019134457204001188,-0.04713036377711871,0.22420807085156752,0.24987173979818053,0.2460989857570724,-0.059628322833983095,0.10870370789079561,-0.29915183286012387,-0.005350845075778888,0.2764634243112564,0.05772678731655269,0.03394183784633694,0.18624416537469,0.07180613436482249,0.28424796028088506,-0.07346978622572946,-0.17203762326816416],[-0.21922948837808878,-0.05939926779081677,0.18395487141240902,0.0550778281194444,-0.014106865715046461,-0.03632971578341524,0.0025100775450011812,-0.05124527182129678,-2.4492703318355417e-15,0.06796148400885779,0.01725812695200678,0.09326658375093738,-0.08913762683904998,-0.024497819519229632,0.2575282747919037,-0.019459961849589497,-0.2198577782192202,0.2688964916995169,0.18165567481153977,-0.20678323445995836,0.07045281876615925,0.09527053668342185,-0.08521853748361163,-0.12604816612686554,0.11593282751170944,0.16366139540211552,0.12043522098274706,0.1448530437946877,0.1343228967191339,-0.055521194300144565,-0.30388625829677735,0.31527731102059786,0.14218936710350655,0.11333419191217863,0.0544958139540741,-0.23071475748536988,-0.0030201883515766905,-0.1273598951592738],[0.17852096590430644,-0.04269933525696987,0.07819044043452804,0.20662329762954953,0.2332970109798743,-0.02922935463544333,0.16738798816054837,-0.08223381916436667,-2.1211085651033505e-53,0.03434394361885323,-0.18005203868699035,0.214837024133803,-0.18513458281352518,0.015163345958645167,-0.18669845258498452,-0.07883777568275054,-0.07618001252937191,0.13230488711454522,0.1851573537306665,-0.08823461449572542,-0.13617563524442483,0.23475274159248305,-0.3208977044503343,-0.11673753581971621,0.05844434444911548,-0.2997450321489557,0.0627638158832345,0.2139896888100233,0.08534727770746127,-0.23384571167193247,-0.052247390153826304,0.03509985875770651,0.010890518805167034,-0.0193047800565013,0.15181139695717458,0.25569801698479766,-0.19937351615896012,0.06879831457821423],[0.14082592730231433,-0.20978744209901803,-0.1931469156178792,0.2478662492988346,-0.13476745504337231,0.03517926342916497,-0.22166845420541906,-0.01959300554835653,-1.2289606583599146e-12,-0.09779989198850311,-0.023809079617708624,-0.2340468265221772,-0.05568744462040143,0.18683829883281491,0.1494900830644052,-0.08839992135338096,0.09108371674538696,0.0016046744264549802,-0.12062617620826667,-0.22775934826801592,0.23610575354854854,-0.10798506033941417,0.09988416098480639,0.03718676140008561,-0.06408358769311354,-0.18963354375770616,0.27011613890543007,-0.20124882650587012,0.06395010655514213,-0.11095769804337845,-0.16116607126313656,-0.010600625141011562,-0.009329864088131974,-0.15857455800281475,0.10415078772026654,0.21850092600876053,0.20100635709790157,0.03739833324154403],[0.15259037784441382,0.07459243588572505,0.19765887888121073,-0.14549425330851956,0.2407653300060371,-0.15797906162128056,0.24201455615085907,-0.04372549473865636,3.298391190824379e-45,0.22393517848078187,0.20703275581302005,0.1847194731308688,-0.23432830002368674,0.08152653104409233,0.039122459259136315,0.02871450394668569,0.08507263928233642,-0.23804204347617625,-0.08789979630317525,-0.10120077755464399,-0.2124195784165606,0.14032982811418493,0.1252008077991183,0.11304607622323073,0.09720632419731465,-0.040351031440970214,-0.2855169008876691,-0.23672475190745576,0.23992730307343074,0.2084623366734282,0.08254363027354313,-0.11147220969561294,-0.15495942823296258,0.11752779307014564,-0.013977299921918342,-0.01459888952224482,0.23987135397815695,0.1353877181684571],[0.21042068517833112,0.021692305419439843,0.11138770389257029,0.059179081795553465,0.22459030778396893,-0.08291701698045,0.1881814030261259,0.011434413675164103,-1.4610896764145062e-49,-0.08502333871396185,-0.0466132014901853,-0.0486372900573017,-0.0527355058002378,-0.2510763621253468,-0.06617060058385821,0.1819555335510156,-0.2526286908145398,-0.01956530126889332,0.0014265426318488788,0.043334357952752346,0.14975549725353945,0.07109831155836777,-0.18828143080395474,-0.0005080594276366823,-0.10382965919140123,-0.21142682030523907,-0.0170969420839271,-0.15387838108427648,0.1954218419997539,-0.4301952100719621,0.15072512686944828,-0.07352411411921903,0.1765853522631612,0.11460108116245002,-0.06273566569554852,-0.028836147720082764,-0.036956512253287034,0.027808930026112184],[0.1776545700146246,-0.09940709383163063,0.20554452110630883,-0.15931057939950016,0.07997416371542636,-0.15007548855306937,-0.09559372296031486,-0.08228780282068503,-2.197370801886738e-35,0.0059817614867253245,0.19331490293861273,0.20555635522491714,-0.1070948172403032,0.10198274369691201,-0.0750203020202495,0.17374047387255462,-0.004084509354163834,-0.014446808233718004,0.03507884910948978,0.024438093455360875,-0.07987720033041161,0.07426912764832162,0.668220023750093,0.13504892539140517,0.011871939875004523,-0.13796595074999626,-0.08652066430994423,0.012242826214769669,0.0005428592890729391,-0.25519085945243924,0.11446881984261789,0.034029671735447235,0.05361737743002367,0.13345061599594077,0.1967221898286242,0.030369808667949593,0.11419074317749767,0.12841362960122055],[0.019682973659135246,0.05467790770559819,-0.11758804158168293,-0.18493445225692987,0.09688497517081282,0.018723615961279173,-0.04555914614374969,0.010182726928027012,-6.761789347597379e-25,-0.03737325556531693,-0.1730837180821856,-0.008413190467156526,0.11110716789657728,0.2096415024405249,0.09193513647046905,0.12525709859523557,0.13164260959887528,-0.14899804067903116,0.16983236721016778,-0.22698115584623074,-0.06059283410876186,0.2335385323433046,-0.09751397386849915,0.24667520707539006,0.1389277743748733,0.10109033619096801,-0.21113375219724898,0.022347622344626034,0.2583239595634416,0.17001162922148225,-0.11363026934505958,-0.018682282046095015,-0.08824106074190258,-0.16200015651335306,-0.31125418398450533,0.044457335467557535,-0.12049562731656206,0.12018990913946913],[0.0965310057203914,-0.2629949203934932,0.12388925980454435,0.05065374311697042,0.14280585310680388,-0.26780790946488875,-0.14311845901171122,0.007844987660311515,-9.744405489169275e-17,0.17899638313620164,-0.15247866271279223,0.3039493063669237,-0.04120342542731262,0.11166792960651538,-0.06629082722805983,-0.018647086595051075,0.09750165155541293,-0.0749219435647617,0.07537422070316616,-0.22194961477584643,0.10358806987758065,-0.19412763348156442,-0.2632056554119754,-0.18624004326306548,0.3035131214904948,-0.0228226370974227,0.1968059460921568,-0.06876990763344333,0.11081862016853702,-0.07716182229229052,0.270991089426351,-0.05323151883442327,-0.03614918979492442,-0.14678848919930337,-0.38661606475195937,-0.026800070254013257,-0.04097511620330676,0.18121991956131522],[-0.1902475131698276,0.023377976516317425,-0.20100499662535118,-0.111037205343314,-0.0912719600807739,0.19735835627698545,0.0015490268970692184,0.035236347665698185,9.654700215117386e-55,-0.1789799997546816,-0.04459464518322099,0.18451055889432905,0.14035667431808307,-0.15629642289734397,0.05803160707988244,0.16203503864207391,-0.031371819642627356,-0.06306442908066555,-0.027609200688170434,-0.05598386228826621,0.13292415024349843,0.15986400567378173,-0.22082618284078065,-0.12846568405820996,0.1066874725558496,0.10410665311050345,0.06793013943016896,-0.017306154491151117,-0.07103519353837322,-0.049520184391053254,0.01287047270321678,-0.34649568078571413,0.0560672258763204,0.11320479142444986,-0.12288624338679867,-0.07803246126642821,0.17599471002244568,0.17054884590259844],[0.037869748694270323,0.14307402513440953,-0.06072430470616455,-0.08023809949748423,0.182055033724661,-0.30226865622169974,-0.22850585177799057,0.09677417079333472,-5.927861764767688e-40,-0.1099208516507995,-0.0917383176431754,-0.018612643638621872,-0.17683362576703796,-0.1143278254939917,-0.026887440914806167,-0.008442860870056412,0.22153747948167637,-0.21916726884825727,-0.2292662203432605,-0.26313821338806775,0.18738535982065163,0.10967545111977864,-0.08020170449750104,-0.19134544691073072,0.14445991286610108,0.11545377177634406,-0.03229231207963725,-0.05451701214810979,-0.36043388286962896,-0.12031125115660264,-0.2998613943984115,-0.04124735508787399,-0.09375355226568179,0.01873297064211511,0.1041331802479103,0.16548860097662288,-0.17755980164808802,0.018505827877753],[-0.1505453403426011,-0.07529294455234173,-0.184901789250306,0.03499245050470764,-0.018562921333320916,0.04382418002215409,-0.14723879593282374,0.0930386450719386,-4.2396372270973236e-43,0.11683231931813398,0.10895834785773081,0.03315384416021777,0.17873375199745212,-0.17117715047783302,0.02536126555230014,0.21627524829291156,-0.08604070597025196,-0.0027417621366476195,0.23938793204801737,0.20649472936732788,0.04235850389114092,0.04054011742449101,-0.0179131003210274,-0.2625128238660683,-0.25784250827977534,0.2062250489407248,0.18639130170035884,-0.13393574452626392,0.05552643138750796,-0.24748734980660078,-0.23151744969951452,0.029093324603673455,-0.2090473686086514,-0.13274122922053028,-0.09313942414891282,-0.17166576033546047,0.012134911343881732,0.006747536051731021],[0.22843230311792498,0.11746628782891155,0.21569410368760375,0.20268293624907893,-0.1965737754715023,-0.05462420716119599,-0.053159060519846,0.01595347614041221,1.2296018239298497e-13,-0.20509249261605783,-0.03229884498998693,-0.08921509120294656,0.24029212814216422,-0.014066292115839044,0.17219069843378365,0.17099561758781714,-0.17727566942779427,-0.06532113861085796,-0.11134416486792245,-0.2902012822365601,-0.2871820689584182,-0.019020011195291307,-0.009944469741440594,-0.0474162739981277,0.038618697109982,0.07448473983659813,-0.09126853373729289,0.016562040548305314,0.35890123185023204,-0.39068678472151047,-0.3817853151524931,-0.14203074465587492,0.025008386405751638,-0.09340490529204842,-0.15592918967166627,0.3163984865559392,-0.16137636658710752,-0.189135317578863],[-0.018573596343293038,-0.20321652877732335,0.13982660035247788,0.06231861165126482,-0.014592268890990202,0.02072507880130299,-0.22491401401019995,-0.015247038346449991,-6.37151682250307e-12,0.025053847778697885,0.08217151480212936,-0.029718101215151647,-0.08553484213124461,0.2114895356432243,0.0012716203272934096,-0.16618812881008518,-0.0327943289624885,-0.004625156468140941,0.1280196248511016,0.19307412479035826,0.2431408459231561,0.15787339828635283,0.02846786540234179,0.10485309338166468,0.012484636125772825,0.18184253200561865,0.08069575488111648,0.17466358832297146,0.06229767892658953,0.2951687375321372,-0.10816789450017315,-0.40952496312180736,0.08548750592408304,0.15004400105272844,-0.09033937799829955,-0.054314747227050666,-0.10987048210428196,-0.09205009392632327],[-0.020916901460225772,0.12295236918546479,0.04959902947077959,0.1832876936896672,-0.19931825584983864,0.24554078147020642,-0.15944762231807605,0.19340338111257957,-2.98937814519615e-46,-0.022421177730562923,0.0974434727442514,-0.11356084987099921,-0.056185663294555065,0.2365590038363131,0.16688716107891738,0.10523475692428497,-0.14824036984309086,-0.19396560762230083,0.24120700586997448,0.030629806284846982,0.08122026358842513,-0.11881118171252288,0.17305430407707897,0.2240703039485817,-0.16252610844652685,0.09103090416697553,-0.2142616121701015,0.16257548642168357,-0.19406285620301,-0.17805590407028593,0.08959183488586887,-0.2544511887523261,0.07193581221205689,0.032803991716488186,-0.14959354473145628,-0.08917974524804102,-0.13882866044183928,0.011322229833979559],[-0.11318756789090582,-0.10914295236276307,-0.07967142042606999,-0.12053261340237126,0.22966865254692304,0.026919123644407798,-0.20117165884133945,0.1339466961020913,-2.9682865596181232e-52,-0.10693677367575845,-0.059326920388915204,-0.004432605233655191,-0.09410219372314493,-0.1477584402307877,0.08919251629278137,-0.23519556890780427,0.161962733492299,0.17686842993600504,0.004801214547300836,0.043953439110380944,0.1130844831362859,-0.3234868233791833,0.14107187121154383,-0.1457020325098295,-0.27671675687890546,0.015603714844022513,-0.14290343531335623,-0.06528652318436047,-0.14217526359656926,-0.24752529791974273,-0.058297420353192755,-0.34697156930440615,0.08791893455346124,-0.25954998948371477,0.12607151079592807,-0.029900338176054326,0.16765722129362157,0.0008180479370045857],[0.09799185562268356,-0.19509135050856016,-0.2633086540058539,0.08883560521912315,-0.0640818891415336,-0.2790604703225392,-0.1617162265248068,0.011253569682586504,-1.0430220910014592e-54,-0.15402292772743031,-0.0686913699217374,0.15656432996332867,-0.09885418299603017,-0.09871969492749562,-0.2705615300154533,-0.10795800047725856,-0.14372846416975824,0.11956983661605224,-0.0555384562028454,0.03498184430401676,-0.18786289684128632,0.16874943883645924,0.06151377590349926,0.013523836041078688,-0.11989806544738174,0.1654087723557209,0.08917782883378964,0.057610212064390424,0.17361436818638729,0.2719576246408405,0.2252545560131432,-0.04157394139357916,0.18624646271968526,0.005923090615846005,0.002502790168902729,0.0587579687943123,0.024132257631664895,0.024916214875349205],[-0.04177566731749074,0.042681437542812915,0.1216510456633819,-0.12947903300890418,0.013531556109055237,-0.036091614992214485,-0.15522190728269641,-0.1410729736587813,4.2175439105034325e-13,-0.014183345077451377,0.05120991744743535,-0.11978461867018088,-0.23794219774161007,0.04024196823404932,0.1261095983381113,-0.15286543818452497,-0.12795103566554647,0.028311046582261808,-0.11368144313588392,0.19822312689002164,-0.07391948090335414,-0.15526602473228024,0.03359572447337905,0.1433184500167912,-0.015945609245530217,-0.18394547871117808,-0.3102957304086583,-0.12264069324058048,0.18698472614280662,-0.12557590273056055,0.04761565336830355,0.0701660483320415,0.0094089981095127,0.07575251497840964,0.018712692462503556,0.23092577520634605,0.1156783536020062,0.1567126527207341],[0.026539961692675657,-0.2653441531113104,-0.07144528247164089,0.17665931294285925,0.12667286602936345,-0.08970862165036546,-0.22912070878663848,-0.034289587884114334,-2.2082222000453997e-12,-0.04865122529965079,-0.22749918757527784,0.07280493196868688,0.03347061256799695,0.2253920715447704,-0.16430812123101138,0.04344970721332649,0.17927575293885967,0.15770784634774956,-0.05627892144363791,-0.056547840259849026,-0.13839343338468843,0.12421998339096753,-0.3301181166045642,0.07646907881639087,-0.045954974394384916,-0.24121287732466992,-0.03825430551279785,0.23449782141897976,0.23646391060249172,0.2373596079727726,-0.12551663032538493,0.1409232739163208,-0.15693691454251557,0.028849050443480666,0.0879954999652424,-0.2244295868803893,-0.1316728451660218,0.2977721245787634],[-0.21922420619730393,0.12905021783698484,0.06476988080234213,0.048997312304670894,-0.05698564545101005,0.00719022142097971,-0.19688302112886288,-0.10071274356661213,9.817143345371447e-40,0.01135157735499363,0.1417759627255309,-0.13844276410774445,-0.057227555139050576,-0.1759995546722492,0.21892195651739865,0.13292554860903416,0.10791917716484563,0.20416518467225037,0.06822704353306253,0.2129621095688233,0.2036768468649854,-0.1499977204011855,-0.04862202294616362,0.10126686003618375,0.08730631554189042,-0.0666322925431557,-0.011279433083427328,-0.03704988463345975,0.21039448224035454,0.051081757293398915,-0.21982372797238225,-0.14489880498521396,0.12435496461354244,0.08873461815291701,0.1253486334373711,-0.15489016632475755,0.02749591527784906,-0.19998380241304906],[0.034295468839207144,-0.26113834338022385,0.1618183004133763,-0.15041854097667495,-0.2093385112152591,0.06691318960461114,0.06810642267394303,-0.013694958548666557,4.1628218420890744e-22,-0.10354576678714081,0.054719537202148436,-0.1397154928491315,-0.05205512361534668,-0.13005273099763204,-0.24521954285404018,-0.221039130338852,0.004318363426340074,-0.20632226283910587,0.0729227127653498,0.07286883695616109,0.15034339892464255,-0.09820467033494593,0.1528440211837618,-0.0038888340689915324,0.21059129513991984,0.03695422057759659,0.11121982856619908,0.037347681863148546,0.04285945530478448,0.08984475867884786,0.13397407390860286,0.19198941383037552,0.0654097307195887,-0.09880644667813221,-0.2955100466688536,-0.005034451223216816,0.06999848836323444,-0.0360872999677296],[0.04519426877955086,0.07190147068011787,0.2165924738971138,0.19280866942051061,0.10346102449295831,-0.12664042682716342,0.18541026680148517,-0.029131605047431466,1.9550620622055302e-60,0.21606933777155773,0.1188243926201023,-0.1770072650097327,0.15689864500548442,0.20134304811574866,-0.09719897101372926,-0.012880965217853787,0.08995963756238162,0.07928293232375615,0.24482031480844754,-0.019042591132784385,0.20749242782021102,0.10688584702016428,-0.43052303872925185,0.15992783678814032,-0.11824206199285164,-0.053399634057605054,0.19634532871346103,-0.13076490785650968,-0.3168216027001218,-0.1265340468866766,-0.13062706199477228,-0.2631309522497076,0.17410188000563312,0.24583797096207102,0.2578946828751377,-0.08856421141602848,-0.02773959452422123,0.08327963273960794],[0.053995075095132704,-0.14061399421967075,0.1393765398813358,0.09098822759715865,-0.13246496949674158,-0.21595652455195527,0.3175728957871059,-0.005340121852148348,-1.292221699823631e-43,-0.16762247810706313,-0.006715992275968814,0.25501099674340894,0.05453700828271082,-0.021291813460950437,-0.21404073033396204,0.22901913891015174,-0.011724906090206334,0.21252449964068554,0.14654824221303353,0.25376042740930416,0.2589890872980507,-0.23943895765968062,-0.17633513237099002,0.047874914540308615,-0.07040120046355298,-0.21320415898002534,0.1384728925996765,0.16608674782412908,-0.1442615343902763,0.05559484648982635,0.06274623061737848,-0.34884537041869645,0.0395580431386592,-0.04672926400766734,0.10398604768146841,-0.011197801911195083,-0.03775271154348877,0.2909093038330244],[0.17999216949502675,0.07721636292469047,-0.2729697224270142,-0.14153034596984818,-0.12523075899421615,-0.041736716961362295,-0.017190567751250323,-0.05509133135130645,8.202985704994733e-25,-0.24040308535456978,-0.2258429804786971,-0.21093149990713866,0.27041863060392235,0.13900164494238412,-0.05675999462616227,-0.18142764989007792,-0.27501731644575367,0.19705153022379063,0.10739593923870723,0.04701064899148327,0.12969983940966098,0.046431582388457286,0.20762393665210316,-0.0634259050182137,-0.26328216991406517,0.07011840083096574,0.1287311937943759,0.15383607573377553,-0.007516175319255235,-0.08251621237617954,-0.16839793568792225,0.04875532012919626,0.18155175425473724,0.09409971259850544,0.1667590546235621,0.09107046634807371,-0.022079212961448116,-0.48094422411859555],[0.10589083645518751,0.2211493020124079,-0.09130325518264605,-0.1712844786374102,-0.22589959988947408,0.20666987741011764,-0.1701170956558058,0.1509481847581345,-9.956396149760987e-16,-0.06367766122508302,-0.035212492661897576,-0.12667353158929634,-0.029447560353385676,-0.13653745940370626,0.15346580231569007,0.0959533451129576,-0.21090457657981887,0.05762364281831071,0.19857446703041298,-0.12344222840450605,0.26443701350930693,-0.0509631105583665,0.03861561605529138,-0.10643647456627381,-0.14628597701811222,0.11097661686011158,-0.23464014847027606,0.15015919958983479,-0.20481265813654762,-0.18124014568765773,-0.29986106089071457,-0.057227257844247134,-0.04444822427049,0.3222583131490466,-0.09035194986004758,0.19189663679868832,0.10588858710630901,-0.021326284398949204],[-0.041024836709148436,-0.10168503065912736,0.1090775073629558,0.026317928169055507,-0.23595509848251783,-0.08679080902706174,0.0015934175091815452,0.10670209018675116,-1.0371427514690677e-56,0.06577754177048596,-0.023984910164790593,0.034494634875876985,0.28893961618255876,0.016937641903468727,-0.032434726842960775,0.05985960723330106,-0.0033973720006082475,-0.1631882529451719,-0.15736344094897675,-0.02046657569045634,0.06600536488093255,-0.008822870010410893,0.2278317197264084,0.030071714003613356,-0.09661645894508583,-0.07514304196800005,-0.04775881157746965,0.08080173606353133,-0.16350310209426933,-0.0879365083296264,-0.31065349519509156,0.019759205709997205,0.1290530434566372,0.0005979571876025882,0.024334352367413232,0.1778231198636999,0.015080683549281094,-0.23385045680240274],[-0.030027497387240337,0.02085545989034491,-0.19874936439705276,-0.2854871101110734,0.2143879623858586,0.2384069273870637,-0.007331507425510094,-0.053827857857382734,7.798751641196047e-60,0.06334764035958731,-0.09411061466238552,-0.17811025736909222,0.19590856466325646,-0.0725410485199857,-0.1440847607661731,-0.2797834675362191,-0.24466007614862384,0.027889521421322946,-0.10287472028888953,0.1768024216695153,-0.17579134722600911,0.03259873801192516,-0.10616339939241669,-0.040207245978836986,0.16273940912207013,-0.017448358736446536,0.020265961397965857,-0.006226078765207089,0.12702402111203173,-0.02602917835408366,0.11906994459971608,-0.14270407632731238,-0.043729005924242136,0.1453055114049884,0.18428664324963212,0.10817079624173498,0.16761527874211957,-0.24168706496720707],[0.12152939149614979,0.06584454327529857,0.018978544198907907,-0.13193124325540562,0.21234666692601964,0.020256205163268832,0.2421627711100194,-0.03746337067224038,-1.1610383149361103e-39,-0.02839743711830771,-0.19912224413325721,0.19796975258883695,-0.08138899834116126,-0.0509095221110498,-0.07992019366125376,0.011552771021846,-0.1814338792612723,-0.2099272796059522,0.021430978938174763,0.10566864361166246,-0.23097449884313737,0.023633589282273815,0.2617056734076878,0.07138621189126548,0.039276312890996874,0.1470335141776757,-0.01790312499393797,0.10066305110992683,0.06025324672765085,-0.2070119778601821,0.19561440344716408,-0.0002431960047352392,-0.11885453973478852,-0.3195753073977691,-0.1796510500633909,0.10475491862610603,-0.1668305691326834,0.050453132461734315],[-0.21695113357260304,0.02717119212319435,-0.22875971777462725,-0.04785035960695143,0.19893939831080854,-0.03483922522536048,-0.24189278117489957,-0.040553970080300226,-2.090069156297462e-15,0.24651916426423157,0.10128054671842235,0.09040222200193038,0.007196827117317354,-0.016183698724784132,0.14335326163243128,0.11888128035371488,0.23095830045329704,-0.16323720806073239,-0.008000098109939492,0.24552961601229745,-0.07501845531454479,0.023594625246859038,-0.06085646350180656,-0.07795383935189316,0.04827334383186494,0.03556650811841047,-0.08521203584521178,0.12326039350024755,-0.18750862335955937,0.08370513078250187,-0.3049439820806955,-0.3142519184226863,-0.07587247836023557,-0.1433515803358537,-0.019468689921628434,0.016920554631327276,-0.07999124432336616,0.206384890146281],[0.09923315896935692,-0.13045225186400844,-0.17079865078245257,-0.10385629798072715,0.17237601754651471,0.043074446186647276,0.09948802167021809,0.05025555628301118,3.584566656077254e-28,-0.027271132941304604,-0.16601182329402628,0.3009888715265106,-0.18725645438408042,0.04070288842798069,-0.178408143400206,-0.15379484266632373,0.2379798052950445,0.254479753372239,0.16891844065392617,-0.09248968472966923,0.1680802285553436,-0.1509378772299006,0.6715156199388652,-0.06196743988980235,0.08354020399052726,-0.01707707343460805,0.009092889465571125,-0.04129542977623801,0.1801928609150593,0.2916265142923865,0.04425479873043908,0.3072693682288051,-0.029552371519481622,0.009831960368114461,0.05633022969903265,-0.2348236514700376,-0.1970166349723698,0.08062750757828364],[0.10546258777919566,0.2466101989821279,-0.19096474701712407,-0.002236919776277087,0.10575202852268809,-0.0034696794820816695,-0.11258283164793857,-0.004442539156994995,1.280493235670023e-53,0.10246669074353472,0.07436952047781759,-0.018350696331046218,0.3226879112006145,-0.014935749296240124,-0.15028265635404262,0.179379245260325,-0.15719340164823853,-0.0588628441957101,-0.07748161885268359,0.06181267375990752,0.11862937485387155,-0.1310709864276342,0.11650808086218288,0.15368065595462016,0.05409789503789817,0.20411247156684403,0.1833438714205439,0.17895020904024392,0.07948406760214365,0.21068740778582834,0.29468610230031833,0.08150900091362186,0.14559230032485004,-0.14688876633489087,-0.28800021919049856,-0.09114623402560054,-0.12202439893827911,-0.3883495791593386],[-0.12767797479997253,-0.04083899804147249,0.10027768574618753,-0.12623987251718002,-0.09734508948505138,0.10920569475385151,-0.08501548181202565,0.01589762540148453,-1.7491215678076164e-49,0.07449346473132344,0.0923083077583037,-0.06617982623243708,-0.15958625379850572,0.15983306695804636,-0.26270315847569564,0.03442979615792963,-0.18603445745322686,0.04857954999388892,-0.30040231351697044,-0.0195476497994825,0.22208217928623766,-0.20435412972325728,-0.09661082605021785,-0.13877306090778202,0.17487273364005895,0.2340550311672683,-0.10821549981451181,-0.2326181745986235,0.13481949998498127,-0.11003023511255856,-0.09153703486051554,0.0038074014928564416,-0.0156840718416432,-0.15297758964502806,-0.0359565295477209,0.1611609539422185,-0.27170647900550293,-0.017039719864833627],[-0.14356929591332335,0.19716348032455233,-0.12079524674251699,0.06452115656818676,-0.19910585905957903,0.028730537906758228,0.07663139413739527,0.0028514000263125125,1.3859178350313988e-16,0.18822264013746728,0.10276036890999767,0.013323123407270598,-0.12156938763374547,0.16466451260702597,0.12927637089055252,-0.19446458227492613,0.24853331497251746,-0.06813141041296282,-0.010879611115378733,0.05767443116538438,-0.17950884758715188,-0.03152075582008753,-0.16169794427289494,0.21693039454130073,0.2820993393361514,-0.1761025753868464,0.012285083274683915,-0.1964508140428267,-0.2883499467277686,-0.16552952831386056,-0.5450616336106087,0.3664961639506069,-0.05658902329807418,0.024327753713151056,0.024269070186233525,0.03152622040824819,-0.09201277993700535,-0.11538006949538712],[-0.07603190425592576,0.09932972274573937,-0.09898815589802128,0.1514072848843857,-0.07690875052442421,0.17631128398337215,-0.08963857580748673,-0.0065169780979459704,2.2146865011592073e-50,0.2502600463687362,0.21362223924686072,0.19869119786341477,-0.18052584180378373,0.0959635155858115,-0.09186878432782189,-0.08901018884736579,-0.020992414069970072,0.20319706068316262,-0.12117970892666413,0.26736370661953296,-0.19046307300330756,-0.022504131579689224,-0.01778252097293005,0.05162526043690319,0.16682810447252047,0.04493960989446616,-0.29896567711889765,0.03385538491726654,-0.274240096953059,0.011269598240243567,0.14828649390476534,-0.08980097846755648,0.07051705442896751,-0.16517227422490613,0.07943227832081018,-0.2984805011587645,0.040890715586862685,0.05122072733816448],[-0.024269108723899542,-0.08047999303629517,0.2109721007568723,-0.17377552461379933,-0.12845471294619254,0.12872248998270916,0.16745566231232642,-0.00712758077885745,-7.893518063023025e-18,0.21463188064266953,-0.1842307286633761,-0.016209918506320087,-0.02649218282883257,-0.11777895628683811,-0.0639406028546252,0.226961337358714,-0.1418176606673231,0.11113531176021424,0.1958634193110233,0.296201782612978,0.25028790793710487,0.15807944213508196,0.07043862426574,0.19585392468098903,0.18499330750471682,-0.26110671484382786,0.11885918025918969,0.07061045277026169,0.2915588697999056,0.10540219754530351,-0.15171958490025578,-0.07266651957826818,-0.08729625345350712,0.16812334092061307,-0.13496513732267743,0.10804073465003321,-0.05236160093660983,-0.13778828520497005],[0.06691456362418453,0.17043362383656027,0.10585562106611841,0.0077798080862826816,-0.21824300239322453,0.12622969625615196,-0.03200342581377816,-0.07658369209855764,1.8110267656151504e-12,0.16574005498211955,0.2103733104948582,-0.11437511164459184,0.1066909086395315,0.0954315380291504,0.11359868952980852,0.0697182659563211,0.14142393883302298,-0.05302473687168097,0.20678224367355882,0.23438609802490476,-0.03349405878375425,0.16265691258244144,0.2298068050245079,-0.017104682365814628,0.005148128297761078,-0.11774038237549943,-0.03302537321607342,-0.10446955229004466,-0.19490199352305035,-0.12213695439996605,-0.005786158226045621,0.271475617800277,-0.07466972925042192,-0.017759652047207423,0.003962880261033953,0.08859612147543365,0.20261031468449153,-0.17257037597490146],[-0.03625516577776037,-0.07018662992567405,-0.28058324701522863,-0.22514830786725182,-0.2715754473607838,-0.13506229507762121,-0.04252332560236941,-0.057348192652230685,1.712012189795111e-17,0.09019347409534578,-0.237297654921424,0.2544909629273784,0.012522171568677742,0.09528488205362408,-0.11285003053020069,-0.1868042701978584,-0.17754101615050172,0.13112531823749393,0.15962522083432928,-0.0667308317414526,0.02586976617939347,0.02325311109165483,-0.1791680681689846,0.13070887596230427,-0.21291732281224277,-0.2868342425944805,-0.20243484004497,0.16770410217084455,-0.18889639279752726,0.015428001405726297,-0.2598735999570753,-0.06423272101602719,0.14277509519741174,0.15271298105516395,-0.044522938073235326,-0.15973123799128858,-0.10163264795813812,0.006311151790068233],[0.24387709422708478,0.19791695242495452,-0.14372069257578096,0.1158267322874271,0.10034923120952799,0.10694874717022107,-0.008763467392572307,-0.1032361252831412,3.8794006302099775e-61,-0.07230429946049598,0.03022056236579481,-0.07676097374721301,0.0009173864485445253,0.17273967475537408,0.11620944854525965,-0.09174000348596176,-0.10512610411765416,-0.17312690593081975,0.10343292128381316,0.18052466414184462,0.2178328273876622,0.044350990541850564,0.12763806113952939,0.135025497299934,0.17210815167596027,-0.17732489284736364,-0.0510419797198481,0.0470849462256057,-0.011416805696873944,0.22954117915879463,-0.2689465471590309,0.22821403901503198,-0.09744831826887282,0.14169942488044718,0.07301815771556587,-0.08732833890376639,0.17013580854748403,-0.05367707650320226],[-0.2071264901145692,0.02400424276738228,0.041702915757340094,-0.0655741828845111,-0.23573017576655428,0.04309162081870248,-0.10230470043110342,-0.050622229488378453,8.982562191457713e-15,-0.1859716238845081,-0.06096764879924483,-0.2229986130611807,-0.2495067877386555,-0.09750076120454634,0.13030717668542052,-0.03438449557415336,0.22180206325972224,-0.06736786008595778,-0.09485259493808987,0.09216636113724105,-0.02405260272693648,0.28171119855425075,0.12209405923105089,0.11912012613100839,-0.14613032035396284,0.06629215929744392,0.13428991188371794,-0.08789339412746165,0.17089656653507762,0.09854140346918881,-0.20782423447482443,-0.09925438857374207,-0.0558394738810686,0.18360777056383049,0.24814498660057355,0.134860385503208,0.17810851383782908,0.11980341814221492],[-0.13232445005441143,0.1904846047508573,0.0409545503819508,0.012538395562795483,0.08470628320559893,-0.13824424821996636,0.1254724449854971,-0.026835395157214916,5.118704736011e-58,-0.20520153386870704,0.033284409746959925,-0.07271236359828849,-0.03380159469190574,0.19578625900403618,-0.1211967284914716,-0.22302216625966778,0.06925722853769586,-0.1055589549612496,0.08076971996653627,-0.03078587859439912,0.045319949797963895,0.24196256726491694,-0.0449159289479259,-0.1576286577591072,0.13476256777866924,0.2319243226220315,-0.20015696647917128,0.18968673524095392,-0.13751102000481832,-0.3857167831977755,-0.4491217387976751,-0.07823305704153793,0.05610580258831954,-0.06362460976790087,-0.1310673460438651,-0.1291325514272634,0.039682454465211466,0.02113164342078496],[-0.14298712065993752,0.11517691915422486,-0.11773183255450435,-0.13658623021530558,-0.09863889384746329,-0.12517681093009433,-0.026844169409013897,0.0181367411157685,9.940591890567883e-15,-0.10862895792210259,-0.0601488447142275,-0.14831046339571374,-0.174968646988117,0.08832850061442228,0.2556733840976521,-0.03722607515651477,0.020983182444000603,0.0813189445695075,0.10312226254768943,-0.19732992267732477,-0.022207389338705377,0.03556326129736757,0.45957071120136755,-0.0344046805292003,0.08412668568869469,0.06623468728731874,0.10724534111817882,-0.19475905334564625,-0.09111711128946928,-0.20701297340310193,-0.1407066769114451,-0.17873118593724788,-0.042162946877912735,-0.02126771562905605,-0.03691138542538219,0.18444286536724264,-0.01831438374366097,0.3352389477159004],[0.059043398850978306,0.08545554823001701,0.16724950100437758,-0.20196278785653807,-0.20934991447926718,0.0585075875755362,-0.1685523776600782,-0.03486347690041159,1.3932483021653865e-20,-0.03258973363913503,-0.1676054952733303,0.2339346080637301,-0.2915698097940793,-0.20458245926375979,-0.21973552543683536,0.009062306049112293,-0.010892659050442231,-0.20817266593880068,-0.1900526343216311,0.15599534443380944,0.16340438680001906,-0.14275066357259159,0.008854604551460133,-0.08856053125117465,-0.03023008170952205,0.34253363209378823,0.048727502227773896,0.09071706105232043,-0.12961195210901305,-0.4145751661654191,-0.444738775833647,-0.06923720673432567,0.200711562558875,0.1859108591032823,0.12364721793046422,-0.00888352070094178,-0.10562054576325923,-0.20278643240094696],[-0.10122511810462571,-0.029000657962967115,-0.009378488449414904,-0.060928915088266714,-0.26169747175933744,0.2557308113057167,0.14040650536443325,0.10671040386059447,6.71546372001473e-13,0.03357640922848182,-0.23170822474558156,0.04398895879944482,0.18714050959047202,0.158580031082947,0.0002834422467798129,-0.11457321805037114,0.0868362522757207,-0.06087717113007985,0.09758200424010396,0.02392721805336368,0.022543703595201442,-0.10850538632977794,0.3456860513192844,0.21247009674016273,-0.11706361787798646,-0.11908456662193095,0.21452915126116975,-0.08683538030542494,-0.14981261108097713,-0.3772036360380519,-0.20426035972915244,-0.30393347850433905,0.12124341425437037,0.14217152630106666,0.31621562873867354,0.16081049357242458,0.2389028968654702,0.1132007200110212],[-0.07009080903431768,0.17010790657571045,0.0043028538368062854,-0.09056292234533835,0.04575657734661042,-0.09831279982346279,0.2638064872639482,0.010823298701997275,6.829404046025484e-15,0.07923173573301735,-0.03352935151707818,0.049519053032844325,-0.12570548182361818,0.013260272444436023,-0.20769778745810621,0.0014667096470367936,-0.2204818262812328,-0.13602582265923444,-0.15732952330364278,0.1988273609710708,-0.08772246140609453,-0.09481644690230819,-0.08174318618966084,-0.12417620954488878,-0.2284070516151516,0.20577662952080408,-0.0764271146223603,-0.06980540669868049,-0.23249002499482024,-0.036211781206339846,0.17894884175649434,-0.3317377974226506,-0.017712515799039198,-0.2379457046586816,0.1409823253672806,0.05346702608428157,-0.021828607967152604,-0.153065195705988],[-0.06622580130709291,0.07699611131329902,0.014369144054192479,0.19646040084329866,-0.086964924439086,0.006938989816555708,-0.20296272576412952,-0.07000235478857708,-4.670164747848236e-13,0.2674444267011328,0.1724645766152899,-0.0877843906598241,0.20398106956832074,-0.044912892249282105,-0.02457883160202413,0.16922471541142958,0.24670693500444071,-0.011885440652526346,0.0848249800484489,0.1406735488158139,-0.1135274291462827,0.035647871673758914,-0.02955004884371016,0.2167734226442657,0.10384768135293658,0.11663994224365686,-0.09436469839641719,-0.12026379356679155,-0.10507505914130444,-0.19279155897296624,-0.19717991200400053,0.047604147913494675,0.24548888443779648,0.10260978267394184,-0.059543259486170466,-0.0007214876582297995,-0.059680717367972855,-0.01672862530568887],[-0.14798358835008116,0.01021027131325827,0.192906325808884,0.19632751062974718,-0.16211121450689847,0.2842122051530967,-0.1026829333876352,-0.02452435605447117,-5.361447170323311e-21,-0.1712209788706398,-0.03761387624171071,0.08984222527330224,0.140609692914177,0.007025678268118243,0.043344061949539284,-0.12338348475906921,0.15831899488705853,-0.04450054995169774,0.1811553993933223,0.12044938308664513,-0.15019326380520184,0.2275122421082163,0.1007859809405675,0.18728205965100775,0.025738979165182363,0.0008347608604042742,0.1345015316271292,0.06577312121385102,-0.2000491731060442,0.17759851874191523,0.09059162600634826,-0.14967986909803646,-0.07732826801502816,-0.10416567900488083,-0.0490021497386718,0.0839240992246092,0.023171385585625155,-0.2539679458348336],[-0.13315340191939012,0.07877838162319692,-0.12516132529589932,0.10744616885796072,-0.04285803263241641,0.0549090716617794,0.004053366863270317,-0.11582070932588664,5.30348901230892e-51,-0.16123805734314897,-0.10668113986630896,0.20410927551259697,-0.013691021843641226,0.03523214938629338,-0.02547783662137621,0.09366437786467884,0.12262221902784416,0.11153023015271153,-0.3241098635515483,-0.05048997818112744,0.005972427689894379,0.19965999022593445,0.7565359751567806,-0.1353816500156436,0.01870953141859128,-0.046623836615729185,-0.12242202575377675,-0.06753974974509726,-0.27205887087428154,-0.1661689669503526,-0.24321213665053795,0.08002465905377032,-0.0613723136417925,0.2704887109870273,-0.054130921358141015,0.12000229657697584,0.23752806690225223,0.13296884345619395],[0.10307909853945736,-0.19909257200790248,-0.005701227164265413,0.21052741945122197,0.12836316588790414,0.22415864132345548,0.10540174085241276,-0.021075395133585965,1.6578325958025779e-13,0.06792374289293183,-0.16908686028660916,0.20497236780262415,0.08656277748270313,0.10202966785954747,0.18914188845754557,0.08646164366227346,-0.1943672144672887,-0.19580777234613142,0.09558296172669696,0.11625654014858032,0.054890954838452855,-0.17477018085630833,-0.42452564560595335,-0.0032793242048344672,0.28855993692273196,-0.09688742852644816,-0.05819537814031018,0.10899125783692458,0.17648096968374882,-0.09233892427284074,-0.13975523062273434,0.08872566229871386,-0.2788206677040746,-0.24076696347214166,-0.29488809477036493,0.1116167186461157,0.1718606032106134,0.14972467549343255],[-0.1600811183028033,-0.08244321268756591,-0.12981645450399354,-0.2382852364047016,0.07973031546671101,-0.004055128136923913,0.22153232974013154,0.0007542052492088499,-1.4921368535151353e-38,0.1100337605530876,-0.17750571715109129,-0.022384092282505843,-0.13142156835048244,0.0010432849541148709,0.20226944754329435,0.20405150732695132,0.07439529344965634,0.08611739369743954,0.014082899851755674,0.0029682045512118968,0.1707960566191467,-0.25114004175297205,0.06319365362254466,0.07576362207456054,-0.2506727415519785,-0.07004009419340765,-0.1710722857499505,0.005508903391803697,-0.22972922751047603,-0.1826800600365872,0.06166640792144178,0.0012540227069292931,-0.17820827941865977,-0.005851329691939338,-0.03526242638648786,0.02491104016903823,-0.15324671136888804,-0.1495118972138614]],"b":[0.2310473616518128,0.21717577049738118,-0.03947687095808401,0.20094502826504354,-0.08429015509195359,0.013298490467593845,-0.1702296034630106,0.05353328276913873,-0.25093004013451137,-0.0032351074973892306,0.09973606780417946,0.13455662365845517,-0.13468563163114056,0.20086544564586004,0.09321672832753462,0.02456899919223857,0.011130609159126599,-0.1502508005104282,0.10238029899175013,-0.04081362219513156,0.1598590774523363,-0.10707417517938787,-0.024098067594655104,-0.05860484524962645,0.21035841600843036,-0.052768758061454375,-0.20845593293092046,0.11044970139607929,-0.053719649098250576,0.06073952087551822,-0.25017675108034104,0.23664321546751765,0.16561551291685123,0.06840691404112384,-0.18075200740875016,-0.05876470782518075,0.3067033341454137,0.07452132067303407,-0.21093621335057522,0.06938953391718514,0.285253843419258,0.009374434636667971,-0.3251622871966933,0.10551237358366666,-0.21950425708123383,-0.2538317288836585,-0.043078212419940344,0.032394339552453244,-0.310130741153422,0.05514362959496764,0.021424188308442726,0.16071110368657282,-0.07986932386937512,0.038943043323370334,0.07380276264176748,0.21234433178346443,-0.054125041070626684,0.19364786287559968,0.09773541692344531,-0.1642288476300851,0.1337778878305424,-0.0136151645415735,0.07288604034597504,-0.03129307417771594]},{"w":[[0.053036245851516985,0.024243565017490035,0.09858482886860974,-0.18977583799825207,0.12249467379680509,-0.04900556471719608,0.08900912352245027,-0.057540692592001556,-0.04029957580749634,0.05215508764965924,-0.14006482871831272,0.12585883521005847,0.12246595401587328,0.2111493943748062,0.21905103141433965,0.07008514991361173,-0.062294052434145715,0.05877092460109648,-0.020251885706057127,0.0413585784687496,0.11144683275649336,-0.07096830038687875,0.2844729917978227,0.1320764543144657,-0.11781500817254972,-0.08195464849565882,-0.012114803820703509,0.23047135668501176,-0.2598564103432534,-0.1434889352919912,-0.18877724326489828,0.03240073078300654,0.012035672539963316,0.16618717582061765,-0.20023405805391664,0.019199304175911938,0.13234640604956918,-0.39415398878613933,-0.07673094813754197,-0.11653465488697924,-0.009820073927741521,-0.13388445366180018,-0.023970714898473616,-0.1406810488873065,-0.12019830055073943,-0.10437165413363057,-0.199272639745166,-0.13767015908209063,-0.11858180009339242,0.06963541656514954,-0.1397108587759296,-0.18944491376901848,-0.16996420802919993,-0.1422756211738255,-0.23874794699007948,0.20029172232069295,0.11222573672883783,-0.11303642097726108,0.0023387804429338944,-0.15300426649145896,-0.23445866343176858,0.08054146955674035,0.1355444868051602,-0.20667489422412924],[0.09827619073461213,-0.24444709427479688,0.2147478132215691,0.242693274990606,0.23730361822212204,-0.07610988071417114,0.15052097356809507,-0.0027247395831463852,0.09443699333022627,-0.029981489094933058,-0.04637665507035028,-0.013009394820843784,0.019792120103864736,0.003930393087167629,0.220038372771072,0.21492554139937323,0.11673259344868439,-0.031215628277774323,-0.13685397676575478,0.002174508996541137,0.16958515743044522,-0.08139850198861309,0.006812738288997634,0.26856622123984886,0.21411087644201648,0.1632719856000355,0.03467949830361635,-0.11988402193644077,0.10108445759726302,-0.1525458412672132,-0.12695748171471588,-0.21132159247932378,-0.12014315064211649,0.15468016104343543,0.16291740251150308,-0.19160397621882416,0.03272864774863653,-0.12236902266563084,-0.004458255175576736,0.11195684922463549,-0.17874968627741597,0.20401858257000982,-0.14799797781585955,-0.11691759561924969,-0.13820965939755245,-0.03848391096362736,0.28014089557678873,-0.014356056977631542,-0.11059091136091659,0.03787182824159287,0.0592433892148379,0.19870441941196668,0.02813590544805829,0.041859651155683054,-0.02482226727410884,-0.148839308732085,-0.1791334444082767,-0.2493857527858349,0.11395281356472746,-0.09836240784770423,0.04593746405784284,-0.12773348604996324,-0.09820501450650836,0.04324191696177983],[-0.12904706279861325,-0.14030493703492491,-0.1786993890476939,-0.1722636509462666,0.15706864064581422,0.2101295828671813,0.023953352312046414,0.10661679980944688,0.13402819826595982,-0.18137150901199228,0.08147181481850263,-0.1226215745524794,0.2524866954823685,-0.0302074740020591,-0.1264201258745041,0.0881795520485694,-0.21665637878409585,0.14628409700572215,0.17870658358811128,-0.009573001099306833,0.19480456418315725,0.13738671751749723,0.06213369041413635,-0.22044436352989777,-0.21663040279750426,-0.02557116348564025,0.1424359772034306,0.03868343073725936,-0.17601172664360018,0.02489269904433263,0.2795078248164407,0.0994616495884751,0.11269525532875613,-0.16947454280293903,-0.012251028116920363,0.2503138658943518,0.13449848512334983,-0.022190353872365762,-0.11658305342456947,-0.025368391684381354,0.050468322023694626,0.10753922904086037,0.17758571615794763,0.09920175385880496,0.026052732022419676,-0.14217551402822087,-0.057151295857515265,-0.1674412178354836,-0.24775697512785136,-0.021992575296933017,-0.101878314580859,-0.04728976341802987,-0.07248639758386397,0.09077700404280008,0.11517448716602183,0.08906503757113637,0.12961663881307045,-0.030747261533744207,-0.09504975205818539,-0.050781122900953594,-0.2618777070585825,0.1655678643671428,0.09380091476705836,-0.24963718571677962],[-0.04946129641717564,0.08318942680088796,-0.14661436710855072,-0.20779490338128773,0.09491245728990945,0.15935007427742962,-0.031277271568142,0.08194614780549958,-0.06668531485984174,0.11110240493467004,-0.17993630397346366,0.2608842309710516,0.11496280858880838,-0.29527422706915385,-0.12350722466757041,0.2353887766612456,0.10851198128228164,-0.22063892110895575,-0.07662155170896874,-0.03691475460415494,-0.2853383433689679,-0.10623331919832468,0.0846486435985204,-0.15902028180091524,-0.2724593011217117,0.2632540303663152,0.14379005485871607,0.21398425497523405,0.015577860028468787,0.17274283758988193,-0.13837656048851543,0.22163423138929703,0.08874439167445713,-0.04167556504079551,-0.2165381117516766,0.022240776294571076,0.16718853432123987,-0.211975515496061,-0.12122535672864043,-0.12660951905952844,-0.12035820344535546,-0.11394355802430069,0.2739911140626734,0.11525600316686509,-0.027471294545801404,-0.03556152315359772,0.23930713395639092,-0.09675140285497912,0.11159406819757546,0.11453067851367309,-0.1501407358588011,-0.17610775039127213,-0.04140973447462811,-0.019177960969798714,0.09927716957731636,0.12686188250704333,-0.006851435692774809,-0.1603191674463737,0.14758746892235364,0.10870853695186068,-0.2962014791872364,-0.1811467400603771,-0.07181885690456773,0.02890866369505671],[0.24185246059921126,0.09160184256693192,0.08254721055297565,0.0020887971781451057,0.09458441459331082,-0.032168777056402934,0.030240712605482587,0.18070628720413434,-0.20567354647451944,0.16333547753772645,0.1841920526718751,-0.06833851031116131,-0.21072605903728348,0.23445334966375098,-0.14924016870392556,0.09285787561905934,-0.015160996054043417,-0.13529430176549284,-0.2496747009942141,0.3455295518213332,-0.1778433601225126,-0.00796855106978739,-0.19047917793682553,0.2330106522047965,0.2544220088688805,-0.022811462559285824,-0.07925422665639767,0.23475013033013375,-0.0234481256738978,0.2693742356295458,0.06281518714830132,0.051011807341307086,-0.13570481061954692,0.08303335258329739,-0.1258262252166736,-0.2188416607252336,-0.17032690225368524,-0.19171433026920937,-0.06483198247076474,0.31363317169253946,0.2318863346772988,0.2055132568100566,0.048459266252901353,-0.086948009073998,0.045101439707463435,0.14106490335700386,0.04832751323123805,-0.28794866032473054,0.034682359605821673,0.13503017535067002,-0.1540587287895726,0.1906847377833259,-0.10935786011639129,-0.15014673156167374,0.11408370109685699,0.0895055600207157,0.2501095558264996,0.2033240328557056,-0.16010058266065064,0.02687369261253457,-0.1922493016760525,0.14007057200909934,0.14848714023885362,-0.07740242519105428],[-0.14072409775300712,0.06080519416126775,-0.1832531978786943,-0.20058905691254955,0.014331238286826269,0.0570845650766826,0.14344069542883375,-0.3827073148274505,-0.2851283452675897,-0.11154537917699452,0.009190489119839901,-0.18605376996405648,0.15373945383886853,0.018976292633133024,0.12875581860943303,-0.3914443336362322,-0.03185745712700376,0.022695602946067806,0.02439417039346712,-0.29747442021454495,0.15398957906759844,-0.22746438593778034,-0.3209220756704172,-0.015668946416430223,0.23813504051564802,-0.2877883253102775,0.08929334598589772,-0.23460654568922032,0.011980286568627119,-0.15141969003487282,-0.03219538629551545,-0.16850032378257762,0.016934477668086433,0.15970035218817905,0.07674627255244941,0.10172611446565032,-0.1382331715916507,0.07493396411344613,-0.13664174513213498,-0.03347408140544866,-0.09488980266612115,0.0890771567252026,-0.25077741745743126,-0.23594662626033547,-0.2586704004946727,0.27134698481978403,-0.033008419559257596,-0.06048438237204742,-0.20440357328702635,0.2682266410355602,-0.052608218664299364,0.2303934027029198,-0.10651460574427023,-0.04403590324998124,-0.12875913610163303,0.007434751858663567,-0.07403639148416631,-0.11584279194707951,0.13377593602540397,-0.1821960623426407,-0.3655260908756623,-0.22138079283897172,-0.024812654042664927,0.059792528097986214],[0.1708116913007388,0.1868281103673083,-0.19838672895359197,0.23872409901176964,0.12328838238963888,0.0068281601875224505,-0.3378462585968314,0.002951843134295469,0.19692414231119493,0.08408316903889156,-0.10924662438254573,-0.03348505739299505,0.2486188625554256,-0.16752910634160642,0.15581111415973026,-0.07658524399402365,-0.06356053490056789,0.07660979819429074,-0.09462902902349199,-0.02609920023379131,-0.21260450160917918,0.06403171402738948,-0.17738916313891404,-0.01584833175024542,-0.11085776739034399,-0.031118624780804134,-0.11459297842245326,0.11133807319805511,0.19337514748063447,-0.065603236036317,0.0960818915847949,-0.2721144477669566,-0.040023205036290845,-0.27165332670201386,0.05243153870187629,-0.04302408650967126,-0.006995476500053872,-0.06610980597936461,-0.06617928177142582,0.20738005821400457,0.21673117029631808,-0.18217011575701147,-0.21067104107827403,0.08420393991140333,-0.05659821892524158,-0.20419087638062494,-0.15840611342605412,-0.0746871596028346,-0.23493188002140344,0.20837298699454704,0.14280234258663602,0.03801610665266066,0.1273496027131643,0.08739047883900107,0.2102258517326831,0.1605421686482692,0.2856922021395425,0.24128015651967186,0.1096499451627469,0.16196189855434992,0.1066644975807585,0.42159626017271695,0.1312354116976808,0.09023179009396294],[0.11631716385706026,0.15152008304217757,-0.1007247391666607,0.121900725261309,-0.16102181149404243,0.12345787635386071,-0.015684965965492223,0.011639718454752448,-0.09425654186796929,0.09440743467122295,0.09308707996728018,-0.03615943705262581,0.34647710506881635,0.21939758997788503,-0.3331293954751679,0.17322653494317672,-0.3122626016425926,-0.0685477675254297,0.13848520142127863,0.03186534061381332,-0.1810466886704283,-0.1627696759646932,-0.06912683499409401,0.14344874828138413,0.0162328055452958,0.26055635869841004,0.054943081770416666,0.05067515163522401,0.13705790461905265,-0.05579895722642512,0.2854429276564012,0.03852796635979996,-0.028896830720853327,-0.14784631409159474,-0.29158893896886046,-0.16024606823757456,0.2136352745799396,0.14739822920424706,-0.15006263674033457,-0.09305432346752797,-0.1415523291434783,-0.21043915444963832,-0.2739210700575468,0.032000694612000787,0.04793929922177958,-0.1726752469208062,0.27708557495714736,-0.2186202311316976,-0.1911878371208117,-0.27293769770724985,-0.2579915454322731,0.16507387079369404,-0.12561712605737485,-0.0488924452975035,-0.21138163095184406,0.15708772059486362,0.07723381629011902,-0.07351085188183136,0.013648302341281289,0.06052303380111791,-0.43356977701810245,0.3584054192867686,0.11069084945687094,-0.20214989253423157],[0.2642690573539399,0.11061947850372036,-0.10908389538290585,-0.1505629875072825,0.13076460719374267,-0.06041074340661692,-0.09833631348508717,-0.11591657717042737,-0.1358437450628333,0.12075653271947955,0.12580841899342957,0.1228075481155017,0.06206907034867031,0.1865615353534942,-0.0713190141008994,-0.14950190068194782,0.02451623823602528,-0.12795948464433216,0.138463504891183,-0.10241345426175992,0.13675259487137126,-0.02580646848723133,-0.052387956273374114,-0.23022257120610276,-0.021921701375469286,0.010208468227653499,0.2593669899260642,-0.06121783957325868,0.040976456771486876,0.09557367316065474,0.12292000190367411,-0.0607845245257124,-0.029378424657995752,-0.0999964813961289,0.050551427988984515,0.17024962193728196,0.21305308531539852,0.24953075318022236,-0.16838641209347516,0.16796431239489507,0.06225414814665725,0.16076638565219814,-0.21823941030569052,0.08252401135241767,0.06804834276151844,-0.10507361596677454,0.10884076040774661,0.13180956448164347,0.11584657982957781,0.04009913609027595,0.050326830432596156,-0.17386769034086258,-0.12511326188174982,0.08781836920441594,-0.13050037151631325,0.24773309696820037,0.03215315684727694,0.2510430809460188,-0.13831225622367188,0.08919960175916554,-0.19901427554923232,0.21860326466871824,0.13020804218554005,0.09816175363108591],[-0.06608393688428987,-0.05354550688545657,-0.010038469097750148,0.023284017476405353,-0.026328260164760524,-0.16374394700398237,0.03535633055653165,0.011861244571637728,0.041619081506447095,-0.26504619208896163,-0.12504420390188628,0.20006160539651718,-0.20276338284193354,0.20716588556728538,-0.10779471863580058,0.0730847911151074,0.20294426590841094,-0.03415975404665343,-0.11788799379634812,0.14455183728566565,0.1693221181251415,-0.06572889023642632,-0.11543751639471227,-0.25716172399969994,0.18348606335407794,-0.17294653665127988,0.09576844778212777,0.09078628418256278,0.22165733577598243,0.05841709576497396,0.13893159487605825,-0.17583170470096873,-0.2195498157946051,-0.18472997693775597,-0.09629505971097686,-0.16605570854050652,-0.014759071098718024,0.1564634630166687,-0.1387150180878677,0.20119797274498136,-0.12513871985688071,-0.12295134220190057,0.09270983259626878,0.11098845379488338,-0.22953899918757165,0.10164028842546499,-0.014748736803074475,0.16710427694253682,-0.10089651134144087,0.04494146005735997,-0.15121263379668162,0.13478247829664902,0.172274296569609,-0.13645330312063533,-0.05918331780585057,0.22487815533251732,0.12804146841442687,0.07760579813301527,-0.13022305354503513,0.06124315549927514,-0.008214436628205283,0.07079392522601072,0.09604530892836322,0.13764726007051228],[-0.05448262121221202,0.19039349600076325,0.08689831523265731,0.15110540336647574,0.1279441634397057,0.12210159344394206,0.15294120855590723,0.03590076524791191,-0.0956754989355764,-0.150368976567109,0.11920297319625119,0.18898012694788638,0.12143060245360686,0.3340815223186009,-0.14305318620196764,0.0817529148548536,0.01591396930955449,-0.15000691566766822,0.28915884269548997,-0.03926422335530669,-0.07080713256469463,-0.08757232340748489,0.04581496338220999,0.2591653949961879,0.09865816011978752,0.02539710058575737,-0.060507359134378644,-0.20328884796243066,0.02841003151318038,-0.01046639937960108,0.06594527501919793,-0.028638192379000588,-0.11789177360281476,0.23928547507791426,0.1285647567539732,-0.15834838269297336,-0.32263392800054463,-0.09020704185063413,-0.11164538978408889,0.03271320193906947,0.26079019892193983,0.007897745089926866,-0.0855566034347955,0.11898505666742151,-0.16449596416072154,-0.26344272025709686,-0.16643315092982114,-0.1509252348368408,-0.09804290801674816,0.10258612326367852,-0.03468620145496511,0.24714112442791933,-0.07308753267158205,-0.10594093984134074,0.061499885182781815,-0.07212846541661319,0.27284579294467576,-0.1478059525216233,0.0648155768533648,-0.3261688207876003,-0.10985018341483269,0.09003007215760969,-0.2047917894661318,-0.0017914691379027055],[0.020426158348085373,-0.13168626530487212,0.15364481530528934,0.11424060115743098,0.0038090357919574906,-0.10312462032453693,-0.2880431115821224,-0.21068045933339483,-0.07354458659704521,0.12389704114972398,-0.013910667425172267,0.3168776291433482,-0.1991521333065154,-0.3239849304760196,-0.06921425964074422,-0.3165710690613678,-0.2243650461581961,-0.08520824022146181,-0.3225778760582153,-0.030744995657240436,0.09834918545997232,-0.20693911249919197,0.004807261718272283,0.2349399204377431,0.11326020667088893,-0.03925061477221474,-0.052191412032044346,0.15673950543618337,-0.09943041721823413,-0.07862746811455983,0.1056383717360365,-0.013515351747972163,-0.3021672861904468,0.16666310582690827,-0.1007619181711381,-0.1484894897753284,-0.024625455782442424,-0.22304470685696481,-0.19496031864561192,0.19423751044154772,-0.10796416669557729,-0.10803590743024544,0.07002484812641048,0.1593743432859622,-0.03336740107133299,-0.541490863096026,-0.2960871404952064,-0.0023999213433039874,-0.20568169412719403,-0.13107958514662119,0.2608287066758983,-0.18321901473758342,-0.10444168386781606,0.0843678746808287,-0.06486913755525905,0.13784232829381052,-0.24685160205970735,0.12131174706492284,-0.18591964824457985,-0.00640930519903938,0.11520513464219705,0.02263648287474058,0.1312751883995245,-0.18629133281287766],[0.002214514985140499,0.10707416471698737,0.22222399132884443,-0.26271085479331996,-0.04835515982616031,0.16673100968504728,-0.2526581965100466,0.15435484547604023,-0.13237946418193633,-0.2943605593594695,0.1590926250983586,0.05228080829049805,0.2816294486647915,-0.034253143987869716,0.12094057896710364,0.08358214147611305,0.18039055634602805,0.1017436053548766,-0.03961416689087794,-0.24563717651297812,0.20906062144188597,-0.19016438520038245,-0.24102709121561047,0.11800894540943374,-0.04597177042842939,-0.1273246398873567,0.25896598319416975,-0.298539109691521,-0.0963967736276564,0.15065257119658537,-0.04432590979702573,0.0951368491974296,-0.10964188864675228,0.1439012484661848,-0.1595219619805524,0.1522234559181186,0.02802146916308554,0.18732578984056353,-0.023156203092162153,-0.18424736033063546,0.015517506576548521,-0.18921406203339494,0.08530907690244226,0.10192080122438744,0.03826669471716729,-0.19794599269679788,-0.11620428225440538,0.20694196905957302,-0.24113644853230273,-0.0031286887892139534,-0.11411022671283867,0.08193467919613755,0.1252528023117443,-0.13761420491326207,0.2190892829095807,-0.09037648611199281,0.013518955543224333,0.0027004332874008014,0.041861379168694916,0.011355648871292496,0.07480124254386666,-0.16830833755939265,-0.1865199574586111,0.004756260552173445],[0.19119171416248731,0.0472461672931857,-0.21606676755709361,0.11570617904511313,-0.1988080712201687,-0.013317035822080154,0.07623619784191303,-0.31827375503031835,-0.18390716158583204,0.15324854247920836,0.18665997528747627,0.11602817574780964,0.1782393701840742,0.03840883303646934,-0.10629489119625178,0.0992675992317874,-0.10814887906359259,0.20825767469111714,-0.26038095249985344,0.047902296012210986,0.06442143564083398,-0.11126186502477835,-0.07807325161443089,-0.17258627133005774,0.10603915138922003,0.08830501408050188,-0.10073976137103376,-0.0904365430901317,0.09568527488636902,-0.17899428211392945,0.044992869584388875,0.02070265702924147,0.21879951120535684,-0.2236233247391893,0.19818485800559335,0.10247443265459777,0.18163286399477155,0.24875820398500503,-0.1780291049881662,0.006274485754278267,-0.09143496009495931,0.14896880104996005,-0.10986743633591918,0.1830836027206907,-0.2098406730738295,0.04247654009462252,-0.06694038853474088,0.15957926343794981,0.1745769313744749,-0.2871873696784444,-0.0312270598256617,0.22618052293148022,-0.1286143637372957,0.14023291235730825,0.03921421782981166,0.07033789949769782,-0.1274517675817981,0.11588042527567904,0.24710691197820414,-0.022246045529780066,0.1713709839179821,-0.1797284684247334,-0.14839436235119663,0.09618738884421739],[0.1341897601706484,-0.14797107601560103,0.15932890800262373,0.0979849178772002,-0.003675472550166087,0.054679910612436475,0.13354198006844756,0.16699640899676677,-0.11818295280508756,0.22810039599921852,-0.027582930420174637,-0.12945751661649896,0.16858837854133202,0.07121916974710107,0.18426510978747468,-0.16784504511081433,0.041196302532752464,0.15246646906833994,-0.26279811675034287,0.13722948206535532,0.07398929425060315,-0.2197441625709853,0.0002706808430143079,-0.02622791516498814,0.15024940809512102,0.13969193374897115,-0.030130173326977795,0.01626817550827582,-0.07609595234605145,-0.12073606841277891,0.04389864388965074,0.25986934108290216,-0.15747893005301325,0.11840653608220086,0.17262392168441318,-0.2034325055764733,-0.1209166221508434,-0.10629255908057435,0.07090255823003014,0.27100170889844644,0.17433135023857008,0.10100352485643209,0.051073468886540276,0.1453858584087635,0.02591755346914383,0.09581481487868086,0.08929381123065991,0.045058622344550735,-0.15580371085886058,-0.2016372059142801,0.11514300191213002,-0.2065203436958528,0.00032700828256306284,0.24102500042005323,-0.2514902987784189,-0.005363834386451106,-0.17632381851860604,0.018003096145579857,-0.022778542158100455,-0.25353134319925397,-0.34757536615615436,0.04570284955627901,0.23644083343584982,0.12148545852073463],[0.2162577519062898,0.2561427068088881,-0.2334078803999343,0.16102838788870064,-0.18790827033922508,0.14944649508670854,0.03383930951476727,-0.029524028623227627,0.027360563213813666,-0.007690050742089025,-0.25370387170466807,-0.21274746588365423,0.06950165358795392,-0.08971333218829713,-0.21675401533930563,-0.044319805259678484,0.03382641266562428,-0.09870667946225614,0.003820605594892958,-0.1197923902855632,0.0007960280163242337,0.08185074097991822,-0.009016035869652085,0.2012172021559614,0.1234391729384754,-0.2276385682592227,-0.1259935453552826,-0.13012172926812748,-0.0466765223826809,0.1202785492961207,-0.17708132323488415,-0.2593881730136756,-0.0934786331650368,0.17568223507019814,-0.06358785546697057,-0.17015019054450603,-0.08265737191415726,-0.040856893630807925,-0.10157111632091202,0.2169477216288805,0.12951774487261808,0.05791793213973584,-0.24486702053869727,0.0527210679551089,-0.03271330735616444,0.09075615872071227,-0.24785032407271065,0.2057337402720743,0.2338754726462827,-0.009436877064834669,-0.11367612296260499,0.16070231986778513,0.052426842101697055,-0.053778772408642574,0.15188086838540055,-0.1845202766251841,0.09454065997123862,-0.21753788858699513,0.04964072666687173,0.16361080063017058,0.12906748043168903,-0.11626893565889632,0.09500101319723779,0.12701908973362874],[-0.0010260473456302603,-0.05978036534971009,0.007542199951586255,0.10173565304783949,0.06925602899656735,0.0236978809427448,0.2912011026130839,-0.04852884824297251,-0.23704424769117016,-0.06407156132303252,0.032190088560251746,-0.14669465896719314,-0.05639892704467943,-0.08098121976648666,-0.012165336271680064,-0.09807782823862177,0.1917521584246088,0.046820761077992885,0.07572745113487762,0.25780926097813994,-0.01306487169327326,0.019307369691755023,0.15170488741226254,0.1790977459477022,-0.30247825213202684,0.22829280081899997,-0.0891984860878674,0.18944833878471815,-0.13480801139584567,-0.22428345949072453,0.22816194766823747,0.09718456204242143,0.1717829006988542,-0.1283877484827674,-0.14960563456548098,0.0030648980405262555,0.03819445939588147,-0.38373494666272284,-0.2337577230106378,-0.05918192345669102,-0.10886129792925835,-0.11674565813086221,-0.3644556987318932,-0.22934490257887077,-0.15031466214586084,-0.07095696597369816,-0.0880372517721968,-0.14605046984595693,-0.28273702501758763,0.13628630558955004,-0.2223098324763446,0.02120178770946998,0.20932785248995947,0.1692324189033382,0.2811987936710308,-0.016205415794747147,0.1824818508982791,-0.03708772624063486,-0.05314787387911335,-0.16998811945722025,-0.26096133134726796,-0.12645965450863944,-0.008182183006718196,-0.08669817444088879],[0.23311873623878676,0.06842918464839076,-0.1448024145756152,-0.05199925445558451,0.2479589039114237,0.22147519522925574,-0.0399865875980166,-0.1452664330572064,-0.09680720302214069,-0.12210049986903031,-0.19833957795147583,0.08343579103285646,-0.10163452994673956,-0.10121242952347793,0.18333812946713166,0.15914665481502796,0.2245800591337237,0.16325521691157377,0.040037712425558966,0.14517552353680685,-0.005598880406651903,0.13083616945667922,-0.09336312777581382,-0.322304365246455,-0.23310707546704001,-0.18818207681178456,0.19670047172566013,0.021113732343420514,-0.11803288134366986,0.09328167022590125,-0.1535184229687465,0.19604501142363803,-0.17139003267437175,0.07265821938340315,0.2553423631416475,-0.17689559995315196,0.022899131554355537,0.10680527969657569,0.08854571581713869,0.15360948279858075,0.20169602568883147,-0.09068326996592124,0.15561284744566542,-0.07570059664774378,0.19023531897259963,-0.0723108841940942,-0.06981223876112579,0.27133130078946444,-0.11013935224806226,-0.17372061130274002,0.2398997373152215,-0.049314439438675646,-0.1358809614864604,-0.1182798675574267,-0.15682570019461936,-0.18333355082905323,0.032291878306427574,0.23019441025852305,-0.33788169888290775,-0.18468823224975509,0.1803140068683451,0.16397777585732434,-0.014767769454152074,-0.063597957446045],[0.08076364533421879,0.13914052355123468,-0.012398721768685669,0.22012503526629318,0.194223717356465,0.0581901573284428,-0.20241584152010855,0.05582347842727296,0.17451092911514618,-0.3559473515265789,-0.2222915148930759,-0.13288423989995943,0.34902610382269117,0.014076046683230542,0.05976335772702519,-0.10319668011629776,-0.1599458214631363,-0.18317048250429224,0.1770562724192356,-0.15999960186972342,0.025649480459132526,-0.1319176135261472,0.1525386375026086,0.09233902174207805,-0.07687827993948267,0.21071202645225287,0.19867864791262077,0.1344793011403808,0.1553942263766345,-0.10550665426805939,-0.21102478736835545,-0.04507507813069421,-0.014972656204310346,0.044796896862768,0.2261931478099816,0.1380842332568366,-0.17342305456646245,-0.05338341200865905,-0.12192902739437636,-0.0912815320261772,-0.23340115429798797,-0.14751379396138364,-0.011423703699511937,-0.38980714720520215,0.00474925163310819,0.1775178853364732,-0.15553669310549761,0.011337057384652573,0.21165948953219943,0.05669249226686783,0.08854397924408942,-0.014837097170420272,-0.14664965483272097,0.1677338711226739,-0.035428591673460706,-0.06883099008882398,-0.10703272334361436,-0.1944109710022176,0.04794758638016058,0.00563131062815229,-0.10588128799488604,0.02824475784773735,-0.19065415439658961,-0.23944681772971277],[0.11065639861121625,0.0004308937338666996,0.09568260508560653,0.13378464326341857,-0.049657006852950526,0.11578190018808578,0.0644203511096272,0.12279795685310098,-0.19987304760929,-0.12703774514962524,0.16749149054999996,0.17852934577446755,-0.15822337675237005,0.2396662738047051,-0.00777696703846111,0.23335796492870567,-0.24324469730059362,-0.060740545208675036,0.10473362533046403,-0.007671258499820136,-0.2568768201858507,0.0314513965741897,-0.2959863883001936,-0.30092090410752176,-0.1881519221804299,-0.31754484539357936,-0.053154074482783364,-0.018163001742229724,0.13109645440040293,-0.1695895401533772,-0.07534342374945315,-0.16478072182020367,0.10802249220803542,-0.2745364847130957,0.062813770628247,-0.20025519696347968,-0.18971895573693895,0.18007011079496352,-0.23485622404066223,0.2391502822517057,0.13708819789028023,-0.03383846197649264,0.14721645538274114,0.13634606927507206,-0.24029216068029857,0.034745098149240726,-0.23280349937348188,-0.10031465905631319,-0.07399484568973151,-0.11936208982614492,0.10492530268278563,0.15511031863086952,0.17877153863045278,0.21990597952528426,0.010169424837450947,0.22736627739480292,-0.24891450859318864,0.15964616501367956,-0.006138053123526827,0.2248067980539244,-0.040688434421730826,0.12639608728138635,-0.08823399543647724,0.05326179801740854],[0.02958023036578841,-0.15372167931919428,-0.0006926396723259533,0.03707748716389387,0.009867597470142724,0.2782603677431092,0.04843680050723457,-0.2673277906855475,-0.08577392021330646,0.18876477256640384,0.24618559803998707,0.13978052941372607,-0.1602404436132071,-0.11234006330639995,-0.2177749075807419,0.02448159273993474,0.14393481172166392,-0.21088544121590438,0.09278271929374658,-0.016628077692374444,-2.215847886606788e-05,-0.22969985836270373,-0.15459294684141087,0.2789577216535832,-0.02887932871077653,-0.0763090917001128,-0.06049572532595291,0.025996693269275388,0.07498350460367403,-0.11590088221341609,0.19327009180207536,0.17481347613955522,0.08590854197514047,0.14900112731531986,0.004706521293535234,-0.02135381972149817,-0.05437423205480391,0.08646034778505664,-0.17107750099482377,0.1888170994384386,-0.012416048164393106,0.08145051866038704,0.03854268128147592,0.02669265754229175,-0.2855774562690534,-0.08171536264744737,-0.06012686413861631,-0.05585797280016202,-0.12196238127930069,-0.266888107356265,0.08539247440497326,0.1294457326772267,-0.01759871675977025,0.01192761592735342,0.11841165944484885,-0.19592205334120188,-0.0590783260825019,-0.1883607275289953,-0.20523178108919307,-0.1850576428860179,-0.27306182736150686,-0.210188997198228,-0.09380433342853281,0.01730048459190513],[0.06424696836531316,0.12471467806830777,0.20179265183234352,-0.16871134667215018,-0.12182071372097296,0.0026336748080443575,0.008323504400913024,-0.10808252204182785,0.013882101336865803,0.14278449792757178,-0.062378568894061286,-0.11770707139342527,-0.11498935374675961,-0.07202411773481529,-0.16637142125503027,-0.13903889986007972,0.18849477393685515,0.15557554070189628,0.2406583720525532,-0.19287603212656976,0.07437829303849106,-0.2790711333817517,-0.018562672299111044,-0.1128811312245542,-0.029431217130876524,-0.24619491928297554,-0.05927946027138392,0.20350029335594508,-0.2338836427982254,0.19900383623162324,0.004026249787606414,0.025008117573277523,0.055527942852888236,-0.05980219524867779,-0.025304563368110638,0.24841161675093287,0.1734745604980376,-0.19718720146573315,0.0019616020458826855,0.20885670502549974,0.17276661787056136,0.22021135852240661,-0.12612934651738197,-0.019865862475534107,0.19501658016959497,-0.32734028807924304,-0.3181315427754871,0.30458667519066446,0.10258857284000375,-0.13167083053433315,0.038483236789739556,0.08596796573194919,-0.011213938181586593,0.023727962737471478,-0.2337439071751319,-0.06260404279546464,0.011936312309711664,0.22177536702963405,-0.11088075677950471,-0.207630185246056,0.09330679110696546,0.20202204667492035,0.11069569615593991,-0.2465284430828498],[-0.0559928019202711,-0.08609267374686613,0.11712322395365148,0.18667644193174635,-0.009735677357462233,0.01305017431148224,0.044515864926646095,0.20078975866396773,-0.023529752148053962,-0.1006278328045224,-0.12688107041766233,-0.13164128646457698,0.10655872502338516,0.19153089930057407,-0.24819026288880028,0.12544235027607592,0.040768529924582485,0.2126612902189812,0.13229155159229314,-0.03504356162954844,0.01604366604165144,-0.056156422906839865,0.14357605597905065,0.25167065854464155,0.2078721061701314,-0.23637349492281462,-0.14169370528032257,0.190330463782794,-0.2517027333695372,-0.018960236910509985,-0.0707271091819615,0.21830038495393916,-0.18061646981368612,-0.2290790522402564,0.15200485967942287,-0.13468321169165223,0.15339587065050728,-0.02182201772321002,0.05928161377254937,0.058403356853687166,-0.02648246005658402,0.038348620146395285,-0.12015732870654118,0.14985739843930157,-0.01545489950206848,-0.05354176500872756,-0.10639422960628116,0.12041774863849253,-0.2224131000396126,-0.04307627969093652,-0.006387944574837281,-0.022200516283207905,0.10255325207122445,-0.17285380409984225,0.10415586243637023,0.04681022024216758,-0.242177695781862,0.003800497641167872,-0.24049729203744127,0.0663264874655679,-0.1801411990553367,0.1323889155388484,-0.023627796248516356,-0.12202233777659167],[-0.1343821963151488,0.2244443940015442,0.19865266806253834,0.011817798837465351,-0.0905503855414243,0.11455971905326393,0.23938708094374855,-0.018085321955673726,-0.1940076633729308,0.20438114007113722,-0.12530135285451782,0.18172463770841923,0.12235323779107356,0.15775119034147583,0.1794242591550257,0.1592845469976581,0.08556952350145493,-0.09781471511667283,-0.15269128340837254,-0.00689640685640329,0.2726633600042585,-0.16808403965510965,-0.10521214312102613,-0.04743771681193961,0.06281915196700558,-0.0699869904516741,-0.168349760933518,0.10516442267193325,-0.06910398111885434,-0.13917637902732816,-0.19545104616677644,0.06466853583292012,0.17899499975366806,0.15941949211633225,-0.02207753795733494,0.12055896399374909,0.21127055225135255,0.19555368709796603,0.06142835459005719,-0.056989745352026645,-0.19483024475971933,0.07086818011713139,-0.1869084618063208,-0.09910561484836021,-0.010631044196103981,-0.1325849440521053,-0.07894716326595788,-0.005580037717787085,0.187593694078972,0.29123613469457615,-0.009402200164932388,0.22967931216219595,-0.04283737897711548,0.20227621498703416,0.1674409047242446,-0.06040028199421314,0.20894934744714125,0.23057456775500368,0.10407127698911245,-0.014199393988858612,0.23382617766861968,-0.1705000940431237,0.16867701796475912,-0.13286923171673934],[0.009274595855319518,0.17480435280018097,-0.02761488280006943,-0.2819495810143294,0.07576504823346585,0.07759244956186574,-0.15497320428518183,-0.19753702612786309,0.15957315917929957,-0.042743103687241865,0.03793236007173273,-0.11662886726015358,0.22426160476116314,0.11865315708669437,-0.24595642431512638,-0.013218928361168954,-0.31134822798122636,0.17137975297492533,0.2189100591737908,-0.3107377551796844,-0.02504622288095059,-0.004262714840464611,-0.2158033364402397,-0.1361599211026907,0.08210549364544345,-0.04812919247465551,0.18706262032932575,-0.004963215895880569,-0.043741575857059685,-0.09369770903573482,0.18827439061708928,0.1818755818474675,-0.24768590323201076,0.14044267657038692,0.033645469219389115,-0.03261000293619243,-0.036746543114313385,0.11629642797770835,-0.26425744651126687,-0.1693213222562165,-0.2182599214099878,-0.13390162861442148,-0.032417478546213005,-0.07268187985733922,-0.1926119521634016,0.24068239680461254,-0.1375668215730592,0.18424119166626013,0.18219989984695983,0.021620313368889626,0.1382991805260685,-0.1786670977656438,-0.06298416859953414,0.027325005876673684,-0.18661887999439053,-0.04573801226190783,-0.07274586501258841,0.05470568294476814,-0.02233169714409105,-0.19101424297395847,0.13659101990191405,0.1567674269578205,0.143828944679208,0.09137045049526778],[-0.1438315641251379,0.05756700315846697,0.09333334974021006,0.10002821568072404,-0.11971791090843996,0.21427658356263,-0.1470073950974753,-0.1786431054940312,-0.011631429794608192,-0.10857210400592322,0.2259178996229671,-0.09367061496893042,-0.13823691251583878,0.13971056392594247,0.1614507088234803,0.15739558584557287,-0.11811074535325274,0.13232733499526494,0.039362327798514875,-0.16914156330952385,-0.20465682300941637,0.19279846777779536,0.11073455367285594,-0.1023571571110223,0.21785458273938155,0.1352377124193435,-0.1399383013699372,0.12247672675042172,0.29634391055752857,-0.1639460686989869,-0.09269478569589144,-0.2280617952784734,-0.14465510702634118,-0.041995420896830546,-0.03080123430321641,-0.1865265257365869,-0.029707747108197593,0.1485044910884641,0.17383106248967875,0.0905035670962186,0.30589076389469366,-0.16698378928330393,-0.07495670870144534,-0.013366988978089418,-0.35367127288857747,0.014621005123968241,-0.06485024307005118,-0.26126393094075284,-0.06860049928923556,-0.19906775764982618,-0.01438147870782263,-0.14097822948281,-0.14871947351628748,0.02565479629502192,0.10048012158300058,-0.07357244176619675,0.34180781575654434,0.23062499134816764,0.023947942190507863,-0.11784633768428225,-0.05402634279937083,0.1784842316827156,-0.00896562018054554,-0.19224140240878326],[0.16990371387380201,-0.18226905824021597,-0.24623577990065512,0.1423983561449461,0.19458780306182785,-0.06379787057198305,-0.210419681614566,0.2341269881980393,-0.07379092810299878,-0.3340730655411068,-0.03537752133015155,-0.012765919893762159,0.2565010531861008,0.13347693837646699,-0.12373973591785394,0.10349635554513993,-0.26181249146593133,0.06793446023658924,-0.07274501507207236,-0.10961584467767349,-0.2540458478219571,0.1575891590955451,-0.20336248832196413,0.08229950159411874,-0.09113153000993772,-0.013911408100609063,-0.20330078286110323,-0.3844628560983623,-0.08983540378240562,0.06914754986378034,0.20864360280060604,-0.18352118412732413,0.0923242721094034,-0.14128573427360697,0.047369433112227424,-0.03369192817095532,-0.24897074500142902,0.14384389711555762,0.18307047690565276,0.0018861517906314852,-0.12857720109799653,-0.04457025258919916,0.15491678871992315,0.1774262310067636,-0.01839874129901182,-0.13609856885014196,-0.25646141363231173,0.3395344821951126,0.21519981793371554,0.08870804620077681,-0.16381737965314203,0.10410164217020705,-0.004192799259544533,-0.056243307199451656,-0.08771045114507688,0.014694223611999933,0.17427998914156884,0.23054405503833555,0.14969179556821188,0.10925459093939696,-0.10716009794633281,0.0326169529497508,-0.10204550987970658,-0.10930651433566589],[0.25777126625687974,0.16404887166052298,-0.04419911377079023,-0.02450524571890285,0.09995823831711416,-0.06180321089868437,-0.12766633637697564,-0.040989000717040355,0.07531519706185803,0.22355239151188946,0.1757923858331195,0.14132066162399584,-0.1095939426773338,-0.06434884814473865,0.07039462244074293,0.15190273718346933,0.06850513557542995,-0.009745239494170459,-0.13620772403070502,-0.04470975942680044,-0.21993920690170868,0.18763334855227676,-0.11070036550566308,-0.11428331622700272,-0.2772263871017958,0.03519393575386476,-0.06851412555780638,-0.008859146562420447,-0.14666947260839183,-0.14928586839775643,0.14054932694686764,0.06895123769390384,-0.05174354028404577,-0.07741850599601748,-0.16610126599292172,0.16421516778491735,0.1912041906312827,0.02888035195376412,0.17500681729937076,0.09471319313975228,-0.17046951640938937,-0.26203789124147187,0.04773163482443187,-0.07931258179310358,-0.015933121102340013,0.02837369301611114,-0.01878459221336453,0.10051520995464536,0.22495350559880212,-0.05531590385602161,-0.13407176195541634,0.03942163333248871,-0.14063319918226505,0.12093957902906255,-0.013902596046822162,-0.11324789146790305,-0.01336103039054614,0.17119620362832527,0.19024140208066695,0.03638351564899835,-0.18748719073858758,0.2557765243207863,-0.010230917442116575,0.12202488815521625],[0.05697072534142152,0.2790251435134516,-0.039391687304003775,-0.16509838541474287,-0.08263661714534684,0.2519428924398832,0.0569778457181276,-0.15974416913547615,-0.050262134191909336,0.2774216671640866,-0.14720798688030265,-0.24481333366346977,-0.08225733889577486,-0.35422468735695156,0.0010094445655695838,0.03073852423799715,-0.07418107115167144,0.13505599055195922,-0.10460230127908551,0.12907548827644508,-0.16942149839207682,0.27003731975837136,0.18180430562622418,0.12284385447840838,-0.09544375554887008,-0.03942096633133239,0.31367069892085697,0.22779823673468422,0.06475525748588212,0.08600842743971007,0.18709082344324846,-0.0006765198421496779,-0.12393679924551235,0.23889352819797313,0.014748443943401785,0.22999554374208359,0.09998124993011946,0.09658244027981955,-0.18184609514310893,-0.15225022929956164,0.19492487489808277,0.012314108797855662,0.15785716034143812,0.005961420631212385,0.18826960218031494,-0.15679979823614204,-0.00023435595045588305,-0.033693275246345335,0.0671629465046226,-0.14116091624263472,0.2880464468087995,0.030163567052310877,0.06396476532796327,0.204654669239873,-0.043917335404290755,-0.13524997471349315,0.04031663190387934,0.07489325725232883,0.10980781356156095,-0.12043059661591769,0.1072107116846754,-0.08749357776435372,-0.28322779303119106,-0.01460554359411273],[0.032369524056709856,0.04551362343864496,-0.020694169938200054,0.048272974717362485,-0.2213651799391179,0.18889690172103502,0.04119928834769953,0.15801711350495878,-0.13185378546585835,-0.11323659847053903,0.15286274609838854,-0.18230058136084812,0.021905925908060515,0.2709077350486085,-0.07606624828564493,-0.1178014051120748,-0.20975886865994245,-0.026491955043640835,0.10485192530016069,0.17265555799124577,0.06829859858062352,0.027531453839613442,-0.07749479638145096,0.052341809029981146,0.19357885948188389,0.2117761129073869,-0.1563878409743177,0.09763762853584729,0.22812000116352849,-0.290334555713176,0.17176841237642973,0.19155723679970849,-0.09329352898429107,-0.1395915384157732,-0.21347994148668442,0.20618559113125823,0.11104421849085744,0.07482739157062193,-0.029034305105446245,0.1008176517692595,-0.22299025094695554,0.14546232659668634,-0.1406026827593263,-0.19951800428991626,-0.0368515828437955,0.20811471452906194,0.16127870634595695,0.11223994049189746,-0.012363626654859473,0.07754284059864552,-0.2396617142391758,-0.08714937043529963,-0.01333968357623396,0.22168925169972137,0.08398039302595638,-0.15800026133262443,-0.07528478689468074,-0.08542886124504112,0.025805610392213265,-0.003651418719723105,-0.010868269407959888,0.02078430366124894,-0.17746588993102647,0.014435829833998052],[0.277978848200816,0.021662809605659607,-0.16426201561807843,0.1830960556088927,0.30494967614993473,-0.11537765470796203,-0.17312047977226264,-0.031643963858565584,0.24477729087747016,0.10943052309152819,0.20021595933199984,0.04748446647560989,-0.2679644963002294,0.01574542485824396,-0.15533742471619488,0.15717909239295597,-0.10716230678720944,-0.21307855050654917,-0.0809727680572741,-0.21718209523373705,0.1262094229019605,0.10946782272200474,-0.1299672344900041,0.23990130215305874,0.20052782267749097,0.024680321548234053,-0.25861570777956183,0.2290345465754395,0.11006877593814507,0.1907462924751885,-0.04429470246934525,-0.02474288920545819,-0.0011925854036664485,-0.3117654298069733,-0.09319480762479834,-0.15662430571451127,0.014019029262482418,-0.026351760563117818,-0.22682773500456777,-0.04794646329623248,-0.21192066428965384,0.21564525415065314,0.08586371716866274,-0.19749704383304945,0.1889567736228555,-0.02272177488284866,0.20471998074304948,0.11675506686180377,0.11297986459949123,-0.1690582495363155,0.15972522254338498,-0.13519904410927205,0.17714525005513074,0.11894868020236839,0.14193862083712294,-0.157278467583942,-0.13996735566757498,-0.16988797044896956,-0.1160598719774541,0.10943406413510319,-0.08822404073107626,0.29096536058243444,0.14230584362181062,0.16085654920297573],[-0.02897358828263346,-0.23190486259082582,0.06396911479321994,0.17851476672302077,-0.12271029593511344,0.009674880936633098,-0.01195959989551899,-0.03927897775706924,0.049580463290785845,0.011834177981417681,-0.15864913318381846,-0.03985140214440456,-0.11496574424986714,-0.1594346945100511,-0.011058637714273544,-0.35096804466691206,0.08059145354338705,0.04124887320497558,0.3226881482584239,0.14180817125807338,0.18648293592507123,0.05949724670793922,0.07356469198072119,0.2780256461659742,-0.13659304999487545,-0.1641377363923242,-0.1813121821020244,-0.022818621076132868,0.14533641590346702,-0.1550423876297545,-0.1859057127300553,0.1009725424955856,0.004823072347006212,0.003620569211519353,-0.0957766704323382,-0.08577869252148378,0.24617002589844045,0.17011810905876362,0.15067924745377187,-0.13081549852330523,-0.06599251333204004,-0.19539598529848942,0.07871265841718102,0.045618393480877525,-0.020180585043741064,-0.2254694555291557,-0.25680693887696787,0.018080769659474277,-0.10227856699749496,-0.04476385831990099,0.2693682896780598,0.08710436079317646,0.13146411611876563,0.21656263966497324,-0.24494884276910722,0.09984635167670006,-0.28204307034879067,0.05298858890265224,-0.4367836092649032,-0.020713116017089063,0.195668216859196,0.17448714877972077,0.04223157764202697,-0.13380695948370325]],"b":[0.2013092158559432,0.06630003900614968,-0.023415644082172702,-0.14058790456360518,0.2919464468224318,0.00430201115162816,-0.050728527865275125,-0.0025196570528244664,-0.10393078904468356,-0.1617087440765801,-0.15621466201191378,0.07160860639055679,0.12315262509542677,-0.048898158778275566,-0.011498451681669259,0.14087838511177297,-0.2517715487115198,-0.07595840029410979,-0.12787752581366316,0.08742102593666982,0.20824584356975273,-0.20823405682886914,0.1976879953429468,0.06516615715189482,-0.0007204647482843188,0.2982051472305118,-0.28654199074160147,-0.09349595448722288,-0.1173488615255144,0.006524040579163975,0.042162790654640646,0.14072560201504752]},{"w":[[-0.3801362852846102,0.37381784261866735,0.2512303320828318,-0.257289199170465,0.12595519179071235,0.19033523812666084,0.38638041518742167,0.1407632731469492,0.3654270142198528,-0.007122621149092543,-0.4731122115329729,0.34526575366426504,-0.17178713228260686,-0.14829886475990864,-0.22522046833758946,0.33215260131280244,-0.3684444327399769,0.13672798553403198,-0.44501095210250774,0.2907887565755474,-0.4190300095179634,0.2802707371323503,0.3167925816812622,-0.05755770517572736,0.35441068830294264,0.34981534399192554,-0.3857220103968401,0.3329197215367071,0.015211430897216325,-0.3516340618421386,0.006999768974780701,-0.0031044571974552294],[-0.1350023846795824,0.03255342322348985,-0.3217532603330493,0.26255753883419675,-0.07996099536834068,0.47875505498425525,-0.0198040612342089,-0.2196681167490137,0.009268462324728402,0.30566003409090314,-0.217505326512772,0.03835427307280388,0.054353568798639985,-0.2060884948751757,-0.1498321049437713,0.39625078492105714,0.2564897593815186,0.15250109828449301,-0.1925716526271936,0.07591169339376767,-0.029458777189204997,0.39639184659657656,0.031469557215901944,-0.24186779187853685,0.40403857403235477,-0.2793774641041826,0.2206261363027992,0.4093774926524093,0.16329515380862136,-0.20976464978569656,0.33896447912968336,0.15339666345911168]],"b":[-0.3409712715405187,0.3582071091853966]}],"target_mean":[3.0345602964180554,3.837917469863351],"target_std":[1.4737890786719756,1.1940072694800525],"flops_ood_cap":14195813614.0,"n_records":4246}