{"input_spec":[{"kind":"feat","name":"n","log":true,"mean":8.535997301955058,"std":1.9340401748078806},{"kind":"feat","name":"nnz","log":true,"mean":10.538132314347681,"std":2.2574887605046823},{"kind":"feat","name":"deg_mean","log":true,"mean":2.1834680547760743,"std":0.8906886695458059},{"kind":"feat","name":"deg_max","log":true,"mean":2.744199309577183,"std":1.3441255282232765},{"kind":"feat","name":"deg_cv","log":false,"mean":0.483367952328616,"std":2.5910376769264536},{"kind":"feat","name":"bandwidth_max","log":true,"mean":5.83249324739111,"std":2.679243724173367},{"kind":"feat","name":"bandwidth_mean_rel","log":false,"mean":0.07232634587000412,"std":0.11179778575156449},{"kind":"feat","name":"diag_dominant_frac","log":false,"mean":0.6174743406596196,"std":0.3591763334693906},{"kind":"feat","name":"diag_present_frac","log":false,"mean":0.9963122776694392,"std":0.03841874858990252},{"kind":"feat","name":"n_supernodes","log":true,"mean":4.914104730972755,"std":1.6023825064349884},{"kind":"feat","name":"fill_nnz","log":true,"mean":12.524193570669873,"std":2.9063990844170187},{"kind":"feat","name":"fill_ratio","log":true,"mean":2.1907359255150434,"std":0.9870443391552524},{"kind":"feat","name":"supernode_cols_mean","log":true,"mean":3.720512979174922,"std":1.2844368997288693},{"kind":"feat","name":"front_nrow_max","log":true,"mean":5.223692504872157,"std":1.5081529332969423},{"kind":"feat","name":"tree_depth","log":true,"mean":2.201519694084424,"std":0.8619572625297746},{"kind":"feat","name":"tree_width_max","log":true,"mean":4.414269169237875,"std":1.9286038980571498},{"kind":"feat","name":"tree_width_mean","log":true,"mean":3.000934580162322,"std":1.6802937316036457},{"kind":"feat","name":"factor_flops","log":true,"mean":17.940265580148196,"std":4.327243813819349},{"kind":"feat","name":"arith_intensity","log":true,"mean":5.455416277794334,"std":1.502605934899735},{"kind":"feat","name":"flop_top1_frac","log":false,"mean":0.17737840601088267,"std":0.1983378008730377},{"kind":"feat","name":"flop_top1pct_frac","log":false,"mean":0.23985332448626384,"std":0.25512998587268915},{"kind":"knob_log","name":"nemin","mean":2.847699368090541,"std":0.9608498453103776},{"kind":"knob_log","name":"relax_width","mean":4.908298145332439,"std":1.7897751614561044},{"kind":"knob_log","name":"panel_nb","mean":4.187891176694451,"std":0.40998506378125216},{"kind":"knob_log","name":"scalar_gate","mean":8.317724924350522,"std":0.7218636728282927},{"kind":"knob_log","name":"par_gemm","mean":13.878140732330781,"std":0.7777073348307905},{"kind":"knob_log","name":"par_cdiv","mean":15.800828959711616,"std":0.745810079879641},{"kind":"ordering_onehot","value":"auto"},{"kind":"ordering_onehot","value":"amd"},{"kind":"ordering_onehot","value":"metis"},{"kind":"method_is_mf"},{"kind":"use_gemm_schur"},{"kind":"scaling_onehot","value":"onepass"},{"kind":"scaling_onehot","value":"identity"},{"kind":"scaling_onehot","value":"infnorm"},{"kind":"scaling_onehot","value":"auto"},{"kind":"memory_is_eager"}],"orderings":["auto","amd","metis"],"layers":[{"w":[[0.0460464677473501,-0.10347941579967324,0.0826816573918532,-0.013630508965209318,0.016181279020513056,0.09042645045062209,0.09344423254229721,0.21825097540276905,0.043945640486906995,-0.12687081794921026,0.22398518782787166,-0.08252002647353056,0.22853723608044174,0.16269720459220327,0.024633801894014793,0.014356860291628255,0.22557284030622057,0.2478396858457097,-0.11160096465305204,-0.12325794906067482,0.12871508175368587,0.03653384079988825,0.3556977982571958,0.02838316671992343,0.15848522682623292,0.22814833295138656,-0.09632827803267582,-0.14982606806061644,-0.21398617987493804,-0.3783813694488851,-0.20287188471459813,0.1451980193941441,0.22248860885041588,0.0884539123261179,0.20303782405202145,0.5746153011120402,-0.12298256354730241],[0.051846655969819765,-0.14708009205955655,-0.19505555557531343,0.1770546153054368,-0.09482988661849036,-0.18335146297981247,0.09259995255162226,0.1272654087491339,0.1725729118139321,0.16455281124291965,0.18501581616547944,-0.07840989070124221,0.12990586672711085,-0.05026167962256364,0.11139838978470451,0.005404959534814063,0.14725984129300207,-0.0016689086232956419,-0.09765532392870702,-0.2603671792054652,-0.06251057141007976,0.2147796789612655,-0.06828126473327757,0.20697863728902524,0.23868608378165448,-0.05176561661385932,-0.09320696972524307,-0.08717271484477145,0.07177438836657081,0.44802720951688335,0.09558650234657501,-0.13164731064045238,-0.13380810693994744,-0.15247880808958794,-0.09036498614723726,-0.27218059118673643,-0.08785018029935038],[0.09927839091765356,0.2099615918534836,0.08129791891138206,0.18301486256818944,0.15901197623262997,-0.12645035013401237,0.10537310287134806,0.030336140993656596,0.03050285394598257,0.0381534226798932,0.2923862474322533,-0.08819622157389652,0.09528043604931259,0.2372374319839617,0.000552604955402398,-0.16168043140051536,0.007558826384874823,-0.037092708317786494,0.11534957685457754,0.19182312664496007,-0.06337520250360809,-0.043782834101787335,-0.17087248488542983,-0.10859119707753828,0.11280292627246069,0.0013748072214767341,0.1059844028482949,-0.3214942777207242,-0.1396236131830614,-0.31786316470149706,-0.122988801519535,0.054337134542304016,0.3127071067571854,0.2901637237141559,0.4566893469192618,0.07066617339941658,0.2996553088457661],[0.030577840150262853,-0.19972119070565264,-0.08141384223256153,-0.13089171703966396,-0.06996954591452369,-0.05185690059778117,-0.13185869035655198,0.24290029906530902,0.07070842088876786,0.29824770040671694,-0.019514604182753484,-0.1316820296241301,-0.17748110990038088,0.09108055647581902,0.01628668143147265,0.1544426871498679,-0.11801914238662814,-0.14130048736408032,0.28309875508879956,0.10028578567374372,-0.2977472401567651,-0.0032787219733908333,0.14853161269029447,-0.08168112084652612,-0.08060193400663727,0.11643955818395342,0.07759198277343857,-0.07792446112790022,0.3573097607449814,0.13058063084033755,-0.1773254592329679,-0.17924446247208564,-0.18162961662632285,0.1252931537741346,0.07564581293877444,-0.2605630327881367,-0.12036327859565625],[-0.14375096301100546,0.10066034699352712,-0.16852119954867842,-0.08168429025269257,-0.19247240744674982,-0.044458766790803864,0.014897080742239766,-0.03658917098870516,-0.14235539812818193,-0.23918316203199372,-0.060218720703110164,-0.07037386047613867,-0.24392678230039908,0.17110943369707318,0.12856702196451902,-0.149740030289558,0.2046564143601915,0.15096292456715146,0.005595516235822746,0.142279928866506,-0.3521244406565672,0.011831347613033541,-0.15141317076469896,-0.06603365654516193,0.07889664314585924,0.09985208587379367,-0.07285749066070961,-0.25386426277550583,-0.4636750373553728,0.4353155437722526,0.17480429572058995,0.24808697058271956,0.22164933511754858,0.01956044025437425,0.32604799961151754,-0.2828108709878385,-0.04280153798959443],[0.07735837007982618,-0.23971926511677957,-0.24108476101487275,0.0043309001519054174,0.018275987549752654,0.002781663872396387,-0.005917145940982921,-0.10914771890457634,0.035220640645706146,0.10257920046662063,-0.20626922020188157,0.170667090339185,-0.16384510889272055,-0.29769851541766884,-0.0768564422558656,0.03629417758479717,-0.16769983057086288,0.17484739001002494,0.19224316793286092,0.329039109756029,0.25123297506201137,-0.056702642486533304,-0.11944520729895351,-0.03341438947547403,0.1862986767472066,-0.062240436828077124,-0.05646868566363813,-0.2640784904005512,-0.06602504134233127,-0.5216332419843226,-0.009925310233377711,0.09566365532531049,-0.01095600370156459,0.1432343844551095,0.060203240309226344,-0.13164527967501255,0.09382381680176875],[-0.05948741385154307,0.1586009804454805,-0.26338192410826683,-0.32437680412892334,0.12089812373783992,-0.0138630675012957,-0.27490014996399936,0.13485932062336312,0.002799829090473851,-0.04475115053599363,0.05434108321015256,-0.10253537101263353,0.179303234402572,-0.19022499712953234,-0.1080521848438422,-0.013653675349330199,-0.024182591061248048,-0.20941105591962905,-0.1621107109046084,0.31431306699616535,-0.26285660621726276,-0.13420562959181376,-0.1230311307044229,-0.005860516897736905,-0.02192158950024355,0.05323497022524305,0.034329983369754596,-0.02008011709281798,0.07875320701366982,-0.18877585545255313,-0.44154232159480106,-0.08023274122380386,0.0015463017514338682,-0.14094330229958965,-0.01251630099288559,0.09427863753445236,0.01969862185618976],[0.284438735538834,0.05170313906989491,-0.01332558590304219,-0.04542136696889688,0.21771410111081188,0.08245431741031263,-0.1545279800056685,-0.06371853425412992,0.15881010466222797,-0.2285183825029297,0.10717694643260726,-0.0072107175765137805,0.09452962905186332,0.21094464483208655,-0.24797163218105406,0.2339844936836821,-0.2782165466922578,0.09986474537409555,-0.11027611661502687,-0.09186156732541162,0.09499504227805289,-0.17044280252770333,-0.2505266402587312,-0.001334082673234745,-0.11415407762513337,-0.1910649925225598,0.008647773365054111,-0.7024588348758042,-0.6703638709791893,-0.3241358496455872,0.10495420248192706,0.20049586216106025,-0.09993937349123255,0.034087616499892205,-0.1956473416886536,0.21550895813253254,0.17717931057814462],[0.3403288504432204,0.3441331489191918,0.0504030695775452,-0.12978455660026053,0.07628427883619236,-0.08825510512718225,-0.059567349835224055,-0.03492737295386267,-0.03468964129478134,0.10556701063345765,0.18861993453087653,0.020284426173658256,0.1441695864714895,-0.08879632080308791,0.11425039764513689,-0.12794763841539122,0.2651993328236276,-0.285785894607211,-0.041330513118535486,0.23345570125637258,-0.306691646551809,-0.20645077931500413,-0.11462789793327559,-0.08961661937530484,-0.046118681486801885,0.008545754068539118,0.05162889242640172,-0.21073518665379748,-0.25329377429898536,-0.3152250812787991,0.25555373002994236,-0.08485213029321644,0.028981627272557473,0.018454853604313187,0.177231475426427,-0.10586036959623116,0.1658232076089397],[-0.002498900565426367,0.10457631046406216,0.1072533143612725,0.07074076982390685,0.06780068198600925,-0.017080046853307163,0.09577641019307069,-0.2938437952170275,-0.010037899126326612,-0.0964882619851873,-0.15213094445125702,0.016569772046380077,0.05543073724620301,-0.09837551606882977,0.21311785746609646,0.35848361047565025,0.23836255506286164,0.26197821223111994,-0.1643146607593069,-0.13264847452068734,-0.022934670448177267,0.05043578097128439,-0.09589031943999422,-0.024281952240007804,-0.062273496520283696,0.02711320524360328,0.005691295741344613,0.3312480555364416,0.14975714004345067,-0.020949786031789677,-0.034944273781963374,0.06461973343324548,-0.07321825231714388,-0.13087636900520536,-0.03288712687301085,0.03827188587039759,-0.11041806762582634],[0.16881777253657906,0.11959612668854154,-0.032086322642686696,-0.08075961007803582,-0.054432421029709514,-0.055592857040347034,-0.17808472441515316,0.05780883879118511,-0.23007486565454602,-0.1641497524684461,0.006140970995967783,-0.19329954044087744,0.08056979910055169,-0.056077701849079106,-0.20699642130004658,0.09343754881103229,0.14284641751391733,0.04871823093885061,-0.0734458004163427,-0.004665266375317904,-0.10725811533236933,0.05423249175562183,-0.270850957984952,0.07645098880461584,-0.0798221565605729,0.08760508397269239,0.09022700806113705,0.5487500613223442,0.7007726009825996,0.07265569079606457,-0.04925668907323137,0.15308554012165185,0.11454717508727588,0.034666301290757325,-0.0861428864421988,0.22115837225384033,0.12319219600669337],[0.053355520763622016,-0.1905638973089794,-0.096504695444626,-0.0336615059537099,-0.3292088081206756,0.21223947662769996,0.15189298606877344,0.2964952309704458,-0.014585188848515614,-0.2272620206123283,0.08626608873468081,-0.10755070938133784,0.25992530979594725,0.24004533163479053,-0.01960293591024484,-0.13663227056762525,-0.12978976790959648,0.045106947105974626,0.1330548276894383,0.025544316219809675,0.1497818465963701,-0.04093432115583298,0.041830162112126854,0.07741541710287349,-0.06324460692064678,0.015621509222251565,-0.02538779060472787,-0.46287997000392384,-0.09641952397838666,-0.1996336279568509,-0.054309693211506395,0.0626645606010462,-0.07049662457646455,0.12847235916983335,-0.03942632669011018,0.021038427025330698,-0.016372039327747265],[-0.014774201372594142,-0.15680805721792557,0.14248563592295777,-0.05571918513537965,-0.14233909115193977,-0.20761510314507456,-0.06011679766762055,-0.09729845505089164,-0.3250119869688243,-0.3094274481822924,-0.18156330255106645,-0.08949946152460583,-0.19793196378197742,-0.06291110234319727,-0.28640818898560116,0.21961568150378455,-0.18846943412265213,-0.15476401248514302,-0.24928258161576003,-0.08380534628416134,0.15220265221284388,-0.039610394624203814,-0.018832210439632804,-0.008321326662701198,0.02954911314786081,0.037557931277786984,0.005329811244349387,0.12392558441082763,0.01641098994608041,0.24595476138030362,0.01569234963743009,0.05681581045943975,0.00033013856163350837,0.05520063866150234,0.0999453866713196,0.004272790769136379,-0.04049853420761942],[0.1736206429854747,-0.23271573848700677,-0.16867848819788367,-0.08873731790269501,0.05120681950595084,0.054534419323158015,-0.07506769883577033,-0.11992292970004464,-0.017858687237280558,0.19387627752694578,-0.20941109820755968,-0.017198020296842465,-0.09155087233909202,0.1074486177862214,-0.10073838293966673,0.03794116404823242,-0.15029668020814307,0.17970984726172257,-0.22556363658704312,0.05097534481949041,-0.20843445445030898,-0.21083453042434078,-0.25692982777518275,0.13683809193106047,0.29945983910102913,-0.09251451953096988,-0.06425301746951628,0.26633835049259086,0.06768592231179722,-0.0031650664940097487,0.017557937731075238,-0.12384354000703979,-0.08043834415483006,-0.31831774919823413,0.12157378850295489,-0.3231397603148499,-0.04131480936689042],[-0.12469138933531207,-0.020229173119774,0.010083165114007142,0.09619094607908951,0.19882472749998314,0.10158856017102824,-0.30361305710900405,-0.0756196847903164,0.032963665607769935,0.09230353774423278,0.2748538333255381,0.08169573535685173,0.3377575945214453,0.3513376574584292,0.08515761533207594,0.2414742758801372,-0.14484481974053628,-0.040658666673874855,0.05100659912504395,-0.009692590843202191,-0.11600392265698313,-0.015575589208563065,-0.13026861062353043,-0.02137700910048259,0.2138630643062641,0.08190186738850992,-0.15961669359462416,-0.22462191998619357,-0.056586710134988574,0.18953300254028094,-0.19046987505886767,0.047510376484620025,0.03948802118226285,0.06330973794414008,0.25399490096640254,0.08173596594594645,-0.08285234781680138],[-0.21173842008201677,-0.26031821947590106,-0.033565941894083566,0.1327263480282452,0.2952937554650796,0.07559874473872802,-0.22406107543040277,-0.057395703246517826,0.1581232605376055,0.180448462715396,-0.27370201295450464,0.14245165904423268,0.11983272016373143,-0.07906683553147133,-0.5485579481696943,0.016840904665175738,0.17291000918051233,0.1474473315804313,0.04323955172098335,-0.08874922196089821,0.2745672791311598,-0.016182686938949507,0.008050127363487994,0.12659449074350718,0.24228037723185958,0.09028693179362646,-0.010065683524883804,0.15714023241777914,0.025175325600319837,0.14949315820461367,0.11098594303255821,-0.06074073416636049,0.07288944475395338,0.10783341447797687,0.08029382756060759,0.05128316302151381,0.06362749730374935],[-0.29692495182995404,-0.10692045130863122,0.2088390269062987,0.024396416035593668,-0.12489748957315164,0.04006515477650796,-0.1223823367538702,-0.13254514441759294,-0.16023670507584528,0.055368869931466946,-0.002835875156943365,0.23193771773350597,-0.2521118247608301,0.07547482021734502,0.2336043417742102,0.006627521079551769,-0.1997000252400027,0.2671786184105673,0.22056872406402314,-0.3168591933997652,0.11947746716012123,0.20428240715209223,-0.11189146731364492,0.023301361918887264,0.11977510506348153,0.23004337925542112,0.06928203920817978,0.44551917164393157,0.37229078305970026,-0.3066825957422103,-0.07915552328394664,-0.05119501358070735,0.10856384344852045,0.17798540418070125,0.23899285316359092,0.12089916483396841,0.06844803537782564],[0.14888681334613926,-0.025251580420273503,0.1456561862852378,0.2202620609305268,0.17481883037105236,0.18659438198724265,0.19615682779438293,0.02064933822188553,-0.001987956198540977,0.05108311867037077,-0.1612209016881673,0.2685753565362618,-0.20648121757340443,0.037554316475402215,-0.1694950718457756,-0.063094257672146,-0.024733384832441974,0.18927807306507036,0.32389117410151874,-0.14486469211830663,-0.18091476417077296,-0.006496630774799731,-0.09738595086375022,0.010807294103837538,-0.09140619808905916,-0.07671054317011272,0.14202659771415313,0.2842274340774133,0.3996996041403919,-0.2071190753220375,0.08955986456685726,-0.008972366988630149,0.020929657606269084,-0.06180159262057803,0.07508793943743446,0.30131962347236657,0.09940964700705217],[0.05406942527848277,-0.3139395609994728,-0.2936416717231406,0.3274242349042742,-0.16009493192105298,0.03815411051243564,-0.09000106749814386,0.08923974855147188,-0.24305247018645845,-0.236444249734525,-0.06526313028272451,-0.10223820169069334,-0.07849064142601109,0.03263302754954376,0.14591822976253332,-0.14290808292473606,-0.05397553626093066,0.007735413159300441,-0.006028467646546736,-0.4271262851728678,0.09145749239797875,0.13969103429115595,0.13040109835000943,-0.07399148578606715,-0.10330423320617703,-0.14134283713236978,0.1435091904712072,-0.31728647307559127,-0.2772217718817961,-0.08310171113692202,-0.04497133964384211,0.12093313076387466,-0.04403411557657168,-0.23585115333713036,0.08512375815424648,-0.002693973589689198,0.08382203704305373],[0.3420326073800351,0.20017966225317624,0.06564985690567594,-0.1659831837728148,0.1903215626449898,-0.023132693350044593,0.19237883759971117,0.02747561431154817,-0.10836049303420879,0.23312008762715689,0.31251906723174455,0.23182365673471667,0.09040315496747367,0.10363143373150573,0.11004147346691247,0.1220898920332099,0.017588623218393627,-0.18601479466951873,-0.17137391402471333,0.1396420437186277,-0.15751285040374835,-0.05535894059860029,0.5548716217255183,0.05053296311415878,0.07540559565304852,-0.06829675821414892,-0.09335656841398865,-0.23775546595545743,-0.019905426778719957,-0.07944338198128868,-0.000376604123536039,-0.1428792992722194,-0.11741726122115785,-0.07455439268080165,-0.02481187052242671,0.014766772856021416,0.14280849773819126],[0.17455942684633385,-0.015156910469729635,0.07715487466304645,0.06627428665367048,0.2051789502447938,-0.1704957466071923,0.20635664181851368,0.044302948776731015,0.11754278616173539,-0.07513958496750182,-0.0956224772623023,-0.10267081227721454,-0.1147131898457305,-0.3038448378455251,-0.06381839722666871,0.17941177875013448,-0.22764146219981604,-0.06991450590816345,-0.06268677823390187,0.023785402239731572,0.2462653183275518,0.15209032542235892,0.09924327269780953,-0.044482571916973836,-0.08379460488781834,-0.1443854550734309,-0.06637583715872282,-0.2296953920605174,0.023878364070416377,-0.18407460866844916,-0.12354924789649706,0.12434912868309313,-0.07031432216141742,0.17499072973083388,0.020862387626453937,0.13481428464679257,-0.10423924424181154],[0.1534824659464793,-0.12383182582115324,0.1518065583255602,-0.08774076005033762,0.10731908323045022,-0.021421881916690404,-0.2214163709430641,-0.08701150137965243,-0.10769807344163697,-0.016372276168821736,0.1769248465908254,0.24015206448122178,-0.18338692720156793,0.054046498685810636,-0.116524797566348,0.14356864459928667,-0.010081645342134902,-0.0607287811441553,-0.049947292471297935,-0.016112945186391277,-0.05708732858291292,0.0639296888279281,0.7478457843278494,0.0126992643740203,-0.026791284078905048,-0.01093555376185757,-0.08198840234599807,0.01649435423787726,-0.1173119445980826,-0.2431153864626265,0.44242769959751926,0.01529504831603968,0.1940649043416663,0.22081622086444772,0.08142782347066035,-0.09679608221850329,-0.25142161684334935],[-0.0717431763095428,-0.051269998151455796,-0.22082071146072188,-0.1720684976820258,0.09819378291306562,-0.0326686455728856,-0.08019885584703297,0.031235187683745138,-0.10198219600039815,-0.14345572772971235,-0.2553389461262171,0.01640719110973495,0.019575739573901935,0.1143524405694472,0.14998273922285457,0.04169123863387306,-0.04303145283197403,-0.1920760837785986,0.23376249868600069,-0.27952845405075794,-0.11236800204934926,0.29624815331419685,-0.016699433620113984,0.043096105887321386,0.17513443397096567,0.09194493821794827,-0.002421561858343723,0.01613963221023729,0.3600073152004344,0.10149488600262384,-0.43890432776820687,-0.06905176993111914,-0.20780646545466686,0.007005518177332183,-0.33858095155840023,0.024985344406205725,0.049937242928985874],[0.12082198354687647,-0.21327908096984513,0.16620941238074274,0.08666466366583297,0.1711438727445109,-0.13822979780766773,-0.09607602357980825,0.2927184764854635,-0.1937647339146944,0.228113230335839,-0.12650489251156258,0.20480806961083295,-0.14358348926602785,0.10600951631893872,-0.055842266596881074,0.10448709508879035,0.10778692707868602,-0.049810368088637445,0.08733421378725265,-0.08324981059618528,0.2620919991680454,-0.08147884233722909,-0.15757787597913506,-0.18260634067144726,0.07666291975841025,0.026890573469243142,0.21405001975012009,-0.3238403467040163,-0.061202365149569254,-0.292149533584284,0.44975188314197767,-0.0802153692091853,0.13641068057757955,-0.07270989721760958,-0.1266579779478973,0.030162742844278456,-0.061720795287363885],[-0.16656999344675683,0.04564397439657754,-0.21534877465437036,0.011870766303840513,0.0005662634322964276,0.03328546222075785,0.08417616368814217,0.15096514580560572,-0.028616800435982127,-0.16859157676146302,-0.04079765538660382,0.13767580646008887,0.100716012206996,-0.1853098191859132,0.1621848131029778,0.17529859028883119,-0.04771802289965227,-0.07162655091140835,-0.06049759493547706,-0.2189903771616248,0.15703517144213408,0.2392875536310592,0.04289574606310928,-0.033396274629701427,-0.051306442522208714,0.11590190377393078,0.08201561547522325,-0.14978326657872668,-0.21448375828692204,0.25412499173531816,-0.07527219179510354,-0.4790694395917001,0.0321572545572931,0.08835980726707977,-0.18415427110151553,-0.2909886821562075,0.17043555237221916],[0.12159121783610062,0.23871579550913738,0.010580083477253832,-0.22952501144508466,-0.03820119545424773,-0.09813551018226135,-0.13881978548136917,0.0980443640871864,0.12137421715858902,-0.12009957652887819,0.0011086926743961085,0.004955507412425102,-0.05363211322287725,0.041028227910038795,0.06539983766090592,-0.09031234581438347,0.16187821754720305,-0.11099184751283347,-0.0522850164418128,-0.18592524299009378,0.346888947122403,0.1480910184880196,-0.21569931010349744,-0.11450052834627777,0.026822405766586514,0.02184352428113775,-0.007417999122838674,-0.40171749666918716,-0.16142305750472874,-0.15326059425520278,0.11996101500849511,0.021263983785354237,-0.14666900692888518,-0.12409571175946348,0.2853944361808078,-0.008383997535382878,-0.09739811422029264],[-0.2728955288965377,-0.21574849791678238,-0.29310151641274895,0.14147713949947865,0.13058686449070347,-0.15080357646560252,-0.4592444612149166,0.1955895903340195,0.018810284892069633,0.01009613806856154,0.01064444583269919,0.061588143234513636,0.12839349202374248,-0.3005837616091882,-0.1395226767582375,0.13440348174400024,-0.07880222036084886,-0.05766367142997848,0.2779134922111357,0.24457169568297507,-0.009539450656372891,0.07053027159907893,-0.02910685014850083,0.02158993477409762,-0.15313049369370937,0.22841897894562946,0.05809846150527248,-0.020547330580680014,0.33401196599805033,0.0708604610840379,-0.23715615845438828,-0.027800258218694678,-0.30985772807683865,-0.13069879596340678,-0.3116549743077066,-0.10369069909053322,-0.07553762487600356],[0.22024591895619208,0.12445591698340087,0.26676058550932585,0.1167698432972035,-0.27952022444338676,-0.37281916133423404,0.013383191600296928,0.18392574888373675,0.35064313792112056,-0.11319364799345703,0.02876607867216643,0.07270722328091289,0.11016265111446864,-0.06911610740226608,0.4137365088321109,0.15147464255941387,-0.31366245490586137,0.02172785268745929,0.028987501431365647,-0.025646620736590502,-0.2787779993205003,-0.01974053257303995,0.0006803116559579829,0.017368182726537357,-0.057870346945720096,-0.09331460850157913,-0.029593562036125537,-0.2230646928868787,-0.24206325912543888,-0.25382537808795747,-0.06991068848124732,0.06490830511753556,0.09084588918564558,0.1347891195829238,0.1317534820719097,0.09074803732628017,-0.10597302966409926],[0.0354893096128217,-0.16176693413207635,0.14947661268126364,-0.005561205462241588,-0.07418334520412039,0.022095601173657723,-0.2735808266606273,0.1359978968431655,-0.25256560946420975,0.0706151166676981,0.09947739062394134,-0.10546403576454863,-0.05111346264410289,0.175260275394691,-0.09430036728235686,-0.06227134065199813,0.0761298127736086,0.0018601018052848627,0.0887116057235468,0.3232861665665367,0.1973357164745844,0.07618280041911796,0.010441485323179098,-0.010592613908920825,0.005850572827839573,0.06010154479899071,0.0750896702284815,0.5198483435299014,0.606394403685376,0.260239064390001,0.11725247529248704,-0.11510451131396054,0.013915162730888024,0.12523068119363998,-0.20234096325137912,-0.05024170008507381,-0.04783347639137897],[0.030487360560765245,0.13930424036449884,-0.013069816786735761,0.186471748329868,0.038320999795349774,0.2535201658121229,-0.0020302364280143925,0.1673352295643615,0.2795983002320731,0.0645754204674464,0.11219410358173156,-0.08683444855202367,-0.1133534532417671,0.364655457184394,0.295220911673165,0.1507892858469186,-0.15501359741816725,-0.20960742744290325,0.15009870915906323,-0.10285008429514725,0.07436992798282288,-0.2021430362988394,0.06689937939417952,0.09105810007590937,0.030632421378645556,-0.14048223832376708,-0.1518058846932547,0.3656715403119166,-0.020666384239151722,0.04668542322713948,0.28646555808046237,-0.265740362963105,0.032808975360844324,0.09850155953691173,-0.13613480701723263,0.015015127316133367,-0.22841419988404146],[-0.16844163288959696,-0.139022651780518,-0.007576549313522017,-0.18658283282529045,0.1997384664702874,0.02492094297727571,-0.2300245364475138,0.18138583262601865,0.07683185903229678,-0.09804437664371721,-0.09346166262873719,-0.049681227268575094,-0.21963623698483853,-0.06325099853734092,0.1467562616317197,-0.22919672249175868,0.1273700580885969,0.14262342943054157,0.011244740703890475,0.0652459937189177,0.06008417144124574,-0.03498584658500197,0.015897444485761986,-0.1403203317293132,-0.11573337281652463,-0.11514761398836043,-0.09611824400859643,-0.30455403550383625,-0.3612972729307032,0.019596224673362195,0.2840376684355483,-0.2558177395841769,0.19994851173130218,-0.11836249495310153,-0.10731676347548677,-0.08886038915133154,0.14489329956335814],[0.11006858864913296,-0.17824671941241046,-0.18519289993325996,0.1467375984062686,0.056799863789497224,-0.5164490111541346,-0.14972716939847275,0.039630681582969327,0.009757121635998317,-0.06955422718262438,-0.08419157400479142,-0.005027423219344066,-0.11076642756113442,-0.23937653708547618,-0.13538820326665343,-0.10526607958726335,-0.03770637843144119,0.13272746920270995,-3.796575594390763e-06,0.0021053556584414634,-0.16002587663141896,-0.0025281091218022946,-0.16754283721169455,0.023307020932305304,-0.022493989823438164,0.029996054139659296,0.0576883537966777,0.08952339557323659,0.22860714228827017,-0.035621186997034,0.1480880647016602,-0.0510651525640495,0.07507194390173506,-0.11074490057394087,0.04504881667031968,0.02198190087029797,0.06313546029592153],[-0.06304530770299495,0.012522545003070389,0.09189605117927248,-0.2158281245297726,0.14382266535004873,-0.03180289106519008,-0.09650229621388814,-0.15381194211015672,0.17924611476066954,-0.027265076715640237,0.03902290825557916,-0.08744125310984276,-0.2744321983319388,0.016522900397857983,0.08689705101519538,-0.23840292014369643,-0.08246951514176902,0.03541410929959746,-0.06911055377926867,0.2713268119958978,-0.17184684174531478,-0.09145927247464894,0.1553715159767824,0.0580453325857662,0.02207693910240068,-0.08938957085292772,-0.12330200609332853,-0.286056984603321,0.09682834096600178,-0.49538107010662236,-0.1337540155971643,0.025748941418661925,-0.009506643932192627,0.04831188552200941,0.16832011272312128,0.08630150465070004,0.2436521666077409],[0.014384113834169843,-0.2641405030219364,-0.030371891141052574,0.31243477037430906,-0.008926655181796299,-0.08932902598357349,-0.23894913524835232,-0.021891107452614078,-0.17720463347918694,-0.08328512284682797,-0.2230111821289433,0.03506431643746,0.0568031999965564,0.15299603917396953,-0.09280448903571814,0.05218126108422746,0.12194357893701596,0.21846587273618662,0.11139907883514548,-0.3123774162716271,-0.28510201284301573,0.014001593564277055,-0.11933497492476998,0.07903063535293571,-0.06293014860537958,-0.06922572338133048,-0.02227659770710683,0.3233004494113837,0.13283638686204677,0.32855351660006893,0.04700898314540992,-0.03234547391742228,-0.2032600466255394,-0.08105815230484796,-0.017668315013221705,-0.19432116732079674,-0.03606374054514077],[-0.27828532050078314,0.15912441231672964,0.18689228946809663,0.33404645111063186,0.06320698316028005,0.07949287780796335,-0.13883116916816587,0.08638376725817386,0.08624282392150753,0.04706635867223559,0.1708494598106993,-0.09734734128603734,-0.18623868317625272,-0.25870115888578427,0.14260808741150904,0.15006434009607103,0.22929138923894876,0.262298250195909,0.1979910882562286,-0.09694691488315872,-0.027360762085424956,-0.03853342744710493,-0.07001620749621613,0.058632321606544885,0.06438354271606148,-0.16357515490240415,-0.038143143948050184,-0.17790660901858177,0.18604565873689258,0.32969388935356914,-0.08295769013495698,-0.05219787726995012,0.09115976759961573,0.23786641128858416,-0.039258332960436286,-0.05866219450425002,-0.09279177733774942],[0.04076048015910963,-0.27775642995797295,0.11607687790860666,0.027743246480865336,0.06290729514903448,0.12074822394726616,0.029624714931154726,0.04704975377629848,0.2134065041894392,-0.04956264674933056,0.07707969306036097,-0.03887071147042903,-0.11184261283396915,-0.13927841660111512,-0.07261971865323738,-0.22320568683501688,0.013495395534690422,-0.1735150459284157,0.11727123164238837,0.007499217029179564,0.057287236770741136,-0.16187952601448713,0.07472749913931982,0.06328147021903319,0.10481182077818979,0.06579093099560848,0.15601094859868833,0.12402187139311738,0.06252652194680082,0.30539363610866094,-0.08946644248257599,0.12233082382214684,-0.03775238044488008,0.04186110597841354,-0.2800003494393985,0.09113833441508294,0.224199298264521],[0.08550680704636526,0.08859262562933631,0.16508369731518344,0.25443873471651374,0.12717144600118505,-0.13113839110181855,0.14468095718388832,0.02468632008891199,-0.00462732549921686,0.2685449715154361,0.1054954883628169,-0.21682231734222734,0.14452492100356157,0.34104884157185633,0.02369350673174726,-0.03149720217549418,-0.020962699514980518,0.04192025876835064,0.14925621107920553,-0.11979591962507663,0.11546283923374322,0.1010500489489702,-0.272529298042589,0.07394891333857041,-0.045834644586387974,0.05658974127917162,0.07261976416291137,-0.24840185243542431,-0.08756886590961531,0.1693642207190074,0.15222408318783284,-0.2605943917189833,0.2255575128243506,0.28830129924642167,0.15701685849993596,-0.03667728359213801,-0.1258737161345951],[0.0922001847862012,-0.08382163896648616,0.15415899845418107,-0.011494570093774005,-0.2113287067814007,-0.13787618339540547,0.18188493556609814,0.023059601367100144,-0.13616042067953754,-0.15598754274281637,0.04386459198668979,0.25563002115400457,0.12493330061799114,0.24026021354884033,-0.11477084946294094,0.2191291637442939,-0.10910487852971422,0.26932440706799593,0.2084775799134722,0.28767773408770364,0.13090504218010693,-0.24701084519152497,-0.11243399113195521,0.044510091494703925,-0.23978458844142767,-0.15025734659300513,0.04240809778179653,0.13879076755125355,0.14738095748937624,0.07538451825080353,0.2959247334106558,-0.02497358125608091,0.10003255028184367,0.10080705311880837,-0.05244671678971504,0.06996840367434029,-0.05688502723015552],[0.30715368848460867,0.21402215267803223,-0.16163317292528087,-0.030981692720620152,-0.35351067992397406,0.07967108307391557,-0.08476935597766225,0.028051339403033112,0.18141900317704346,-0.13492589473331337,-0.12363768581718071,-0.2699295945061767,0.29002021011501017,0.17671933264025932,-0.05192255881307148,0.025046020061598954,-0.19570698236212397,0.2418114215289281,0.019038486075915864,-0.12488637984722632,0.17848929984270445,0.1261258104100333,0.4473584910671507,-0.14078577747648383,-0.17425580413793806,0.11723276263295902,0.151441129769214,0.11310255264282786,0.06851580400523409,0.02259773703446926,-0.19056321832290368,-0.18720504426791673,0.17676247635832246,0.0885525253723395,0.36522015088496684,0.2860536997137003,0.013387861383533112],[0.04589971549658578,0.11472500903733204,-0.346758922764534,-0.0005389919121064937,-0.09670526936696848,0.280705905483679,0.06248528783809375,-0.06873724717621613,-0.11830379544386525,-0.21766242017823842,-0.09076030305705134,-0.02222567726797558,0.01066116888619003,-0.30866053700910245,-0.019704770673855596,-0.03557764327552707,-0.2406922612819989,0.03584245766419835,0.25522122840100436,-0.3187705717941344,-0.09133406156140116,0.23705176060378183,0.3205794602968645,-0.10202512448786864,-0.2281106801727659,0.05485809565399357,-0.0805660470622752,0.18657962741077513,-0.08491268743614981,0.13439860073254115,-0.6080325938400509,0.0431506602368481,-0.12504136526845658,-0.06083264724678684,-0.22875745971615125,-0.04162237033257308,0.28334267747035724],[-0.07225449189819981,-0.09561124052463608,0.31451180516744126,-0.09636989952344614,-0.3715317028175076,-0.05421192658512911,0.08953417285292199,0.20611019076756815,0.014191298015871191,0.06300978426721718,-0.030096168108950747,0.05466142631132643,0.18798545537146613,0.10289903193241492,-0.07436431652313841,0.0596259834814599,0.005163742391760124,-0.1750796400670403,-0.12268990239885642,-0.029295223419402872,0.18628921143883065,-0.05534829272813367,0.07258165718118963,-0.013878220714390115,-0.00570232471916052,-0.14405815345129813,-0.08853290586393177,0.2940968239761189,0.14815811974832424,0.10307159047296449,-0.0545270742478319,0.137552727624468,0.042110087241325464,0.02165059366050111,-0.03114214215201267,-0.06584634963180833,0.07167018230687734],[-0.07517660455944801,-0.02143631819444488,-0.2592027602913606,-0.14469394464603558,0.13146455448186334,0.256294987166439,0.16625313209445747,0.11320874993516904,0.08772090753763574,0.020770752033872894,-0.13134574785268965,-0.2169905480105925,0.10452525817915544,-0.18451209538558577,-0.09924794969393103,-0.2579596448041428,-0.29613532939031106,0.031236408894722203,-0.0006671688534238563,0.07650587867908534,-0.2719472657243909,-0.12576016379432944,0.015589231408623502,-0.06818932396568775,0.21367904535104307,-0.06498380996282668,0.0003262955966772076,0.0014783375286771352,0.028028639231284257,0.056892242245097105,0.15978771487896945,-0.09920971989134326,-0.0876033528292769,0.08822497806088403,-0.05644843257419318,-0.15430000406708852,0.25574386622132056],[0.020241209621699095,0.0030579166108124505,0.10938513839809086,-0.052948822992222366,0.16848464017246953,0.06647552246645111,0.3407742963363223,-0.08656586017968511,0.01633739517558969,-0.1014449373653306,-0.270580994520844,0.1671128357926292,-0.13022880236817844,-0.2223735559084985,-0.06491366808150853,-0.04250521516173368,-0.2490486152927576,-0.2798171601099887,-0.08149971686645689,0.12737480630465886,-0.28180791230493213,0.1389414942457744,-0.08038122885295568,0.09052790254460051,0.014967020061518975,0.030484543695967575,-0.049198548862362565,0.056876894178516955,0.34723950995673397,-0.15140158698672723,0.1265091430654524,-0.08706073063131835,-0.07618419716950273,-0.09151455810329091,-0.06624682221795941,-0.021470605849700872,-0.22871962127853726],[-0.21217229815154015,0.03304481594140551,-0.14410952457331333,0.10503664893916285,0.2383876961904334,0.0989317032643082,-0.25522772083080186,0.06558636589760491,-0.1424628251894458,0.2553214996678774,0.11569765307053428,0.150418767956793,0.08629529925559787,-0.1808037130555307,-0.1573163438243476,0.15931091340860498,0.46302434995812086,-0.14294847719536788,0.04633803528748426,0.31338435261758757,0.12471536905662883,-0.07890242881539258,-0.023051007394888592,0.02317482212633373,0.13623507930558354,0.0850169587470157,-0.09695358014529962,0.1505250676433964,0.11114536685777984,0.05903178735187604,-0.30785241554881315,0.0001321829609167738,-0.1860540258368676,-0.14953929929781903,-0.024692089547043085,-0.04077920238079327,-0.03968514908739903],[0.13850256685311688,-0.015232263095313838,0.005518948473243288,-0.13183930823677226,0.12654612570015428,0.13691634075263437,0.037953152740875205,0.20151621211568785,-0.023610764672932168,-0.04848399088811719,-0.18986528235529898,0.14018773958231168,-0.010765083931129968,-0.02786134459355087,-0.012580445422953238,-0.18281732525515698,0.1024937771468537,0.18218023074741518,-0.04967781762239598,0.040317211588579684,0.1459876957112714,-0.13014432625220437,0.2306563462030717,-0.007818201818125876,0.08960780610422346,0.30493429474872175,-0.1570006338078952,0.4573949815017816,0.6029367514997485,0.6801788326587602,0.13450538755458044,0.18417664740886053,-0.15774615934124106,-0.1305727576409647,-0.07035106697798832,-0.17666488625842675,-0.057576869582844276],[0.021542796423487415,0.11444169530460585,-0.4738129491977763,0.012653138578727697,0.11668386020125675,-0.055566887681992874,-0.10003293240627867,-0.1887581828228209,-0.04835568200193333,0.10869501696709956,-0.046407541734055036,-0.03852894018867872,0.08146629800472237,-0.23596941925730336,-0.08664173473622709,0.3030621253291784,-0.17515385629860725,-0.15216830793743097,-0.11554672447988144,0.14497940449002084,0.10574254458045436,-0.1894338382206915,0.059368897294934206,-0.0023294216073455557,0.12829002266897369,-0.02088518715016719,0.0667004654025118,0.19280981146569848,-0.14861512322399792,0.17238127940424378,-0.7417197626145067,-0.0005200521994824144,0.11042317762646578,-0.1846886797790426,-0.04000920495048258,-0.08154043456370837,-0.13359210087041107],[-0.12407592629452353,-0.03923865816041688,0.03161571099798982,-0.5544671619257107,-0.29338620974384255,-0.02565001159157164,-0.2639988808671113,-0.3001190351618006,-0.10566322835280427,0.1057339312466945,0.10693764268732883,-0.028772181991507276,-0.16781583386064886,0.22275261074504957,-0.21651085033003287,-0.029658312481086673,-0.1732850717870973,0.05237196101871242,-0.30203046843130493,0.08026514688376903,0.4047152373932863,-0.0065235520106512205,-0.11739610539132771,-0.02255593879449943,0.05855217243460334,0.0639744534748589,0.0006035494053130601,-0.04646904084969896,0.34359488621392115,-0.2809794998704837,-0.10462944245046026,0.005174573192391342,-0.19866751588217743,-0.2080128937909991,-0.2531139836671189,-0.20313725810860747,-0.059910320730220276],[-0.19236498910918823,0.06838118147004014,-0.4484270618262284,0.05217259096107775,0.13756403229257053,-0.030956004896021495,-0.0061242612867755345,-0.2093617829301452,0.2374042066006011,0.161398914252259,0.054270175093128634,0.23588977463522828,-0.17803680884395767,0.0029012659011158517,0.19277174283303913,-0.25311596725864294,0.2516083453701586,-0.12063992139276795,-0.05109315257428663,0.18829277153282473,0.0352835121124555,-0.24198680639973771,-0.00038198369445067694,0.12609723225423558,0.3287864890031563,-0.08931899146550301,-0.07426055555003915,-0.11227525099987115,-0.2234752228807082,-0.012333741874893668,-0.4599476543774107,0.024797526836881738,-0.13979624024983806,-0.2851315315473305,0.13592267354814422,-0.006788516249222262,-0.2140059845804875],[-0.1959777172553293,0.05560955531853336,0.019454810270550425,0.21670994742546695,-0.07090923546084694,0.12737331451708445,-0.1233008687654211,-0.1994523097651542,0.025622664134428222,0.1904707477148989,0.17243048319470072,0.119767772616701,-0.32134073119477685,0.11194868841466518,-0.06676512720505312,-0.1287795439766011,-0.15193206269940507,0.20665485592958646,-0.011836068147289954,0.249000412683732,-0.3146372342095145,-0.20874956696337238,0.09976457107160794,0.1282143669286519,0.08327937835858726,0.029588222666309318,-0.17426130143713167,-0.009398170468487997,-0.17817002257038034,0.01323786659345492,0.09723371773478993,-0.1529111168932237,0.026554390245695492,0.11799043381398094,0.0636893726801292,-0.3891558773803701,0.12345654450428722],[-0.13530952780674174,-0.13163005848297252,0.35179019566624703,-0.15642145400176072,-0.07500507632221128,-0.07639764839524019,0.13335146402074255,0.012315118719205279,-0.176147631436669,0.10950578165162536,-0.22000868736798296,-0.015917196489759155,-0.10202580103626877,-0.004152726809586898,-0.04605899382966692,0.1997417762444591,-0.31945295174936766,0.11442780530714554,0.28463008505121085,0.2441672544215176,0.2460196274272326,0.19356996763440737,-0.03035479012194026,0.008851457861943432,0.1815750588825735,-0.08686609462764877,0.00965959092948795,-0.17659120189110508,0.2283517533842885,-0.058453720872522597,0.41570347667876784,-0.3721008218314005,-0.07754153922869306,0.17586515156446597,0.04344676120096847,0.03517287666823985,0.13119188677530252],[0.0861020639882325,0.2086157681107835,0.09289878644823071,0.03740177041053477,-0.5462702495495574,0.17357638002233694,-0.004448055107800887,-0.05014683745486343,0.26460167923407923,0.16354732277519363,0.23424788760814969,-0.06492658750247847,0.19439721744017333,0.1355302166494112,0.12894618828973892,-0.009475568192571584,0.11143507847886927,-0.028686481858666135,0.23873524165057733,0.1915954200902912,-0.0722209824648304,0.1385380452897026,0.32847613129021364,-0.0023625415680510967,0.027242026278088468,-0.07916246908397705,-0.09646969049873659,-0.1254477592414818,0.1163740992514753,0.04762016822010739,0.12336020015687706,0.17502270752166507,0.02085396321969975,0.1397795237950075,-0.07132110313042486,0.019977101221189286,0.03748523219844112],[-0.036832848032753655,-0.05202743663558653,-0.20419499716328526,0.004638632291111122,0.14036369178300437,-0.035732516199007025,-0.03218296959589464,-0.05881925854066758,0.2731276021239577,0.09414313859768984,-0.2253422022376233,0.16221985551812715,0.006185891647644356,0.18032162892537698,-0.06644193671578476,-0.06589063205321706,-0.2252453302484842,0.15933620447294553,0.2223203795904995,0.031057466058790083,0.11532018102767465,0.24937451516023545,0.010393889707540177,0.037033156182644335,-0.04537406110077066,-0.1315356575856063,-0.019736863289408834,0.17789433492676132,0.2962706852356677,-0.26584877333269946,-0.5830444274477296,-0.1224354538904941,0.10523565836695034,0.15603855593274388,0.19388357036860174,0.08328741519078156,-0.10894799641263643],[0.1324789378347766,0.1415391885249195,-0.0653728607152278,-0.03835453176563193,0.07147847845758427,0.08393664718719823,-0.08109763237977775,0.07677990353167684,-0.004247286936734945,-0.14493678435940544,0.03247488821650214,0.09154450221731561,-0.09111657855337306,0.3674707385860415,0.24042884527095396,-0.21375590325125474,-0.31133948568755326,-0.17047195202636484,0.09834280913546244,0.11571867823720881,0.2300525548178853,0.05063172775413151,0.1805801169425225,0.05141169632538194,0.07333229985784279,-0.09987841969766714,-0.060430595961154805,0.015395931997006774,0.11970438341506477,0.32993164830228583,0.21639837114197374,0.13530486005249867,-0.08385653781501622,0.09261374290646925,0.058124036897757435,0.058371830256025554,0.0015034581875664288],[-0.15482542067540855,0.09656284980900401,0.12999819462487572,-0.13282892246265202,-0.47949124439638224,0.003007122861476002,-0.25441501413492335,0.017192081194304407,0.2022748854075919,-0.10599903670945121,-0.025671538418492526,-0.3327643769165658,-0.2385463539706564,-0.09716469883091793,0.19113385113417694,0.1790898573064269,0.26110211839698144,-0.050223249988452984,-0.12166464547505113,0.1218520833677551,-0.018552641589980576,0.09198617777006275,0.29638037888726104,0.21358976018481532,-0.1579784848089324,-0.1124820207209705,0.09042810306315899,0.03209551646687814,-0.11653821715355056,0.2741814968755225,-0.18991573480366528,-0.1510942383155912,0.004685367353903075,-0.020720715279760382,0.14155746013098283,0.24191290662779516,0.06828245239830039],[-0.15019121744462033,0.1299494689867755,-0.11284086100091274,0.16292315206608,0.15044390179967354,-0.08262732396669703,-0.06591623330144927,-0.0949986704900183,0.04317366690105406,-0.280300234446188,-0.015783596204257375,-0.055264833215928025,-0.003399494500517218,0.015668521010246392,-0.260833130980771,-0.2078932200218111,0.08146417030196902,-0.15000162702099498,0.03983190042055716,-0.02808679558476728,0.09434194604845567,0.17449805506004543,-0.17571189941227386,-0.07018109043382402,0.08881799979816027,0.0796249283845182,-0.08311198384999233,0.08994189706715096,0.1896881086738852,-0.19026069011609067,-0.024575380464893676,0.25861919838182784,0.07612105295402627,-0.03203230436276594,0.24723349765982924,-0.1176840856541833,-0.20187745280334998],[-0.18768554699362555,0.0538208091814304,-0.17675109729512545,-0.017333379269990696,-0.030352430144051038,-0.07465028824814875,0.05357540512155424,0.2266406501633865,0.30569100341363165,-0.13607309633348003,-0.03996735627149699,0.07005275538253189,-0.22438206519590478,0.12666856381882133,0.14576189961219746,-0.07744755534860226,0.07596151264783171,0.1014243955704919,0.14511491416730554,-0.19013740204652493,0.12265037040421667,0.046607257863439916,0.4870265249686235,0.030465610656249136,0.042877017784478486,-0.00111226915726607,-0.015919142034322986,-0.23194757466741195,0.14087871548981115,-0.32577455614770434,0.06686337486841644,0.029084628937638857,0.16065339599650344,0.061814857943430605,0.016195463755244412,0.1074655555972191,-0.03381715009575287],[0.1462308324449282,0.20164553415682798,0.306488391356651,-0.19831655731653772,-0.4945718566019709,0.2406982249291174,-0.1675541902764394,-0.03347074227671027,0.3547491394717264,0.047716690323165084,-0.08257954926950788,0.17289756167589085,-0.10971325960999552,-0.05793469890927342,-0.04932659210009072,0.07468339345607432,-0.01780233031498446,-0.14980578630765493,-0.1895331086096667,0.20858954095859192,0.17421373470020413,0.026560557445521167,0.12419654759636078,-0.07843614196572032,-0.16149432931061955,0.11281707466482038,0.040347794749026916,0.0680076348518758,-0.2916371813362737,0.04987058777531439,-0.5778469678979402,0.04872819448598205,0.30910655720240576,0.3223771351966433,0.08939015624818857,0.34931506427411485,-0.014499178176584198],[-0.1274855839870037,0.022965997657005372,0.1621106498896888,-0.0565854271846971,-0.45278550626627206,0.3881808556532546,0.15512665405053971,0.14712605451294303,0.3260764903888949,0.022168969664207124,-0.254538501263744,-0.1322005253207732,0.1511340058496343,0.2047371468169506,-0.14909908701403582,-0.15605850049423795,0.14133499219140505,-0.09060066540576742,0.044956374528970125,0.02396534681093686,0.0725983736130936,-0.00034572361190551994,-0.029825646723508938,0.11129655305030153,-0.1725056395026921,-0.10153307026969245,0.1253523863093723,-0.10512903341571284,0.05197522150168704,-0.23892575512013398,0.5010230899958382,-0.16891944958133243,0.14033011670228304,0.23010411959497942,0.1628195506473598,0.2795079128936519,0.02977200358931137],[0.05014279414974359,0.2593028170561088,-0.05128317100512883,0.03693099895107647,0.22319610384051364,0.000479929525492393,0.1924906464945937,0.1677160505623536,0.2337437806651364,0.18724415249040943,0.006791168601406234,-0.07681658550743377,-0.07838603567276413,-0.03764526684238456,-0.11644953190090322,0.10497575002579476,-0.16588138952930379,-0.151769268019029,-0.33241352533170915,0.027031634009385467,-0.0551673124751237,-0.20345216259034726,-0.22169750319915021,-0.07602123855263831,-0.20136208353961074,0.13801211483700393,-0.06145656123946254,-0.14967975181126875,-0.01613863876254254,-0.26722682967236805,0.08008995429537605,-0.1632158540893502,-0.023901494404300602,-0.04763916925469079,0.12740921691307266,0.17987770353045274,-0.4364762538760091],[-0.11494599284253662,0.155243437011159,0.1637107428587099,0.10878008390538663,-0.18166561934436343,-0.06473247434189035,-0.3371003248277748,0.04487849336210312,-0.212451437542277,0.3481592901766698,0.2703075675976181,0.00578268479323235,-0.022552282487907277,0.19557182359527406,-0.06071624825315828,0.21089858446475684,0.312454739029983,0.09616455432351127,0.1967805193491833,0.04514729440287865,-0.22362432979108313,0.004239124777465687,-0.1265379654214001,0.07424982924100275,-0.0170239708948978,0.005720056205943159,0.006003028724953826,-0.02230458098917118,-0.22025255355198356,-0.1345865988843429,-0.2293650874437164,0.19454830336652693,0.1430689943104478,0.1749883229711046,-0.020282051129529962,0.14898595886365346,-0.08978463044601064],[-0.07954957522320598,0.012526995226660242,0.08553124708129733,0.05990660695237007,-0.14753949173491912,0.17613521127719287,-0.21175455435726417,-0.1740848274651724,-0.14410722261738054,-0.13962196123711088,-0.021805084156702584,0.18107169115539,0.24534318701049118,-0.02850600685489624,0.005159248418424641,-0.1360295274580227,0.26686493399486594,-0.06914210705797048,0.0690530857115388,0.0660714758213855,-0.12709084250116626,0.05796689408320958,0.568627432660371,0.09444733968034054,0.019287983157892787,-0.005231950237047779,-0.011330674145492286,0.2802671880171256,-0.1593357091985621,0.056083792235159684,0.016515914879250936,-0.2085309405404715,0.028698496840878898,0.028461516070608785,-0.09606936288578498,-0.13735262138280074,0.09343378461009338],[-0.1827593783641263,0.053067828017681125,-0.1287736945251795,0.045867049556684664,0.08392370280190777,-0.04163821983267054,-0.45686402517178926,-0.01621767076935989,-0.01046850234112856,-0.15648835833239744,-0.12927785464966818,0.2024013808301145,-0.19632174870696148,0.1236546012513097,-0.025954837948628146,0.1251868803106467,0.09842612314667887,0.100941272053013,-0.23141892289503438,-0.05240048324942503,0.11731642979362551,0.06694833970876753,0.014361649845771266,-0.04355248850371084,0.0023765093235148613,0.007600460886539893,-0.0010357784664365558,-0.41758669390373576,-0.3184185153966843,-0.35977412690006766,0.38309606354319753,0.1964940682863166,0.0713569471863551,0.01982488017206448,0.0645780452011444,0.07032379988474086,0.14727166213195333],[0.06478305211883358,-0.215094472775905,0.02769697709645468,0.3749171173934019,0.18785874689479168,0.19582254170452357,0.034998427492236625,-0.1151360074134277,0.20646981023814967,-0.07171660321967638,-0.19661375927641778,0.22336716235725942,0.2388522257114587,0.09566710009368026,0.018412075410859714,0.11380321039575385,-0.29723417943605984,-0.2179944163595344,0.08729678767250185,0.07075051182201267,0.08715780924891794,-0.1924096883715074,-0.27252042373291646,0.011016940821310672,0.06198972907133239,0.003888818518415133,-0.1278361206723944,-0.02661426208216562,0.19123168012611302,-0.3613462906417559,-0.04053061556895179,0.045653482226330026,-0.12873884988265705,-0.1606236868313492,-0.1506430133730252,-0.12423400850704368,0.15315453728528736],[-0.1752368999503253,-0.11348275793875419,-0.17301822200039121,-0.22232767490112543,0.07522193030499319,0.1447044768870542,0.22647462047560185,-0.08973914227352454,-0.025691680908247413,0.11027148078851255,-0.25358619737978794,-0.11574293670735147,-0.1830216361262002,-0.08674073030915877,0.3167486866030245,0.22409312482558874,-0.009308589768800236,0.044642674672755726,0.028022697950514073,-0.027023068570479456,0.41187934960890865,-0.24222873842918227,-0.09531654867479789,0.03679973758551195,-0.17117048845313892,-0.019843931842753692,-0.08627510119449364,0.2563167456699262,-0.02248031441486988,0.16789362313955614,0.01410253973068104,-0.3276350112823491,-0.1089772019028996,-0.30626824987413426,-0.21014880466117317,-0.22752330846889302,0.11240087027523166]],"b":[0.08514946324516104,-0.14941223710703666,0.12900317637217631,-0.19872933591849684,-0.05720891142726825,0.33455424523154775,-0.22873639253612396,0.010687814642125988,0.2871814268829146,-0.08122713451974518,0.07907494299107817,0.2627142105627518,-0.15627246755743832,-0.06613900622461912,-0.1249283649997815,-0.190201524464379,-0.14354624162413684,-0.04819196847740326,-0.08685888930997275,0.22361503550984693,-0.22373588899815378,-0.003163561253965466,0.008472630122690205,0.2858099929345706,0.052779978189653354,-0.07391585975090478,-0.1740312302670622,-0.01377682228312662,-0.2379119426186253,-0.011682694979488482,0.18705327212461936,-0.07771857475435728,0.13635925775686425,0.10415225171799022,-0.2882708583463665,-0.013848109271227243,0.11758177401734467,0.23738333296331848,-0.19035484921262733,-0.14323828776291878,-0.19028907338820836,-0.2820445809379548,0.02147971210194004,0.010928575328287105,-0.037535499608885574,-0.3717623526923703,-0.1912366082386485,-0.31787373651501566,-0.2251119472527971,-0.09136626012634551,-0.06346087753661989,-0.009209392351377292,-0.1185806607721046,0.22803036720015818,-0.033656147450109974,0.3061537992066132,0.04457385704957057,0.23322219891561466,-0.22294036686073923,0.003612709507539302,-0.20569491347960442,0.2517819984424794,0.2781900119726699,-0.3674672254759449]},{"w":[[0.18276627896623834,0.053920859096712036,0.08098688195917196,0.08567921167222323,0.05412985246936583,0.09358507351443536,0.2479756159580037,-0.22669931771265492,0.07375538526240295,-0.04604799592902633,0.10209538462053587,0.022765769232450012,-0.03662891403930511,0.023591373653868715,0.05510678317542934,-0.033184726660095025,0.18779910794884444,-0.02352526325338065,-0.25744779756981717,-0.018153841409184454,-0.05603916772153972,0.11679340524147494,0.0847957370847651,-0.0014808061678571185,0.2014842229222151,0.016309110460129426,-0.11991848009665636,-0.06302279827129702,0.019904352169224558,0.1927674350774776,-0.08244714968270732,-0.24218332056739475,-0.062362710344068276,-0.04822893164290325,0.0646397690002794,-0.042997692827857294,-0.12373056835473628,-0.044234524094347145,0.19084023764246613,-0.3672663301854626,0.003065148222305179,-0.1435219699130479,-0.0654208117427691,-0.380775353262726,-0.02598685493322226,-0.09418574959432668,-1.0472173058950838,-0.34844918301549477,-0.2631706608357091,-0.1500975892458429,-0.1469132145018047,0.019997601126784382,-0.19367963497391402,-0.10617225703948582,-0.15056057531649703,-0.11099387787027092,-0.09341064538354446,0.2215791083175106,0.04138809801520845,0.0012453183516744314,-0.05235620739265028,-0.13941856082965476,-0.11843046153618765,-0.15104168194065498],[0.12163433352930392,0.11122050846907469,0.07366699084819708,-0.1981945983204764,0.24875467695955375,0.07267170846950244,0.34057981682076804,-0.1413642798467627,-0.16465992161570744,0.01346413122264364,0.006643940387940729,0.212924101364369,-0.09332838207360884,-0.131806037908012,-0.04568004708147697,-0.384866363571637,0.22921734856694165,0.1399881158938508,-0.045776806154295635,-0.07319666900307865,-0.10508725253854,-0.126109228426037,0.19603805640849817,0.005149798209099793,-0.017372612308307094,0.35735641346610575,0.2099575583516409,0.1725967680767718,0.09245221258447549,-0.29363025013729527,-0.03689820078907591,-0.048118061361558516,-0.1441264205020886,-0.12844986637793715,-0.23634892049519274,-0.0031189253858443567,0.1166674999320387,-0.3585560452395726,-0.10387260766250032,-0.16775424722484497,0.015033144998005928,0.047764899051290007,-0.06828841023763305,0.26063456327984635,-0.1637144343664113,-0.15320576851545037,-0.25239414284578926,-0.254412367187692,0.2555007915890052,-0.08375324268159173,0.0107670580829282,-0.29010387737550275,0.030835624510644952,0.16063892653714526,0.0798442504706043,0.15170463572982085,-0.04269367878665426,0.12130295724726081,-0.36144610436838276,-0.12116329495518328,0.21014990363677302,-0.2596916023944866,0.04472183113252884,0.17598988954769776],[-0.10483120447625063,-0.18338854982905697,-0.18337377610462754,-0.12212246899907671,-0.0513064498892527,-0.1811067744716769,0.3104198996546502,-0.0052145674797076,-0.18853499365615128,0.081341687004808,0.21845035676718838,-0.20548161068259266,0.15151931315020134,-0.009157018707767197,0.16226681037725368,-0.3150053910383742,-0.07035680122968085,0.006015703536006939,-0.19490881557577147,0.23097823937108888,0.17192211926549586,0.01719512231784437,-0.0037046750021348172,0.17339203858017968,0.11413802697568075,-0.34204256921119713,-0.16787890770118422,-0.014158864490117764,0.22437227525148712,-0.04211931954421974,-0.4297400757457002,0.07141955295199728,0.14308698577375759,0.17410243558111924,0.10538998939702587,0.01602591194551012,-0.06786892925248751,0.19217759987211513,0.09186817114104581,-0.11809091740541783,0.1702386896283492,-0.06722221659662171,-0.02597432456320825,0.10453448830745625,0.137716598598715,0.05182600319243331,0.0663959651206066,-0.17434534719301575,-0.08380295452636553,-0.17556565202030974,-0.13146637056967683,0.019023759344204777,-0.11407659371224228,-0.20609133485234987,0.1592639223865383,0.053430016645630796,-0.01016925590627708,0.04454893725090804,0.013869084694522736,-0.14816268094808335,-0.05814954755150186,-0.20570754629392268,-0.18602298965290526,0.11836844744573351],[0.20001794192696495,-0.22063726827069308,0.12752829737285656,0.18410296616854074,0.1655815884152797,-0.09096447125685445,-0.14121399485059427,0.11924017847351182,0.1156117907973182,-0.1327583070655818,-0.055713183189710046,0.1587900317045144,-0.3027992047645238,-0.0530509894439955,0.14925129868269182,-0.36892687289621445,-0.009245320915144612,0.19543556957862016,0.1022142004088464,-0.09967265824706567,-0.189524381422604,0.13186435169148147,0.04533989985869308,0.03195352463295549,0.1588340659271235,-0.1646484647523872,-0.5174644827104646,0.18179998450493115,0.2432126185889574,0.294846652972582,0.23978458867938884,0.08239199413343264,-0.028619088465858557,-0.0007943886961210247,0.032693555364713314,0.019788158475580447,-0.28981881849610275,0.004618115734135405,0.20717863055952374,-0.11931613886777022,-0.10213361232868143,-0.40958672829435294,-0.09139006759653137,-0.11979030277576372,0.09668031199205403,-0.27195335893227884,0.2824808312545356,0.0027988966381747122,0.19296510569378753,-0.21818004274343686,-0.014360263728272996,0.2216694254025385,-0.02565679475776493,0.06365438953634928,0.05072839980633305,0.1985229142641244,-0.02123074526810794,0.20382148755636317,-0.2899004964434451,-0.19757200727858157,0.01650891082132436,0.20754789801276807,-0.01494074260376153,-0.2823574980095009],[0.02176282098331337,0.2955070215434692,0.17993966615024257,0.1456086280364128,-0.01404896847233655,-0.18611228876299454,0.08617560066597013,0.17672964979286018,0.07485713884364462,0.13293926774523726,-0.08667530404512822,0.14744484605167077,0.20917831993012684,-0.07494964161159422,-0.15988397904281773,0.14646530084859974,-0.2937237895650923,0.0017456650447941618,-0.18828597089548968,-0.04297533281649433,-0.26157964298534475,0.2534392604870302,-0.5286860978357639,-0.0030652259822507646,-0.08808644995441936,0.24413104593848306,0.04129051743738826,-0.1806411255796611,0.030672953176374983,0.11651294071177754,-0.12677009713120246,0.17092122260840842,-0.057794919931913324,-0.10921320767706662,-0.239047589814088,0.20441374507386123,-0.2801463735854033,-0.2848613192861385,-0.043144902675526974,-0.2068103107083318,-0.02490708892874461,0.1533189955231487,0.1278448121981479,0.20095813496135226,0.061788840861323024,-0.20184082986776222,0.14961668307012546,0.287402309604514,-0.00412167879002149,-0.151905830206252,0.1051504028751139,0.10525574265329814,-0.17899291686402172,0.2146849753218109,-0.1433085542496691,-0.2167020846777073,0.24000204970178493,0.18704366296201644,0.18740077216658202,0.026711582458678516,-0.09491652451435825,-0.026497264198234706,-0.28151362767895116,0.10605384393166191],[0.05433389297622934,0.04332686162023848,-0.054966115781411175,-0.17181474659730153,-0.19337202070526396,-0.31946387119992564,0.18946416520535897,0.16036369374264917,0.17832038019719662,-0.03808941240110561,-0.22268908954009844,-0.009468054493080363,-0.14430337383573463,-0.06476629337979802,-0.1583858643932191,-0.08506163440370285,0.10367365439393161,-0.2781756815037338,-0.01997931009490629,0.1213359393029318,0.04072389155621624,0.020324061324259686,0.18601639843461634,-0.025489931552305178,-0.16941831662290802,-0.005646589422491589,0.1091141779086005,-0.12708970368288683,-0.1330291824705687,-0.07294970621861131,0.04665776400254626,-0.1045401411941654,-0.02000272588778031,-0.1710629934804832,0.0490853508892911,-0.0923387485084051,0.07004880562768334,0.07025702387115836,0.16532298842265136,0.15341495370091682,-0.10885101091990193,-0.025145299267013622,-0.1670479163584969,0.3344057394191925,-0.16931046014135123,-0.2092870697793634,0.017877511516853694,0.2208670312356056,0.02014396836231596,0.033557073646405776,-0.12985314223765132,0.2511844590664191,0.07653638770052829,0.28345635164054567,0.038182037275964475,0.12324285869997034,-0.6286232291257772,0.1590324610419766,-0.563559944640221,0.023748991520515447,0.2886374940116254,-0.19504749830414717,0.03239109526134275,-0.0452245882941754],[-0.2464919221714176,-0.19733109065089693,0.17545403109446422,0.0456104770763682,-0.18010530468919858,0.029781940187944726,0.25711513551464005,0.11046450739525669,-0.19521075635343502,0.03819830398568866,0.10576853844819345,0.21863515858908905,-0.25619181123166507,0.00782878997011255,0.2574147847752558,-0.32320870252993394,0.3086682327490727,-0.02527930135495413,0.03167821068768939,0.0030330000440977325,-0.11971025518472768,-0.10078874284429169,-0.11113631573646639,0.009899466414616165,-0.1424224628747423,-0.14475957012939705,-0.06511379856390641,-0.13141490333382894,-0.1240084184642395,0.21033906060870552,0.09766197909903455,-0.11295018229388971,-0.09461272869933145,-0.29454499421040564,-0.07191443046653519,-0.1979252029932936,0.10725876731907198,-0.06250269782811965,-0.11772861567025245,-0.19190695297974542,-0.11750407274593988,0.10527798740302795,-0.031238325918892935,-0.25864784078067354,0.02031113966291836,0.17214809103153664,-0.06815997913622443,-0.11532891601740396,-0.0564532486723085,-0.15470917519213837,-0.22727647760621705,0.28155008633203615,0.16778518719963423,-0.022119923635126607,-0.05740564046846295,0.03130163755528082,0.1182023426432158,0.11006987962974965,0.007863327845739823,0.25284225387395204,-0.034969178751582605,0.11579789685229608,0.13172259841496703,0.053868212919999624],[0.07476069895422412,-0.17304722503170222,0.0718509160354743,0.19158290782564363,0.02246122502710266,-0.007381363482633617,-0.14818732872975696,0.16140383072552175,-0.0365016307435426,0.08804615077708326,0.14276732511858525,8.328620819134512e-05,0.08823374444746108,-0.015809501950533076,0.12034553892085709,0.19509224458250377,-0.2128070703432374,0.18774960009858158,-0.1145170086350018,0.035675569096429945,0.06044223776292509,0.2086193993434191,-0.47207938136210026,-0.286892014265334,0.22364103387379164,0.17393523026188257,-0.331837698558636,0.28330568786112037,0.12592512912336326,0.1365596150132594,0.051288879271423775,-0.005639145730955806,0.23885031845674215,0.10473773579822557,0.028040022779332912,0.04604959530692564,-0.09623267059167989,-0.07698800282655088,0.05049801166693985,-0.006989341521670705,-0.0734530094388964,-0.08514819170937171,-0.14512462063994935,-0.17530228378196275,-0.01597712682620257,-0.10442092916413441,0.3954711234507713,0.1574268304382612,0.31171902796782897,0.045132293547738955,-0.14589503361021708,-0.23396533363818012,-0.4264057313693022,0.07008201408122665,0.01187564139691826,-0.22446049792966896,-0.09777607006797917,0.13440688697136768,-0.10721612782069949,-0.26657511140891765,-0.27057076915650896,0.07573866953649352,-0.3523123519111391,0.2254132302477163],[-0.2611890838445745,0.19232965182975084,0.17713086346327644,0.18351082537247562,-0.12457739667741051,-0.18396636972559202,0.09491730660108628,0.005087932237845533,-0.11472406213778599,-0.168839906961046,-0.2592849034230441,0.15161815872859252,0.13348352606749742,0.03580628787884683,0.07823894148440666,0.29231280072318,0.08182775084770354,-0.02084838638327637,0.006520209384987706,-0.25649049752297864,0.1555351469879137,-0.09353227793272091,0.17574137469586443,-0.05999901075764135,-0.07337371585245776,-0.20981032255707635,0.06355945519455646,0.20898411573957912,0.09606371162314539,-0.24514301528646082,-0.006804973195090324,0.190704813351216,0.1828737649168144,-0.04196729398020177,-0.054074344692912606,0.1047951742348234,0.03877008823360691,0.08316794110152877,0.01764606703788335,0.21476601016999483,-0.22752826605807286,0.17426410078470794,0.11705167036448946,0.13336306349460722,-0.32586361035863276,0.06641188882703823,-0.16307267768888184,0.023191182935783504,0.12004271000334457,0.054408714536903435,0.0636465440497023,0.04387713611314905,-0.1375115241113076,-0.19390528312967387,-0.08366656247111652,0.04294287906917061,-0.08567477472439677,0.2226484402854757,-0.02410491904751842,0.2590081106085454,-0.27492089460649133,0.2088889568727391,-0.19924176104007207,-0.01383572103142939],[-0.05428713431813107,-0.08741459913460241,-0.179711227607677,0.0068159834833394165,0.042166629076060884,0.16522097207071226,-0.09700401579085254,-0.0460319293974018,-0.0709700214123933,0.13476367507495515,0.036594141565293746,-0.2002846062638601,-0.08194746734990353,0.15194617509044686,-0.24332703765576824,0.16379307874108676,-0.31060129376683904,0.08978712615028606,0.2639465373869385,-0.05224121935359151,-0.1556844064477872,0.18204403809904038,0.09439943899099093,-0.16138308846265548,-0.10915384687851003,-0.23975715497185,0.13544560201682973,0.10781533801782743,0.197039920749674,-0.11954298309240038,0.2126696154851811,0.013041278372648707,0.18405786581484218,-0.04100191859700941,-0.5015396395914976,-0.03796573000662793,-0.10273894158922287,-0.040181410746243554,-0.16133133571034197,0.2284831048458132,-0.1348657004002905,0.24757649228282458,-0.079469898484426,-0.11193659741995689,0.12683722688644125,0.011087772153746593,-0.19976206112787814,0.06271314194655814,-0.07787625438806252,0.2986957273673974,-0.1931473506938459,0.0485415816787776,-0.24723814832649257,0.15564646555973016,0.16829859466911154,-0.09927159787608471,-0.07018819550021826,0.25555226672163006,0.11581478929315446,-0.1224801048457977,-0.2556916951332567,0.050846877239569335,-0.021256895749265047,-0.013617371258488447],[0.06821125513469539,-0.2980082683898697,-0.21864063630478398,0.2454515704066514,-0.06816830863925707,0.10636286129784264,0.015373807664261274,-0.3806527467549751,0.06505543919527781,0.028710773496937046,0.04671489616822194,-0.13881050153185348,0.10113764697585508,0.1998961466414016,0.004416257684761173,0.27563553742911906,-0.21342405202679415,0.14604332359756933,0.05673994417592396,-0.007111524398055806,0.2234869743152412,0.05253613380160951,-0.15885708531404244,-0.0638498162341706,-0.10271717489728649,0.2284545165167301,0.1982380343243707,0.2827205098830742,-0.03233264352696296,0.04783081063437262,0.004989567338716056,0.11111187321163982,0.0018630555200184048,0.1537815766177835,-0.745486718984855,0.23145501197856833,-0.2675197665897909,-0.012221394530026498,-0.18541270398119605,-0.09831714160601147,-0.09560935779357929,-0.07440099011749526,0.23645586286016232,-0.008377173761876681,-0.01703149908791549,0.2602219998699213,-0.177957076039776,-0.16805324089105342,0.019974846216917422,-0.042724452657196495,-0.5945685733043173,0.14196070209159173,-0.028507593797901572,0.23517341750121049,-0.06959214308799264,-0.09892038597624124,0.06266188286430238,0.055203094439003675,0.24546702487105515,-0.1790964754933082,0.01239486261116593,-0.2543018156966779,-0.08596103590628748,0.23032439639946545],[0.060211054048132436,0.08612983822364784,-0.021978519698370683,0.08035642844973517,0.10713188632799107,0.1637874073881214,0.16167236302589655,-0.10241417014433811,-0.12153901215251124,-0.21256111557903393,-0.22806544693625547,0.010957234223390531,-0.0753233942043096,0.27147660042392635,-0.17042281734472173,-0.16873681875055804,0.0691486841950911,-0.18064078086210353,-0.04604481299633414,-0.09731850171088413,-0.11100050915156887,-0.29566129540286495,0.21802743396093105,-0.026461628632576402,-0.10489449088329363,0.03538268669961517,0.4375074644492498,0.2704224204083632,-0.435825984489961,0.025199456255747016,-0.1145254804781639,-0.06272649540247056,0.13867216799912754,0.18341105472789382,-0.20169555193047392,0.12839384703144893,0.012883533739542721,-0.3683196998949493,0.14053805932459368,0.025741759779709567,-0.11679892338527838,0.23714559269654656,-0.01979551493362493,-0.3812012026577091,-0.09276004331548084,0.4974073296108304,-0.3923584321263482,-0.4524534293673467,-0.21190981505326414,0.017861629300532905,-0.33954168111316574,0.0310607980762492,-0.007333834747328782,-0.13254193845950554,-0.11527503095393085,0.17592394234078393,-0.015680828500298196,0.1591033633485214,-0.2295136508105084,-0.00021038991987633342,-0.10047142762217155,-0.024767690093696667,0.23910644624944885,0.05937138872869292],[-0.34207690465989277,-0.14717098179334578,-0.2391752808892394,0.09170123773171449,0.19795412448900393,-0.28964537793212664,-0.03662994896247049,-0.3371645323457341,-0.32946047728588673,0.2982698187706527,0.09090926853867749,-0.19674713080490974,0.21737059111494983,-0.006568782314859719,0.10248011631209006,0.15660699820496965,0.18185008869723,0.19119155806010976,0.10152108659205279,0.058757574346245414,-0.04351080401357475,-0.32619337259236775,0.16679933083011186,-0.16380293430018106,-0.18625482877972097,0.10665944927309488,0.08567839395549345,0.011852441142504036,0.1916554839119443,0.027027798265756887,-0.0908007813557131,0.15078335321661482,-0.058529968581851784,0.09373838051346127,-0.1246436682349568,0.027900021516909145,-0.19121259456875045,0.21150397701865964,0.03793272000836828,0.1762410171490543,-0.038237925242196984,-0.06157362149415432,0.10147361256442446,-0.11585637076923805,0.2981661128147123,0.1860735390477946,-0.10024788009045349,-0.385730542772207,-0.030856248895179003,0.18167665674679076,-0.4911448493850335,-0.13502245761751036,-0.11018311628971383,0.03797632667395786,0.1380119222652232,-0.2277165970253307,0.15337553887076003,-0.15741626321030933,0.06888644885502908,-0.11051905733530648,0.01647458114505068,-0.0017357490795834741,0.09154453949314306,-0.022763947425315564],[0.10717395575986274,-0.06849776396312292,0.14739555100835708,0.11695318814495045,-0.10211984096767696,0.2393325376257195,0.08691499229462267,-0.2317461459786965,0.02589004547104923,-0.05213287397559147,-0.1849074069795362,-0.08280553463719541,-0.02994836275315628,0.02221280753378252,0.07354562044624398,0.0059220596181985856,-0.09059327576087707,0.10356913242312822,-0.08376185731670201,0.27409132273622777,-0.3823753799568816,0.004634275589373371,0.07369437469594459,0.049164144553146216,-0.206781452249947,-0.13547026073759583,0.28891809864943,0.15274084889626555,-0.26239449392809816,-0.14232257149069366,0.25392252824332373,0.1068945070893111,0.019665004639708432,-0.03726579418610589,0.09660059295266646,-0.1916073144449251,0.15720145539269542,0.013390827108043719,0.09218048362742427,0.07106489251668113,-0.1634009184929146,0.07100414707310522,-0.15593623756867514,0.10449284875312392,-0.13928909838767906,0.11342451509443349,-0.1619698794862269,-0.24563959100793167,-0.2560093256990255,0.1924965942186438,0.19015909185820412,-0.1333967743035043,-0.12089151155137319,-0.026568351416292876,-0.1053991580355234,0.010712471655645189,-0.10292522131211684,-0.07330209069837275,-0.14434044315080696,0.2254784549962696,0.19209505603179364,0.0243413946314425,0.18382153806690277,-0.18700224330852608],[0.1407722695116873,-0.04763347245162879,0.19180834960957852,-0.09775350852733225,0.16850822539081137,0.16993464624873422,0.08428851603615949,0.16865418011734756,0.22340353198939458,0.26484675628377796,-0.22813474390084593,0.09927530902334883,-0.15412774240999025,0.12077408321841733,0.08048537203545708,0.022378345492703348,0.1358959715281184,-0.168479513809726,0.22474712197119037,0.14812808955339346,-0.24302800835150742,0.14879764299417353,0.12232520521626201,-0.12090388382211871,0.12014167981352508,-0.1900592575485217,0.05865020594954468,0.12742319458639403,-0.2698052921320787,0.01523234061943408,0.06790730075760604,-0.04173085244257817,0.09259025212042801,0.10350829385521937,-0.18131785860766925,0.11620730200495051,0.29061541948681996,-0.2049924897087048,0.041669399018708767,0.06184242365113974,-0.08316187805147338,0.31702221418902027,0.08466883471836836,-0.03852265210614103,-0.08543911867728171,0.19218217618610692,0.14480755151417476,0.28694239060039406,-0.028033574586869493,0.20086294156782564,-0.09589184500738476,-0.012357115340097986,0.17668856949326367,-0.35892789361880634,-0.17006085049084316,0.2579136418933187,-0.3895769501327655,-0.020949985190654316,-0.12503871210789771,0.11188956461646493,0.011225715362267139,-0.28871476435116117,-0.2321464337182007,0.001543388805798018],[0.22488994873198181,-0.2720439879749838,0.129741592650219,0.28976185824279177,-0.4244704695550698,0.22296929868923304,0.04520594481179631,0.4340850325587367,0.11263442868087299,-0.021448466685038626,-0.24546685223709225,0.19503169032781012,-0.3240221110918393,-0.33870179659197186,0.11537520700353035,-0.36781413527393636,-0.4562471798178424,-0.1188369124284927,0.13581328902870876,0.06036993067942739,0.1350552180116708,0.012655063749268667,0.036195747455927324,0.17417768366478847,-0.08012832879777668,0.016322281538087933,0.17291746228803523,-0.10672690992352353,-0.6055033459263393,-0.1575829155869359,0.014062544390207016,-0.04795243740493976,-0.45237766974617727,-0.20997670328162935,-0.06105951620952547,0.11776549343144535,0.008775060618838017,-0.21889825636481453,-0.035562410629203844,-0.07219234721854464,-0.30818929775359527,0.14801337357327202,0.11673580575522574,0.05526633182445199,-0.3371012278793175,-0.20401134437527463,-0.3054023797212967,0.46648026497303063,-0.5682580248586646,0.012875152791448062,0.18775361665380888,-0.07064583152520937,-0.13311244871597755,0.015310946608822972,-0.08578838449359553,-0.033651634115681825,0.1140272082010937,-0.06722829491498578,-0.0054019549215304765,-0.22702608676374514,0.018889236181781878,0.20887882880758005,0.27450505472266423,-0.3802749639583299],[0.09087096129417305,-0.116740977683597,-0.13451767682010146,-0.18841832122220115,-0.046151058176650626,-0.003930188902653647,0.10735962540410417,0.15947324212275565,0.24086197616038166,0.12449438188723998,-0.06766484803717446,0.24830895583940715,0.10013448388766177,-0.18071293644689487,-0.13557009512704316,-0.12210060148888217,-0.08705652039997151,-0.11837413146711809,0.3223558748256575,0.09580873898738397,0.0191636071589074,0.3485735651734797,0.09445132582068425,0.04187005827726158,0.07143801589005624,0.14901692142209833,-0.014148543764375634,0.07918897823859004,-0.012341103730812718,0.06598864957001555,-0.25067810023240256,-0.15471456593912833,0.25920799926558236,0.07092925496655002,0.11773983827996105,-0.22042188004691918,-0.0880478025937289,0.13784161390633182,0.07537624071942281,-0.3043513401286036,-0.23040233638922936,-0.522686462406191,-0.4305796115682455,-0.02336914893957214,-0.23858844314507924,-0.19080745346709738,-0.03685680887257527,-0.11452522569022212,-0.11351888107775764,-0.049387997008930394,-0.1996469106419835,-0.06897496244082207,-0.21990946685028437,0.043642218306348096,0.18581536893190415,0.14494563392901305,0.20892046246885332,0.008516135478565263,0.17833111309267985,0.0157450623317733,-0.0563207659786106,-0.21987236431631257,-0.06477124946290823,-0.09842622111159069],[-0.2336191017619128,0.01826761857633686,0.1058684908918376,0.23894115572043748,-0.24403169649765077,-0.02532029221139511,0.17983163006226233,0.2702523719633616,0.03468195829070947,-0.18790627477647542,-0.15851579229109983,-0.2731951590940949,-0.09687636740589786,0.14499548455575217,-0.128009829611762,0.0021230202367676825,0.07324778878287297,0.1806690047385808,0.26053935575533255,0.07268713195464621,-0.06643021835430817,0.043202070454542434,0.1110687945666523,-0.0931924316400257,-0.16444456564988222,-0.27632220888325126,-0.020030545669557597,-0.26735876112138535,0.27393612900028474,0.0090018626718356,-0.08294663508673497,0.1575249114770352,-0.09406349353254642,0.2758317845321192,-0.10843571939087107,0.29670948307456274,0.24412435435092514,-0.2685931147951713,0.09974758339409096,0.23589797983101846,0.005816979595627391,0.2751740435224846,0.2624027716738887,-0.1008325422464724,0.15002518879137708,0.1481958822321762,-0.192177568060017,-0.5300986463924561,-0.039960885880635254,-0.1206850849936459,-0.0932039447206742,-0.12276469727288501,0.11253271831381594,-0.08953743123548279,-0.1371839991876547,-0.24222227652900813,-0.0583743927248632,-0.4270928964125853,-0.13463008151208716,0.28913151830738193,-0.19999271081650458,-0.3176783975215635,0.2567023335510183,0.17578506243336633],[0.10092407738742681,-0.04961452483642058,0.27270380432404207,-0.08228270532244689,0.07188541017705305,0.2766122751021697,0.09635831272478942,0.14511105100561197,-0.08979239681103247,0.021054227577843167,0.1804583339328772,-0.2616410961976426,-0.16421057640913117,-0.11113768099091514,0.27451727457638914,0.0450701172409029,0.048342014558707895,-0.03728579300648596,-0.031548235475160426,-0.029391054266549994,0.17656912459099128,-0.12054665757253061,-0.07874227679920091,-0.1700406790687211,0.2491779721102529,0.035358674950727725,-0.1086634827956592,0.1614291599232582,0.24191963797176189,0.15108775295619103,0.060687968170190495,-0.23458022501668035,-0.19195559960418446,-0.2521361246416987,-0.14137032953783554,0.1521643913510318,0.19513547298279807,0.05593253782731751,-0.06533163654899923,-0.11012802962529812,-0.222025771656685,-0.18289864212768073,-0.2567243684522632,-0.2569642403711382,0.04049580496010752,-0.260868559377113,0.1605013956971343,0.14828670974019798,-0.12543231597855273,0.318259542400005,0.17584350467244736,-0.0017922108917579384,0.0703989262513021,-0.028582729344851586,-0.10764729920697369,0.20307469936584863,0.0009853756311329752,0.036676524049351206,-0.17926378248366787,0.02421375567114401,-0.008170525459059797,-0.04896406431264191,-0.09390516318838858,0.20690448013911422],[-0.10118114574952664,0.08343948495130118,-0.10674523224565083,-0.03557004995564855,0.11647792935454908,0.2308321606565878,-0.08782041994877277,0.19337812413375188,0.030091429357864095,0.0761067941438314,-0.08910001786601403,-0.21604115469884025,0.2364159532009292,0.18535341748534667,-0.12358089525446657,0.2953475647400505,0.008041205758142165,0.21968506240180274,-0.2798728217484141,-0.0877217376312158,0.10662929257663144,0.019946649089873737,-0.21237532239828663,0.06316104063415871,-0.12893912629124915,-0.11114704606476648,-0.13191322099170327,-0.26476314513466,-0.04253108367516476,-0.11444792845169961,0.15455727340782546,-0.1039646444202645,-0.05678233327971361,0.03299143141801383,0.15135045434277028,-0.0039884783425547165,0.04756920117151009,-0.1513424421195615,-0.2543607474261399,0.18969885599016761,-0.158773187450825,0.27562503348796846,0.19364772225218935,-0.007499397586201201,0.15048662103599322,0.032813727777125865,-0.14686671534858728,0.007670442247448792,-0.16986384904823945,-0.10723813967466374,-0.14668127635656195,0.16969365866334554,0.06289982838972948,0.17571647185178313,0.2108250832000928,0.3651662906239147,0.05246402579910582,0.2359650542464164,-0.28590981800752346,0.04319897090579355,-0.06279813019700313,0.28945930588354585,0.053305317384755,-0.0009039456301745342],[-0.0011032468558594276,0.022132454410527264,0.18567924046646034,-0.03413782984609461,0.05044269784535888,-0.007226104051133591,0.04852770159773709,0.39518113386327675,0.19436666986410478,-0.41324395503255595,-0.2065009461409757,0.2188495392236727,0.2487364503459561,0.0662008375157694,-0.23454242528712174,-0.25962802007245966,0.023496553434895356,0.12611420509247795,0.12406500004897683,-0.17431120756721766,0.047759951953155855,0.2254575173181587,-0.15080238770523852,-0.1503383715843669,-0.21649999115724555,0.3021898035839675,-0.011731012241937384,0.0058045256116476445,-0.13315215114520246,-0.09480636047022345,0.15988229989957145,-0.08156219147532821,0.139280307653337,0.04055740892177565,-0.20430969590081188,0.06037826331124735,-0.004874356347816294,0.0939343893958975,-0.1713292661715707,0.29799667805019864,-0.10537244197832384,0.20443515186752795,0.013371264330812526,-0.012256260789207675,-0.13991532814670796,0.3396361086983461,-0.42683455410659055,-0.021483614227121722,0.18306772707153876,0.11277065400441805,-0.048357387590292684,-0.21876884355739054,0.09240447072680348,0.11564754507357469,0.10408992290245,0.08985156375318173,0.14260479908224474,-0.06582829625411156,0.0399105217657924,-0.11146182433433259,-0.15522593776445165,-0.156367833218842,-0.12088549130094334,-0.033215652613956675],[-0.12361701313334127,0.15642191587488558,-0.05144022717724823,0.19751475455826645,0.19653739523385466,-0.0007430048902349504,0.029556160365684623,0.05336780317378773,0.0026400738592453634,-0.21958358979462236,-0.07357752521339812,0.15056862500805507,-0.09070538987934976,-0.17388326688758446,-0.10300530429630597,-0.11499291309052762,-0.1733321741850649,-0.12231697582233068,0.2238123577372464,0.09554412311378582,0.20173234871084988,-0.16468919976051288,0.008730486485560482,-0.2418608347831092,-0.07113277250137595,-0.23694244678999163,-0.09819716993750101,0.04771279250724092,-0.15948179708673377,0.057786394941963616,-0.2749741575855874,0.011191030642582126,0.20823227423725205,-0.11048316582274054,-0.08768534548446572,-0.17769686317679317,-0.04403340397166872,0.1486742634347831,0.18008537734787103,-0.21674401891397924,-0.04516049908597743,0.263980245948153,0.2262432489039941,0.1558837810275026,-0.042703793172775645,-0.08365998961030373,0.053892692139552285,0.04357511260080509,-0.12031506924879717,0.15307335371958053,0.10615991349797022,-0.19684378347395814,0.03188973806738945,-0.012220642103606754,-0.007986976177009997,-0.30190342381307467,-0.11938822903873493,-0.18393890101808016,-0.10202124971056245,0.22155973785896443,-0.04103217676072497,-0.44206847370744645,0.08649384648372606,-0.05648798852734846],[0.05293965766336752,0.25439249492352456,-0.00021685306832664646,-0.007226758631492382,0.20003775936885357,0.19477818428207327,0.10600185275429226,0.047515668030120486,-0.01018001032655783,0.08971831201170768,-0.10853477383539172,-0.00032240507394264346,-0.08189906600526246,-0.01039991902356188,0.19335068899207872,0.12485510291036386,-0.20254658710124177,0.14374457914952887,0.1598388794610007,0.2229844523633275,0.27085804301375915,-0.04362021795001722,0.12630697735913127,-0.00047929766673473334,0.17621521698591533,0.22885257421793448,0.26702738433028533,-0.2956167756158347,-0.24182275211066104,0.22125650548842546,-0.11475682960479479,-0.036847086097581694,-0.06644370166324325,0.1291551816952748,-0.3046955530651849,-0.1548892252711182,0.18382207412891796,-0.07087422087078452,0.09444810488169468,-0.022618661098884683,0.11969215013262037,0.12735028331305742,0.024695519434025363,0.09620519902798992,-0.0829714992265695,0.11571080801589585,-0.02230719245280889,-0.06461078744865419,-0.049841878492677745,0.1832005378630143,-0.23707531656107522,-0.014268901398440413,0.07681874333580795,0.03498415218943235,0.12459654427563532,-0.07267418652788345,0.08559952920605163,-0.030615205416831038,-0.26992959969563435,0.14867536110372814,-0.1947831836240111,0.05807515899302914,-0.06550592886171844,0.24199354641238927],[-0.04135103113164694,0.1599485329704601,-0.06226394746863454,0.24473099447656677,0.2863033520027272,-0.013672909584614434,-0.07307013140013983,0.2141474720902193,0.28750888891209736,0.07509764633192338,-0.14246225519245892,0.13423157894656032,-0.1013422071177666,0.2658371479393481,0.08631738969309768,0.07886463351333303,0.2057102094814802,0.13364690801836238,0.24875234180258832,-0.08429879710499875,-0.15390822033533363,-0.08419916176028377,0.28273477952312104,-0.13649507376246295,-0.1841489030408274,0.045967517994099004,0.09887035898580632,-0.12661856130766425,-0.24117873839625958,0.02861338098296092,0.003639233174324987,-0.01982049631074359,-0.1740318550682501,0.127593807933412,0.0907603140425113,0.14112793025428544,0.05350835824128536,0.07211008668800208,0.16752273188366057,0.14999546623604715,0.10782858059157262,-0.275804658349145,-0.28175464774363984,-0.01905020703806052,-0.26462990221771104,-0.13908438885517435,-0.17482484785768285,-0.35320631949138664,-0.09018173071908196,0.14369231275349015,0.20055102660179702,0.2990434294981745,-0.01396083071849947,0.23158348170774928,0.003863720648867724,0.17091718706446488,0.05820588934550595,-0.18021201204103557,0.2864489935523779,0.17908471263512066,0.04368364633876184,0.06216505634919159,0.14235116442025056,-0.2729577140738931],[0.15359590766546907,-0.17551396792836335,-0.09930293742144872,-0.01145540751093782,0.030600869615254718,-0.14759150182841263,0.10731201314498016,-0.059702753532140905,-0.3203515272157882,-0.19637037414739505,0.10499319393747401,-0.01234934185262049,0.015599412029495042,-0.16794543391957797,0.22976476481128086,0.0501263164629266,-0.05331509613223707,-0.11708333333662908,-0.26918681717416276,0.13885187745004995,0.14405245532813363,-0.19402786096121635,-0.0019573373425609175,0.05334457639625843,-0.41239950812542425,-0.18047278641905704,0.07390537136833954,-0.15277588196542335,0.0958673274328209,0.07667422996396445,-0.1574481153512698,-0.13970878563705824,0.2429788020749379,0.25695400825545395,-0.14884549653284065,0.04330994302477486,0.11617426348919369,-0.03664526315320527,-0.18504985949908387,0.020173419289161627,-0.3532858906814654,-0.08616449171767039,-0.009466370021297466,-0.07572509788080012,-0.039831688555166424,-0.05644571342450525,-0.32024755901409785,0.23296241455913425,-0.1626135561724856,0.08958696607225611,0.14575001408023458,0.028555981519517826,0.10862286542741781,-0.1293740024059894,-0.1954619767082244,-0.14571647524199619,-0.18016125738589983,-0.09640870012034637,-0.1291844720484753,-0.026602317120386253,0.027230556216119115,-0.3697736157218054,0.07013560142273291,-0.09732232720559508],[-0.10544446915289105,0.16607373489427532,-0.6161654045606162,0.12479428148392124,0.0725992713654761,-0.19078296104007658,-0.30100853687403983,0.3175681887792086,-0.14880914664638353,-0.05458493163955048,0.14226873869648643,-0.283898116569127,0.17984313256304696,-0.032959673281233996,-0.07837903074809738,0.00992242376588882,0.06479017796529334,-0.11111234420762289,-0.1206492970975801,0.14310465532626487,0.04372213664191909,0.0012652751688471263,-0.21012358490054686,0.23072115050618586,0.38760163540853076,-0.03798561246003211,-0.299094152027813,0.06437672004010468,-0.38866010352196273,0.132406091178956,0.14317094651537593,-0.3766413291315249,-0.12654664309240185,0.12449308342143003,-0.014804915464443553,0.03657112596510452,0.10876470203717402,-0.16163927521618707,-0.22014455201005623,-0.11364677811441852,0.22366529178762384,-0.20405264306792054,0.2085662140679583,-0.03751548672978413,-0.07300200657726029,-0.26191825984210426,0.15321819286106314,0.1288074187389142,-0.14233342672494279,-0.0016177601122232032,-0.2476267935019904,-0.4106776942889701,0.07623814819789625,0.03128122707719347,-0.13865822791133825,0.2702495581218798,-0.025020607838706743,-0.09100085822915292,0.30493644942946374,-0.0789971919584116,-0.3577408398421822,-0.10917347926279836,-0.11547957851740989,0.12141492890680082],[-0.1468718675854345,0.12981589780037944,0.22698555772443102,0.054525218110535296,-0.1552411510818059,0.21164349793063197,0.21282175089983787,-0.10789861942430307,-0.13820148335839946,0.08409257994364568,-0.24631930451946302,-0.13534117633044163,0.11774934754764682,0.07307092216067267,0.1707094044783648,0.20662515823539374,-0.030463707493531805,0.09195715944213151,-0.11391814616058386,0.15174901707802654,-0.03196334497884591,-0.0931694276968109,-0.12035416893640001,0.08448741001577248,-0.25293296981510166,0.018347773448453307,0.11794702353029907,0.19883115657435232,-0.19385308583026656,-0.14264623188796427,0.003440719274091052,0.17024431872649895,0.04791659982225629,-0.13958895223390885,0.09634088260340762,-0.1425784423713241,0.05377013512654671,-0.05179312729861976,0.015870275999876237,0.23333633642097018,-0.17558497979432217,0.0686159150674705,-0.10490378517578657,-0.027543727953489146,0.1299292997130928,0.18629016321220973,-0.2720159501343901,-0.26340763670324796,-0.1214400845822465,0.3586467467725251,0.09239880789966744,0.05011953893273024,-0.202647146540227,0.060802461517343,-0.052814114549720646,0.048439379276603044,-0.22087909370898626,-0.07902757861022125,0.19299140606723356,0.2061937763679281,0.22569845420596557,0.16971576701889055,0.0370132617695368,0.05522127053929181],[0.15380831883311802,-0.09597620362532853,0.22204816901128016,0.25828064572266507,0.011634503166144504,-0.00023802055114851596,0.1403529059320438,-0.15638241683060086,-0.05267999050950431,-0.04268454922186964,0.05879009067602737,0.2280975050543865,0.0064588861812924685,0.19259487632555317,-0.020036276875591185,-0.08149751187637722,0.22744853334659124,0.16928026593326373,0.19341638710281428,-0.022794197855967018,-0.4445136293666857,-0.010661971090381672,-0.2613163044440219,0.17150878099247271,-0.027459946764707005,-0.15985844380992634,-0.2060211811466059,0.0002267682714236647,0.01900659715076362,0.0018445586611524378,-0.07999021162414366,-0.2090147572191336,0.08988113574412769,-0.058018955376649216,-0.056403373960041976,-0.17347451867646135,-0.13658088042743885,0.12734382687999327,0.280021121458973,0.0024823651548344107,0.05029068297839957,0.09567901441909847,-0.21221137879685573,-0.15715577124796512,0.08075189998082566,-0.04590675199018989,0.0924661014088273,-0.017872273855651155,-0.08134707160781605,0.025561698502327063,0.272124035515942,0.014299313723890546,-0.18282959518740122,0.07139906250361357,-0.1568087940380031,0.002937699066208553,-0.03730328771812042,-0.026662319900087175,0.12009849621648655,0.2287066592898181,0.28158514166769727,-0.055120031765250536,-0.1558163224846034,0.19297111595300082],[0.0327101466200303,0.09255793589970433,0.07207303233815944,0.30611640412632046,-0.08591017660905734,-0.19376292603326234,-0.49713289357806456,0.26626988944585633,0.08074254304923316,-0.13807916072989082,-0.2184058559554064,0.14086581914470053,-0.20169983729094962,-0.18547596068837613,0.06983100556906606,-0.009857513239120532,-0.05252387939476035,0.18798173412639224,-0.01579031091033589,0.1822354809647283,-0.12366762009498147,0.2394388478515771,-0.13830628453653343,0.30256898396716236,0.05453339340587306,0.15450591984084794,0.02793060114145303,-0.007925928462077897,0.0365044585218356,0.2127834150964343,0.1830751877944599,0.09712662364949116,0.18186723463778826,-0.028151527882725944,-0.10938231485206762,0.11099884571409624,0.030380475670050266,0.24763447524670315,0.23084008977672663,0.08230376843324426,-0.17194929911035758,-0.2200027044650295,-5.612590316128226e-05,0.08972090785172301,0.2016323185720028,0.21179078898955112,0.22742389924478937,-0.10193971381313831,0.10690416213929411,-0.0220373314464434,0.03230154529524781,-0.12931391192804287,0.21589806878451195,-0.0664653420962631,0.009301623588368372,0.17352603240734685,-0.023925970977508787,-0.23291775820323807,-0.13273482465209488,0.0564395837213553,0.15536111191435498,-0.01409005041458377,0.08008661203922846,-0.21502841649109308],[0.028582040233572033,-0.15806712132151893,0.05697325875904481,-0.10578187834400049,-0.053324361400524246,0.09377562569706042,-0.20621821070957788,-0.026026797912834146,-0.06939746535563397,0.2008724625163544,0.11645212028651358,-0.02445463759272104,0.25751450952938776,-0.004414924230216993,-0.010592485782254692,0.36017854218950096,-0.0025335763465508298,-0.34506129206538955,-0.3955013894510112,0.022252511566634495,-0.02753008540430294,-0.24863511019178375,0.14016753879010196,0.04174461739205907,-0.05864558420372247,0.003573440754103719,0.17307402194434085,0.3684917515015367,0.04384401439803832,-0.1246288356947325,0.1702357389052971,0.025897450389349652,0.13039253491158287,0.1715031202430975,-0.053138356108168215,-0.04782770569955819,-0.24361658096254007,0.23345696841416358,0.004756484128633884,0.007277853010392489,-0.2965046230384104,-0.21018636881925012,-0.5375360091971934,0.07084299557679431,-0.19716386060517208,-0.24034776859290408,-0.17821207925073626,0.1995770035343086,0.09139334712497317,0.3244925298749431,-0.07886777783322542,0.10979716648494538,-0.30039430480057056,-0.07723088912302306,0.024810489882570796,0.13631098357559276,0.08494407777060668,-0.11526013323828331,-0.125965191627911,-0.08246251719031843,-0.09302349846884708,-0.04174319231098934,-0.11208857869605414,0.011053101263273442],[-0.2566012816340779,0.08840029576868917,0.1329602228577804,0.03175839620002532,-0.18985499508782358,0.32512714851978236,0.2447679105161066,-0.19164372534571064,-0.11214233342408768,0.038160050402391905,0.15983042881907988,0.1779520041933473,0.22620053346361416,-0.049320147340578824,-0.17403803857678726,0.010524529401716361,-0.24349811740010985,0.17134022645698047,-0.08833964234665828,-0.11588700885037703,-0.07554408017534021,-0.21835422786044292,0.08296162742096203,0.07262508385800073,-0.1510162846668276,0.3663579759416434,0.2521716185904728,0.0755243512822725,0.04824221252450756,0.2211003769036687,0.09823037110436815,0.27210832893860104,-0.12795610919101572,0.2023037422847028,0.029178428464044844,-0.20433857371070765,-0.13443184609439224,-0.24134668052470862,-0.09164193734096752,-0.053428655761057285,-0.17050963041412354,-0.04842066660056569,-0.20168080676348193,0.28060536491519317,0.036729106927378914,-0.10820855722845837,0.1599557980068643,-0.07991381050377694,0.07566586685147189,0.1621642281570649,0.1396142239547434,-0.09947917823605146,0.11571506501211691,-0.0641547299724455,0.20205824639840714,0.07124218314445342,0.2821084261043132,-0.14759274514978435,-0.1693200599269957,-0.2170112573306398,-0.14941014685298623,0.15657653670537947,-0.12938663876735693,0.12862040487275295],[0.26010534625940945,0.02188873402012366,-0.05929984056994521,-0.5162014873411807,-0.0026619550359293013,0.07254690020240742,-0.2672418593850082,0.08708635312078522,0.07797382226760095,-0.16658011772459155,-0.023216833344011263,-0.05969587795772348,-0.047080750787061657,-0.27604843461463935,-0.14733148221859316,-0.14279600411384955,-0.14919496666980098,-0.1598105750542092,0.2999136530194186,0.10555219618318536,0.2302451790191734,0.2545932910582899,0.12769030234672077,0.05498736343106698,0.12862061162369312,0.05548321593653361,-0.45513066742944813,-0.1931376854135086,-0.23911121741775704,-0.0428637667292677,0.20960283842162047,-0.23054010511569006,-0.17357656298837548,0.008150843990317775,0.0322235401535956,-0.07473733152767913,-0.05901357842574722,-0.04626127738576905,0.33512985037207077,0.1534757458071089,0.10203363704114103,-0.10549158937736688,-0.11879945401808173,0.009157926180381762,0.12718691499469226,-0.35240155804154055,0.2583511039796282,0.021332597722129695,-0.03646940854462251,-0.14552396269017312,-0.15385981021378528,-0.07256046514689045,0.17484398012716473,0.09797645167386634,0.14820164436841066,0.17394954482119987,-0.34578688579499145,0.27125172073343473,-0.013830630221681399,0.014353339901026474,-0.04413750978888357,-0.04359791714814369,0.2539264862300598,-0.03450537818290845]],"b":[0.08173929641529068,-0.07400855682162089,-0.01894454392150538,0.11819244264424254,0.07789838599688985,0.17322806565631418,0.2114155795395081,0.0974946425228325,0.10475167752706797,0.2028241973984729,-0.2040734773597247,0.1591784572567188,-0.0899697995476941,-0.28692645570421416,0.2229815249471004,0.1482928429905492,0.14934598868694604,0.005520152090240834,-0.04808825388442667,0.0025425161268371227,-0.05130130893450773,0.0830948099251041,0.03352639435913694,0.14523178812864082,0.12211538389252456,0.2549101191398054,-0.01953054370085661,0.1295851632475016,-0.22843762256616518,-0.15829852295011887,0.16742078526328982,0.19445355751395257]},{"w":[[-0.37157793627290925,-0.43089648791726914,-0.2859587965062933,0.02381660137557768,0.09387062121274643,0.53223296730128,0.2657414070050385,0.11972707429546058,-0.21881512708560014,-0.2573550866839936,-0.032687219902278436,-0.031598666412273047,-0.05840168465529456,-0.014613208128682042,0.07734617428216212,0.747593367402824,0.4083073416718312,-0.07985268175716072,0.31589478375287827,-0.20583672228940844,-0.22571958495950803,-0.33498418153913023,0.24365397512529138,-0.04686244702743673,-0.4887016971453365,-0.33234414835164733,0.3326082423001834,0.33557081070081646,0.1353255944488355,-0.3438200937328095,-0.2514826432178386,0.0993042314196099],[0.02506981367019061,-0.022584370498472485,0.26367447493517915,-0.4365026635608995,0.38015673259833277,-0.19448068436880847,0.20158453847948968,0.39192702720376954,-0.13766753336840007,-0.07381363251823926,-0.418741574213613,-0.5425900898546783,-0.3086132413014689,0.33440783871201984,0.14862525100829746,0.34091953680695547,-0.08013141582404004,-0.3024414331787245,0.14569015321620296,-0.09423082092088989,-0.26255593197712596,0.029352617187567234,-0.15211670863156176,0.3058482395910837,-0.263069318785326,-0.017255784781499688,-0.270471540152199,0.07453008427708502,0.37716258934342267,-0.5574679812080875,-0.06837319018671796,0.334342765923611]],"b":[-0.33322570146863323,-0.08396195342411407]}],"target_mean":[3.518767440827826,3.566103864167887],"target_std":[2.0357610306921465,2.1981196117069848],"flops_ood_cap":10010435312.0,"n_records":7703}