{"input_spec":[{"kind":"feat","name":"n","log":true,"mean":9.573171503348727,"std":1.208213149246002},{"kind":"feat","name":"nnz","log":true,"mean":11.943239804695825,"std":1.4946812556675093},{"kind":"feat","name":"deg_mean","log":true,"mean":2.5115997864547075,"std":1.1064833771011693},{"kind":"feat","name":"deg_max","log":true,"mean":2.985531194314646,"std":1.451413490129358},{"kind":"feat","name":"deg_cv","log":false,"mean":0.25729696542920394,"std":0.40337454400497236},{"kind":"feat","name":"bandwidth_max","log":true,"mean":6.6292909296390246,"std":2.212280218568643},{"kind":"feat","name":"bandwidth_mean_rel","log":false,"mean":0.06835120610701441,"std":0.12557369898913515},{"kind":"feat","name":"diag_dominant_frac","log":false,"mean":0.5438025846669869,"std":0.4296364708138365},{"kind":"feat","name":"diag_present_frac","log":false,"mean":0.9999972198241462,"std":2.29947756573957e-05},{"kind":"feat","name":"n_supernodes","log":true,"mean":5.28576126484864,"std":1.4774045900350152},{"kind":"feat","name":"fill_nnz","log":true,"mean":14.241995268827049,"std":1.2864584623220743},{"kind":"feat","name":"fill_ratio","log":true,"mean":2.444431955278039,"std":0.9265324902977542},{"kind":"feat","name":"supernode_cols_mean","log":true,"mean":4.327632227014826,"std":0.8527040805611329},{"kind":"feat","name":"front_nrow_max","log":true,"mean":6.011234097896492,"std":0.6166505726099583},{"kind":"feat","name":"tree_depth","log":true,"mean":2.4883820269467516,"std":0.8916203260233215},{"kind":"feat","name":"tree_width_max","log":true,"mean":4.695545210848978,"std":1.916944757350297},{"kind":"feat","name":"tree_width_mean","log":true,"mean":3.0292158559375633,"std":1.474610198628453},{"kind":"feat","name":"factor_flops","log":true,"mean":20.465469477414057,"std":1.5280174263456596},{"kind":"feat","name":"arith_intensity","log":true,"mean":6.22591200195917,"std":0.5147432999770872},{"kind":"feat","name":"flop_top1_frac","log":false,"mean":0.1558086472660588,"std":0.18307895623139092},{"kind":"feat","name":"flop_top1pct_frac","log":false,"mean":0.23965570137938305,"std":0.2618405460068726},{"kind":"knob_log","name":"nemin","mean":2.938333828660346,"std":1.2015222562370487},{"kind":"knob_log","name":"relax_width","mean":4.938599446534992,"std":1.8047762893576378},{"kind":"knob_log","name":"panel_nb","mean":4.199436841165564,"std":0.4340310873691126},{"kind":"knob_log","name":"scalar_gate","mean":8.224196124824568,"std":0.903097508598019},{"kind":"knob_log","name":"par_gemm","mean":13.877699885311788,"std":0.775155690015108},{"kind":"knob_log","name":"par_cdiv","mean":15.830494604495584,"std":0.9296489700832351},{"kind":"ordering_onehot","value":"auto"},{"kind":"ordering_onehot","value":"amd"},{"kind":"ordering_onehot","value":"metis"},{"kind":"method_is_mf"},{"kind":"use_gemm_schur"}],"orderings":["auto","amd","metis"],"layers":[{"w":[[0.01326315668219343,-0.19278507854997337,0.004440831623776453,-0.18346946113790386,-0.0915464152014363,-0.08873332083946232,0.22737380023618498,0.2861174832883812,0.05775913833165222,-0.2120339205057238,0.12851256910734263,-0.1865445612340294,0.3049483428705006,0.030057077444245222,0.23930914433541062,-0.2881115988239183,0.043142619403545905,0.1818852150115324,-0.026151345933589067,-0.09340160619264945,0.10191105022858292,0.0683425262664137,0.13761231037690438,0.06799795166192833,0.04518537546685085,0.19809899199202347,0.05399415549969425,-0.09666419995573004,-0.276513883965665,-0.2912443874191046,0.011061238391343892,0.21494438193854526],[0.16719190333281814,-0.043941095286982444,-0.17310442949753369,0.04745585434933787,0.07083425847477696,-0.18553901590804422,0.29376301178029235,0.210461408600699,0.07278136528999073,0.2109264006714924,0.2918065213823507,-0.1369827501023223,0.19884505261109003,0.038495190242983944,0.16335041123604965,0.02030125916577596,0.1048119714884885,0.08662618160519213,-0.08737810678174647,-0.16018049676249466,0.0869187582044338,-0.003984878305668959,0.2698679778014875,0.05399105881300058,0.1959112989870838,-0.05987954367719835,0.019840282550611436,0.07861630669437561,0.225102393351087,-0.2963584413393003,0.002046343671912283,-0.23489818004078405],[0.21634472995742823,0.199529787800461,-0.11908006063638676,-0.040711679322545935,0.24703578057316342,-0.10773185799643493,0.3442932978784057,0.04989024081836238,0.05970842925096844,0.09441178162043402,0.3926190920470492,0.09011674206837576,0.15086039581392732,0.14455948551577555,0.05251312446516084,-0.1630805280799348,0.03290577240482017,0.050128361449909065,0.1628881280922446,0.04527852260238364,-0.2791835370368826,-0.04638599435453093,-0.049396465482420576,0.0030435053039652915,0.058282512950973,-0.10753582443680836,0.11630165466366933,-0.1301443653891156,-0.13162110340713745,0.3318986316839997,-0.0981894734224188,0.018989856402281333],[0.0332714787006219,-0.22006339829236016,-0.10511615892923225,-0.06521956823584121,-0.19142670311642102,-0.14134852697797917,-0.28899301507170067,0.30587450782461145,0.0976378773123575,0.23289637613422634,-0.09032434575567835,-0.2392079606961388,-0.21823601158568356,0.027554001056984967,-0.015972970250770758,-0.05374776306322731,-0.16305459648096315,-0.21819894347786054,0.2932000367581916,0.21917613642238326,-0.021399685434412837,0.028336671878100166,0.031510965512139964,0.02865072617318617,-0.10676352345475101,0.11279105717876219,0.12710952913556847,-0.03386519429501346,-0.0347716212155425,-0.1159047314313082,-0.27802106694624146,0.07245746545745298],[0.018711632811025544,0.20274753276403953,-0.2074067724870931,-0.10021783958864203,-0.07960392622877673,-0.11970477468428015,0.10355152778583378,-0.021582308517117038,-0.21998738150351035,-0.150062805871942,-0.02777726539515471,-0.19986536651243908,-0.01499104005261636,0.20345926199951347,0.16324812941458577,-0.06934067344552423,0.2893581341268556,0.1553916754645926,-0.09226145280973923,0.20965599557236905,-0.07462900703025328,0.0016058810755709358,0.44873709404053896,0.036079761687674065,0.09675868302340483,0.15476810142651562,-0.14956346576047314,-0.053688831781329924,-0.09749286180315114,0.14358063289920314,0.30444530791559327,0.20277030848414795],[0.061946546480982495,-0.18040601960854374,-0.01143576117918451,-0.05765677914976477,-0.08854837119131546,-0.06807797871533997,-0.1442988775105355,-0.056153417167143706,-0.058345616840422616,0.04264480390944204,-0.16736474535420703,0.08192278361704679,-0.1150130076511324,-0.23097313412251247,-0.046607041321761605,-0.19999757696545947,-0.2668640180888066,0.21182905885557518,0.22422666773040484,0.2437772117954168,0.18062014548694258,0.21534291519797072,-0.14934725310660574,-0.1596675777833874,0.05954669857504471,-0.08970419614806947,-0.22796617617771095,-0.27343460462211994,-0.13610094838420525,-0.1379584943665948,0.050320963963161144,0.2090908352481072],[-0.01369471356650048,0.17926978980631117,-0.13157777825676226,-0.22045419739387243,-0.23571036454604716,-0.01092488308876851,-0.09850789654701021,0.1388433971861907,0.0004318520027238559,-0.05229299764712896,0.07613649056045511,-0.09790770016656934,0.30026190993803564,-0.1283635137830485,-0.08492956560044781,-0.10169242316226991,-0.034923225287279126,-0.22774050491855796,-0.30074611276601787,0.27811980324427743,-0.11722259685460339,-0.0570492465841456,-0.17979345745221792,0.14149148994989175,-0.20409209437919137,0.14201348970254252,0.049927196343278274,0.04629390459735152,0.10270341101030814,-0.4196818055619324,-0.39613517884453714,-0.19033174279480672],[0.1138525928367198,-0.05243303794213928,0.1413750116152212,0.12965721233772018,0.1770941135273408,0.11016321793668041,-0.0016602791432692684,-0.12000535426988788,0.08087234476732223,-0.24926651220344184,0.02702952675911158,-0.057608626471315066,-0.20182030363996,0.16064980424676947,-0.20479728965713537,0.005715804827881052,-0.30183011729209425,0.08708262115470285,0.07935654800652706,-0.10865243175440925,-0.15317197824794637,-0.22286058532626932,-0.21212966494688706,0.3042848278056296,-0.20034473045629198,-0.018426529463361607,0.21825435054877987,-0.34891367169285137,-0.14658760007632754,-0.018486445441334858,0.2737412784005365,0.19015788519742638],[0.17202231886483915,0.1832205824400504,0.013362917752910703,-0.14799415810241318,0.1459684462761134,-0.06729372484751409,0.06980613392436949,-0.012170689419365378,-0.14255655370720544,0.04967887572627725,0.12697166601027352,0.17250314544884496,-0.0017061915280178652,-0.13029786472331498,0.14418843479123541,-0.22442447351917344,0.26025449067848966,-0.26588773344326483,0.2356379192814854,0.11443556757014535,-0.09810281512059756,-0.25892141361200716,-0.09346096050698033,-0.3152275172116739,0.008067485507439954,0.05193579054828589,-0.023161660618285767,-0.10285182971837731,0.2600654283550994,-0.5288446006695559,0.20427905574247637,-0.3800452644794686],[-0.07920203523517448,0.002771804289935895,-0.03418256558166805,-0.030633616209748946,0.21781744939891018,-0.14393510537152215,0.09964739921958778,-0.3800737433388159,-0.12680397271150654,-0.13377698189760273,-0.24426305605163384,-0.0418724235812496,-0.05827909357049461,-0.22340254673890575,0.19852483283798328,0.12781049037412623,0.2675147020066804,0.22146143163370433,-0.0515733044145335,-0.12176201497736801,-0.011112118041514341,0.0662981680936752,-0.20229602399052724,-0.038396122931886316,-0.05292098032002531,0.09779316397263596,-0.08042797536371037,0.07183913869361666,-0.10641912229156039,0.1600118794402036,-0.013994027942786466,0.0473575757097589],[0.14644865100827262,0.07147395436640895,0.0019498891932447416,-0.2222553695398884,-0.11483269907119593,-0.239147801617555,-0.21258375248428926,0.1928995658041593,-0.16587076240474505,-0.20208539826929134,-0.04950353496634977,-0.17812980208203036,0.05190577614219244,-0.3690293259633773,-0.22204421151283832,0.09218302497536919,0.16603877593649116,0.03821525856400759,0.12256512511985128,0.17105467134262023,0.03326778251205575,0.02671137475674715,-0.1987959328663623,-0.11267247441848108,0.1417581146644526,0.09437970097752436,0.18013694587979862,0.16562019448044898,0.26965393569351465,-0.07603169176661152,-0.31860128664047793,-0.051908253623286604],[-0.05722207485305448,-0.2142092920001922,0.17089893605779538,-0.08533491404047504,-0.06588391986407637,0.31307892124106673,0.27451502284541446,0.30452307033592657,0.1508665813701388,-0.2182088431359182,0.050593238196303826,-0.11750611607449543,-0.008549214963567635,0.3705402906760781,0.14813750903769854,-0.2085887777553537,-0.2698852865174562,0.0429489316935016,0.24019741227957206,0.21906361756250486,0.2453987798473904,0.00397480968203828,0.0607744886560955,0.03892974283438038,0.01795286851671864,0.0398718978613097,0.028873783027584986,-0.036684711036353845,-0.270634686400588,0.19867191235027468,-0.186051706958428,0.12667069318960195],[0.04029076437985023,-0.08964151892270548,0.24291651429326405,-0.18001345428435547,-0.11384069822014481,-0.208956344466288,-0.011860889864810556,-0.18507478533803096,-0.2498713300864522,-0.17451541355007974,-0.11593116482164725,-0.07610461891136211,-0.33456124627910006,-0.021126965299526665,-0.08947121456674649,0.2330658668270118,-0.09466032574213333,-0.09243031000206932,-0.2278912064407847,-0.2615664413432472,0.26552904121213367,-0.06379944781141313,-0.19140314699428507,0.07665860595318433,-0.03466991912314818,-0.054600830899918025,0.06192288107719044,-0.02498926479113937,-0.22364075317038126,0.22716246171021098,0.023370374880773134,0.07249251409862434],[0.14460222528699143,-0.2568865659724399,-0.08475457755872222,-0.11275671718441209,0.2863953422838926,0.15873939032588963,-0.2700115774185373,0.0503366222282112,-0.06904772434367314,0.17980039200562986,-0.24228486672495395,0.020745317370425433,-0.1007885805543448,0.16736253095280187,-0.1377285202876938,-0.04875190366538213,-0.21016373007922856,0.18884562354882425,-0.09849851967111319,0.08699904993154084,0.06152862715403948,-0.09055088030502176,-0.24475703966777101,0.16458235894876294,0.09395914648334455,0.025780769942244104,-0.1309513493632347,0.28197569058965827,-0.025534335721344077,-0.20399897827308078,0.13011957697937815,-0.0529945951410018],[-0.21485315112381734,-0.0782675283403731,0.013698530577921806,-0.06465511146355951,0.18137539512515882,0.24691310781223383,-0.12606989959117434,0.03149224288680888,0.046368237359871556,0.1456723284452149,0.16068369695684684,-0.12594076790021988,0.1430914403639486,0.10978236440558292,0.273332353693454,0.187355090130473,-0.22304281262080952,-0.10366184770594523,0.21704111079607816,-0.3487086794174842,-0.2810661874455287,0.19809594979896414,-0.3352243918885635,-0.01639168771950145,0.19201470580421184,-0.05155721851331908,-0.22170130063273694,-0.049570470957323746,0.013620630259896595,0.11867746588465562,0.07044417088142231,0.16089796783466648],[-0.17378525038951192,-0.15492393182167602,0.22628371764131047,0.004501306010467879,0.07922621250557504,0.10789049744638039,-0.08951712247032942,0.17226741918018795,0.18110063241600205,0.22666401925029261,-0.17568565167899663,0.2380520508620859,0.22891216920075538,-0.01784623274585733,-0.18719169948412262,-0.13428038003307163,0.04780133215282361,0.2085017997718703,0.00937104674379909,-0.21884290730258446,0.2446793460708962,0.07538591810858915,-0.09782660375221754,0.12938482351720512,0.2753133710908478,0.18475577033630763,0.005351778752218565,0.05513294012932002,-0.13803511832458074,0.09022467653457997,-0.008921185744372603,-0.0029904070558597236],[-0.21085216906080426,-0.03673124763762686,0.17710249398198025,0.18861875238310152,-0.019694188061972,-0.05778471419499431,-0.07135781744702988,-0.12077906883593938,-0.21335916157773993,0.11203284156143509,0.061553006361691046,0.15364927836263229,-0.19189879163325446,0.01962800255448602,0.3043424874166399,0.0742408797228323,-0.19326174041789732,0.2770505321579626,0.0002370668269617619,-0.21420421629342198,0.1165745037620082,0.10812910285893419,-0.10697878050833647,-0.05540640313621124,0.040692318623292416,0.03769626200283031,0.1260222799538416,0.2594152541750945,0.3042243771427458,-0.4501133239796844,-0.264199812202972,0.11810931796684604],[0.1270188474617335,-0.09702523382879154,0.04068564170888563,0.15412010993201802,0.26788914734532493,-0.182111386172304,0.2527521279492037,-0.21971031846198577,0.005844476123754347,-0.038225739194563596,-0.27354476130076916,0.062291156703077,-0.15727244207583108,-0.0982339474416026,-0.31402223653303546,-0.19714805950446815,-0.07296155377873033,0.0629881630992715,0.17030701820719532,-0.07808363088112351,-0.15280892287181974,0.1410762632944514,-0.23124001301733488,0.019988991026797513,-0.005224788254050308,-0.11746327231785819,0.12529848059553006,0.114871888559324,0.2660691284993834,-0.05079527773498277,-0.059419523355507514,0.019148588609413764],[0.11182634220651262,-0.21370074638446285,-0.13961367991832788,0.31692265280135384,-0.28910673346958005,0.05416078212002781,-0.37397514993201586,0.05314830448582319,-0.2313024407286503,-0.13701667203718085,-0.09067561373495399,-0.3922577597714498,-0.04151578698303585,0.024053669323763353,0.24622642462877983,-0.1695517726316046,-0.012159637893643445,-0.08966885517543653,-0.21847167927366784,-0.298342154814939,0.23712274059235064,-0.08135810350664356,0.031221730166142093,0.0011923970436857137,-0.0799071773232293,-0.21693836983960613,0.10803013040575316,-0.21453268882339957,0.047999680883330925,0.2048062258906611,0.10088847721924184,0.1280844551430923],[0.16981154041410357,0.046839268608058766,0.17487121176243156,-0.15682315801432964,0.24647481898273293,-0.09734423794251379,0.2971163290932084,0.028010749948750618,-0.013539380688147008,0.21083400634372965,0.28401056490256366,0.32170616223762233,-0.12803321661862235,-0.024082901984701262,-0.04437301501539404,-0.04195740263268103,0.1859144943565345,-0.14468734319557258,0.10872946251418109,-0.17660853969351528,-0.211412906113308,-0.03759539055447209,0.8564320934579606,0.01867583528983212,0.09969641780838319,-0.12204704999203682,-0.0437600229255335,-0.26389337443015964,-0.03710577370288108,-0.06956735180055139,-0.26498821961414765,-0.11987977109711677],[0.21485992797213496,0.009589248718232125,0.07211456241363175,0.19219667143231128,0.29574973459964343,-0.013692372934801644,0.19934016410470642,0.3928539790521767,-0.0064763812740764575,-0.05637792208004971,-0.030736025846294323,0.07229168102698087,-0.07385652368071767,-0.12515185600840242,0.1010000940600858,0.27695019016706335,-0.3239456642929506,-0.010931644859910201,-0.04519824935301354,0.08079721210658727,0.28705854687642546,-0.0023028640066435602,0.1370906170469795,-0.004091470025642447,0.0064472404646560965,-0.12294897769429403,-0.132303309783786,-0.06396203474403277,0.09206169586137562,0.04182348221440999,0.12589203502924506,0.045560848101559706],[0.07559024855985641,-0.15796885292694549,0.28246339199226317,-0.0931071365164803,0.14818518856769397,-0.15387288270632934,0.029127199913450356,-0.1577128611375307,0.024288862966897716,-0.0738935412691262,0.13931972648888188,0.19113835957856068,-0.24595935846950673,0.07531536475182003,-0.09662369407667949,0.12584274549317964,-0.08341147412655754,-0.044825758643772584,0.13446340198195816,-0.12469377707343159,-0.09871883117141195,0.07193095747010154,0.771667781742846,0.08615876455335679,-0.07356424615677473,-0.06220966811373167,-0.015222887455779823,-0.0036775346101176366,0.12530475917662762,-0.09130659323089298,0.3529114454058656,-0.0648989966905923],[-0.03255226549302709,0.0019950242842392985,-0.17782578970959867,-0.27056147958069093,0.006892599618678775,-0.06762902667279372,-0.2796270198263888,-0.009534123066172608,-0.12404236599614278,-0.06135513071637407,-0.21486962584278024,0.01818345323409263,-0.004491977184014235,0.14852874675366998,0.0724079673997682,0.09109457377580497,0.10099457085800212,-0.1638851067564435,0.27912472217426026,-0.12424016279127854,0.061669166055411645,0.26930624801167635,-0.24533189745582387,0.026327207707302007,0.06442551354571051,0.0017934005287007083,-0.15527684694597013,0.20450465786632807,0.07654325636829946,-0.015913887124421787,-0.1790065691368478,0.05508082540410602],[0.13162047241484962,-0.26509388440411596,0.08704037410599069,0.08637017690413197,0.3141380710745516,-0.22685458621655183,-0.19792270451886546,0.028949005065833807,0.06500018587075311,0.2514337975098802,-0.18794604566603074,0.2468339967448232,-0.17719380185758996,0.11503572173522865,-0.1028144864961638,0.062149445523374376,0.18200566819938643,-0.11248220461668305,0.06709296830774897,-0.24069101594198686,0.19105726469663925,-0.1972968944568993,-0.09717809688397915,-0.18075765426646176,0.29024477634881285,0.0467757630433527,0.08721502576153224,0.010349690569176336,0.0266081396929227,-0.2524421546229707,0.3075188564801438,-0.1588499355741188],[-0.21835024558098162,0.035959910487670284,-0.1388718414785073,-0.07674277297111057,-0.2175321990613638,0.13449860360365054,0.08048950634553763,0.1307810795335605,0.011834407223109944,-0.1407431908907686,-0.06818831475953134,0.06343027174735005,-0.01684939021520611,-0.33436840740601886,0.19535261247705357,0.09356278348992972,-0.03581163149342572,-0.06053142007566997,0.2002004144996443,-0.1098263498109423,0.12212119193262433,0.17448676213762754,-0.11774316220246142,-0.036543755876136653,-0.049372059591991604,0.00011366716280307936,0.20474072744917274,0.033017048621535504,-0.03279212608321098,0.18412735457010984,0.20235758647396745,-0.20658530118633972],[0.09399623021899772,0.23554087675021393,0.06549602382476297,-0.12858766015598136,0.15250150157897235,-0.28857694198076506,-0.28652947125218853,0.1534900667731355,0.17919493881951667,-0.05565218183268353,-0.03739016608747288,-0.08342033621989978,-0.20111824708831036,0.05138041593560678,0.028641719737641735,0.0524015888843083,0.23494218332101835,-0.1533398563753869,-0.08607878478134129,-0.2220873956638951,0.3018341109464108,0.045363065055800476,-0.04187081970281545,-0.13277437408740644,0.09736299866076677,0.22687298254700305,0.01776173887651829,-0.10799677032439127,-0.2749512818350784,-0.23348821415889962,-0.18659268389916786,-0.060756078093335115],[-0.15702072810644477,-0.007262907773245634,-0.011414774074850595,0.03136848877294903,-0.18014503570796364,-0.06256110446682815,-0.26519574453006994,0.11953613211664732,0.024002185595242545,0.05800871950121993,0.11979348621003842,-0.09858102599155125,0.4174976164453815,-0.17991334083284669,-0.1228904327054017,0.16925717013493372,-0.05167243787096655,0.007392111948365668,0.2824072195855954,0.18083841303765008,0.014042475314925794,0.10010128233861057,0.05575227221549653,-0.11070611719116494,-0.13711598059135555,0.3083472382706566,0.2693072778250887,-0.2078213845640586,-0.05833699238457764,-0.1411842107491804,-0.056156742146940525,-0.1854782487751024],[0.2650959056497533,0.14378354998976486,0.22671738794564558,0.16443859380577247,-0.22712180740875573,0.017684653702545104,-0.16025815753408898,0.17742476826809533,0.2577510425755337,-0.19085755089683457,0.0037442338479009825,-0.05523082500208223,0.2582893455754215,0.13774273691847214,0.3237257987345233,0.15116436493198793,-0.32550929359509795,-0.06165430811901017,-0.3448675526772806,-0.31999571450095937,-0.28262479867529794,0.14700012032345086,0.0781230515228003,-0.1305273584090505,0.12031174226225932,-0.06900146173377658,-0.042179767294367836,0.01579739906124441,0.29836879306381814,-0.3746775710875799,-0.387017151152602,-0.009624721717262944],[0.007989300026896998,-0.14666596314297742,0.2623456012326459,0.10340799157068772,-0.1929497980834072,0.0994865710474032,-0.18747607967820812,0.1071900470921831,-0.17014486757560118,0.05668094463145821,0.11116092177500049,-0.14102470415007007,-0.04805518153289791,0.24376787676984665,0.008172747776703652,-0.05139799335277571,-0.005962101884053051,0.01572385404809563,0.11646796607146065,0.06510980214715355,0.07989893616496088,0.17611436969055155,-0.23403332225735146,-0.0821483235834862,-0.08485178692962321,0.08470349867969594,0.2586408805252105,0.3505116874139827,0.051111062060897536,0.20340372427221565,0.023369679050038717,-0.05570056559754572],[-0.07053540836470665,0.10901953443238192,0.07526512008361323,0.11968020975288685,-0.11208880694000319,0.34587872126930314,0.02859616885023797,0.08981890575594886,0.10062363020338419,0.04574841079811176,0.10647016181365139,-0.028889751286032703,-0.19977907113769525,0.2423698633154653,0.2423173595676281,0.16110683600651293,-0.11842671281713428,-0.17310724544027842,0.3294337005222416,-0.0123397847685427,0.14633518110213478,-0.1136362391264066,0.27144590636471627,0.10469785077298925,0.0007591538213879457,0.029176192118693548,-0.16909654264133486,0.1557082422733658,0.3249752185822708,-0.5923366506093155,0.5744661047227855,-0.1615716204342111],[-0.1754304382616272,-0.17331555150660277,-0.12534360102395722,-0.2482048730648981,0.1840609425898802,-0.13095281807198325,-0.2518365525002995,0.17345055610330198,0.056775867045708105,-0.15925391874121878,-0.14969540008553842,-0.12888674697202468,-0.16288349781095024,-0.20192560712233495,0.09423524756290573,-0.31641617674201516,0.12173817265370807,0.10906888728934398,0.03666842076669215,0.07775768010613734,0.25828978124457136,-0.08628945016549214,-0.007830459245594834,-0.11065628802274775,-0.06437100250449602,-0.06236120235348506,-0.1568397247985733,-0.12530273427009161,-0.24763778770530584,-0.15143094526358475,-0.10943659690319639,-0.15479563264035448],[0.13788627529882416,-0.17363921549341474,-0.25834114782171824,0.15341863425240954,-0.06906009288118241,-0.199837046250474,-0.08733625271851597,0.14822773207255474,0.05480969725065066,-0.15532739602719794,-0.06284948058200207,0.028198584617167257,0.06255924238589049,-0.18188464109276314,-0.25195658227559653,-0.1976069979351475,-0.14838718819007055,0.14125038637807683,0.04624374148006902,0.0036191928202755873,-0.3270044775478211,0.07948430901948635,-0.0884249611429912,-0.03886476398121401,-0.11741807925848867,0.20708293367173716,-0.025297634491004545,0.13010465397273074,0.03910855699352393,0.40488170951263847,0.3444467616635711,-0.09437675531823222],[-0.020199297066331227,0.06984292902384812,0.16448722886355885,-0.2595599468829055,-0.1532852273838986,0.024004810906479997,-0.23104366699068915,-0.09224215194257762,0.26830138737040765,0.0362300668802274,0.05739852921692629,-0.17337658807334408,-0.2603018713013789,0.19601198399217412,0.18009534102063723,-0.06800139314396614,-0.08447419447258324,0.03008825233932333,-0.1170280344812401,0.1773678528894024,-0.07886416344939129,-0.1845561377869242,-0.1993003815958617,0.22866943572597095,0.009998499840065612,-0.049566819406024046,-0.11452164367526686,-0.06497713689875807,0.09191609134423188,-0.10438123941116041,0.13846173373017456,-0.0484865493207169],[-0.02218759725924155,-0.3135738367316308,-0.11257123434365032,0.2208514324172419,-0.0627835160601954,-0.03746097263139914,-0.19402607414750528,-0.0397580258978263,-0.2803908264148828,-0.14418998549289233,-0.2732909408208137,0.05078748677291483,0.12503969480667337,0.14732558401453333,-0.2152493715170943,-0.10158547581702619,0.07552150390443872,0.10995512378133288,-0.15171475242902965,0.06256667917931397,-0.244894371712834,-0.041185282781732814,-0.2100786193464047,0.11284498063221075,-0.052691199131355934,-0.10694324850643591,-0.11419914889129469,0.19273728990375888,0.2184674123112561,0.11324830461858727,0.22006882100671915,0.09396913787645761],[-0.2901664700997878,0.13190896811726802,0.10919010159315234,0.011114316984600444,-0.3621722187858901,0.00477111687835182,-0.054075085282698596,-0.16184687649094642,0.0712601701904222,-0.06296006325495719,0.1829549124032944,-0.10864206221015589,-0.047538460170316696,-0.12166949808567762,0.22309990859395468,0.029526392090893253,0.04590287128121566,0.307396626189374,0.31576137334283816,0.2747661462874276,0.1546725401666826,0.07909194103818709,-0.04530500927362818,0.018989900996823142,0.00775079308499307,-0.016155970677128057,-0.09954966777823165,-0.4644753091235552,0.17936094984998946,0.42905700926369034,-0.2912851756909429,0.0206966836022663],[0.04281261838659811,-0.25224222011109915,0.17235969345070626,-0.13734267904330824,-0.28853486271847584,0.007438977703781212,-0.019682270295567718,-0.11898112941139377,0.19142577504404357,-0.13067532393712175,0.05569295296973784,-0.21378554288166232,0.02147460341916257,-0.25412030656535833,-0.22690303201049203,-0.2987527247163658,-0.0464418691886132,-0.17833905453468554,0.26665451475410107,0.010481710113757621,0.027881057610343374,-0.035038048538407085,-0.015249111846992012,0.06024567111429233,-0.0421688306989036,-0.01900206796012917,0.01619151301849925,0.06767767734266025,0.03903356378151621,0.2061600914137525,0.2567669603733635,0.11276000780559828],[0.1011970007059151,0.1641651316048305,0.3238420227484621,0.20084897152998374,0.03185548072760279,-0.18058104584348006,0.11083792314714982,-0.0130864130878947,0.05735504850447692,0.24505619761866748,0.1637686164128669,-0.24071495103845866,0.25602188071974924,0.2434830272148075,-0.046698065331997475,0.06800001854016362,0.05262307692124969,0.10987249516419759,0.2270601527948532,-0.16802829366469918,0.08496543983268601,0.040361869093902644,-0.13981031928315787,0.06968989913787499,-0.123519907558043,-0.0334866655581268,0.2308730217472437,-0.0973438793131934,-0.0814803753980603,0.08790638815266422,0.18048689937909004,-0.15841556672887983],[0.008053072829372307,-0.16413806847596052,0.14636973933491665,0.094827114445052,-0.31809568305352265,-0.23070336129746466,0.30266355521324995,0.16743541086996436,-0.03743995400501409,-0.20088411897250946,-0.0018445939596986338,0.2968096375576785,0.0013071972382951156,-0.058438160590327054,-0.10108085946972543,0.14494677776940823,-0.1319197468516337,0.2442821025753532,0.2617090497397031,0.218773777421039,0.18316225190824353,-0.1906145489621271,-0.3684466070817012,0.2184751422632901,-0.011694515120705896,-0.07053453418963078,0.01942130018351846,0.2342388822169978,0.12064930311894863,0.18373541863608564,0.49887115816373734,-0.10571344117699762],[0.17883446731949662,0.08321593475944458,-0.19275879852146985,-0.022845452932844575,0.22734309998954635,-0.06214648808100919,-0.08291701343833119,-0.1476668591915055,0.10934120876494566,-0.27441644694202766,-0.20526805280091037,-0.19973963902306088,0.28110399970355354,0.29608386871853626,-0.14826389968082457,-0.14887832169883639,-0.2116162944432452,0.23183035206519098,0.14329789747459618,0.07811134593436839,0.08159886779829466,0.07767034912796905,0.5386735868081965,-0.09369021140870154,-0.09101491179833926,0.12332274210630023,0.05625569945922859,0.01644653316687852,-0.08657093881925257,-0.08124795308306774,-0.05426354907371239,-0.2790857918049052],[0.10831986325049739,0.3102548423020078,0.011920325427666517,-0.19089662287944112,-0.25890396420199263,0.29696878716400366,-0.08553091407137543,0.11660543627018188,-0.20522449209308494,-0.060621763194892896,0.035072453554013734,-0.08664563382422512,-0.02780970886103027,-0.08870830191879377,0.1585811095357341,0.11863114960309182,-0.21874118001968199,0.1583575810290887,0.35765659565246855,-0.3043289589803763,0.15215489363319626,-0.03497915486533097,0.17621907878025825,-0.09880539283219134,-0.2228019781464934,0.07979051730692774,-0.06722058194365414,0.2375959227404965,0.03991029685407326,0.07944772442948426,-0.12688244277317828,0.1483610231746337],[0.006047590823953213,-0.1352553332432041,-0.004989294251642365,-0.021927365989592034,-0.0478699171286487,-0.19833022551941482,-0.02000228198579545,0.1910807886411787,0.061652053423141215,0.05203897935845718,-0.03719193179023081,0.08355979532751118,0.30242545002823684,-0.13092549399428455,-0.18518146074079148,0.11239908586097405,0.08613094406518006,-0.20265701981659598,-0.2279595535827212,-0.06058664784245722,0.07859721863549464,0.13226720168059813,0.16695273664434976,-0.008965835950176018,-0.05730841348659046,-0.014675308087918705,-0.13026036440186284,0.07056283212940066,-0.09764988236793101,0.054536920938412566,-0.21126814176480233,0.2062206535243226],[-0.07240158782188773,0.020390813206019556,-0.15547279604209754,-0.22086121660231156,0.13458270995909727,0.17149581778747258,-0.03478242306884351,0.0005573034485388351,0.0539136068943103,-0.006705790560229603,-0.09405274124258577,-0.2014409731954498,0.21747708162558213,0.06660620480801356,-0.2683415673228315,-0.26343919374501823,-0.2360101542427742,0.03443172120850343,-0.08179517763313951,0.14464993770668916,-0.37576912172545296,-0.03990796733269238,0.0428838396110734,-0.056039780793942576,0.12297894583711277,-0.005629233058244077,-0.1062113689203368,-0.004008387335047377,0.17116152493312567,0.266933225855867,0.2544216889642429,-0.16559362786779594],[0.03873836215010828,0.008320190987866124,0.07292334831763171,-0.027916953054827397,0.16502963573134644,-0.009789737742671833,0.2214940318180341,-0.15593943607376004,0.0966990016841867,-0.0998524492576401,-0.29744131522008666,0.016587777116665068,-0.12130759944735744,-0.12716584560173955,-0.19696824699334745,-0.0715051940767362,-0.20446026152272248,-0.3031655023997513,-0.031881221168938156,0.07813378754329718,-0.3631772877256577,-0.014175121908284724,0.06274936095053149,0.005459241964662357,0.018718448337253266,0.03710987370595143,-0.04573298678594711,0.024694610910039685,0.02103760658811029,-0.11928196733030338,0.14090296149196255,-0.1319968226931956],[-0.21799402347349653,0.022349198299431546,-0.2565806922076124,0.0646301265586351,0.33837881786824325,-0.035066442936296606,-0.3317937162938971,0.07714417365157451,-0.07207599111781716,0.271019634359897,0.07940816903109599,0.029584121229599677,-0.0034706650048955713,-0.11740625753025997,0.06109718770233749,0.14347430134648337,0.36901010256245065,-0.1831042546543946,0.057288909356946444,0.09223604289339651,-0.0075777978284292695,0.05135353287047735,-0.07888637977898562,-0.05103079083197175,0.01822196171412546,0.2563628056423176,-0.20323298438035547,-0.024347219334805003,0.13080230488270814,0.20215113410869884,-0.08504677942862379,-0.29258238599267644],[0.06356988906841203,-0.16343045017517704,-0.17109294269687647,-0.020436834997651872,0.3332234442908899,0.07628034937762694,0.1192458247327747,0.1779513877514003,-0.14866617796134105,-0.09752050665752902,-0.24028518484198408,0.17076278976316914,-0.14537598222496514,-0.08733550013779602,-0.20551504467922382,-0.25951104619662085,0.1554763712437039,0.17553526764571806,0.003359635311025576,0.0018758115917709838,0.20511315472352712,-0.16017186849934342,0.10642253164916177,0.13276319525144256,-0.01866599740454551,0.04425365411695582,-0.08549394551932128,0.05161532254716123,-0.09957338136126884,0.24463954794316747,0.1139572011361398,0.19374089254931323],[0.04096474968160396,0.22422581915683018,-0.21768504408709619,-0.026837119578811568,0.2598445222822264,0.07203153445763412,-0.06422722710239594,0.0005146858210323096,0.025005724424829782,0.09427055380930198,0.034241777546153665,0.013909293751906112,0.12833380447671944,-0.08269423417347764,-0.24546413354537353,0.2368968022708965,-0.09844863844492184,-0.054846659554548226,0.10664822591311755,0.11837274884149189,0.18545846945184438,-0.06787722914656742,0.39694662595554686,-0.005158171589391146,0.17428800536905834,0.20585108165958654,0.06779009018172763,0.1953183141820486,0.13475851955741472,-0.10718365625681753,-0.0019359540595455295,-0.03100566624877376],[-0.1502338514361872,-0.037169698042813795,0.09793714494853797,-0.15260105923600234,0.035998709608948375,0.11267827880944212,0.03996383773711086,0.18139604251580593,0.09831462125952589,0.056613416348551014,0.13709428245348473,0.04350554569303356,-0.1646340424898406,0.1905431998940024,-0.1287929066202367,-0.09273681853883876,-0.34231453322856964,0.10868164445422122,-0.19285135292688838,0.00010342321822453947,0.11818439426218452,-0.12060958189752238,-0.3692333630807687,-0.1418269534339514,0.0818222198536009,0.10919091004779213,-0.15462729591555982,-0.0581799683632655,0.13368326455851112,0.026166929691282474,-0.180608664281124,0.02356008619112081],[-0.2254542146261251,0.15150212427420234,-0.10454380255080618,0.0010333397512458438,-0.16858445053760074,-0.04663993849452896,0.008074648516530971,-0.0701996874882633,0.08204796834517444,0.1422043230969248,0.046875966756996436,0.04395649233857625,-0.2299763979146205,-0.003722227926553489,0.06487307002935778,-0.25778352252294423,0.2398381941952075,-0.12232116472859005,0.006503323945447795,0.058715462726453116,-0.23194540329481422,-0.09775877069288122,-0.06502152147221806,0.10661632608523737,0.15086324001430934,-0.18180461208070509,-0.10169880014873399,-0.2420296002511976,-0.15358425595276887,0.0712844589884316,-0.2658260795010591,0.3554228591960365],[-0.1176739544179218,0.079056916039668,-0.08108367720368542,0.09727903321647943,-0.26826738034970127,0.1281522412998974,-0.07786465711860167,0.0020010100643174373,-0.09204912068708747,0.20248205002594818,0.20595855007435449,0.23346020798282452,-0.14199786984962587,0.24018237812407656,-0.06392467163663458,-0.1905750920513094,-0.12981955817998828,0.20459500759518043,-0.09883342086314505,0.29948353524150984,-0.2102352787967898,-0.11999327780964761,-0.040849089005467784,-0.16316402267486807,0.06494320565424098,0.12952884203497256,-0.10008631334737639,-0.1531575908967209,0.3099897147224747,0.007751105279191577,0.3296177380392643,-0.41487861876690796],[-0.11145975244897448,-0.13917023107733859,0.1885560935884835,-0.19066890905140016,-0.020970886504579064,0.06728057575822836,0.04511148996208777,-0.1365284635646857,-0.1900390137373707,0.15203453662228655,-0.13914175243664123,0.23905184742078173,-0.031022792686109076,-0.02489424564460698,-0.04043298345864683,0.17718304215376976,-0.2364062763296287,0.1836554428109893,0.3022308066086779,0.29028718656192365,0.07171531885190462,0.25236521747294444,0.19214803971266547,0.17064285530531068,-0.016485507052781512,-0.16745521791877332,0.16111799763355186,0.2539174068974516,0.11194642194481,0.006040556445117754,-0.4056665292232906,-0.25116965915271966],[0.06833816395842521,0.18988428230257454,0.07879361429107246,-0.14774589436192892,-0.3631644194081894,0.11343712278878391,0.09767121900308375,-0.13402765598374083,0.23763713586100935,0.18263005541838756,0.22832334777418017,-0.04729153583672928,0.13505350762620458,0.00917710875545285,0.1614113906741984,0.079080011331307,0.14763083604552618,-0.04090322886892031,0.2159956985965352,0.1860773958660986,-0.14664817305014752,-0.007791226570748664,0.22237196958107647,-0.08305178002493716,0.07711397755414696,-0.0086519937504348,0.008767322733614363,-0.14206415559484384,-0.29553574790027465,0.18962195630569376,0.24522460406991475,0.17069002078600262],[-0.01645933288312122,-0.02849751224074992,-0.19800543706223683,-0.14171390495486236,-0.14928031018961677,0.010293073174503828,0.015524755246967224,0.011549612750155982,0.17401863000926854,0.12438219267562342,-0.2202199086374117,0.1441797208440087,-0.06132058754363956,0.1289671302981029,-0.039498735657016,-0.1756884450101068,-0.18152628132205986,0.1556682459311132,0.15986058605025844,-0.07144144655990098,0.05578504902251755,0.01622626439196574,0.011365206896742365,0.054260216309173576,-0.18080619786404364,-0.1790818830222784,-0.10501310801269559,0.14513638253428165,-0.0847017849290089,0.03298728687006376,-0.4237076889263536,0.11686789314882846],[0.39990975406810825,0.2134493503108759,-0.3598314004362887,0.02848720089568679,0.09019384635660145,0.027038876503507003,-0.056776687086480565,-0.15799959488803178,-0.046903415491699865,-0.0480824152771408,0.05681375230250092,-0.062380962614951276,0.09967396843980288,0.24027511532903661,0.009148142725222201,-0.03132087646221276,-0.03914432503229369,-0.20303071570501238,-0.013572979460665954,0.26265066661876624,0.21196940279998985,0.018038474121871394,0.14497782493964007,0.06413310768230637,0.17994625608117648,-0.1174943010602679,-0.19757126024752752,0.07720402321141508,0.22239057388216987,0.4009482716213354,-0.38724379683190413,0.15507096444233007],[-0.31149314913273657,-0.045804880366069556,0.011722367748881303,-0.042866253954172914,-0.3518162958915582,0.013371917941062513,-0.07878212258823167,-0.0023923204851715703,0.16768910128614045,-0.23307558135837161,-0.12685431799223895,-0.23399520939710228,-0.39218184912097076,-0.1395576372923618,0.16373367083422963,-0.1403081932200476,0.17636562925570023,-0.14169752940631383,-0.19036248085392415,0.08494029386485222,-0.12067235440664059,0.1658015476248756,0.09505217209635142,0.18017130795719763,-0.10133485549084816,0.05677149354964314,-0.018050176279729404,-0.03326384055947517,0.153813383824106,0.3035456281354071,0.003234600339940793,-0.02568296063762912],[-0.06395280368741431,0.22168025296032454,-0.02591315125615571,0.0033117067207514396,0.06806571046608956,-0.2577763535544381,0.1003461156837417,0.010180621341856839,0.028792189806072024,-0.18523186301373754,0.03207737548654292,-0.19077647735272257,0.07929323162904268,0.17845089745692944,-0.18750628350399137,-0.22742899391690197,0.14041038840389403,-0.11666464408688683,0.05268925021823269,0.09526812432900858,0.18686572204592047,0.18148722800899394,-0.3026554404890445,-0.08623458451371076,0.14310389719632408,0.2641999124190572,-0.03512702642052202,0.11437862114771938,0.11288183348889905,-0.13707584491543381,-0.24439376668820412,0.14928654525104762],[-0.1598148070494164,0.07321417657113688,-0.24126127779062972,-0.21047329109270768,-0.33133662098655986,-0.18737630184693557,0.02059989166999076,0.20017918190104964,0.20749929760383673,-0.13880785579238036,-0.10134518810405622,-0.11693752662187187,-0.1637426929685081,0.0878695424682983,0.2290446791448672,-0.09148294099653038,-0.0037156800555934173,0.05988268400240082,0.14376738992464197,-0.01647442953485627,0.18113448305967997,0.0650729896415165,0.020300055669469626,-0.03130511750211187,0.05208781570995096,-0.16729283478386278,0.2084981183327489,-0.0504659335276138,-0.05145727975078438,-0.20674663764642964,0.15615967447052914,-0.0563813522945287],[0.09643035219718188,0.1724126419067585,0.26651190506066114,-0.005223638846807067,-0.08809543909958832,0.18558031108460535,-0.19851969635334663,-0.06249545653608342,0.10150270119317298,0.0023706899993009554,-0.18468207876724577,0.01418842991397364,-0.20184374292642437,-0.006733512082779898,-0.20925460796254713,0.10514309841439688,-0.039326138249096455,-0.2159219909853993,-0.16917809337008116,0.3286308264502483,0.3050874663797685,-0.13420094789258552,0.039451889632372096,-0.012867943585132277,0.006963093940663202,0.030894764238963614,0.10182898757173717,0.13926603411066338,0.11699164552347267,0.08263352213492371,-0.38295055153226315,-0.014469130195632198],[-0.0852308894973586,0.032833255039476185,0.02399297051173562,-0.020736319610158285,-0.0796280782164376,0.12479864433262126,0.07471668247612445,0.29632294173263946,0.20262249220431422,0.08809025115315972,-0.1893180235100123,0.05881413365363847,0.09227979192441706,0.17993576766253672,0.06559755061152628,-0.11217239432569523,0.13144888919873343,-0.02166265080189217,0.0717333153388176,0.002279435689207401,-0.03581239483758228,-0.012003706341662727,0.6615352207789283,0.1401016199833703,-0.07567796156497002,-0.09548134123372469,0.23980794315481851,-0.04667652654845926,-0.06054640114868898,-0.2318538608920078,0.19203101495533598,-0.3363128569414841],[0.015930829362226142,0.20595951305896298,-0.06270462369587744,-0.07096604157464236,0.11540188271177622,-0.05949537682929771,0.13871547993664762,0.19382666094458417,0.21380640166205947,0.14343201737704106,0.06276379831397405,0.11442458747987694,-0.11897251039533865,0.01921649086705029,-0.15325571130056556,0.14659443921813162,-0.19319116760053565,-0.12720016081060298,-0.5222717598183502,0.02726118412198891,-0.15789788269452107,-0.010491020193312748,-0.23663005003906462,-0.21101652385245742,-0.03546785553491918,0.0861800226758083,-0.14024653182133243,-0.12734725501069039,-0.18985109116375037,-0.01108303357747381,0.06692670219389861,-0.08217967287461833],[-0.13313177124355452,0.08837595062003682,0.07210195951445224,0.15668457732146782,-0.30565759106149787,0.09447171316072533,-0.08939828410500228,-0.18039694409636406,-0.18092104294337213,0.21749136590430224,0.1855587982875812,-0.05835039429498153,0.19579962704846518,0.026543866027210504,-0.16440694696845654,0.17802021584654087,0.29739115685514167,0.01914026373480885,0.1806521362996851,0.062263437836461454,-0.2290337245880252,-0.049874868791859074,-0.060311579754894165,0.13287455697689737,0.14581917693195656,0.08436821187430914,-0.10108859755558693,-0.18699970844779057,0.06231568592272927,-0.08555389677137515,-0.0879414612684735,0.16534460398544915],[-0.20651379289377103,-0.03249797570512981,0.1497205202246337,0.10154228080575,-0.13206112538358986,0.17682192445476205,-0.17525753847404282,-0.057842911080120525,-0.21452654628096682,-0.18516075140493607,-0.05841271021218745,0.17153208228156866,0.025403092661541296,0.022575341920474765,0.14036428553755534,-0.256758140749242,0.08445672392135053,-0.0745800318002471,0.13581271193631506,0.1917398059425191,-0.1611231154009956,0.26489022458886957,0.05989271729387229,0.12613723754905,-0.04183782041292111,0.058422859037823446,-0.030113005073193175,0.008432381688363848,-0.22947333415925134,0.18575972511536243,0.4867705720315077,-0.1664632810037536],[-0.16522249403049777,0.07055594913874637,-0.12003307147073654,0.05243861159858536,0.1085206660808469,-0.021702436281735498,-0.20201251204645823,-0.09010606475146969,-0.04214648102414733,-0.1453851184175724,-0.11115686260863139,0.24628376297927213,-0.2513281325413679,-0.07154190959440615,-0.006584013162686934,0.12333632597235643,0.14697642669723626,0.14972680447527997,-0.1307458842255305,-0.18180904260811906,-0.008249609328511098,0.21060671159888475,0.0924034895336507,-0.09328237914106885,0.05266916014139147,-0.06756145965490853,-0.24259163776347503,-0.2070325791442186,0.01617038023195786,0.20313818082885723,0.11102290097806294,0.17087911532559333],[0.020312644156118314,-0.26114226067532464,-0.023505028401432995,0.18306522977723477,0.14375203209133247,0.1605332944914209,-0.02424073492750833,-0.09563033518231157,0.27249147966283377,-0.0016456788947614067,-0.2448290540170903,0.23547703459108224,0.013553800926791006,0.03316638305820779,0.19336332054970543,-0.017828868028196828,-0.3230490899379733,-0.26788989121598333,0.06153949295461932,0.12648227908204854,0.07510644257970421,-0.27604210569854776,-0.17901186809853403,-0.17212564563014282,0.14244429625327185,-0.0328586244532015,-0.051297322972617646,0.2232806324018667,0.4182515824458825,-0.26723766544590205,-0.12974524070960794,0.1511913646311812],[-0.07297618947897351,-0.005906581529331713,-0.11715570678117777,-0.364200280138252,0.21812355607776251,0.022720027183336548,0.21796804674396084,-0.30102344357762,-0.030306180114528385,0.20094398324954585,-0.1818093828247325,-0.22295328517124285,-0.16258726943052634,-0.17331963150503715,0.18025330571362544,0.23100540793612487,0.24851942205343738,0.07625980179168507,-0.044364202019586574,-0.09183317846821433,0.17885644054312375,-0.08997777569977665,0.11206275301808725,0.022009764038536377,-0.08050478523322495,0.0326610931392212,-0.050790459079608226,0.1181821164423781,0.09170104441504996,-0.38639489579661196,0.045038426678339356,-0.0765170517532175]],"b":[0.07285993835671006,-0.2178013618916845,0.23636603969839104,-0.23256263274255756,0.11778635757602161,-0.1633236568110848,0.05032140323779925,-0.3567957942629874,-0.19895759989229678,0.14008023548284299,0.009571215615145443,-0.14558588147949322,-0.10103219201054116,-0.04429507238556615,0.06565987151596321,0.05452796917160613,0.21127102712928386,0.02512018451306497,-0.015185046884903035,-0.26839902424994894,0.2293324053532087,0.13705651701868576,-0.0029067073475380198,0.003530193572309192,0.02626072834383481,-0.252839874532372,-0.2978405846965898,-0.055329563464823726,0.11579621135334701,-0.01823076466948635,0.10327042373985575,0.1704946205788253,0.031389800645222364,-0.1837830469978767,0.12523356696539556,0.08031934825357795,0.20933892445454777,0.18906522927618577,0.19917327299737114,-0.035010719333200976,0.10101090495131788,-0.022902199761178695,-0.09742213584775503,-0.05527922189712547,-0.05386201948837107,0.25766460040619027,-0.05231372582455796,-0.13067804327082955,0.030656065400569716,-0.03405207295253913,-0.031264834161721225,0.15581523457888785,-0.05046361949417835,0.005389541550295345,0.04103802055539545,0.020519157411004532,0.3617433916459463,0.05956466829278054,0.10768431949213088,0.2610573131285864,-0.10262026590349393,-0.028861730041225685,-0.17898128054578608,-0.10651729698171125]},{"w":[[-0.018529239853222173,0.18156501936251768,0.07906332631223956,0.4029334795271282,0.18509203294893892,0.14759917095984815,-0.06934494010676638,0.1394071891110022,-0.10813637353784829,0.17139189610887554,0.25171384863122087,0.18160722791336775,0.20118838952677828,0.04828237749874207,0.08022094249427604,-0.22663063926087,0.07607224026690415,-0.10862416959820936,0.09699216290516799,0.022109181729932918,-0.08357952964134076,0.006195465526320839,-0.10656098944366652,0.192987562701419,0.09807515245330628,0.1986399319048197,0.025587553722675706,-0.06466398953724818,-0.13627832468342213,0.005583323818881335,0.17639017557031333,0.09191724740406236,0.04993616236882451,-0.11287350587608255,0.3615342027292403,0.20816995769991115,-0.20440803464991444,-0.07372300259390835,-0.09532882689804072,0.12134603282776654,-0.1520789812314724,-0.09219365498116465,-0.29864161944001266,0.03595681034561384,0.10295401447744248,-0.0036553789801488934,-0.19690331276191003,0.15631137195280886,0.23235919000027586,-0.34268812953363026,-0.0687250076439704,-0.12489150882739264,-0.10632441594024239,-0.10080797820078652,-0.01871484774518914,0.02287579333490359,0.03926470745235311,-0.34244296735553736,-0.2341066334808955,-0.18662218325070298,-0.07489890720260017,0.07971679130401398,-0.23599826592007747,-0.06864815999070664],[-0.28573035322858203,0.1277383383408338,-0.16523102949644988,0.013933343545640449,0.032371170861987264,-0.17955721033411667,-0.03363990386240928,-0.47583405813085217,-0.4969822899758248,0.14251829442809033,0.17960737182190847,0.09946769126975742,0.11420279435035792,-0.2635245476696516,0.25987243652213093,0.23210911743474813,0.23561372052058047,-0.09980624867504823,-0.02674782420616979,-0.09159529757823548,0.02889110391727655,-0.032269207361862375,-0.010540387722339813,-0.047598500056438175,-0.12779170467974402,-0.40522711019495916,0.35337445104283965,0.07213438712416939,0.14512752026018325,0.05303641294089869,-0.17835200352993458,0.005699616903384038,0.10483608165321724,0.08159092810275637,-0.14288851741067196,0.1844171292411179,0.18945404320066792,0.1539894108355062,0.03422218281310989,-0.12571515978985698,0.025519996512842744,-0.23743138393792995,-0.07586459358264484,-0.19786707991874994,-0.1638010120339969,0.012664155337337021,-0.0465166063260123,-0.10763196855770102,-0.13350881297104916,-0.2122102206772509,0.0034095582383312515,0.08495814600302642,-0.12698012704395706,0.26716030893516907,-0.1505758311582259,-0.14093441187115144,-0.04346268719974898,-0.10196822958843135,0.22505178986630062,-0.059545574087742525,-0.17232997967387273,-0.023657032700776792,0.11907377670775272,0.04881897876275958],[0.15822520665936396,0.020494931623841993,0.20417951130758796,0.16494622323472222,-0.29181838979963853,-0.2764327747443996,0.21529324582999076,-0.10214435025637933,-0.20019597412767642,-0.1364184191210231,-0.0018401760561276704,-0.33706166720886893,-0.1438031935388639,-0.19797171827777657,-0.04481478268463854,-0.08297288058962025,0.15597261346868066,0.22974919056406734,-0.11664802077998751,0.06879343284067996,0.16470315274244088,-0.41515040186488145,-0.024922891241766592,-0.06199193755348518,0.3432953080308208,-0.10462806881050425,0.04533679635814615,-0.07005072963112881,-0.1297947571759169,0.15613182929479608,0.1720927268907377,0.08725527841964746,0.1298440183142563,0.1501515080965755,0.10338225104158237,-0.16199663407462764,-0.28522801816927423,-0.08600136933083026,0.04369786422781688,-0.04720988683103947,-0.19619286626713425,0.11077206560676554,0.3467569992782918,0.2301560839767024,0.15008828446532907,-0.13690654456916712,-0.21933312142746544,0.3378936542240694,0.10912033420622659,-0.09231976495254944,-0.08456540864500164,-0.07599458325447772,-0.14761069622816134,0.16247239276768727,0.2907309242457379,0.20038300930313652,0.11735574370914464,-0.203172125323164,-0.14471117282478027,-0.25374549096460725,-0.07203988416895304,-0.042748178192623686,-0.09984774247470488,-0.1117401226592056],[0.011908419664250167,-0.09025088962481154,0.3354462920338942,-0.10666119032745246,-0.4012525007361641,-0.00872848713844588,0.08487920751931803,0.38542666060673486,-0.2470437241467378,0.20686116726854237,0.25670399650775133,-0.18977626874839684,0.08223291406727588,0.16345108791095922,-0.14951342611204455,-0.0030629012635615196,0.12617614556132487,0.1621303360969357,-0.21186595527658497,0.018968997283447205,-0.2637355363587335,-0.20492487936539172,-0.06441556219367794,0.2795786015133619,0.2180197442589675,-0.23655978565806127,-0.11290553741389336,0.19028043090611832,-0.147064799382284,-0.22238414865870257,-0.024679343361226153,0.07157321759647851,-0.1340572057095705,-0.14456954396856564,0.1359845941837374,-0.15672840421307555,-0.27542446396118286,0.20525954145731323,0.038301605278827845,0.20843461871083113,0.13605408610160916,0.06888068180781241,-0.08410830457323891,0.2468893549716387,0.046992386431306425,-0.07951164368493133,-0.4113278402101293,0.02177594888211982,0.11681539319963621,-0.5017599919400227,-0.08367240789946519,-0.03176256860553399,-0.21879228971496545,-0.06370983998977371,0.20317037879362282,0.23419142463888618,-0.0704347227835829,-0.397617333112453,0.10022128587437508,-0.1789676106173727,0.09288233810795192,0.21392868203027737,-0.055021234702140286,0.014230654129278732],[0.1034677173050257,0.13252240060889695,0.26309205816707165,0.23012363227689045,-0.09944284426225496,-0.05222568277931238,0.20229146352636018,-0.07351841319880668,-0.02373062638579111,0.1584095550711252,-0.12320481078262963,0.21462131702709228,0.17391866159284364,0.18271439930257763,0.09368626020729567,-0.06345698734678501,0.1597662080005476,0.06074127702296865,0.01375632035319134,0.09381003478750594,-0.16286755238016015,0.031018901627300036,0.1996493608993348,0.03768645647108894,-0.14036191216399416,0.18860821097018424,-0.20844931347331905,0.07820783667099071,-0.19873981961937115,-0.1523466701479957,-0.17457113633108576,0.3298176267976297,-0.1510887391893551,0.1044309003736499,-0.12571011978522756,0.2678626668474836,0.1845261737938312,-0.06108247324460059,-0.14013988026957655,0.08093904279520521,-0.028280824300142057,0.3202194107505426,-0.030000036514831015,0.1428465868706386,-0.2848813632034634,0.22588375307174813,-0.019750076913607924,-0.18113265974446582,-0.16545732690957765,-0.21815614245479106,-0.1983720203445659,0.33633798070167187,0.23903738977845784,0.1259374848009307,0.17157110107969506,-0.053366538806693974,0.22093533512832053,0.33897701060539176,0.025933270915049978,-0.25101266942305966,0.013404526427344224,0.15974848100020483,-0.027338758302908717,0.2344896733128228],[0.3376759262727539,-0.053738631242773775,-0.015371796409063056,0.24868410380203543,0.00900580323500049,-0.09196983149893123,0.02408169988414958,-0.011038110754688829,0.27391137115116493,0.2824282878663085,-0.16653756262530833,0.11381729467131353,-0.11449090024181456,0.01110389163063175,-0.16814848412601077,-0.1343922672125292,0.09157312356884506,0.1502156768381066,0.07743325042618916,-0.33869423905560675,-0.3278158232852682,-0.25054025578249656,0.04411575425131553,-0.27332892208063947,0.1413206133027317,0.2940722664678801,-0.07218281983462851,-0.15922510967789713,-0.11926523431365314,0.09053351526777177,-0.028752294158042858,-0.062053761521886984,0.30888716815733314,-0.12519330970510367,-0.11938688630335823,-0.014552724513575817,0.2347385901229728,-0.14242870306618452,0.01178585532077575,-0.057213570687514016,-0.07082721071552574,-0.016288184145047402,0.031007935831301056,-0.11486192629673901,0.2453932079354206,0.0315316073326445,-0.15755672015115754,-0.054876298607530447,0.1977079580143565,0.11603823353363145,-0.15707698307211165,-0.054369045199705125,-0.09386868345530323,0.1402082098612728,-0.10970968129601402,-0.07231781905178179,-0.18148372875082075,0.23347042508785276,-0.057362037679580195,0.026068617057449714,-0.014640265905794432,0.39291558838274593,-0.021229106942281344,0.19301618819192384],[-0.3090975972044398,0.26044706549331187,0.049932104409280816,0.15067508184544437,0.3402248386060201,0.17518554964447353,0.04659347404162852,0.09783279057745217,-0.2336584257750468,-0.20115989801402212,-0.1740856989266963,-0.1540988159712223,0.14880605771961006,0.15471151195633517,-0.4892920141170943,0.16721815944101345,0.0798009566617403,-0.19603225320640738,-0.5254804136517112,0.15068071540127162,0.18538687894218564,0.1705900455024509,-0.08350373770140863,-0.13177054111529246,0.16312389565540003,0.060415609118713874,0.0784232430751643,0.04386646041628283,-0.09990214141756683,-0.08762753709958873,-0.06675783076192922,-0.08404990631870615,-0.08865185200380508,-0.025344963999014113,-0.11540691259794697,0.017939545972849205,-0.2801546032892416,-0.037654487012059805,-0.1749391789170149,0.1470535112212636,0.1632324486056829,-0.04360141901331108,0.057281873776405506,-0.13757656552745667,8.110289646591148e-05,-0.03606814221594671,0.16474228782053613,-0.02594513907362047,0.12266831568493639,-0.11197101372892553,-0.05704802554658893,0.19111764538048248,-0.021507907275660237,-0.07883996173377465,0.01927979451897035,0.12435902585441702,-0.1135367295207514,0.18240546520266485,-0.18524848749103334,-0.26902082253706106,-0.17622878246046203,0.1810205320134256,0.13068065623622238,-0.21225031427321384],[-0.07404158583224982,0.25641228507720887,-0.17162705386017768,-0.38075015009640667,0.24556837034416817,0.13329089159518162,0.14683843612687933,0.034016044185878336,-0.021590008608027372,0.0058075126836254235,0.14933262548416576,-0.005307581416000345,0.0729474836374376,0.18661347484194934,-0.1880945438915837,0.05010455009482981,-0.1242276032953274,0.04469004283477735,0.04634235320850373,0.2202974196724443,0.004746037445077007,0.14076492777312186,-0.06414318449903256,-0.07944551444119989,0.14932911368235596,0.1761636339984123,-0.1656079827912141,0.17405282404593397,-0.30049848949925145,-0.04866868352034932,0.1648708365275318,0.07258916845226385,-0.1482735748449288,-0.13204127492377285,-0.02824707327408369,0.13560380229825092,-0.18020787484949147,0.2206820883812235,0.1380096612050253,0.24222051125465907,0.1389404986180621,0.0366334963105157,0.13555061794065756,0.07776706634847717,-0.022378703675688547,-0.0009380583184458184,-0.036479276338651896,-0.2807761460451806,0.2151772636754205,0.049602089433015265,-0.05426227470665097,-0.10991631872136065,-0.14550338647441954,-0.21818660477160612,-0.1612454377939436,-0.11187916031818435,0.061489168078866674,0.10258927300446219,0.2340716497377515,0.0026735528849313375,-0.30180986769414186,-0.2444596780617446,-0.2770897555335373,0.08693519349719084],[0.09809398273541878,-0.1601370124520109,0.15573784759629244,0.026834504592538697,-0.039101518835899365,0.01919356237726699,0.004961329190417869,0.1058401936107127,0.25480639397842403,-0.10821046596596451,-0.2813406967130555,0.20840381365908706,0.25734650452714936,0.07040032403393433,-0.10443665438374186,-0.14807381825904922,0.16944177994647702,-0.0371344442113674,-0.025061081512889438,-0.20528510441097644,-0.20973470535362607,0.16401265744343035,0.17727391851546317,0.17110667018627093,0.1553084515515665,0.20991426192019808,0.0051930393274328525,-0.05544030802230259,-0.02565708724988524,-0.07430474402950822,0.11389479266735497,-0.16484869673160807,0.2996354574777988,-0.018086168622700436,-0.08594975147055606,-0.26548338657300086,0.016608092781543998,0.02844767570575045,0.21722736203409362,-0.044225546704657226,-0.02471575991553299,-0.02072477069117888,0.11376460003972742,0.14283666449773963,-0.13048577127410158,0.1402911523676329,0.0912822510431284,0.16347497207250336,0.27406399744618665,0.1340545509964925,-0.17163066373373717,0.10383782021217762,0.07060306317095622,0.18842645317876017,-0.18453952682294125,0.18017391169882602,0.042802928803792634,-0.031108081977251765,0.10693493118047954,0.09958472841031225,0.10351894657391354,-0.07959046169559109,0.10261792965139284,-0.12913952614071905],[0.04867598574727773,0.25673862894092014,0.09875792127327832,-0.02177080701414442,0.07497133425321574,0.08688408844378137,-0.20661054696860115,0.23269698046207188,0.10739714422877196,-0.222024281069441,-0.011055372893646684,0.014377319902071027,-0.14552476303794398,-0.04418968817267287,-0.008608921156287443,0.0701775518224825,-0.01704060049828519,-0.2044384589098543,0.17874396597889192,0.11290422024004511,0.03867813359839745,-0.1542042772291313,-0.0731022752825111,0.2015879220310355,-0.2545179446586696,0.2940270749512484,-0.20869727973174101,0.16418279978589112,0.24000141918346246,0.042910174277900906,-0.21861704841973525,0.22519842390271602,0.275568787355568,-0.04884984346989338,-0.08132960060285638,-0.2439870945901598,0.23192006028780962,-0.11702789756554435,0.1512145276563125,0.17634930907076,0.24319289530349195,0.1298797163417924,0.19136776056266014,-0.07345496776765528,-0.0943471361637132,-0.02024097800505739,-0.15960090241001473,-0.001182089724260106,0.015020693284191007,0.12470496991871577,-0.07431570228644575,0.1372593730183124,-0.11036193394923668,-0.02930558934676854,0.15323369188425845,-0.018289618246834366,-0.2596555124467202,0.10931930045602938,0.02415733177559789,0.243736104336134,-0.05574822182221865,0.0755274365800643,-0.217474323106317,0.08995668959183642],[-0.21724950600644288,-0.19733873162838966,0.061478593753972105,-0.056896225384621,0.23132849732220617,0.119199682287435,0.21696927512232794,-0.04351174616900452,0.0488360018970658,0.11686072006665815,0.037081024453224906,-0.30260021507156665,-0.15556688999588802,0.27496097837316286,-0.018390743149433765,0.16802253557827912,0.2269288389748271,0.10375072018651578,0.12419246511678571,0.1319651840418855,0.07634676170222307,-0.15342131604774747,0.10346024440757197,0.2180131107687789,0.032601967436903335,0.2718409642359782,-0.20904304603598653,0.0971781348249774,-0.003326267372039454,-0.024719617182632103,0.196740789022762,-0.09509421738431931,-0.15409622980425602,-0.009454884753486931,-0.10369669583578413,0.2754735236731027,0.11542706712629816,0.08819898610422186,-0.06584240654447368,-0.06729799682765479,0.019522056593888816,0.16850781913139912,0.004966785783302212,-0.010372928819061418,-0.23442823257642376,0.21221170435516948,-0.0457198066851697,-0.15937054085221491,-0.28717687960063376,-0.13057242684303486,-0.21777713329879864,0.02166206453701225,0.2626548647496232,-0.016424280794314447,-0.06528726794277231,0.1570485468123504,0.06149413130521751,-0.04797170561664148,-0.18385216636172236,-0.13797495694027528,-0.11576995726539337,0.04068601220431534,0.05890314905530424,0.2512967415664408],[0.07734685822353615,0.0711205945031528,-0.2169626808981205,0.2902796467438099,-0.03282050647026166,-0.12768465697202583,-0.19999065286296924,-0.07142438485044963,-0.057104765064901745,0.2027667122550448,0.3188738559020177,0.040620010459339356,0.09604597044317559,-0.14222036968004,0.15239654140495615,0.13740977556869713,0.12121881495260642,-0.07363314816869768,-0.14453392357153377,-0.07875446497043233,-0.30513828306232954,0.2284590283305749,0.08710534336064366,0.2211159774213058,-0.006568862029466347,-0.25451927678232544,-0.08880789207064246,-0.1641501837250657,-0.08911616909966967,-0.20290515727803535,0.0063688048468241035,-0.11125181119373671,0.22361317918824508,-0.13534158814216518,0.1896651932657993,0.21712078885714678,0.1632459952418992,0.13950112335506087,-0.21384078033991477,0.04336935039903005,-0.09766862734136554,-0.26509663289825935,0.07258586697351654,0.19081247984455088,-0.12632141716319717,0.12138579194076407,0.003297303741875569,-0.13859013183053595,-0.05527168751398163,-0.24530034326760117,0.04713606450350505,0.2111478409423516,0.06452954971048615,-0.058143752815351,-0.14250949551674585,0.1853572346093615,-0.19612385831648332,-0.21889828506079392,-0.05148772453541281,-0.11698066719900571,-0.30590276352034346,0.010683824779335611,0.08301271476338451,0.01619291648338322],[0.19320010763098847,0.01279280975389711,0.07772164918731371,0.04705840404811722,0.0641384049578284,-0.07357063964363247,0.1339062353922159,0.09356292356957553,-0.28182997015771594,0.16800369145896268,-0.06430626050832301,-0.12181936800034121,-0.06837615972934251,0.0970269729189932,0.20794427399437768,-0.13332727216088597,0.034574942976102446,0.19073029836599736,-0.25842418485055846,0.15617745910961053,0.031245040473173086,-0.33451959623273636,0.2134044271073553,-0.001967438757080265,0.24990090359747466,0.09518290690835154,0.0843262499595939,0.10239326098698402,0.23562149398951174,0.11065646511270026,0.030536023925702163,-0.2248705872443939,0.13704768394170522,-0.2329527681080921,-0.0576004263088493,0.23284805498910852,0.05986958931979175,-0.11035417176049162,0.19618652205212947,-0.1714278855953871,0.034151287172637976,0.291642160697716,0.003288803335206275,0.033941722903511266,-0.1801526880263813,0.04103757433604739,-0.16792174768037837,0.10871968606280252,-0.11670958672132428,0.20154573567168463,-0.0886470705935886,0.05944506526330556,0.11037551612757028,-0.2817724362331052,0.12698314802588992,0.1347092621353146,0.1975940673097194,-0.13547189140414206,-0.01749096725554165,0.22083496733539237,-0.20379179485888513,-0.020629511275880072,-0.11083621567597869,0.15757682166582498],[-0.054795983446994455,-0.0736800407505363,0.06839033977304265,-0.04136521137875612,-0.46607221141480226,0.12231000020077042,0.12844979028362496,-0.15818240367718917,-0.10942514618047079,-0.13526464959972337,0.0972533723627236,-0.4880408521829137,0.13267882568854664,0.054532181534827424,-0.12913260300164967,0.07345309585520418,-0.16327782426910012,0.02592890668741391,0.29198071023727235,-0.309733850405776,-0.11582034850247476,0.05146094591455755,0.14179025913027216,0.22302033345886638,0.24613838302137814,0.07205733310390917,-0.43047456266674416,-0.06504860334031211,-0.17116691143403748,0.37469416607522993,-0.22157205304137786,0.05727501599043189,0.039029259034995815,-0.0830094706969301,0.12060181777393789,-0.1526888876306195,-0.012012236960123478,0.015725361641412316,-0.0591967628417991,0.023184441339540986,0.10352116327186844,-0.06976578148526867,0.007245319369001568,0.18047091914200622,0.14975428311958583,-0.35750642981992686,0.07216327126264994,0.13144091584313852,0.2944562671397905,-0.10587409477738252,-0.10337072538400963,-0.24373566408897948,-0.2936393007200788,0.1725123788000907,0.0981688608705194,-0.005026051082870403,-0.23663809584451181,-0.049064443891030374,-0.3182351543585176,-0.045075478643547634,0.3789357206085895,-0.15340450725009733,-0.017998952034106657,0.2987146487829825],[-0.09395588630868512,-0.15341800069184688,0.21870114716096223,-0.17042709757146432,-0.1215186305687775,0.024822289867644776,-0.04011610737580953,-0.18665549807536816,-0.1958530150312353,-0.04700748961708236,0.06140767351551366,-0.08229886878300559,0.0865960261848417,-0.26154091287483056,0.12019758927349354,0.03609853109097409,-0.03870633868853735,-0.06080479995883756,0.1580252534655322,0.35946374599252817,-0.07536640171069404,0.18479853778392474,-0.12290938826624782,-0.15153980701075198,-0.014492611058579227,0.04770147497728569,0.19229475867266738,-0.20093339501233898,0.05819622943066256,0.16738010038717102,-0.18960588294435926,0.13896556623366565,0.03347605701330395,-0.14902254999008177,-0.038282021029215754,-0.03904325502102175,0.15857525458403587,0.06368926934570977,-0.1158428819914522,0.08295754330142249,-0.07110158191108107,-0.020152340639331225,-0.019627455349484128,0.2539677588283782,-0.1350319025640455,0.15608239602768484,0.24426896105224996,-0.36546327042340215,-0.0610658853481588,-0.08650422984186433,0.16338341881909024,0.20228745848104285,0.17081470589810974,-0.021333602773531822,-0.041158279133961743,0.12231893245180844,0.07202994383272883,-0.06271581161360582,0.10494855158436446,0.035481528444190384,-0.1181958374190632,-0.2255656917206577,0.15899219251789318,-0.24336707009449204],[0.336749210754808,-0.0790231809513961,0.03438171274582145,0.19012952594955104,0.19584074187509917,0.19500137994473132,-0.23511241354499762,-0.21874462635333822,-0.08559099688999942,-0.25911156563933785,0.025643906793098584,-0.12763410382165735,0.0683225300783178,0.05679918028741027,-0.31530043625941406,0.12187326719060672,-0.3380288135899901,0.11951828604097621,-0.18655331749915013,0.13500125723890585,0.049504710134164576,0.2810905380803834,-0.2678304694197548,-0.27457348323600095,0.14407443776112838,-0.1260056039972054,-0.21384877385286316,0.050875617598974604,-0.07391332879231097,-0.053486810230692954,0.1323233226221144,-0.1324012175373025,-0.07505622491962605,0.0532980276808316,-0.06808191983847793,0.20523680378743722,0.05882310363801003,-0.41216299879979235,-0.16143350755297128,0.010155488208451894,-0.04935794969824194,0.11040262596044498,-0.09544957150528033,-0.2030072256531144,-0.00360849546360368,0.21879238786987507,-0.09525882411048862,-0.1652427507138324,-0.08007167590662223,-0.03241294217024809,0.05898620117042748,0.18470270000028194,-0.03229427066472746,0.11170923309387361,-0.26483044802512834,0.025466107645722907,-0.07262284401184083,0.04993740761591194,-0.2013140853218281,0.035614011628500815,0.21159184947797646,0.10827935239058269,-0.17901733971939077,0.19273546309412043],[0.16029659540272015,-0.14870117077234662,0.3092975611142545,0.24056206180919498,-0.23906174863045665,-0.17562614870534798,0.13566960742333545,0.022806570552843027,-0.13716732322838068,-0.002701915512833229,0.060538352046325586,-0.27295110621341157,-0.10483946577608097,0.07684549570768281,0.02914920879405152,0.03955782854789685,0.18942986025877145,-0.057988653175274414,0.1062116346011479,-0.3067900177669774,-0.2773515246013524,-0.1777422915176428,0.1616657781073151,-0.006942514330626881,-0.019943767001820448,-0.11315975063087816,-0.1999977972750397,-0.031011736540520578,0.054211564806269055,0.13497318523335677,0.1790019785926248,0.2358337954209274,-0.06917233434341757,0.12346752854318048,-0.24530507850863725,0.2239712802279919,-0.34889526044326263,0.2643840467299678,-0.12328911572333948,0.1345384787666824,-0.25192957376398056,-0.10980095736258932,0.2395091924691263,0.19637150963575856,0.14374940838626157,-0.2961734254685803,-0.34731732761596495,0.18705976770691593,-0.00041423650528031846,-0.3479328431331214,-0.1116689589962463,-0.09476048045731916,-0.41710878190890077,-0.15025165110638714,-0.17536758384449674,-0.21643903038806286,-0.18953384955646677,-0.32855220154634085,-0.3018721247162472,-0.1636014429415,-0.11173455042506379,0.0499486833375292,-0.1963788877757309,-0.05029075679241411],[-0.05077661352561609,0.07659709361655914,0.20206618284085653,-0.046929590114426295,0.21283616463528254,0.24083320872580785,-0.2195842501219835,-0.24483388834959105,-0.018181808184510824,-0.10701421009837118,-0.19515797777856367,0.16750739150005023,0.18001187364168544,0.11223245347142723,-0.10331041992702517,0.0025352480711141,0.21051974832320813,0.24205904069965187,-0.06521950493900193,-0.18550549026224541,0.015402045903842549,-0.06329472863670224,-0.050564719664557105,0.1324905625941357,-0.027269711929420758,-0.0015459586822911947,0.17795765449698517,0.2194315386814288,0.21110407340578138,0.2049274059261193,-0.060866654233918537,0.059366652473536785,0.0057801183812170144,0.0283125800973879,-0.08575601649238036,-0.30829457209167876,-0.187908910186329,0.06341475829259582,0.21187814248768316,0.04437443833938781,-0.2573152058401519,-0.013436322460119306,-0.09210828972508632,0.341609105260118,0.009977827610431738,0.19688695323654234,0.19931716929036186,-0.1420002111110146,0.0890975607413064,0.09365483697990107,0.09885063870006218,0.098071291263847,0.2716603588513152,0.0021571953715668274,0.15967787804523922,-0.07745982895160773,0.0740762657074515,0.02157474476822032,0.0292596878087049,0.19258142465058428,-0.13453438165002832,-0.06292306339610419,0.22193340988236612,-0.07111367756796232],[-0.16617232031900664,0.025820309976418997,-0.014141700679234702,-0.388129003477305,0.003072054577352166,0.1020759010604853,0.2232703671481453,0.22346938721301443,0.09429421863028684,-0.21498857512826097,0.00892808524695197,0.1230419982079113,0.1741197290055928,0.08066481245951386,-0.07283620987731239,0.27489920656030226,0.2794454693442834,0.17818103344986075,-0.1236347671653615,0.07408773279649068,0.3066260222422362,-0.20491208539942318,-0.21040465937374073,-0.09343005939874653,0.21019514113541868,-0.029702919357951458,0.05118373524107747,-0.09480108333765407,-0.12738493627174485,-0.056428381829425986,0.0755609737796584,-0.24635957634793165,-0.21233588953344132,-0.32807657720054023,0.040013350021138296,0.18610409079102536,-0.0574771138751726,0.233474235459354,0.26207651182198793,0.08025558634326582,0.15180597463906487,-0.28507884198388894,-0.10438465326663193,0.06235117438535137,-0.16670317623849143,-0.09990948725094051,0.09433070154454815,-0.04720508476947392,-0.2036848351627251,-0.14351457332589182,-0.17213622531420097,-0.1435787343295279,-0.3899443414788359,-0.252534510880605,-0.000974866071583064,-0.20542858946992962,-0.23585642211637384,0.10569684956881771,-0.28804207774828583,0.17184614392758907,0.3262585567034055,-0.035659577021556206,0.12438475534460451,-0.006779518968742483],[0.15295210545322788,0.19607792587895934,-0.09005160491760363,0.05955299727035429,-0.19303058614733304,-0.27644474029290794,0.18826227610999827,-0.0095887953579818,0.24731100460125982,-0.08834642927890753,-0.08951878391069648,0.11783516159146065,0.005155736157547836,-0.09983873700057083,-0.12078973247569952,0.09678546738839941,0.017087143183427595,0.2503962300308228,0.10689145366528896,-0.036747172187854955,-0.2138204348281356,-0.32375435627584637,0.20170221574587585,0.05739434353974766,-0.14032571063129598,0.19393654614541175,-0.009899615071990305,0.3335557768575014,-0.3066820798689321,0.021724539738305786,0.12603395754030033,-0.0836751859946438,-0.1659784166383862,0.020891588715106282,-0.22962912403926675,-0.23691708515141552,-0.10818132243327322,-0.14405916171280664,0.018482174825667635,-0.15147860995892273,0.12522608283216652,-0.07818295848391929,-0.14010000308117354,-0.2874737479490623,0.0491325926706177,-0.18800685540944412,0.22090585201608223,-0.18515779867273474,-0.20294521558797912,0.08713629078104222,-0.24413060521311328,0.22387580769860405,0.1948776487890398,-0.1185622702926554,0.2574970890018818,0.033171925710760816,-0.18696099688542903,0.04975576772878712,-0.17571746513169245,-0.12266363536681614,-0.08396882137601776,-0.07733124237540287,0.1366313283212096,0.2749090851467075],[0.09941399681501849,0.13140107602706613,-0.08423255302635624,0.24717091081607467,0.014246217054319193,-0.026556747993568292,0.04229742746946513,0.04292971193669665,0.0014295104354776266,-0.08205459486701296,0.15457930736034248,-0.13150611886588004,0.09857608477986118,-0.08378196820703958,-0.07038146075105908,0.049060134332897506,0.13665618478301814,0.25771504874025486,0.06746367201164398,-0.3668824329904558,-0.09416466263745883,0.1629997592745384,0.2664724022775401,0.264448948342173,-0.25863357802440967,-0.20407775924449262,-0.19445575847732766,0.06037521457414043,0.059926450523330815,-0.12483456674830178,0.1782908485132661,0.034760404012851506,-0.13053910476146596,-0.24988608301194287,-0.3281392685781034,0.26021946203509944,-0.14509387230689633,-0.044373405959506826,-0.09046688172690974,0.0007430019290091621,0.12172343178876881,-0.14051667482315242,0.16187673006134518,0.14235990267976295,0.05765878020128738,0.1383681074349027,-0.14141164070479184,-0.017802535049787502,-0.05961358441113379,0.00016007060155912665,-0.22642815325953108,0.2108328693424232,-0.06309281591610048,0.06310523575133876,0.05257151317452172,0.21361440833619058,-0.17526641751126623,-0.1377758933447156,-0.024267131752824345,0.07791480997715368,-0.1114462715906509,-0.22755633850464657,0.21683928873557828,0.12770211644558732],[0.19998692381824962,0.11367850336222933,0.18233249848978134,0.25366938133779915,-0.062034672789828396,0.09051317793986433,-0.06508082235680725,0.2060526668207577,-0.046870756464473556,0.3227038964768365,-0.07081640454310448,0.0383242986195309,-0.05229505767121169,0.11544481685617881,0.10147387449723519,0.050327018411346194,-0.03263359044798952,0.07971857490714547,0.09418107788154746,-0.09359051298084224,-0.1583029552582475,-0.019434382268671637,-0.1621447521394184,-0.19757368915388765,-0.02907818930420253,-0.07645286254605294,-0.14910941980846074,-0.0432444304431416,0.07002887589651577,0.0671599903047063,0.3162284950681055,0.0035537886148702463,0.027349163811343835,-0.23302131485246744,-0.16365102639106743,0.004564985159886843,-0.09335963411020082,-0.21101280991704943,-0.020511291161469478,0.11466355615778515,-0.12243281735778867,0.24937267997199578,0.12627233909706154,0.07110373071160667,-0.060108055176451076,-0.047773395855054406,0.058859787676673936,0.21049433966671366,0.18165390169789503,-0.2628379476613351,-0.1602312821254763,0.2993314642157285,0.20753793436771076,0.20616550428953995,0.12754527467916918,0.05525364261691651,0.22049859655947374,-0.04330419008091138,-0.35415782306821003,0.15120168793306946,0.1489828623191761,-0.25731540834980127,0.10996582530055715,-0.011485588421423259],[-0.055914189075137954,-0.024820587349848725,-0.2749192070202904,-0.17676754665340533,0.14982051632798762,0.07494273358289351,-0.09921294362748825,-0.09454832553208163,0.2941565433911473,-0.1647353143324402,0.02365303810800057,0.1187924716650131,-0.19455069987358842,-0.10886123645460064,0.011401799169178743,0.1347509237279412,0.14595748131742922,-0.111169726969587,0.10350422371143554,0.1988188458908061,-0.0902226703396026,-0.060454521602591925,-0.1458695585867717,-0.009275003780110064,0.04399147786138514,0.17842464903984884,-0.06739839446319422,0.2578181616839543,-0.06557389111530526,0.17177277459094667,0.012579442091518386,0.012895013128008549,0.07495444741530799,-0.166559159890577,0.12168214467712223,0.22205733856573728,0.15398747807785268,-0.182196865978373,-0.16861017542637843,0.2111289644403752,-0.21743124920805101,-0.03995151930334077,-0.007319924921123505,0.24346462789994203,-0.08202940942979396,-0.17591579648541802,0.20654490960185742,0.02579824899970275,0.18852811919761742,-0.0577168206697163,0.1050005450897159,-0.03104123327824214,-0.01718489356377788,0.13402685902700487,-0.10160497268362025,0.13726327177982237,-0.024368093712485793,0.07915454702146116,0.0664626433155311,0.033309161011525965,-0.30196957777487254,0.0971183223798491,-0.014035745853559512,-0.1106587245457318],[-0.089493656878757,0.02365304739906394,-0.2030110804784003,0.015176714379020604,-0.06146426777608372,0.2694894190450384,0.17845007983809758,-0.10528092017455212,0.1779031039649841,0.1173284557279075,0.05936655933640737,0.017715696346811406,-0.07611416241969651,0.20421829194691837,0.25938118870919613,-0.009164278562103438,-0.10032338186285235,0.00462076620231963,0.23509350051959965,0.12318217865641722,-0.13666455695393914,0.19544652560623818,-0.22886259990403113,0.09376409987601927,0.049590329288020214,0.12084709577339696,0.07621702825161585,0.20829605288007944,0.1805628097896662,-0.0419015122341219,-0.09942617728803071,-0.009835011167729625,0.21512730519142012,-0.2698668780552029,-0.19545490273481836,-0.09508767743195609,0.08445599506406755,-0.15091968468911585,-0.2691585250650217,0.12463258109421486,-0.11136726749194285,0.13429947920530208,-0.2142118664278782,-0.007933214273317498,0.20808527677462804,0.12375202241705714,0.024747264571885502,0.06532912559121312,0.17129699199276474,0.12914370508599496,0.13526216614908032,-0.06784291128551656,-0.17407675355143384,-0.18121581621102179,-0.17767825928519282,-0.10557305213968761,-0.009617737166629215,-0.08930648898078587,-0.06072291895048158,0.12726592323709554,0.10781149236644985,0.17693195286268748,0.0251955759331806,0.23313785965749168],[0.1708358145875761,0.29778769315757225,-0.23222787236400746,-0.02434014174643562,-0.06735749885766666,-0.12846773819968516,0.17058814403727715,-0.2274338922265493,0.1389001695973,-0.1766605369892653,0.27267264429092986,-0.05699308833137703,0.07123584537827397,0.2239762691051797,-0.07862175717885544,-0.24303098845587728,0.21670770517195298,-0.0284056689694837,-0.13338560525008927,-0.0713747312811683,0.1291973297593414,0.051535497128832444,0.00899006283334249,-0.16442679574670113,0.08979247589124484,0.04522051488988789,-0.09029057129331906,0.057172740637862415,-0.22926224236416207,0.2818896582821232,0.21380200653989867,-0.16755134313881268,0.061553740065693426,-0.07535708918668259,-0.2240662532954612,-0.09056160702703771,-0.0032513337824364836,-0.039229051304529534,0.4115327434752817,0.049100756848831036,-0.029504667899736662,-0.045288020781850055,0.3315003983515357,0.15031463254792798,-0.2490442206866514,0.059695166747497544,0.22529291228243964,-0.12230939129711806,-0.051914460244741285,-0.01221816052214557,-0.23314034664089167,-0.28961035529482604,-0.0707538865659406,0.13718417268048663,-0.10990330936435691,0.019847871491381838,-0.30248421659120794,0.290983565999749,-0.13954195207892714,-0.09678188562278972,0.19057684085324206,-0.11281570661368784,0.06910655941162049,-0.01083714360822118],[-0.1793983185874254,0.07563337124971864,0.16893941430601667,0.5791752292555402,0.1192026065179556,-0.10803061519827113,0.15763958463233013,0.27405792506918547,-0.11552612481630976,0.275882284723106,0.07910547789162072,0.07865064822380957,0.05143455632389263,0.25460622506004665,0.2498777602519748,-0.26014818652097454,-0.06244138367929307,0.2859697407505568,-0.08283444096611318,-0.09363807847866827,-0.09990799841546444,0.025770043420459306,0.2570841092605566,-0.0595527539400862,-0.22370712954578817,-0.056233576313093364,0.3071636416465149,0.06804305292696047,-0.12600226726755234,0.04570859181061049,-0.1049230736207793,-0.32626484648588194,-0.04409499537793741,0.41974058919433116,0.31441114275477444,-0.09161293229946033,0.2641893018882975,0.06668395980716356,-0.19018412569533108,0.07739736075037537,-0.05235050496259375,-0.16507475289495557,-0.11378645212017173,-0.15486581997182428,-0.2331568820689587,-0.05886808385613941,0.10749111606401096,-0.010337852060960835,-0.03591725484515312,0.054866834286679794,0.2273091475823679,-0.024561259662131168,0.2199994580046298,-0.05933685797986793,0.04553778360528394,-0.11597002455568887,-0.211505122750732,0.017033579883337237,0.1089474979924849,-0.048803112851734616,-0.22322610233201115,-0.32692708109547725,0.023851294127624063,-0.266295253972821],[-0.048348148241955304,-0.32152023917230593,-0.008274329255164161,0.02478094448860537,-0.09144648150645894,0.10296677431069398,0.1510258021938527,-0.040802010405276715,0.1756677521448741,-0.17012943356764448,-0.11527652879172354,0.06082872637932279,0.11886675120461457,-0.10154253316156385,-0.3642264077973885,0.1811972076646311,0.31260575654453676,-0.0393000532068387,-0.0074450548951607125,0.20876598882393868,-0.4298929128916268,-0.17311171879177548,0.13870756418739502,-0.08880842148150878,0.21198528625256674,0.0620620165626077,0.06264405903445772,0.08980862226151909,-0.24137031925160274,0.35014115016947694,-0.00045279448809198937,-0.11233285678608708,-0.20697946397175032,0.14980587983853946,-0.25629998274096105,0.13595917748093228,0.01402482305000843,0.2534875457714835,-0.19031716349071484,-0.2734476187214326,-0.029667218984463017,0.1807477442070633,0.1596057078275661,0.05395265900203497,0.05927768549694728,-0.24114984563319655,-0.04565912650845035,-0.2024182617282981,-0.17265488823313246,-0.22771943310813542,-0.11708757386536009,0.08842713597075263,-0.09377991042594758,-0.10295632376243308,0.13839012763297517,0.2088133974151048,-0.09738188453145108,-0.0008142201952614587,-0.2843481995661502,0.034116775995141305,0.14750620235179998,0.09878207286512278,-0.19066219412499943,0.1131365180576589],[0.0041635448985734725,0.025407419706380947,0.07670228834730222,-0.24048706616543927,0.247324773153667,0.029203255113700984,-0.1888591709900547,-0.08204823335302704,-0.1703285868097611,0.047545455427032486,0.009993106948505125,-0.14853870535542593,0.15916400111623116,0.039893699132741156,-0.021666979853472795,-0.04412835675039618,0.08242488391529917,-0.09301763576206802,-0.11852852938548021,-0.03578060954759871,0.01137687150275168,0.26987303868457896,0.06332576690450357,0.07945815378524425,-0.031060634560733887,0.025266501607210463,0.172735946890841,0.18607645432705747,0.01780917212334171,-0.10697075246546962,-0.2866661065469697,-0.17156857622871738,-0.2694245176511289,0.1328252248178961,-0.10926444633873252,-0.13256865964164227,-0.23376804197374074,-0.06692664930151312,0.06955221106389733,-0.03206312445858751,-0.16198334748797968,-0.04422920972348903,0.131301224066374,0.06989594253278669,-0.12810438093085927,-0.09465951401208517,-0.24856267998141485,0.18387683526262785,0.14241931777478337,0.19009023041707748,0.2625468108186379,0.08783157641687817,-0.13025951803155764,-0.20567992614236622,0.05599769645451402,-0.023176929529192366,-0.04613380354072108,0.3174070109333191,-0.09947823650248065,-0.08596012010609659,0.27576772182171416,0.040787907223944646,-0.2629031057505308,0.0686077163705736],[0.17484013321458386,-0.13451086278406899,0.11645792401081019,-0.08613538470519339,-0.03357362978321951,0.09072878612403988,-0.06475419870709989,0.10813849493252552,-0.036934053971887267,-0.17361403263113898,0.01352563687486866,0.11453161920972543,0.01333343749457766,0.3150781617750126,-0.04033711527988914,-0.2216142411097438,-0.15889851668106642,0.18563450390115363,0.0022719989191172926,-0.22581195274598784,-0.278004191431313,0.22562620682106221,-0.12923559827336303,-0.19298858542457087,0.014554636874107454,0.011293417856462337,-0.08945299052667001,0.1583832455885833,-0.04339305138186271,0.21114884175534168,-0.09327263878687753,0.15382231956684306,-0.21332888149638285,0.23501988894261214,0.16947852064169713,0.21986381788004206,-0.0264916540584681,-0.04400814679493656,0.09557816881394277,0.2501788178281202,0.04428912928003914,0.14666779294746113,0.23703636221952137,-0.2483031605999374,-0.14292875754928047,0.11246931690845614,-0.052454210995336883,0.17860742445332495,0.029785062386037935,0.1513012688908341,-0.17330917721791578,-0.10367150522582003,0.09644816811796751,0.040659650308802045,0.19033275006200967,0.026866966461000244,0.13179519300726417,-0.12179715937940595,0.08738456492814722,-0.026622532367546293,0.013706116603292162,-0.14972056555861732,0.23226056415177762,-0.08846007349360886],[0.12827701479756673,0.275733897934978,0.021536376074146116,-0.03450706039332783,-0.1164802466432312,0.17699646112048326,-0.07039931832342244,0.04269975034338038,-0.12833614211113473,0.19918295089941407,0.09148718757448923,-0.18091170883068378,-0.02161435484134652,0.08683951868897256,-0.09567270488340852,0.07789002283898887,-0.14639402714032584,0.23375495440273497,-0.06728341772733139,0.19485597852529052,-0.03916643934945537,-0.1607673992363819,0.12389962496802277,-0.15659347949437613,0.05858525826971611,0.21063468420440934,-0.1353893942310399,-0.13612367955769458,-0.2734871434380618,0.03817039572692337,0.20531412563872303,0.21637386426082267,0.006770989946307544,0.07445872202416443,-0.026748700192507368,0.09863773852255729,0.2165711830222099,0.3231203499244187,-0.1631158698803595,-0.02111588521242004,0.23485896660617603,-0.22554009586862103,0.19517891161511208,0.1922642854321455,-0.08035579229071907,-0.1690920048503815,-0.31849272452436117,0.10721964241659179,0.11695103418183748,0.02506381551478913,-0.15398558738200424,0.014014893714268242,-0.30661840460250106,0.11820777098864134,-0.07936606432581628,-0.11528643232983656,0.060345744303219026,0.07948577653777203,0.19166099754507718,0.13676625009938959,0.040735803870919886,0.07855903400510576,-0.1843627484589258,-0.03955964816239945],[-0.2698206132372112,-0.36448564073762585,0.004070101227810226,-0.2267334807084596,-0.12079712643676854,0.1276653625038515,0.3087878260764106,0.2895984735009628,0.22523848732951668,0.19609055398606143,-0.23523522957065426,0.1912531638735076,0.1988048499091425,-0.015520480350808486,-0.11154206287416667,0.23339554431372647,0.24504339751120616,-0.18095861800669044,-0.09445415921868132,-0.10229744207566649,0.2672875011974546,0.08155728903827125,0.25064778145715305,-0.054832328603167765,-0.23361357579138758,-0.06824767055166543,-0.2500587002550749,0.17758402273149076,-0.1466208653424243,-0.12032221713536044,-0.16888240143904118,-0.22586797367835196,0.10669494857052692,0.0183795909418251,-0.09316600916097847,0.190087050899131,0.18104152084273797,0.049392241391752495,0.0031161805569892118,0.3664047112813258,0.08624835456416809,0.07676265153078622,-0.1192524822826333,-0.02846384893256814,-0.0910298146352456,-0.25930286222483406,-0.14836644365695356,-0.1967206105969174,0.038673810589257326,-0.04908290708661016,-0.17254942157769107,-0.028004363274643614,-0.15989210676075488,0.22711827768592052,0.03655755051908107,-0.19961853873350316,0.1384240457040216,-0.12847322801016953,0.2440784800521322,0.1617725031133584,0.04381738465602249,-0.18783384951636428,0.08462415599865364,-0.11562527228851555],[0.08985799187340912,-0.3102917495850866,-0.04200121993837538,-0.03785551031127838,0.03617244490959475,-0.07347346902848921,0.026948810982796518,-0.08166184730745718,0.09500443583139911,-0.32843990786605753,0.2663122904790403,-0.20436428429125236,-0.18023547479404442,-0.3992767618429279,-0.09640201204442937,0.16234773570982844,-0.24050338869652763,-0.11655513370154506,-0.115303633834513,0.26515026640999423,-0.08649618755241309,-0.14344535818822757,-0.1641288445533384,-0.13440577926861902,-0.18080104153577223,-0.09103111774065702,-0.13427783628643278,-0.3195852276784122,0.03503836174444613,-0.04495866492485363,0.2986562384807671,0.1414881477533464,0.1321545864730224,0.0683436581847292,-0.05028870179801179,0.23734593752480465,-0.10069094184775616,-0.11860960528833954,-0.17086293350041545,-0.39121547762544767,0.2029774244544549,-0.06828976338673722,-0.18444911129627714,0.12135861882394011,-0.03173003033593345,-0.1415258888125763,-0.09781741216237175,-0.052578038904429795,0.15792539574308162,0.07140978490630644,0.06278578100487286,-0.2041379109086643,-0.14091117337006434,-0.05578229030402074,0.1537462762211039,-0.09172340510734944,-0.02708161783305604,-0.0993093320037195,-0.18605551403063697,-0.11056146432380284,-0.10942881605460564,-0.05353963918185416,0.16864159345470964,0.18997203298698423]],"b":[-0.0467453673298559,-0.024661154537155585,-0.12623304102447222,0.02899122334111781,-0.04642175385725557,-0.13360904698171824,0.13075379098397832,-0.11094711484048586,-0.12176608225752802,0.16959896179189124,0.0005315879409784939,-0.19225294599043272,0.19213276950756772,-0.13282385310128644,-0.00898004461448218,0.006774523705908584,0.1924928307892534,-0.21352810137756845,-0.14316924396677486,0.1115145864523837,0.1230113598605495,0.009777886801442861,0.06820281649263293,-0.019965917666696534,-0.06208660446653528,-0.1353126313071313,0.024412448312595886,-0.21363639307869092,0.09265034269817539,0.006351988461588702,0.1559162018429203,0.08896199755485007]},{"w":[[-0.4454586103881661,0.2812237893809708,-0.41451062356489476,-0.10135494047621295,0.03514050300206868,-0.37622523316696566,-0.2443486021369648,0.4295550366663117,0.3255726832242358,0.2760432916536453,-0.07645444285190747,-0.403341037926972,-0.1950457890755245,-0.30489439571618454,0.21203556350882377,0.1804809817121396,-0.3891229000360793,0.17037246079650425,0.3495176733220699,0.18077744965245732,-0.23689792613352312,0.022666715921178218,0.3708374725447581,-0.3213594967848291,0.7158385370381464,0.1322501800735184,0.2271357106578969,0.4101696778840375,-0.40162784127883094,-0.46746964603030927,0.10894052449958093,0.516673625162113],[-0.005290077075349061,0.053586173542234786,-0.2109136469447121,-0.31780001932908974,-0.2190526779833996,0.2833880445752032,0.3384150935346198,0.12181443093051418,-0.169419854194633,0.41275326270566126,-0.24284031589148578,0.31355176380325916,-0.052192806164573,-0.400584773828431,0.39512037479010703,0.45892407906267774,-0.08894876158999943,0.19487662006148718,-0.1603727894902351,-0.5600840346924583,-0.05281055221763162,-0.22331878235572525,0.01658601705355831,0.2731675200778189,0.005341597089457599,0.17487497281250552,-0.35568567499877707,0.2807491297735639,0.006648746375792536,-0.0933240686091041,0.12121085282775303,-0.20066104437349425]],"b":[0.28773761379663304,-0.07505822981164478]}],"target_mean":[4.641429621797509,4.9477847260523005],"target_std":[1.2792276345743128,1.0489263778329097],"flops_ood_cap":14195813614.0,"n_records":3054}