{"input_spec":[{"kind":"feat","name":"n","log":true,"mean":9.253460122128278,"std":0.9846848181987328},{"kind":"feat","name":"nnz","log":true,"mean":12.942749418260151,"std":1.047685810138571},{"kind":"feat","name":"deg_mean","log":true,"mean":3.7340927341520405,"std":1.1913877162743378},{"kind":"feat","name":"deg_max","log":true,"mean":4.368973353358779,"std":1.1762467058241912},{"kind":"feat","name":"deg_cv","log":false,"mean":0.4144580232244675,"std":0.7727390283685437},{"kind":"feat","name":"bandwidth_max","log":true,"mean":7.644416870543911,"std":1.8349269021200858},{"kind":"feat","name":"bandwidth_mean_rel","log":false,"mean":0.07919856708845105,"std":0.0947853928895631},{"kind":"feat","name":"diag_dominant_frac","log":false,"mean":0.1552919617485988,"std":0.2904166516360761},{"kind":"feat","name":"diag_present_frac","log":false,"mean":1.0,"std":1.0},{"kind":"feat","name":"n_supernodes","log":true,"mean":4.982568621441865,"std":1.2365455292060352},{"kind":"feat","name":"fill_nnz","log":true,"mean":14.268511905737931,"std":0.9804721650049151},{"kind":"feat","name":"fill_ratio","log":true,"mean":1.597781175346706,"std":0.5600779784600299},{"kind":"feat","name":"supernode_cols_mean","log":true,"mean":4.302850905833052,"std":0.6542149344561883},{"kind":"feat","name":"front_nrow_max","log":true,"mean":6.4021958075616,"std":0.67909753145369},{"kind":"feat","name":"tree_depth","log":true,"mean":2.33301650168185,"std":0.4579675110144724},{"kind":"feat","name":"tree_width_max","log":true,"mean":4.545871256698577,"std":1.4301634290521072},{"kind":"feat","name":"tree_width_mean","log":true,"mean":2.849996993601528,"std":1.168197058664115},{"kind":"feat","name":"factor_flops","log":true,"mean":20.785863439243343,"std":1.274975932450909},{"kind":"feat","name":"arith_intensity","log":true,"mean":6.51901608363062,"std":0.5530974027457061},{"kind":"feat","name":"flop_top1_frac","log":false,"mean":0.2327531212275114,"std":0.21317147957923466},{"kind":"feat","name":"flop_top1pct_frac","log":false,"mean":0.3395492775384377,"std":0.25929636214945256},{"kind":"knob_log","name":"nemin","mean":2.8638183313910277,"std":0.9553208101208664},{"kind":"knob_log","name":"relax_width","mean":4.92472209494931,"std":1.7681759657986733},{"kind":"knob_log","name":"panel_nb","mean":4.184305172099291,"std":0.41625192676133144},{"kind":"knob_log","name":"scalar_gate","mean":8.327417361798785,"std":0.7236720970882956},{"kind":"knob_log","name":"par_gemm","mean":13.869189915379929,"std":0.7883807551042872},{"kind":"knob_log","name":"par_cdiv","mean":15.803932955668959,"std":0.7555442985160017},{"kind":"pivot_u","name":"pivot_u","mean":0.26734006734006566,"std":0.3241835050712258},{"kind":"ordering_onehot","value":"auto"},{"kind":"ordering_onehot","value":"amd"},{"kind":"ordering_onehot","value":"metis"},{"kind":"method_is_mf"},{"kind":"use_gemm_schur"},{"kind":"scaling_onehot","value":"onepass"},{"kind":"scaling_onehot","value":"identity"},{"kind":"scaling_onehot","value":"infnorm"},{"kind":"scaling_onehot","value":"auto"},{"kind":"memory_is_eager"}],"orderings":["auto","amd","metis"],"layers":[{"w":[[0.06697402217605747,-0.12559456528148932,0.08465378545584423,-0.15395436383873104,-0.005877309388566527,-0.09626891932743332,0.12806299455438674,0.2291114888994184,1.5398576085517852e-06,-0.11180567737708164,0.19521339027833873,-0.1457137849252187,0.2507490527069382,0.12317291896470177,0.17697794111744314,-0.07987379599519594,0.184407189746832,0.22127162298683983,-0.12801454726935826,-0.1813091473820958,-0.04934536296817694,0.03488580214674765,0.13356215097756166,-0.043652873532170455,0.04799138788199973,0.15413263668835067,0.078806785234938,-0.044779330289065396,-0.4250489754823646,-0.34997506977702136,-0.46646380529588466,0.15071631294251864,0.15143093995190202,-0.09709200828353734,0.0870360308531253,0.17181129826089506,-0.07635106075643171,0.02870469442598342],[0.14555450630120498,-0.04118313108654654,-0.09461649656154483,0.19267972586850549,0.021628552710817994,-0.14531433044937805,0.19873086693335684,0.17562385882377332,4.395166515099665e-08,0.18266925250390253,0.23476265964019816,-0.1997734768036416,0.16138806432534278,0.07494274456943628,0.07960168184338541,0.054697554677517336,0.16017821678895533,0.027546035980846612,-0.11981410332515245,-0.1731715830125953,0.061593984669808706,0.16895991062595558,0.007680370604671249,0.16021046816836862,0.1944725382420823,-0.052263718332173414,0.028975881417567236,0.036366654497291845,-0.009499910080503726,-0.08539114190087378,-0.119969543292155,-0.14807644657792204,-0.16577881073667156,-0.09834078576338426,-0.07022809353842979,-0.008949283287412858,0.10861663398402652,-0.0346485925599092],[-0.014745851183718801,0.11704942309185548,0.04996305775372243,0.11281758118729877,0.23222404085527812,-0.25717972484812107,0.2035595319264382,-0.10415730977283848,1.1157977207644125e-10,-0.11657239305981526,0.1918440731636943,-0.11724453306552104,0.06811260891136196,0.12430313758800665,-0.12812180314991345,-0.27686674802632216,-0.061268453537542365,-0.1051551851694964,0.14525296069514052,0.2086148906492755,-0.17795975538058023,-0.1343498354462284,-0.09529339859889785,-0.09890145234125232,0.1219026577030736,-0.08771411843032752,-0.01283507784590532,-0.12192752732191978,0.049224533359891326,0.09795656012940601,-0.19425729653284576,-0.11091474590971673,0.18827403921203548,0.10447482360090384,0.17985895728360102,-0.18424132084610872,0.14162491437195965,-0.024169087003530956],[0.059111635093704304,-0.17052684828226766,-0.015491507471336577,-0.010341969005568908,-0.12285472377854377,-0.06861735761946068,-0.19232119978677395,0.21009226099613437,3.204525072369402e-07,0.17958497140414767,-0.02491482673145752,-0.23282874439909296,-0.09755973257471323,0.00856172468645238,-0.010411943707130762,-0.03990068519553084,-0.17512433465315877,-0.16426252995586896,0.2314685690433544,0.03393717382124516,-0.2243447445843194,-0.05150367463259636,0.1039984732809942,0.02080548603827596,-0.08029862796171851,0.0852021252224269,0.1688578289026526,-0.0648135220528971,0.1974017509229871,-0.04215281872560245,-0.2683773469040913,-0.19067265388237342,-0.25987976986911093,8.444496315336761e-05,0.09222477989189104,-0.25141580477364317,0.023547728151037967,-0.062116329755939295],[-0.03378352065737489,0.1748689070073593,-0.15574126764378018,-0.13865226932999833,-0.16634041676816994,-0.11640017180651635,0.012689040534170783,-0.12296208116395968,-1.4425020121422439e-05,-0.16163722334438588,-0.040828382834687586,-0.18020147043502024,-0.1324876613092138,0.23061446065205612,0.17353910016824456,-0.10752093999884012,0.20746206503370657,0.14708836869827197,-0.041596664120422316,0.23677982783633808,-0.10639357583069418,-0.07299040236734415,-0.007782563012484559,-0.012706697176723718,-0.04969903964194214,0.19752981560509125,-0.16353263173643826,0.02225819336463397,0.12103162524490217,0.08492365515550203,0.05299790350370819,0.01104653147250986,0.1962864155899504,0.08797904950467202,0.33516384163034685,-0.07915599698683218,0.2582133407177551,-0.06826522087769998],[0.039822684426125625,-0.2235031729479464,-0.1211793844481279,-0.1525887974265575,-0.1995227276515438,-0.04415051913549862,-0.0976611508850654,-0.1819877288904714,-6.9961181513720336e-09,0.08934626172882519,-0.19974613410744327,0.176008695639727,-0.19472426683265173,-0.2405189566129321,-0.08669086702363403,-0.07863694417140356,-0.16657965953108786,0.15720169843509652,0.1284127384676142,0.2032767354487038,0.21562012927226598,0.0626603541558838,-0.11450942888275745,-0.17166665939221276,0.13175211663777656,-0.14642806733915362,-0.1567073705333954,-0.24621949061844375,0.050913156588665825,-0.1467571207707403,0.07672640357388653,0.09245775968129183,-0.06182197364856803,0.20109834525982564,-0.055212868619549604,-0.12775730312989644,0.0031726142257221066,0.2278118926155501],[-0.029486059082858337,0.22539118896250065,0.0200888976289355,-0.21345918989448087,-0.2107281577005269,0.09393014131904136,-0.18736556456220732,0.24846852886129656,3.176159623416792e-08,-0.01646787483878166,0.08669729177867902,-0.15345536739361382,0.18392993752191944,-0.10633421220960423,-0.17029233195936266,0.014707072292426118,0.033845743859693515,-0.19704963329111697,-0.2072190399198178,0.23989774053251506,-0.1695456560384845,-0.09017663764488922,-0.1445129741231262,0.08693343223698739,-0.054855593510316436,0.10975978430869403,0.020772205757710476,0.002895865878537464,0.4832965696369744,0.382783555239787,0.039509028299814675,-0.1425892860884354,0.10291604920055057,-0.16520066061415015,0.13931024913553913,0.18908519336961277,-0.008632231331206396,-0.1508031994611204],[0.12651295896878206,-0.06259385045082587,0.010243871478181043,-9.636213656826398e-05,0.24520362965021053,0.06000839980726274,0.019567449889134315,-0.08502072333631483,0.00015285815550841026,-0.2144131000736797,0.026311860725918717,0.06513537017757455,-0.1349551711792273,0.06720886345298537,-0.2501361922479557,0.11244023858262334,-0.19562037982725658,0.0793976443785765,0.03721593393803024,-0.1145431798571911,-0.0381051651451349,-0.12558290763777577,-0.21769610391884997,0.1616594611854819,-0.10721243822223218,-0.14326768918487873,0.12803237691418667,-0.19640751668836393,-0.15668835956809346,-0.03669739047092303,0.20483456797307628,0.1860149622545379,-0.31412492376609025,-0.145774662940228,-0.17993530951757666,0.22416975772343586,0.14217846499189796,-0.030908829509749897],[0.28893664080468856,0.2900528715615627,0.055930096905587014,-0.052818044534412696,0.054616450034985484,-0.05526354476943746,-0.08307131867752054,0.11537730788779134,-4.0489263628569717e-16,0.14849200829957263,0.22409227439841045,0.05107978461118092,0.01748376192629875,-0.021428602593121477,0.14363946809918018,-0.15048424582617279,0.2950433127031968,-0.20097675988810476,0.04575739738020285,0.15772454268756408,-0.277958115074264,-0.013173338174202688,-0.15597171855860287,-0.13678229424872843,-0.018680573112683264,0.07383801416743521,-0.056887803663612624,-0.025099060692090346,-0.1128769819759461,-0.13007657781455434,0.0167336260608401,0.026191162575405415,-0.08229365037093175,0.09123650681862386,0.14677569036982954,0.011748461528744968,0.056140501404470085,0.3247772392842978],[-0.09500874151956588,0.06159272493937594,0.10322376981622776,0.10854953334062746,0.1349543804751089,-0.08945358069809632,0.12838232614126863,-0.20799369456861774,-4.7264152021375224e-07,-0.1384718988554998,-0.2069999949918695,-0.1219780223235649,-0.00012849753486695147,-0.1599433277834797,0.1535493341477414,0.1720746832608171,0.22586871853723323,0.22697408833349472,-0.14223400850025264,-0.11086205216325992,-0.08072331502891335,0.15815627987463615,-0.18590999207381612,-0.1022608215509761,-0.018407815743736757,0.1037256927255975,-0.02695417766075417,0.2516721553103154,-0.13687189904907024,-0.12031023227886964,-0.012226495204977745,-0.005622323445709767,0.1571507732112968,-0.03828854155096345,0.17236382961409902,0.05266776712612489,-0.12917288032001678,0.08178543851633155],[0.1352495558777187,0.10534583173473279,0.05959947453205093,-0.07238470687838507,-0.11202943502213163,-0.1749870418458616,-0.2698080791365274,0.12015254734756432,-0.0008444930102699057,-0.20555252588382844,-0.015981794878686388,-0.16815628736958932,0.08703386737584852,-0.21138274629836515,-0.22147274037868067,0.14660009678332797,0.16604250267791418,0.04005640734499875,-0.053661404201920906,-0.03385903561284289,-0.09161991467411351,0.1427900458162624,-0.19978126317210307,-0.3108184123745179,0.16888390854751,0.05332561579309129,0.17600081337825416,0.08700269427425925,0.2551151817609082,-0.05425041701893186,-0.2616922689142662,-0.08996474908385484,0.04911727534851181,-0.20515961705956728,0.08822827915045493,0.2985834383807961,0.1926194945288623,-0.013000696299093348],[0.04147170844927678,-0.2328358227926426,-0.05125065916040955,-0.11515264526345947,0.07662146901112307,0.14910217770066303,0.23558190755703143,0.21530845578313831,3.1685999799739367e-07,-0.1739559762405465,0.04491719136174047,-0.11510832328349653,0.12018631165048245,0.1570988925128119,-0.08207615900917004,-0.12166806770815518,-0.04247357535000972,0.03730329292002383,0.2091512735235712,0.08930401931352365,0.2543170424085015,-0.3040549839442407,0.052405770012651974,0.2174266596331376,0.028510203022372255,-0.052699233056831746,0.18420981611063,-0.20623879832400768,-0.06263733008238234,0.20691821281835898,-0.2117908672508094,0.22440917479097694,-0.19325795092547335,-0.0383243942275346,-0.20673616215662327,0.09223578812188761,-0.14752708404447024,0.20282400872937328],[-0.04566169235673472,-0.16009649698865436,0.15702271799169112,-0.2567040645551619,-0.1794398336448025,-0.24433507919001793,-0.0992184287635283,-0.06697741577778,-0.001181131105436622,-0.16541730950628103,-0.1822564919708217,-0.007127743726665184,-0.2538184467125493,-0.03980744769856763,-0.20014862190166857,0.2579242227240976,-0.07025215291948923,-0.14119472964021615,-0.20075631254483062,-0.1316524222672141,0.23330012062711322,-0.23137918369866864,-0.2816835586019513,0.052544246571278194,-0.09879808214306574,-0.07291756043398917,0.13219529090181192,0.13414353379923813,-0.2322982494336847,0.19351291449743155,-0.24978126958687782,-0.16566247589996055,0.01744294876247917,0.21144085909125293,0.12737716060687318,0.04879527485157513,0.06876778999985532,-0.18299739726148348],[0.22158880278843943,-0.21025551733654083,-0.08766315244313067,-0.1646103607730259,0.023628205517488888,0.14799820627131197,-0.058033952238700726,-0.02859579397547641,-2.251809173977731e-10,0.22849916230697184,-0.19210369646369096,0.016698525736921023,-0.0708558814474968,0.1573372708547493,-0.21547018556354325,0.032599300054695336,-0.0831793545134114,0.178431910778266,-0.2599402352146834,-0.0013840451731751047,-0.02269006078447055,-0.049827356598421996,-0.24280624702231562,0.18527291822348202,0.14241605422589937,-0.030137566759039145,-0.053861582585175746,0.120793003210554,-0.06766027117223328,0.010510016478828526,0.14370851673641694,-0.1362554013183196,-0.03821826221283212,-0.03623018041503704,0.142523886543629,-0.22980682270772335,0.04286897404031066,0.039686751254465885],[-0.22365882210831742,-0.11935734715473391,-0.05465561674982778,0.0750587358702742,0.27125186413523034,0.10599691602240251,-0.2524906197299811,-0.027838787741342942,4.4240852502556124e-17,0.14586612222585066,0.15581231344861046,-0.04744573142552082,0.13424395252807067,0.08651641607428183,0.16043466793359834,0.28211376369299995,-0.13120769403952437,-0.13045943862911039,0.0353467139472741,-0.17835851401552977,-0.21615809345092007,0.0532987160634615,-0.13968732632864184,0.01833431339862539,0.15282717867889895,-0.0038253186768823205,-0.19390029990542568,-0.10833952436179717,0.0878303547476631,0.1341669430669202,0.01350043938709662,0.024804896363678476,0.041340943178379594,-0.041802545543243703,0.26678232347982433,-0.0603215110616984,-0.04529896591094395,-0.28554091847586827],[-0.21503650672777702,-0.16400178126699066,0.2123881771898601,-0.05410801288894773,0.1585258709893688,0.06576043610921516,-0.18076153412451315,0.09693088378515319,0.0003720191887029511,0.17222861706542783,-0.19368968811331794,0.11391639688009533,0.17288319091573195,-0.021533483877978703,-0.19110823319194808,-0.16720264145574013,-0.009914677240705938,0.18042119342461105,-0.008181892236263269,-0.16409945842512214,0.1377686418640275,0.09632270174918335,-0.09919348642543704,0.16811941739410272,0.19363383958853664,0.1531072306491814,-0.01993691055931285,0.2039765676868079,-0.25046661390360886,0.025002670539425186,0.15633273787317534,0.02773314267334497,0.06037242631431221,0.22053372438276822,-0.021510308022892378,0.19959538473872698,-0.1193442975434241,-0.12990937475183306],[-0.1561478086219924,-0.018100612860612614,0.1906092437519192,0.07301440242576979,-0.0672222438988063,-0.10273232256387953,-0.04231470071618945,-0.044941639610896915,-0.0002971132782167237,0.11681965494120446,0.04260916273720378,0.09005770314382056,-0.12325167411963583,-0.019840046124566003,0.24721281077192495,0.03863583164320877,-0.15628685409075715,0.28385518115282915,0.1685250831738316,-0.2462775690391528,-0.006550521049693711,0.19862943655643436,-0.16190773161255578,-0.0866854410714624,0.17229960440529485,0.1479391686401105,0.05995342200289475,0.09273091159940672,0.040289540121201575,0.020869174764784355,-0.22744884556218445,0.3087429466957179,0.10806876742707205,0.0048602946248034054,0.1643445956730224,-0.06067138496333311,0.06872734331717888,-0.2170367341510491],[0.2362153826262689,-0.060686021185147376,0.06281871089444255,0.1922076904798203,0.2447136052991607,0.01580965337457755,0.2566906085731342,-0.1457295614935603,2.2860860499783447e-13,0.049954684863398005,-0.1994649918712422,0.20947633094423015,-0.18482350421615668,-0.014170986505215033,-0.17421981806824557,-0.07163646246370106,-0.06784768112733375,0.11659716871018713,0.17086200619427103,-0.10531171780044259,-0.15057088108900354,0.06194252261530633,-0.1583526095007612,-0.12993932994699203,-0.0853570653774231,-0.12962300862074103,0.10494571768571988,0.24952872727382136,0.2533616468552851,-0.2955261568276911,0.015394385937795694,-0.1487232797093332,0.041294062675072164,-0.034723637636917846,0.19081369243569177,0.2291823169234983,-0.23963614859885668,-0.13254309686683644],[0.17727505873751037,-0.19243384601045327,-0.22136624804997296,0.24438951695678746,-0.10627866842468713,0.08480971394890749,-0.1870729317654289,-0.02696665837744965,-0.000925540302054145,-0.03928393835427673,0.004198886689529722,-0.2148365631201057,-0.1188762459139006,0.19028356434021593,0.14699284487675704,-0.03736974483420762,0.1272891066755589,0.03129836806350712,-0.09776948678181065,-0.27152176490740854,0.25148258359089015,-0.12854600274624095,0.2017355169991862,0.033629959411164714,-0.20107726432545647,-0.09185399749272988,0.22678080614869317,-0.21945967349356932,0.04591486865805328,-0.11505644392548206,-0.045192755608031376,-0.046753055316898905,-0.045410792655285886,-0.19578088191281912,0.09110123792894481,0.11987413907744683,0.2035708200356501,-0.026863028455817454],[0.10875112633832155,0.060026800670332704,0.18541755046657574,-0.09524141914395849,0.2479708262409158,-0.17304341282731864,0.2304258777168652,-0.05857097510693804,-6.430330146135487e-09,0.2553791063325681,0.19694792154054003,0.2072703242615977,-0.23604077429932013,0.09156869376171756,-0.0005839842357954991,0.05974542686314198,0.13100722629450037,-0.23982748794782316,-0.06322254798312997,-0.04877440901185172,-0.15940473816281256,-0.030314996163336265,0.22278789268213467,0.11924627115239614,0.16195745528385003,-0.1684477317979857,-0.22257456112525587,-0.32604287987258707,0.20862441040590302,0.1438267173897075,-0.051849900740494635,-0.1501810969276811,-0.1561375424072614,0.1176484559114175,-0.032576087272674456,-0.009201683777854514,0.2205155199862424,0.11011593325185072],[0.1951664761821718,0.03668201743442557,0.11460832889104151,0.05164506015355827,0.19463337524705634,-0.08641412390887111,0.17763923082192187,0.15580888452040326,1.0905964929412474e-10,-0.0890104907097948,-0.02159454319596285,-0.019740223449034346,-0.02019215841953427,-0.2193537630500936,-0.05017227481631054,0.1842415247436081,-0.25115110106821903,0.003273151414736064,0.012151673794332534,0.09602484861592442,0.1531525219167937,0.06361267454903514,0.06470133649131254,-0.08685141515009799,-0.12165630810205898,-0.14359219220188818,-0.09774496897609547,-0.12218880346114228,0.22380392365936463,-0.19060926407035617,0.07180931249946276,-0.12260943224233549,0.19180782158890047,0.10240206503120518,0.013918679840685764,0.026370944678784106,0.06017599030723823,-0.06775163247593201],[0.14774246629296145,-0.09537556857841661,0.26258434520739093,-0.11242436026815864,0.12066684834478573,-0.1417772309566946,-0.033455915256567555,-0.14674667445959688,-5.777304438591007e-07,-0.03399364171646241,0.19031268992015077,0.16201971381648467,-0.1746892783282388,0.1163092239858078,-0.04942624558704956,0.12896351944524762,-0.05714217262234399,-0.01153988488577706,0.06394740576539233,-0.02156711432683501,-0.1216300263412971,0.12868248253757475,0.1506073651853852,0.17032194273222376,-0.07371205668846696,-0.03524492099573943,-0.11925067129786061,-0.03206938248992046,0.24225924078583422,-0.13801722497020974,0.22729754895215878,-0.08442272808891052,0.12134385603823555,0.20476910940077525,0.1272919853941154,0.01700515508187105,0.023858609677020463,-0.09949482493564706],[-0.003251495557019791,0.016756634004191206,-0.18957928402286267,-0.24149558812913186,0.08483313929488451,0.02734463294371834,-0.057930546659275356,-0.0062863696970634625,-1.2182389065962549e-05,-0.052879118709293585,-0.1671951778175766,0.10908927524548936,0.06373054072476887,0.20478987608047772,0.14123730290717845,0.11072686020190863,0.07275620605447689,-0.12381440597174685,0.23728923267846053,-0.2035826143808796,-0.029678413803315765,0.14105272801491653,-0.04832576771539359,0.24109575533396668,0.13180980843093873,0.05757686853065078,-0.17573985524000618,0.09370381127332522,0.24251191987893075,-0.024457792254794594,-0.1493722194671316,0.010314215148491864,-0.08445275838511175,-0.18132636445696312,-0.2918968924986792,0.13559215364806151,-0.14943839403875955,0.10809488364089628],[0.12094046220904503,-0.19109634650993437,0.18905385956146695,0.10381142277666765,0.15457935194747457,-0.23638645922197413,-0.15631083774587878,0.16071174425183,-0.00017129590040607047,0.18769878105457105,-0.09252333084754526,0.24347173027005597,-0.07448943574240825,0.10359376847963404,-0.029080425251899345,-0.019303241040584528,0.11856436967002863,-0.031910154933871754,0.08359752458364315,-0.2146914445849873,0.1122215680846655,-0.011755213167525265,-0.18265860917010504,-0.16702665844733813,0.20808067222287566,0.006191346018582979,0.12246717242694426,-0.035727211561420336,0.09728847643913056,0.032166920783352856,0.22820095554691194,-0.14652985691370649,-0.0571263095202381,-0.2420942512955436,-0.22428762938023483,0.055979176924481296,-0.0835441725011507,0.2064281655050036],[-0.2054738098853583,0.04357436430261528,-0.14963535048251927,-0.10077299672820812,-0.12495538177154616,0.16425929757477362,0.03367418643576334,0.036312158691153895,-3.400692672696928e-14,-0.1817971364585372,-0.047349051713097466,0.10000906370400361,0.06674192663268105,-0.1620010329118282,0.07655639672099457,0.18301998842331726,-0.027667496334989144,-0.07410741630145513,-0.06659633249749486,-0.10705253744248845,0.053692640250672725,0.07582129695359792,-0.11136844397523626,-0.11156228777188391,0.09815835979295204,0.09430294336047493,0.04994349360370891,0.14031713302780738,-0.005962139766511015,0.17494630711583523,0.019373306344076538,-0.31030779881174536,0.07506805442114742,0.09139525296266991,-0.10255412190213083,-0.11513121170806885,0.11416313857524095,0.13747660921977892],[0.11944006208727041,0.19395600493262458,0.031359235056856394,-0.030483339291599465,0.1941755283102841,-0.15050190305973074,-0.19946475239021771,0.20164059015659444,1.2382365189152975e-07,-0.055456764873805554,-0.06239231696430494,-0.052596461197003355,-0.20604772246673195,-0.029566792163521288,-0.015441004690650982,0.023689275805062318,0.25448726446504816,-0.1811788171030555,-0.14038613683085802,-0.18979521179405387,0.23543789723825012,0.039459597688170485,-0.08759824368441313,-0.08863009506592646,0.0991898787131184,0.33223868421365005,-0.03888189240819195,-0.009545657351764427,-0.22370418373233075,-0.005348520093378349,-0.1280556637898789,-0.06711643733796702,-0.12960199906773368,-0.12240189524224648,0.028700494269618935,0.17753686594304044,-0.11419110932986315,-0.07531543736317901],[-0.16182960198586208,-0.03779260080658534,-0.12295978349903984,0.08579271414691379,0.03141826979259823,0.017783567290477743,-0.20720850243808017,0.15747032049569248,2.2641030091312865e-08,0.10031647138768514,0.12488563189209607,-0.04527454465451399,0.22856351760913254,-0.10761660149607659,0.046807810933130786,0.17432044438934044,-0.14063275852217766,0.021626047468384226,0.2784544826028516,0.3124799433477873,0.10128639760447833,0.1357735845301704,0.06608336776768126,-0.2193686779639611,-0.15138793291146443,0.21763109753056142,0.256354273612443,-0.2376452634307505,0.09576466477884393,-0.08990478041614357,-0.0666828196121312,-0.08895648758108166,-0.26601633980001244,-0.18715323944151352,-0.09695568612470225,0.04638746285915818,0.022473223147181864,-0.06892515565796321],[0.3009646699194138,0.14673017763811935,0.18327440294633504,0.17733242832436993,-0.28050253958401095,-0.005772165153218263,0.0035361307657706125,0.09697279996502682,0.0006006977067887597,-0.1614265879336533,0.008474045018052384,-0.06969177197338396,0.32718591470940106,-0.03895849018805511,0.18370914324664764,0.2043149544096704,-0.17329506649218301,-0.04862946714467909,-0.1821731351351848,-0.2074745446838045,-0.24443356916064388,0.15495959324319017,-0.061825390572035226,-0.1632518965489252,0.008389560704675749,0.0183022744469957,-0.11851925663449371,-0.022785351825059946,0.08989653013927457,-0.38069905726624903,-0.5540875397284928,-0.07966444543383254,-0.08703250550774763,-0.0920307659988969,0.055985662938059205,0.2717416554553227,-0.0563411391096355,-0.07143995836099934],[0.03409058961834282,-0.16916722325850703,0.1390069125948602,0.09006227907045963,-0.053541825919737836,0.19469918191128832,-0.15598254915588572,0.06581256465194445,-0.0012717039047955227,0.07846850381893485,0.13020696820012512,-0.01714128993400197,-0.059135710380190686,0.21754012310967305,0.12005894145514852,-0.12534225035244279,-0.013037063799895174,0.02391500425395941,0.09417293256503001,0.12520412031156344,0.20148140410264087,0.23917508327637685,-0.08049925058104886,-0.0676890600829826,0.006327391065225356,-0.004514995764396193,0.1167967635095493,0.11295899547768469,0.354855534875195,0.3677568174048249,0.3626337273636541,-0.11286710186881005,0.11536071028986522,0.17670416291281335,0.053920326078744724,-0.010238865531943,-0.06594970718772507,-0.1264666693820019],[0.021377225724820852,0.15168912437540732,0.0689917802068279,0.16423851330174918,-0.19982063438557826,0.20357550212728046,-0.16607642752991955,0.21071804534985006,2.365808236264956e-09,-0.007348994062959896,0.11375196149858977,-0.12910387242366,-0.09452099783618996,0.23419883781560288,0.17584115505670586,0.1314130947461089,-0.12576366857044124,-0.1825556033730301,0.2342659457951401,-0.0600681280034597,0.0868465554358668,-0.20155139452363433,0.30698991410321513,0.20331168131797564,-0.10853499067435385,0.07954988547604197,-0.10933796735318067,0.19698709495363875,-0.18883637897226827,-0.1325486250350359,0.1203995594395095,-0.2285532849871067,-0.02754518143919403,-0.016822909456783042,0.008215870216949606,-0.07400031961824137,-0.1799855164764438,0.010194456540476233],[-0.1710838994291784,-0.13316389702683173,-0.04254661122431555,-0.14162153554335155,0.20975010356079987,0.039728569469646806,-0.15559688376392622,0.2384313365453028,9.827710779362528e-13,-0.1392404137203568,-0.059802077839424574,0.04727326105938101,-0.0991243765240531,-0.10803179474143167,0.10757352325439913,-0.2685520356743106,0.13052846290668532,0.1917706087080389,0.0882933829270333,0.06634824341354593,0.0793906898647338,-0.23728010593877574,0.13346023207726163,-0.1748355485459338,-0.11552988527135415,-0.2725409726195429,-0.14341192226105445,-0.08165250242751756,-0.23106762996483285,-0.2502382718771688,0.13076049949940632,-0.2615101827507752,0.09511719165625979,-0.17648066637577325,0.16206486571257536,-0.04384584800794916,0.0947240092863532,0.1369129970694766],[0.11449099056343592,-0.18186175219163803,-0.24074167473036825,0.1314450962309308,0.022432069503116003,-0.22936854210728289,-0.0960809724512862,0.004672858880859221,-2.682518623216293e-13,-0.08787821969704727,-0.06107130083203462,0.11450380130499527,-0.03760133715577997,-0.10509065068712904,-0.24293124940521071,-0.05369542065695667,-0.1012267042501238,0.12373595702041405,-0.07198598150957032,-0.02481666381630516,-0.19360152793617574,0.10477206055842488,0.04685793041476611,0.04790719982985234,-0.10798275989377944,0.17878659329989374,0.08015209356253032,0.09360139981322384,0.26103434111537827,0.28248883743927294,0.22400202684780143,-0.05757897799900669,0.21568079540030735,0.02762851222291924,0.10570814253836651,0.08875802549881036,-0.010330986085282032,0.014459490947324858],[-0.038494426039627036,0.016276324638872824,0.06263593239529415,-0.1968308595029944,0.025311524536381795,-0.06580096522374729,-0.21138784240150196,-0.1575007989463583,0.0007558224809958357,-0.014562526950975842,0.03197392539057016,-0.07836295897407583,-0.23547162265372296,0.02105706489117221,0.10932314989228392,-0.14605586745996374,-0.07759634582679283,0.000851049105624246,-0.17412431200820233,0.241340148088908,-0.03997611975672474,-0.13204843341907554,0.09863599837003932,0.11359710862828411,-0.025219537108875846,-0.1879217462496204,-0.2764145906696561,-0.15136215984259074,0.1161999548030552,0.10567275308950036,0.26044567044745087,0.15911107428004645,-0.003737633918366364,0.07295862190991488,0.15348165562999502,0.24053342170515774,0.12492407325528633,0.1925153092024124],[0.05779897555687494,-0.26547092933921673,-0.058457161812922424,0.2297867500561705,0.10383403992937054,0.0478714905975476,-0.18330134122988936,-0.061017070086031175,-0.0010355362695239289,-0.03168630617104334,-0.24134037499590616,0.043817866602714146,0.03939657549790584,0.19377961549137393,-0.17407341022908346,0.034908812094721534,0.1752747651985587,0.13750360177923904,-0.09747076750781629,-0.09050134677926726,-0.12058025291968753,-0.03274273366360908,-0.1912007936708872,0.08704174216873944,-0.026921888310349817,-0.17072473823689482,-0.018516935033830985,0.18532598937870282,0.3493532562316824,0.20757445896883017,-0.03751032450512731,-0.01415289936234488,-0.23163034919471812,-0.05565142173782629,0.016312283882782486,-0.2022748170738721,-0.1560050409839371,0.0992205214693107],[-0.26442294018435014,0.0953031873493281,0.06375753208744486,-0.020413824597239758,-0.11518865163768127,0.028976818439837067,-0.29836471168775114,-0.2808671840406895,1.3409771491542817e-07,-0.018968655160411036,0.13490431070555892,-0.09483080709170988,-0.1272877879178677,-0.15698902773296097,0.2376943881662058,0.10628467538120896,0.08248259418329912,0.2173716406311018,0.13892699933259342,0.18100929498386747,0.2063341948001859,-0.0968664979529142,-0.06052166487219846,0.058946923284750825,0.02934582406418281,-0.05302968500800567,0.025455749263996363,-0.042047030849963064,0.1578328430104669,0.009469789099859205,-0.18433377952840743,0.16481909060765002,0.13078921839546226,-0.023182364938179077,0.18371290408218108,0.12410063650000382,0.044636426089769844,-0.09412181359978908],[0.029278035221356347,-0.29412569755840756,0.12087984692195398,-0.2069928900854441,-0.20004260354132306,0.07555560306865283,0.07878766928723208,-0.04543077375572198,2.658594010445234e-05,-0.1120065272626746,0.035499825142573146,-0.11517708382396466,-0.011232423467470795,-0.17186128506823184,-0.23131253128467438,-0.2279993862651523,-0.016236926384478097,-0.23575797257067377,-0.006379295152155572,0.06681359614973027,0.11836317462915102,-0.0976025866165271,0.09030403339363383,0.09253603282442363,0.12116667378937113,0.005878009121054204,0.15988451706266513,-0.008337278165816192,0.03156658192880975,0.14683081317796198,0.27640868895133003,0.12179922314529547,0.08879556561629605,-0.09719379985481351,-0.08528943584687049,-0.09039779258525314,0.2913501081811894,-0.014187532134251632],[0.05545753250476186,0.06473526303637316,0.20987908817050144,0.18171073414412256,0.1552198381607934,-0.1242575296898075,0.24580941764609035,-0.17342726066108705,-3.1244329089863658e-18,0.23273747837339895,0.101195195768599,-0.1519034670226291,0.14753503379935498,0.173667217174768,-0.06804315376946073,0.011294852504829775,0.0993700344265416,0.05543940922859053,0.19977081063104582,-0.04658564598943927,0.18103255764685874,-0.008982066936341956,-0.1728290098302806,0.23754717694235378,-0.1458940631800213,0.06662218285281846,0.17771735250935863,-0.08746449400817921,-0.2652981525750043,0.020856181071389698,0.10084528922648228,-0.2656202505732004,0.142880827689703,0.1489565177277408,0.3048509449416482,0.041907052320620156,-0.16662572863680258,-0.014698638398188532],[0.11817910863907617,-0.05157213863573489,0.1840581508297083,0.09888857701097005,-0.15948952809386588,-0.15969584948376653,0.2170884227298261,0.031053153820343835,-1.386587066094358e-08,-0.14315635856205478,0.08975090504221897,0.238806624372356,0.10496344256239455,0.03746841677589877,-0.09484930518432592,0.23631911735531239,-0.03834989446614899,0.29578780243262726,0.1944916902149462,0.21020593810755173,0.21163055669245792,-0.23142734277631533,-0.3294235481058233,0.1757656714955571,0.02022601182391672,-0.1726057186887966,0.18920954811213,0.1599947220371431,-0.003433736218167968,0.19315592997352457,0.14826288337337368,-0.29232052098694317,0.18167680645114065,0.015390322900519315,0.05162120499022925,0.00698358885687639,-0.17536040746138018,0.11880242061623504],[0.18194453279855685,0.10047349401039866,-0.22034375699572606,-0.1309665131532404,-0.02848279345294651,-0.0775586784716278,-0.09296993329921648,-0.027260782938910978,1.2439725305866752e-05,-0.24163585684297872,-0.2071777010839477,-0.260748661170933,0.21616997162752033,0.18780316375852865,-0.03075667800603262,-0.18251752149639336,-0.29399236564898695,0.22491315986702845,0.1693826666052823,0.07225569550136028,0.15204599993468906,0.14310078801481152,0.13316320892417385,-0.11149747502567464,-0.250810285015715,0.112845041604237,0.28884069096628806,0.17908709641318393,-0.026082915894813038,-0.2142835130462273,-0.18337887354624824,-0.08007632247439109,0.24670668509864532,0.13879110582880347,0.05873318373400891,0.13600216188357278,0.035844575703352935,-0.23819260954645918],[0.15739169168900485,0.2674707399055028,-0.04620514333020532,-0.1433204729844082,-0.17074074548582713,0.2852859755329139,-0.14357684576080026,0.16498288768660543,-0.0002541068297279688,-0.0642221561562833,-0.000993397596663809,-0.18314117502010166,-0.012109140141963532,-0.12077475693645076,0.16569924068898326,0.08544730662288133,-0.23893782908094094,0.0883828600036504,0.21335880170700505,-0.21641358673290909,0.19761367093827034,-0.09017072721979169,0.015379691352429607,-0.11372739162279896,-0.207424575236814,0.08104706188550491,-0.18128228794288856,0.17786252280230272,-0.07977954148046414,-0.20224568774689772,-0.30220622782704426,-0.07977169359106526,-0.05573470631751487,0.26710839953891397,-0.13567609982247023,0.1874211869293308,0.1207481471876406,0.047306192359850764],[-0.0434663707344965,-0.1153320947728755,0.07230858929608373,0.0076102080515323,-0.16632447488669064,-0.12820580798132888,0.13734595920683537,0.23306428352169928,-2.4463251637421665e-15,0.06881997368418878,-0.01984901999449017,0.11340226558322689,0.17149377300489946,0.048741874723176884,-0.03368670653606333,0.06681034639456075,0.017450933773856668,-0.15108266836813916,-0.09238602115502381,-0.0682499539152888,0.04877452374138537,0.01794617420732213,0.10572973773963446,-0.035595889329432195,-0.1252418105937695,-0.09669280975020088,-0.0695840557330803,0.055026223190217764,-0.07253701918554523,0.0806289237581263,-0.2036725367977574,0.14843871415834423,0.10699053994773335,-0.021208033830786756,-0.15271444066404746,0.005566666382244606,0.14994415274458336,-0.13041636808872115],[-0.006562178167589669,0.04017242240372799,-0.1727397545979405,-0.26272992259060207,0.13442612816509353,0.24285983048644427,0.09842303558527343,-0.014144959245949381,6.433345868790095e-18,0.0759940413617349,-0.08156434439605452,-0.2082393992285594,0.16949172358601128,-0.06532412703486225,-0.14279952097325663,-0.2544297498667939,-0.2426137556134157,0.037118993188085175,-0.0923650293472643,0.21502045963197705,-0.21298672855328837,0.004817144304608256,0.22456735203048256,-0.019548570126149717,0.10594625316268542,-0.10345360758128498,0.022809121802882366,0.053209523780325466,0.2412311023384026,0.1917665768022376,0.3063670912569232,-0.10871639774536337,-0.026001444262374114,0.22930839440792883,0.06844908911297172,0.15923651297945235,0.19011483717350083,-0.13051142091281268],[0.14063395311921476,0.09462087257333011,0.04738019748093761,-0.10748864192445243,0.23772824950339458,0.0025625383183218537,0.16427980417852409,-0.15776149570231396,1.134801648555324e-07,0.02496326007947527,-0.1905502036997673,0.12180086807561871,-0.15207107450071325,-0.06918483482095153,-0.026864753842816978,0.06210326555748749,-0.16765312828306744,-0.20787851448231479,-0.03861356533211748,0.031058446681287554,-0.2597484847872189,0.012036308298033066,0.2592042065592214,0.1149397852399365,0.017270461072706873,-0.019544065505944976,-0.05006413747364626,0.11408627424551203,0.12555363424148439,-0.32248402129375225,0.2068799539132381,-0.10899669609553861,-0.11422257956117413,-0.29854612408424014,-0.14727382232175154,0.17354721067698883,-0.15354309862953092,0.03280492076554371],[-0.220457652294336,0.006508432947464418,-0.24278974698750852,-0.037868195937754257,0.2490121693932375,-0.05136804858330987,-0.19656765645195678,0.05668024165643449,-0.0002889977305301738,0.2620056227770509,0.08814730959058997,0.12980914858442047,0.035711899984870475,-0.04856273597921453,0.14665638720744986,0.12013289376399076,0.24065712140165593,-0.17119078010193045,0.008306338165065746,0.18010295096631593,-0.060174055810281464,-0.21106966918839376,-0.06141308700436234,-0.010674215106419086,-0.009555719862748975,0.00018148532413950563,-0.09147041247074615,0.06240224215999766,0.0019607592659448953,0.0886612821327464,-0.10279497080037778,-0.2854985482345675,-0.10171076797604606,-0.2082408236220284,0.17528323851370833,0.018694799237321022,-0.13678484078382566,0.14371706303987244],[0.0849404014319268,-0.11002205624747623,-0.12209833302034022,-0.07114584239934213,0.17649468995860157,0.19279178981510883,0.1322478378967231,0.16810111995605606,-6.216980963210245e-06,-0.08912189226983626,-0.1714660716395132,0.19051456905461495,-0.08255903998036421,-0.014494268039257078,-0.15975772151452505,-0.23815068452295435,0.1574432543747267,0.23793762700042445,0.0954414450144376,-0.09124950654555321,0.13894481500905323,-0.1454550293763148,0.112635264004023,0.02300447461809194,0.08704883604179528,0.17045822290939058,-0.09233141071066789,-0.03000689582056903,0.08336703985757452,0.0651369220976365,0.06834428837597095,-0.057536455593283825,-0.09672281071297338,0.011558423761083713,0.07983815688228578,-0.15576887964418581,0.034511105713534974,-0.03321027629104806],[0.048369118825552844,0.24167494893673386,-0.20700299605667935,-0.03746416356680053,0.10899706223616892,-0.060902283187925496,-0.1325707841345622,-0.06873660392258525,2.838272747068939e-13,0.08345571519291958,0.07081560928539156,-0.030310153002138362,0.20099310777664242,-0.047368048960882536,-0.10559442831980222,0.16026962747372736,-0.1935401551459576,-0.06187174968918428,-0.0805340071076114,0.14426553160445443,0.15319703510092778,-0.006630576392548074,0.15548337717265578,0.16958356274429848,0.13252624280173464,0.19094022004043018,0.20104624928651926,0.19804507431737473,-0.07984028834033337,0.06196272542000688,-0.06028894315155321,-0.023897812071484285,0.18715186843763276,-0.13059341313227368,-0.15630661191037223,0.035104098595049676,-0.20902613759038288,-0.2511627919940843],[-0.10706812538149739,0.0026288034482186144,0.12847597255611645,-0.11377693897203632,-0.0679159202913225,0.15804724315169918,-0.07813915167462736,0.048532641561207464,1.2760775173749098e-10,0.07952300160995904,0.12535945778936006,-0.11580842609533304,-0.1493705585339266,0.20380219558835258,-0.17607013680482297,0.015174148278001318,-0.23719196658620595,0.07118045947509802,-0.2640898784246975,-0.04168672458721779,0.2142832778395056,-0.21101147023957373,-0.12293134376280274,-0.053743959440563226,0.17319492788294424,0.2411175890028485,-0.12308595692299751,-0.12011380822860467,0.39924246218771364,0.2721298362421279,-0.22484543777391683,0.032805395173467436,-0.053739720817813814,-0.11087227818565495,-0.2581797100143862,0.10625318186046091,-0.22870184920114708,-0.05639152102763994],[-0.11005703041259955,0.2187040319313517,-0.12925457276601485,0.050376709995742286,-0.2532465916404195,0.021923342703012223,0.11968251498604558,-0.08433435128353989,0.00018168951294677413,0.14920307567681282,0.12354216499898957,0.013520289734101269,-0.05125457405376513,0.1346137120317693,0.09524904569916973,-0.23577267213617806,0.21676776695575586,-0.06789466887227624,-0.062456934379086705,0.0008885597882356601,-0.2715506296186255,-0.09232209927741929,-0.0509317529465813,0.19609478217035178,0.22933268566768686,-0.2165703500357911,0.10011771153639343,-0.15866974753382262,-0.32749746661515877,-0.21959602796657823,-0.4931794173723834,0.1706160275937354,-0.09914669604990507,-0.09283838282715964,0.19528904352711418,0.19284645738887682,-0.11200622871441007,-0.17838370224115502],[-0.03193206697066757,0.08976220536024487,-0.12219440820326613,0.1391331937826311,-0.022134570238167253,0.23294078095122064,-0.11007668033722123,-0.002997277592216015,6.447209014605154e-11,0.2935290544141244,0.21857274290652273,0.22258384685132973,-0.18709269724822464,0.07567732426823368,-0.0578944890886661,-0.06984716390357663,-0.045021160685390145,0.18838289904311975,-0.1395555735339796,0.18233850305914828,-0.2318684488899977,-0.09191276940688003,-0.10192555724730828,0.027152384828815528,0.23636006305917537,0.18876603978397774,-0.3127696569129867,0.0014170822151159126,-0.033787201566440106,0.08227252035764976,0.16249175721203168,-0.12084749197740503,0.013836253580800834,-0.12791094739249118,0.13086986020490005,-0.17029856774960778,0.09010839856237177,-0.026047792691163554],[-0.08161020261312205,-0.1575118291256339,0.17364741815772816,-0.17685397303731995,-0.10411109514501882,0.09971590315315607,0.10045598921405595,-0.017242230714677186,-0.00011353523449116938,0.20655189050641495,-0.2345341492512078,0.09339084594707751,-0.08106915798751219,-0.11178764571965562,-0.08288552614873627,0.23390472229429793,-0.1412983462048132,0.08198246153232686,0.20898991138496673,0.2242817847733136,0.23122278249303305,0.2830499469598239,0.05534966040276631,0.12532336841782285,0.15304385029897827,-0.1536874408614458,0.15351047433943021,-0.07715643390817559,0.2694845754928847,0.21187810175279342,-0.08093461529421397,-0.1738782025420624,-0.1102934156071934,0.11317549186285694,-0.13881284295375995,0.25209964268243895,-0.10751078248153297,-0.1524936088238168],[0.05226677414435388,0.16697005846146346,0.1020797365742237,-0.026188421035137535,-0.23513550025548877,0.1431932520777527,0.028487598226666584,-0.2357776718460713,0.0009968220018807623,0.14077637833107995,0.2057609469207802,-0.07909949180816452,0.13631092184205484,0.062079377489896274,0.12556098259858792,0.042576433996011694,0.09107278189439837,-0.0495370029982456,0.2084491055338512,0.16862948703851138,-0.1131734216218365,0.22560279798768704,0.20169335960634185,0.05361589011669257,0.0028193710548929467,-0.20872750397738793,-0.11923883910178311,-0.22228493241795116,-0.22038449489884795,-0.0446746709043963,-0.011866534947474526,-0.04958176770525263,0.011629352579463991,0.0674209017073132,-0.1454912055875706,0.055275123881536325,0.2322972203775773,-0.059437124612746375],[0.015675783995625657,0.005314656530216375,-0.19324047072539238,-0.16381225042108571,-0.2599290522821228,-0.035892495652805965,-0.03769415539943054,-0.08078704399941934,0.00012865319861073702,0.10389683443015013,-0.23358084206348795,0.09028768883708133,0.07988594353281933,0.1458745294364909,-0.021958473512833664,-0.20388286729366623,-0.21682041927929976,0.11681859769529909,0.11589503688190479,-0.062378837553675986,0.02474282897520772,0.01961044962805445,-0.03649702829926267,0.19174308410352972,-0.15049894761762425,-0.1860841110710472,-0.11685520127880845,0.09269294206119007,-0.24437400717881483,0.07239482619435121,-0.21941269652915787,0.01977032154875681,0.1447868144723048,0.1925755559986735,0.059146733237232005,-0.23414293496499283,-0.09589561947321756,-0.0691758697398282],[0.2868488916862988,0.2279948093309348,-0.12772494803859874,0.11791319835197152,0.088625793407913,0.13419831930812745,0.0008640907414812919,-0.11388344729569787,-4.3393778394885436e-20,-0.08789067077292845,0.056314240768137125,-0.12211610010730652,0.02339873478214199,0.17528348010619677,0.12525866309018804,-0.11361195802615263,-0.12514792628613955,-0.15288326457649543,0.10351001354844769,0.13822314568133795,0.205776551785203,0.0769334808908696,0.22068084449717007,0.20087196925373968,0.2028735606708883,-0.2041120645329354,-0.07094769008446707,0.10679147691998293,0.022913571395839005,0.27289467782099297,-0.10876945767580408,0.1116753494761787,-0.11022050359290596,0.1599104187679339,0.2155813899455547,-0.008800045456422233,0.19680306821800625,-0.0022269690683952683],[-0.22221287183641814,0.007130294991188235,0.024550070451770586,-0.11912749271986098,-0.23965258457327887,0.04033393325426564,-0.07305787866848852,-0.034624452058814696,0.0003736856880953037,-0.2204967915139026,-0.06717937313786244,-0.15887962334000158,-0.25844595850933805,-0.09634361123680213,0.13179577812279314,-0.04220853176364203,0.22670418880849588,-0.07061813639199149,-0.0840877136879197,0.11444272915709268,-0.038092279621302315,0.21484650708551803,0.15006830351624148,0.1830230314227494,-0.12287926945143943,0.08992279562077786,0.12319614022698513,0.07432540529896273,0.26883420301489735,0.3382803144734741,-0.2297877571702373,-0.053302643081431074,0.016036112517020012,0.19775466369446126,0.26818191217221393,0.14739963669976636,0.23393629103550825,0.20765253376444945],[-0.17785136126647627,0.2112213129451885,0.06925989504780132,0.02621015718438272,0.11364366217910941,-0.14111481379544286,0.10953418610254788,-0.019852363585774097,-2.852511185856619e-16,-0.24077537555292255,0.03003574554051742,-0.1951091501541149,-0.01345608143426074,0.1822754923758874,-0.09940674551122092,-0.26308871509900567,0.03651955429352278,-0.10873198369020495,0.06481753886933757,0.044010243372225005,0.0841347360805143,0.17290371749849123,-0.04406338717021691,-0.19940118924032935,0.0863909339417188,0.04328356856756331,-0.16016218708074545,0.27997806730068264,-0.09693046679504984,-0.29569397479883364,-0.19245306325694625,0.2990990342471546,0.0321271751408937,-0.04874731328941738,0.10812762043607996,0.031139924066057804,-0.03878715085915613,-0.012803706503555206],[-0.17275999407031473,0.09691978734727097,-0.11195964540938247,-0.13668421960857827,-0.1939603731439167,-0.13507682911753283,0.037140391412554284,0.10419010657049364,0.0003804959861391976,-0.11601508241231596,-0.053243412740564815,-0.04694801834737491,-0.234505565369971,0.1507393599627967,0.26562363385115867,-0.033463978623253704,-0.028179613653297186,0.11119474017922674,0.19746386865822765,-0.18897815786842503,-0.028831190951755348,0.07956340288529798,0.1999635247838846,-0.012267662022037964,0.14940867216461393,0.03813610595395302,0.1546033165259876,-0.13053228855794388,0.04931247365083441,-0.06834632089717649,-0.1688286637309455,-0.257310280705816,0.041490608087943,0.0026516823151388315,-0.005312042414879108,0.24291954618555653,0.038482966707091365,0.23052127681177131],[0.07064774911689936,0.08332831695841099,0.19018276922237312,-0.15045234934910015,-0.18118319454673884,0.13428815027622965,-0.07775741428101593,-0.05222404160818724,4.324494749431022e-05,-0.015319316271796026,-0.1712427367846625,0.20597825130865818,-0.1659843153651146,-0.18941475591888612,-0.18539806057871458,0.011246851196304974,-0.03031834523908899,-0.2089450884588867,-0.1999935945537949,0.11484644931754194,0.16009973331036564,-0.048449275381510976,0.06900518436826884,-0.039208751093856506,-0.03913630200325448,0.22857787779627395,0.15991025236147197,0.1268703134412294,-0.05749089481204704,0.011580135459926953,-0.06592047322220601,0.027085681946607636,0.24860607482075325,0.21909350117668647,0.07873561146699924,-0.02797854485776537,-0.12340015980190512,-0.19614183374437147],[-0.0691717378222951,-0.0013073926400521943,0.028003324210471754,-0.007408515057402715,-0.18274343803217466,0.21639195651960308,0.18940756998779598,0.2504730477195154,0.0008251267247692986,0.0441880142714747,-0.21696800646283404,0.008360132158508102,0.19900387663155722,0.18776585655338063,-0.11779692357744202,-0.09044018575229347,0.16499852861423503,-0.034402134254721405,0.14607467649186623,-0.028118762564631434,0.017653095039401115,-0.025816033031067557,0.06188223130437194,0.23605909561822164,-0.07187880897884559,-0.09213928250780468,0.21898305564700893,-0.0696204519237672,-0.2068292844408888,-0.3136929890737833,-0.08121563451400622,-0.23732832085307193,0.07514920546042032,0.12639957619953296,0.2351060075455148,0.09874273313495276,0.20367864086297016,0.0749339470788416],[0.007026666804940587,0.21303354649131348,-0.01515507786355468,-0.06665479248030001,0.10946779697454566,0.017106111550606304,0.2774188096608918,0.1586649744566903,0.00035591970038338687,0.1470775470353814,-0.009014620319796017,-0.052008377850668884,-0.1346579286101176,-0.04069757702468564,-0.10854741219179678,0.05484457670391454,-0.18001404297014573,-0.1410742321678206,-0.28969772313281444,0.17375120693551335,-0.10720836868209775,-0.20435782499862976,-0.05971077489803854,-0.18766525786354118,-0.18496092501439995,0.0633888094682384,-0.13020388969093297,-0.10894439579462084,0.0014006251874419382,0.2502116308049847,0.3381070624206359,-0.042137937038500856,0.0700684429913555,-0.19374615360344546,0.0892061956361005,0.09625851131580299,-0.04092354483916913,-0.07739905842988183],[-0.09336555456219643,0.09003784228938491,0.049463094575328874,0.179361715809423,-0.1568306960742732,0.07200889149128488,-0.24315636980904617,-0.22824944313582507,-0.0007704570857512655,0.21364276100625074,0.19600552877515184,-0.04410943791791051,0.2083542042357351,0.0245142053854572,-0.043995434330508294,0.09844901744536665,0.19949267513207922,0.03317401626045849,0.1816874844132942,0.10949249510033383,-0.14007853130841022,0.007008529274604966,-0.19976112193188367,0.1945228741100988,0.059670345513939314,0.14723249526245033,-0.06918536234938577,-0.06850579556915744,-0.12219292182815929,-0.18112496331710812,-0.20385365065007602,0.061869039518439965,0.23313272857244205,0.004826675584843765,-0.12957841140626514,0.10582618629640546,-0.058101804544864376,0.014807068223584702],[-0.18930152189180197,-0.028656044037922473,0.13788551309807373,0.13375708348028503,-0.11473351437842456,0.12701508033067732,-0.18452905079320456,-0.18023004390094,-3.774786777040297e-05,-0.18551503117025542,-0.09939541481806796,0.13747259892189778,0.10061509337151726,-0.04525939202127572,0.0002658493680520118,-0.11836977783957811,0.17086749750102298,-0.10890368636999467,0.12082328122184359,0.194939062554669,-0.11032205289726657,0.19077733484168816,0.14515672419939105,0.2399298588231122,-0.01569788524822882,0.13614812696102932,0.17108143204191514,0.17127769554893046,-0.21082066199417485,0.12283431724068451,0.22458794860673448,-0.11960656261046305,-0.04464990955819683,-0.10632876902655278,-0.07210734960083515,-0.1093567256216184,0.18190129334254934,-0.2829937919495142],[-0.14353814154499916,0.0393620998530693,-0.14275268577436662,0.085283075780949,0.04024182834874035,0.07705432614323789,-0.022142480406563386,-0.012474096668790484,-1.576069549144547e-11,-0.14254378731313772,-0.11218584116102787,0.3004851831054457,-0.200783337187135,-0.00350478539520795,0.027378704229272455,0.10739527035985627,0.09721053004205292,0.1020055429918194,-0.2610660824025178,-0.12632272592273033,0.01129499283139996,0.1427588630725775,0.09769131354049977,-0.14779619666694516,0.06289809817287773,-0.03704661998882862,-0.04934725520073125,-0.16220605159292353,-0.09572177019634784,-0.09266732037299477,-0.16353619578450293,0.030184554755889482,-0.04503246941441703,0.2564918388720767,0.06199644892090102,0.07754424360355452,0.08784901680663629,0.18238799637303885],[0.11327677564044802,-0.19173436153619824,-0.016187828289836777,0.1694524668823556,0.14177069600202732,0.21964540684066527,0.13339424317446202,-0.21813328119329495,0.0006348695031720267,0.015136715338608312,-0.16320171674443612,0.26652746815756617,0.08991561302797599,0.09533072546111884,0.19248847524549634,0.04095766433135925,-0.24804589334630261,-0.19229252150726314,0.093911584046922,0.18333619652063102,0.06733219392575517,-0.10036782013588749,-0.29419097600905264,-0.014694926966840214,0.2963131767488085,-0.010710624002058172,-0.06146898836942805,0.1214149314406433,0.16369444335733044,-0.17304179369272082,-0.14435139334670444,0.037159242878389405,-0.24522119103383574,-0.2667195008451964,-0.2012537693615536,0.05472813862575254,0.22586670115905666,0.15122869947704137],[-0.2037553198353272,-0.0662596118584778,-0.11078200138949518,-0.2232233764865919,0.08469747670368852,0.012288163150320233,0.19933383798137985,-0.09497846396766706,-1.6796360311773247e-07,0.08839265979741602,-0.17033118473594358,-0.04927165893853878,-0.1552540924595182,0.029032369299590757,0.20759049362451998,0.18696513734692205,0.0694404643904819,0.09652360941635499,0.03390611848155116,0.04969108005358253,0.19297331735833861,-0.15974258925392734,0.11664266108099337,0.07206393483650575,-0.16419913025104715,-0.04450056211111957,-0.10083097028484832,0.028785505091547776,-0.20224967295681376,-0.18085015655273712,0.10736895543175305,-0.07935283807877228,-0.2008887642193212,0.013860486869688935,0.02599487119039699,-0.09326707700377172,-0.13676628675293903,-0.2228904086993292]],"b":[0.2372664202963031,0.14855391927201,-0.0945295839296989,0.1889314488080482,-0.05394144625130803,-0.021128317122840603,-0.21552277688811516,0.01142081993248693,-0.20734138128699195,0.00017414592257185868,0.11264592929806744,0.14040062992745728,-0.16803949345387822,0.1302007195773471,0.1425123766606957,0.017752846284054078,0.0008832245879182834,-0.1736361813589665,0.047580674922688325,-0.052646522102776275,0.1901965689153875,-0.08837914867436139,0.008939725095650674,-0.09258374334236226,0.18270247190662664,-0.09895017985632779,-0.20270773587056598,0.15145160456924261,-0.005836597227018411,0.030633828216206364,-0.19670766890082297,0.2571794344884221,0.17289077768276667,-0.02041371789731633,-0.19394701630568353,-0.04003086288149566,0.26159077615350773,0.08910690482563366,-0.14900799474134366,0.020476349271956067,0.2251145966753457,0.08230597722453734,-0.26602056843179434,0.06731240405815793,-0.13986669208651967,-0.22557024578094526,-0.011532145990871871,0.03897535484613903,-0.22906316874998786,0.03916088664363483,0.05637737754270351,0.18428016227997165,-0.02361154918456315,0.07334912536678276,0.13819320725111284,0.2764159721056345,-0.045194985972498616,0.14950540108110286,0.11613684300882485,-0.20813302874472006,0.1492950916226017,-0.045569396185798895,0.053924389728045585,-0.053891700085005004]},{"w":[[0.03993029174657125,0.04902472557823291,0.07521448622661535,-0.19708715630633034,0.04786422512467012,-0.07582448184074073,0.18886557855063998,-0.014386188221847784,-0.029173915468768435,0.08608119203155774,-0.18332522247632185,0.11621879656715259,0.06710848848845553,0.12037107878022284,0.1135497626927036,-0.004343319240802129,-0.07312982728658789,0.06254692565133908,-0.049702440871199655,0.09907672546275957,0.11025499831186372,-0.021052089242098546,0.24625077152408942,0.16354197504403736,-0.14656778815874552,-0.08688296355421482,0.13514011701071665,0.19085941209751894,-0.21037041347220964,-0.15764002463785018,-0.2471132890666165,-0.0002463191480000904,0.01459306217076247,0.15935898593092954,-0.15545926406398336,0.09171503371264618,0.16288459937348085,-0.27663465013330624,-0.10034123759097656,-0.17628253166008467,0.02602267420637193,-0.21659352930301368,-0.0685688963117787,-0.13274487107573052,-0.06392310711142342,-0.1894063527457246,-0.31033475832793406,-0.12452005689929924,-0.18289058642309097,0.13066211053507423,-0.11829507986320711,-0.234091386675209,-0.15804750606131154,-0.08890767823299961,-0.20223842091260455,0.17142742460761792,0.18253690721981197,-0.0037693115854988703,-0.03347950652033435,-0.19922796786556468,-0.041211628918828874,0.16714244034023462,0.15675764944626952,-0.20770773585191116],[0.10084293930680008,-0.23789877095278253,0.17746080716064322,0.21413170038417942,0.20368194993344763,-0.1711370146134129,-0.11247484067000298,0.02300789176932989,-0.029035751032272326,0.004042956860202575,-0.005527671172452838,-0.028596376409023842,-0.13212995514205716,-0.2443250120868957,0.24669152937629263,0.14462641872263016,0.07594977492820724,-0.02857763277390429,-0.24609634725078985,-0.012699529948177373,0.16960479927193667,0.020467957726695768,-0.05511436248362645,0.18735014996007845,0.21568645008933607,0.1961745797615785,0.031965246549114174,-0.10833733469367549,0.09707623964859227,-0.17258255900147274,-0.11280439420000489,-0.15797118037203395,-0.14490665623974863,-0.04383539103364109,0.14892824969986512,-0.1929686263066867,-0.006853141441075179,-0.18172034795876948,0.009843500948204279,0.09798376634737284,-0.10576542591518992,0.2778968111686461,-0.20465417231445743,-0.1668729724047584,-0.1008705591470784,-0.05336685830324178,0.3016576296890036,0.020126599073235423,-0.13115393002497494,0.01584229395723063,0.05611477842289704,0.18117006311847547,0.014142231248496158,0.06969497488164574,0.10076136477864875,-0.026891638854331348,-0.19002289354798219,-0.22435163831818944,0.13440305880875536,-0.10187946828224512,0.07769140953480988,-0.00042837939000848997,-0.14572898561720993,0.06089913562779721],[-0.1721003536233549,-0.1594863913612572,-0.20526820203264073,-0.1331404817300859,0.18512510849744376,0.20130681423434535,-0.04107142190096407,0.08998504820414735,0.14276990878897938,-0.15799618470065216,0.03908074334205854,-0.15157653006213576,0.2579043323608139,-0.12018950812848887,-0.11430200031028195,0.017179864964318555,-0.24423801666234984,0.1623071393339278,0.15716554798602642,0.06023242094783317,0.2402301197170015,0.17747609241630555,0.08625159475868943,-0.20210943488370517,-0.18358191586936448,-0.03833180501928251,0.2552457083570304,0.025482795236115723,-0.18982699131555653,0.007145016636636566,0.2268325025974048,0.11325746763284823,0.09746649027928475,-0.10055314388674742,0.02236296613256137,0.2119624114186534,0.10225631550739728,-0.0991765327776237,-0.08545745896339181,-0.16056369446517627,0.028026185848137507,0.21914277975322982,0.2518806310831869,0.16427870516545995,0.0631092884636657,-0.24732522665344794,-0.09900359125892019,-0.04132503340252102,-0.1917993867527826,-0.007531515058342737,-0.07601311956415224,-0.07279529517789973,-0.008705764862116671,0.13492037790440284,0.09626032984188872,0.16105098328328574,0.10483230555592951,0.00016777032867458554,-0.10530657313881969,-0.2125640921844792,-0.2766698410896547,0.12414314603029387,0.12254016854920263,-0.1506974692892205],[0.09675379268993872,0.12013998087748005,-0.09708840845817479,-0.09993480929520158,-0.004434231910900886,0.05831074326383961,0.03729575678795199,-0.058137193652047656,-0.10013938405969237,0.17794270705977533,-0.2292435239002231,0.19508358336067622,0.05321288160718574,-0.20627771423689842,-0.10285812190584655,0.20727524144027362,0.030234191600826108,-0.04833899419643247,-0.1638655605422724,0.017944663481092582,-0.22680060121770032,-0.07079448676830026,0.1694255100971249,-0.20943055921715278,-0.22026557280242887,0.0455679204360197,0.12563599296792358,0.3026335279632077,0.07347927382452607,0.09351380246120676,-0.05075220553728769,0.1819148447826837,0.06230862962006466,0.12224054418124164,-0.31634604640429204,-0.037172588596757844,0.0752080225231078,-0.2318597633905872,-0.2291555276161764,-0.027774985865876463,-0.10587276293272313,-0.04696170815189777,0.2664360067163603,0.12965941157391317,-0.10132501001022912,-0.11021432661577496,0.14490829810123917,-0.17923911376404403,0.05471289069723268,0.178596480334156,-0.17523230287359765,-0.07444930806166941,0.04017695704396585,-0.022297551268948092,0.08025839004908053,0.07866101201937001,-0.06163134469123278,-0.14047814524396243,0.10923260750256034,0.09554318890197093,-0.26132932180279556,-0.16363191998246296,-0.11811414659852687,-0.04668373531765095],[0.17709512167343397,0.06240060135035439,-0.03427567491968857,0.017040430546145326,0.012000936881683624,-0.04222398510261262,-0.02490157207485812,0.15792928766992786,-0.207287552360468,0.16325792347521426,0.18746711790213705,-0.055383195449468806,-0.11457637220745076,0.2068888211863604,-0.16735268935506328,0.025498240016860216,-0.0966995671053481,-0.08292321524618909,-0.21753521216395594,0.2989523310912274,-0.2229219699214671,0.061816766952404276,-0.2594021600361647,0.25990619076485805,0.2662708845527795,-0.06961703650906964,-0.01368698301093282,0.1600631338488956,-0.050637471444832084,0.3301876757456496,-0.03344612455466622,-0.04918467125616747,-0.21311729614892766,0.23738608612799122,-0.219814546387138,-0.29946733640533835,-0.17925317005050437,-0.15080402727038242,-0.061343729053551156,0.23923130747843374,0.17797414076054147,0.23131260473035056,0.13773529079670743,-0.08203220908167641,0.1580860741886723,0.12149644572362024,0.1370796610895746,-0.09336602278130707,0.05820066632129292,0.15878650599821406,-0.16753442447174272,0.22102624018479206,-0.04114449123925004,-0.2957767738983287,0.18316783331601583,0.22603636540935373,0.23066642183532776,0.24015108223727258,-0.1951984756813509,-0.04184853222685622,-0.46093735066844593,0.015838737640498462,0.16396354190096823,-0.09683705046561583],[-0.18179338557932695,0.03554220969576692,-0.2217656681395807,-0.19512142119170614,0.06561372009965366,0.007854592135880646,0.09746528392109806,-0.18027905570590202,-0.23100515380805522,-0.22525581447021792,-0.027922765938754916,-0.23565599787478994,0.12168503892090468,0.027693079043185114,0.13448604019955063,-0.24926528992821265,-0.030335450646582218,-0.014331347370757986,-0.02943996248995897,-0.19264319273344088,0.10595346208947831,-0.1674747820517891,-0.20435542881261867,0.02431320793259674,0.18289534510612593,-0.22595946865821756,0.011326668935841878,-0.15274490749699798,0.03406618974128921,-0.08461294378510821,-0.06336172470255715,-0.18510875326813883,0.027642736028914486,0.03584944048815413,0.07531577924361998,0.07080734935901214,-0.13825187552180015,0.008256586897304337,-0.25284972209313417,0.03187692596835614,-0.10989192257912492,0.020904122746088445,-0.25747698640648226,-0.10285019958283277,-0.23387724678897345,0.16949241467792547,-0.03081272706917635,0.02489105590855121,-0.14215306011013643,0.2352067895426947,0.025601890028589026,0.20335793764849583,-0.0779910416739244,0.00478612389642524,-0.10093438730371138,0.16292126735647103,-0.09759886815300513,-0.11311454213784933,0.14907024732572263,-0.10059433597081423,-0.1890786154918158,-0.13770783547866677,-0.020966278009214016,0.1428590116047604],[0.16502422771615619,0.19133331891464658,-0.22588769426767,0.1921862230441051,0.16361442403398332,-0.11888553723301618,-0.31705363675378917,0.10109060797489151,0.21231884018323363,0.13812479539340594,-0.08740162518784415,-0.07542770671307215,0.26318772936828755,-0.15794657051578848,0.2375718952389146,-0.07086764293100065,-0.08782501420692171,0.06364766348235286,-0.011126123749914747,-0.022480466506649466,-0.2476391281763167,-0.01034778706426615,-0.23397152873337995,0.008637056375276113,-0.10825708550154005,-0.002008889403398776,-0.08419679063060174,0.15301598504661346,0.12526587030279743,-0.08339152280720752,-0.014918493166663296,-0.32755089661734604,-0.08483787017057196,-0.14965314442365316,0.07496263836850366,-0.13675787469091596,-0.02032621668599873,-0.11382787035784081,-0.11306850694912884,0.20971400383047378,0.11862603598592696,-0.1934528677987913,0.020205137410878496,0.04187719061838329,-0.10495106619855067,-0.11680108227729659,-0.19866125234345236,-0.09969843189636085,-0.2428506223028548,0.21213247311099073,0.1408966220428293,0.023026834206541058,0.126775202890871,-0.022511715728262455,0.22764986963176645,0.07351872625440184,0.15350036007861803,0.2366691888010257,0.019099924089218304,0.15486574552152418,0.07425008963227954,0.16055833931935698,0.06782566953615385,0.11045747322257007],[-0.018711314866437154,0.2538111410307535,-0.09838655824723629,0.2087901818029942,-0.28376246601226063,0.009476223482255238,-0.08042009587772014,0.11352446701371366,-0.08165945588672,0.1469891044677627,0.046865927301960424,-0.13373144081728353,0.3061176089940819,0.18752491515733094,-0.176176342956135,0.1580751711172618,-0.2338191772171632,0.003068402175143788,0.16305660498298968,0.13166939503718592,-0.12486837526900142,-0.1370698269619475,0.007829897499245909,0.20518767627242412,0.015866971782645897,0.27934373384094885,0.1277151390144773,0.18674586278037353,0.1916608981993797,0.021805952725969635,0.2089409907983485,0.05484894808847411,-0.061820534299401486,0.05472900128549228,-0.201060288984701,-0.22445709910175107,0.23058626042242344,0.06074977245470227,-0.03408572247780583,-0.11150250048625784,-0.16576169483693606,-0.17608769224197515,-0.08379727292131779,0.01569863489569376,0.12435216052918587,-0.14024283430535298,0.306870454293417,-0.06507484059415244,-0.18967588209277395,-0.22586869266999632,-0.30704393708437455,0.04111466127385947,-0.15792612429138816,-0.028135108034731633,-0.1463676087542438,0.20784384825016736,0.018003699621213478,-0.1376014769897807,0.015418968484256342,0.03316733318763302,-0.35077422580092893,0.20872670128591847,0.10006829388592432,-0.15348357692499223],[0.28206304697903833,0.11584821312207631,-0.11459078668280887,-0.16925232442638533,0.12358745161000918,-0.06295113448753777,-0.17941083263961735,-0.12910629941670565,-0.15471721028907373,0.16808192944551917,0.1932725525610146,0.09341521912466112,0.11977365953744816,0.2160338701724192,0.018618152412968932,-0.14558483648436196,0.007435081875087892,-0.15739886647037035,0.138254573100814,-0.10436337347296301,0.15921328675301133,-0.05377636260590568,-0.04292806532808305,-0.24387811889828043,0.012919422011644865,0.04271514188463482,0.30174726670698293,-0.035722103897640176,0.009109560900628831,0.10894596565757662,0.1361336415339048,-0.05373485008253391,-0.07936137391666438,-0.006757853452708454,0.06889909792619035,0.13380630850001615,0.21201326592300915,0.24704880894565262,-0.18201284381058336,0.18169558109453557,0.057931419337873345,0.1290873662925225,-0.22118255224268096,0.04733968248734259,0.037942463278357354,-0.058604071987422436,0.1395745323694343,0.1730224422741953,0.1299918857970274,0.026565188239994337,0.06034987998271436,-0.11397999656769062,-0.13138540620435585,0.01641268908153842,-0.08838223928463433,0.2398989310334766,0.046058534684650654,0.2469037895496644,-0.15472874480664714,0.09665197468343557,-0.24531275546126463,0.12443480298923962,0.10656444483853471,0.05986529344643943],[-0.027919869536900916,-0.009838759386855436,-0.020513860585656723,0.0380025597568616,-0.03584954689431467,-0.1996652346488981,0.03182783872105364,0.0576154993413568,0.10957581560913565,-0.1886488340221146,-0.07987689470457089,0.17809881725525656,-0.19715938912725728,0.2380848039788648,-0.13629768577816684,0.08158769372836651,0.22577898784383965,0.022580017993126908,-0.11075509365769527,0.1646845551273539,0.1977685008654656,-0.0366535551477053,-0.10973312693789176,-0.26241640778504804,0.15067279232020003,-0.1577509287224496,0.168904376920103,0.16299940733037238,0.211833972355019,0.05225112408850039,0.1298465484584528,-0.2162015033186665,-0.21361307796561665,-0.10193817444078525,-0.0819401752262212,-0.20924194302831386,0.0035146303430510267,0.17496570398818903,-0.15792977891797103,0.2474973623810459,-0.11853498935335507,-0.15579660266114495,0.09316918981927592,-0.0034138119381013736,-0.2132064183669366,0.13794062284006237,-0.02701660405906229,0.3221185681251014,-0.1301781669159738,0.09134993393948009,-0.1198289742738379,0.10534551916395737,0.18055762815140994,-0.10502098198877698,-0.08004238881239276,0.23833242798580387,0.09900954753206272,0.0783533977465693,-0.17622576597372167,0.08124101538718342,-0.07886786696164934,0.04273719100569284,0.10124157482497563,0.16855217110908652],[-0.20586562773960285,0.18618186349251578,-0.057196152030228826,0.15938057943354025,0.12683109241956764,0.07880948914951875,0.19490154310425845,0.131803951295408,-0.005883562827792902,-0.07155643325515879,0.112341712733236,0.19356786241365778,0.053621555655701515,0.23334876644434244,-0.23378639291653627,0.013701427429722147,0.05274031519440316,-0.10131418818659828,0.18711883923107353,-0.056464264502704316,-0.06643430417650452,-0.009810210821496083,-0.006674015611455505,0.2531363039530557,0.08417278954786248,0.11080453721570725,-0.04733822016291289,-0.20279125525331787,-0.034714294693705045,0.16246871939545,0.025431725780900565,-0.036638306444915,-0.12799770937166685,0.20724356353266077,-0.022505161270042297,-0.15298227720601876,-0.17929944262905118,-0.12423544680806788,-0.14081745274731464,-0.01462384431050753,0.2406045741351092,0.03157687239204593,-0.14227150504863476,0.15207615227227678,-0.011443559242774444,-0.20787788443372274,-0.2424616086677961,-0.0823884208475597,-0.2526262880515846,0.11267801842092304,0.06028240144780275,0.20546184165901946,-0.032071832478380975,-0.08637684673014803,0.07819260425157093,-0.06542744941645091,0.2514944917517885,-0.16299442805480763,0.06686241724265754,-0.17377540763023222,-0.13251184600808377,0.13473047410717917,-0.20230783505198885,0.135927139098703],[-0.034146778813973426,-0.22329210424051896,0.20518246552571073,0.21637600685625902,0.11343071239273045,-0.034495335440563456,-0.2594634954407566,-0.143332234755524,-0.06168265728788741,0.08859440086401767,0.030702546350579396,0.32646063733369457,-0.0063500973439423606,-0.11323818904238502,0.1242717398424932,-0.2198160027749843,-0.18814315884430344,-0.13751235062526526,-0.13410889093709366,-0.05464752709072742,0.072721182719669,-0.12061613156303934,0.02252732563338823,0.16742855355931008,0.19088000788037335,0.15011062341458484,-0.16297835859153523,0.2088871314992574,-0.1845957482784927,-0.04683336844411971,0.1009517054268307,-0.030423390128737918,-0.2455219365641185,0.20711667357065433,-0.02780891263643198,-0.2673596936856204,-0.05064878031594862,-0.1636150210796692,-0.1602495361414718,0.24220110768824687,-0.0755142195511786,-0.03106222221955752,0.002672166847738481,0.19864500739889154,-0.12410393380415828,-0.17463800178070887,-0.22972434167664046,-0.03621133305306723,-0.13934662520775748,-0.18015875759878852,0.22568797419192216,0.02106031301221824,-0.11212690164077921,0.07440051451329133,-0.2839445161540013,0.23740457536670032,-0.08200588509188893,0.04544807726448329,-0.10206973753061162,0.04422775734056469,0.02389362613612899,-0.007483444880503036,0.14923077291177578,-0.17418805208626212],[-0.05024483090446114,0.08112240347343748,0.24645802075091702,-0.33934249644665393,0.0013128846784998711,0.2075312930153165,-0.10705976991854126,0.09354630166736344,0.045295239390196744,-0.2465126029513294,0.19987470894517542,0.07006706621577223,0.23252355674599393,0.011843707178277567,0.09905153264369282,0.10893959089482158,0.18772732603074738,0.0548894040784173,-0.011611068397202546,-0.22336171202107638,0.2030751101388987,-0.15033513431196965,-0.1399744465756257,0.11178209532664621,-0.012280941902869429,-0.08566942194872647,0.16946348845328146,-0.26359112997465456,-0.14260649430239922,0.18934595615022545,-0.050174718028394766,0.08465741104268044,-0.11584644454357095,0.03565813401461118,-0.14226643222234694,0.19690804821678068,0.05117473909523484,0.20959403957532985,-0.09900406444696946,-0.10435158027646747,0.056159914963772754,-0.17636751858927466,0.07030795302700964,0.15620229343371012,0.052019274784348556,-0.10767059821378237,-0.10800874003423097,0.30106300852143164,-0.25837535957897734,-0.004577329722668428,-0.10531650932637239,0.05063004524242294,0.1526118994825667,-0.10356843847618931,0.16429130707451833,-0.19727700098084283,0.015676244919324487,-0.06863598736289818,0.10168871366927654,0.04993734709106529,0.05798483716068503,-0.023897584068931336,-0.12973235473557876,0.03522922919098237],[0.058453041589453865,-0.06603407811968513,-0.22914159457244795,0.12397160384454127,-0.1990921084757186,0.006594618160603311,0.065194479252342,-0.23076418751336933,-0.18615689880475705,0.14805373798944005,0.17090275821930778,0.10934613537903103,0.1540849531698201,0.003904221864828974,-0.08499060292251925,0.08925047299926825,-0.10894778203411017,0.19093591197435394,-0.20220633023567425,0.007036020777951292,0.06374108418430288,-0.15615942354047682,-0.03975008888271525,-0.08378027614576687,0.12877190570131916,0.1301055979605321,-0.0829479465312664,-0.1081429050512083,0.06991383329723487,-0.15537187324463594,-0.016517337508957595,0.016749450409136755,0.20979067516052952,-0.07611916370398665,0.20749877816975426,0.12213536620167964,0.17327057441602578,0.20396889866372966,-0.21128349997663032,-0.11895456565984258,-0.11770094650380962,0.13833978346264367,-0.1404963865251169,0.18472035003811263,-0.09700482074807311,0.035538454222698884,-0.02614769607119073,0.20180550171054723,0.16814700399457636,-0.18342238429999405,-0.04614099354068303,0.17134115914915676,-0.1387304166557757,0.18872482999302692,-0.012245592141109048,0.05895047487488668,-0.16808469559141032,0.0919804733372296,0.29276490663403304,-0.05540762164678271,0.2371698892420008,-0.2018158478492038,-0.06014175876245964,0.14834982670681293],[0.040301649605442795,-0.14067186361143588,0.1614989790376773,0.13649615540440532,-0.08118682641974623,-0.005732328415489421,0.18210056207857855,0.21011436620873833,-0.20060637896394717,0.19487031656116455,-0.10817097004903296,-0.090842080330848,0.07703518004241766,0.04594252574016335,0.1471697352729004,-0.1948353387261004,0.07431352182947096,0.17004802718577483,-0.24613476261130124,0.1671265129650407,0.06238514879898183,-0.11155342101809021,-0.01776945766647039,0.014937627173971716,0.12557539725117733,0.1205353647926437,-0.10595365490621403,0.002375415494212392,-0.06352400344715728,-0.1216570407309361,0.001160087074251784,0.2602653578448818,-0.25682676927572134,0.1467707101247999,0.2057647308444251,-0.25356739127247074,-0.13663577719223965,-0.09750998115892266,0.07132417155417102,0.20210577478496267,0.18546038407689427,0.06354333249177176,0.007867680230706595,0.08309424052341492,0.10840356374421095,-0.012805487402144064,0.07413281357582513,0.042531849064363844,-0.18324459352315828,-0.15773606300558315,0.09741951035832243,-0.27823431116472847,0.003623203840983035,0.2705228951813894,-0.2926778822022579,0.02445703848017487,-0.21906623721713542,0.09687723117323076,-0.07294157645152545,-0.2907039497301294,-0.2854644257614672,0.08412102731548957,0.23873335571504667,0.08977234738529606],[0.18694392704669177,0.21577864541344963,-0.17508736211270012,0.16221138045102523,-0.19791902455427152,0.10851659556136493,-0.014332093332177396,0.008393393613704418,0.03423126010566573,-0.03744777347126103,-0.2736203828723134,-0.23142484175568437,0.07291526422316157,-0.10240590847529715,-0.18006052755125282,-0.033406093534543414,0.03366623625671306,-0.08462756848185563,0.05875876193482514,-0.1329763096131319,0.01062029137851439,0.07816858317629109,-0.0019674618812986636,0.1931606719336727,0.10330836698608034,-0.196585655369888,-0.11470700275719686,-0.13353576602763165,-0.16085649349583286,0.15367455410502384,-0.16061909665969387,-0.26288776532833974,-0.11569932695710289,0.16045437440503102,0.008384289398661319,-0.16967271939106374,-0.08864265291018147,-0.009257796070714504,-0.09276488131666882,0.24778771791218426,0.13162253829464593,0.04317982508139677,-0.24739145600116755,-0.05193377784136383,-0.04087485935342116,0.16986905255548176,-0.24131996200160447,0.23246836371526008,0.23360973130082363,0.006621361437542673,-0.1300826632829283,0.15772043207293948,0.04827752843417019,-0.05203534671121045,0.12728896513014812,-0.17491444949053367,0.09643027739169045,-0.19424821001941026,0.0488950738215757,0.14714996718188364,0.16656721228668503,-0.19621519477802296,0.11834962614847404,0.12282901916952438],[-0.14384350452742914,-0.10587848740314407,-0.03930895081437336,-0.027747028973615875,0.030697916902574476,-0.05055426373557538,0.20064841733422123,-0.10991539817144545,-0.12823490531279744,-0.06208815595851875,0.038781362843817405,-0.06862669832250237,-0.0655476709511257,-0.21236626750323356,-0.1651636084493872,-0.0706440644211237,0.19796650521215783,0.026988659147667286,0.17126009723641153,0.1659762533770064,-0.13981783341222961,0.07935840160300245,0.029608846243041158,0.17750763405943085,-0.27544599704048905,0.18873852123023002,-0.025656883490982694,0.07584938608346879,-0.1951237931926943,-0.11537028578956085,0.16990564278221634,0.04915038102532486,0.10115844067629884,-0.1568015797115613,-0.16094060814131553,0.09687857133067702,0.04591201130132582,-0.19653397265697672,-0.17817738404294478,-0.1552289680970989,-0.17856691397447153,-0.10383830218381869,-0.2971173435101639,-0.28908803762439744,-0.12665124630558072,-0.12422748265080015,-0.23862949842616074,-0.17770822331244454,-0.17275391877459098,0.03589346876249281,-0.1882344441857005,0.04232012642363968,0.20144147155044434,0.1242458174961326,0.22737855266959986,-0.012363430469152798,0.21358121050490572,-0.05952141870863977,-0.10283627526157196,-0.15292513729886983,-0.1316529657259689,-0.05306320817370214,-0.05798949240328999,-0.13919152754935435],[0.27233602059847667,0.10919494901991114,-0.1573758515601342,-0.03770815661404286,0.2482080982235794,0.21257943827801784,-0.11137498977168649,-0.14360932882333666,-0.11155705089767208,-0.03548073880171096,-0.1252379707885761,0.08652086722310329,-0.10204352516732745,-0.0662071634685379,0.2139613062472038,0.17160707434764558,0.2381732180975041,0.18666989635717923,0.0451760188298094,0.19256309018202591,0.023605117611661387,0.04246208080370426,-0.12625180335607222,-0.274331919285236,-0.2104039223576861,-0.05691893198475763,0.2598148986756707,0.053689172010492524,-0.09976221012425107,0.11428630861358854,-0.017075270830304707,0.16098883786609727,-0.19586975129583314,0.13694626076427385,0.27056347860337815,-0.20927245866048985,0.02791937179500823,0.14981510800228837,0.04786825937136739,0.21587296098429,0.21688391313559674,-0.1262178492865475,0.1504168484718459,-0.16379224090521755,0.11704716878674257,0.033580147029794,-0.023528017464285532,0.26723057056009236,-0.12838126430048402,-0.13509854613388508,0.23386327422187522,-0.04341306582963848,-0.13425508472067202,-0.193201709159667,-0.0756386964542534,-0.19454517710628202,0.04568603790864712,0.25194309694522404,-0.2969381399005299,-0.17873052119257513,0.10931920306647293,0.14492298584879715,-0.007849081025045616,-0.11120458902008978],[0.18728186014834258,0.12818403947712856,-0.08971797591153782,0.2481679504742574,0.19692891396568812,0.17454571146609646,-0.1583335778962582,-0.0525626553150922,0.15487862507155933,-0.2710909933504572,-0.24172125751801918,-0.13412097893922173,0.24573023416830317,-0.035469419772386844,-0.009159067588585658,-0.08674431862965304,-0.17253610976601563,-0.06544471273083287,0.13099564190572308,-0.24330159004289204,-0.11537777842448643,-0.20569779295741286,0.1407736884725637,0.1522001188827779,-0.07282578994699282,0.2618158330760009,0.25252647372879433,0.05345380869907609,0.16274054739074018,-0.05020348044367182,-0.12490823503910153,-0.11982255272345355,-0.09215276273493328,0.10742607359103218,0.13817228718115296,0.05723453716343684,-0.17511021238233404,-0.03998231705279504,-0.17981130472546175,-0.1303145462298728,-0.24726443907310983,-0.19776574429740523,-0.02508687236859951,-0.20317451451611876,-0.12505255991357211,0.11162076193804042,-0.0929412888977127,0.11689318682020572,0.22647117657318638,-0.04304628569105049,0.04134330886577933,-0.011588635657127524,-0.16883475898085265,0.14228772988574775,-0.007089752858491298,0.010611367519626607,-0.199531753870597,-0.024414296918816004,0.0805035450260549,-0.05017191913329564,-0.11347203694229199,0.16865868477520124,-0.08632946032565864,-0.13299750172260338],[0.07076306985339963,0.014185956615777214,0.11978080153794851,0.14797440004128345,-0.01962355303176979,0.09389107646927346,-0.01791267873532078,0.142963860433286,-0.14479820086320805,-0.09850106628251133,0.23084297272566576,0.1723156339967168,-0.1411615922314141,0.15375502480269568,0.07008882191363744,0.15947808104259395,-0.1685858735121692,-0.009475035279947043,0.19585048200758443,0.11591809179446629,-0.25141656814801255,0.03587535910303607,-0.28590783560795135,-0.321849821773413,-0.1859363977462612,-0.17373141205967152,-0.020383765461726287,-0.03620283138994374,0.1845843058891334,-0.1207705475387436,-0.1095457627978328,-0.1841954607770351,0.13176444398478668,-0.16571653513474008,0.13930491183231014,-0.19410799661706937,-0.15504886699499493,0.21225950646043085,-0.19419257751616792,0.2861450628614772,0.09849487602741434,-0.11882014715561409,0.19345285454811995,-0.07761837925758512,-0.1925923386704926,0.0597459619663345,-0.203554774210299,-0.01624684104733695,-0.034257329764105136,-0.025747491600052637,0.1386232674804992,0.18007281459993493,0.23483013767942112,0.2443036686033663,0.06580347059859279,0.2106086103779719,-0.22962281024398729,0.19466074228927976,-0.091802281540395,0.2305166474809628,-0.053285831136430754,0.035294897662953656,-0.0251671508160937,0.061146396182106245],[0.010954581320700546,-0.19087240632089644,-0.04883771590722154,0.004465726418415232,0.012638158303083824,0.26433964865968756,0.09594470752831401,-0.17668754331221273,-0.11303919539873859,0.2159808304707936,0.21329770005449952,0.16560091473606178,-0.21226863564280177,-0.162437643194677,-0.23670750678556104,0.028751480682009518,0.12685048595398113,-0.24762836395310034,0.11909598733796428,0.03919384763731494,0.01525882134333135,-0.11878683260786482,-0.1947431896176804,0.24722996317654175,-0.06359653966278996,-0.034928486922769474,-0.07972377853622258,0.015153394331988895,0.04278306262506125,-0.15566853621069832,0.14698433743597775,0.14337542904096903,0.1293498439432577,0.10232029070981431,-0.041678374994297385,0.011282939616385575,-0.050930610445256486,-0.004219913759473259,-0.23179118481885463,0.1730823366127636,-0.013394694168580606,0.12174168838531672,0.004100801222974298,0.17346839709490253,-0.21566774151511342,-0.2311831913432805,-0.05559332555476181,0.017685828336456558,-0.12468135924056664,-0.19439268970642673,0.17798757306981605,0.09278221686092529,0.03928023741142202,0.039218668657606225,0.1616970604294954,-0.18500368379647414,-0.08048456488268216,-0.19670431476848277,-0.22028322059599983,-0.19414640771734176,-0.23002135185265496,-0.12641302435992668,-0.045714385602185305,-0.023898977520806],[0.14980205642785613,0.15439859245676435,0.17411930902157083,-0.0730213984070683,-0.06110551437140305,-0.15089288106309715,0.05349652332513027,-0.008451795313219613,0.008759779544128094,0.18640172451689668,-0.02808612363260858,-0.1693704578004491,-0.10095778312404664,-0.07838473013915627,-0.23289065183149119,-0.09842403445290535,0.14600992933642132,0.09559035255487576,0.21780354873687652,-0.16395361884380086,0.07754433515600363,-0.29276539067326107,-0.13054362374650533,-0.06271379425060425,-0.05367359790473456,-0.19348938694035483,0.08978038630406726,0.22425476953809906,-0.38843947964263814,0.20714635109286475,0.13387227535154506,-0.030971633903625496,-0.016065577615716687,-0.1400259431142932,-0.05360714116493597,0.23633827700273127,0.16264879920840172,-0.20048094562484883,0.018769968245903972,0.24501387766451516,0.20043174728755345,0.22100861080807158,-0.06146274718829643,0.01894269261597866,0.16107268800208072,-0.1648502801410754,-0.3322111226233372,0.33433711454780807,0.05197051206432171,-0.22528983270522396,0.08371899448685811,0.004323685695866547,-0.04234018249442644,-0.09848081164154009,-0.1267864912607287,-0.10291349718049617,-0.048968878665582034,0.23752986366776027,-0.04001383676054883,-0.1453058874535308,0.12762216778182003,-0.012310538208472069,0.09812619957237201,-0.22898668448150017],[-0.04344934610099984,-0.09098127946534641,0.11662123448587766,0.1693553498855799,0.03133880805788892,-0.0015887819635915495,-0.02712015896646956,0.2080571992002186,-0.06841042201159565,-0.11892936185027744,-0.07212335257601103,-0.0895837866184162,0.1319613546810005,0.13670880991642512,-0.19793791203719838,0.13587144375130472,0.021198825080051033,0.20679800183938002,0.16472886639816556,-0.08695498804239281,0.03216425400789103,-0.13492512828409822,0.14313505728449474,0.21449157834940263,0.2021630412089168,-0.27146891386987865,-0.21884428123163413,0.19380871445303155,-0.22051785859272038,0.02407218093134805,-0.01633865353459514,0.20958390294048065,-0.16341048196879365,-0.253825561476755,0.16130371360875387,-0.12752109368535391,0.16463352871339704,-0.04174986572904545,0.12350731827606183,0.07983087591532957,-0.021259782089930793,0.0345999194616108,-0.12422641135542636,0.05966345320535666,-0.023361092549871336,0.00856383806151343,-0.02481074048693292,0.19005782922028677,-0.21067010677837178,0.033502744922211856,0.012070771581552259,0.05057266633384614,0.1457961385309032,-0.19407818036968832,0.2153016526179313,0.07267186910050773,-0.2391701490200888,0.09475290498727894,-0.22917956866669797,0.0688743692262511,-0.16958663980805783,0.06468041569498917,-0.05795490535985347,-0.1439214602344438],[-0.18086655468319363,0.25421290433524996,0.18007930376246392,0.01450875480147086,-0.1055938057108417,0.12976349791744907,0.253793617109056,0.0351858269227548,-0.1648629219577034,0.253928807387879,-0.11957278408227409,0.17669462488706858,0.1143075009210095,0.12318824119074476,0.17756574171935524,0.1279915934886976,0.05774092943683935,-0.07683739919352443,-0.14331409683160468,0.009846081037116764,0.2585211104655752,-0.1305754243089218,-0.13301434419991526,-0.032453899861639324,0.06480956866312068,-0.09240557223766512,-0.1495240434203741,0.09856195324710726,-0.10393313545132653,-0.1703276601835546,-0.24149680347162192,0.06931222774789605,0.157579852996015,0.22165766681510013,-0.03083292713973934,0.13129090689352305,0.1966848082090667,0.10488971325541574,0.05377635477729026,-0.1335915446142345,-0.2042731219750604,0.08907659796473068,-0.18690072409568126,-0.11801373641559285,0.03522727565540814,-0.19322326538632628,-0.06097132206744415,0.0440596363084425,0.1837756907143298,0.2752717111573637,-0.013009006254838239,0.18842176405412728,-0.0619117320782683,0.2268890045994402,0.19063782204481877,-0.06093049848798087,0.19456266744159023,0.17007974017577424,0.10438822258681014,-0.023507363809983545,0.23041775362984018,-0.13777809408987204,0.17929774366261136,-0.15324034189097707],[0.14040084665711292,0.16847244224500962,-0.10446389902847922,-0.23794719487015228,0.08772158152162865,0.13606869175293293,-0.4280423383840131,-0.1361104883869915,0.21403919344912067,-0.043044156953149226,0.003926195496031277,-0.10588693878815626,0.2623015736590875,0.21145599793822384,-0.1748381553627418,0.01185727971302468,-0.22747330242695787,0.1032431235581631,0.18777007969975149,-0.28950887951612236,0.036313214591359826,-0.06613041539528804,-0.13142844454317132,-0.11851172800469108,0.1141183712550445,-0.06762382336405799,0.15949677412759952,0.12248000986615278,-0.4009138640253075,-0.060452526722255144,0.2747475021427042,0.15191530107116652,-0.4510069889632996,-0.005506336052487278,0.02173852006402877,0.07403861799394901,-0.0328767731551586,0.11746462663522608,-0.36456792533784776,-0.051113146198791655,-0.11087830777085841,-0.16230573621949762,-0.12075358384556244,-0.14471341880947294,-0.2060799468204437,0.21416626637691852,-0.5041862661285322,0.19644081061628332,0.14075407169251983,-0.056533442046894096,0.19570631066007346,0.0032115994909491003,-0.05001909877295536,-0.05146565009059103,-0.29847536028218685,-0.08581917015575333,0.0062177670939394915,0.11313652783360162,-0.052246123767857165,-0.12715658591735826,0.2556292288074669,0.21009864604101267,0.10914762880643304,0.020627791273555976],[-0.2341711042660311,0.09986990250764545,0.1528538460164173,-0.0313613729023479,-0.1204041963189905,0.21332702087272246,-0.167037747944967,-0.06668559252870081,-0.09782307818124576,-0.11240736820051142,0.1908468927995421,0.028558231851893028,-0.20511302260845982,0.019715642101753295,0.10741764679360381,0.08962466590443158,-0.11683603598616465,0.1361141228827646,0.007834293973734002,-0.20228679035335695,-0.2572187419048583,0.13896671144633693,0.12968017901243242,-0.10093437650368185,0.22472494266067075,-0.1186314236728687,-0.18567875944911624,0.08139671008859554,0.24530301538481158,-0.19100243099787562,-0.07412690963630786,-0.25584896650400285,-0.15727949405336447,0.0843353331871332,0.032169964478890284,-0.18590188254547496,-0.04776925513815071,0.13653973318027812,0.16867446860339047,0.03758781437443241,0.2482572015734394,-0.19326557038539705,0.012319211592443617,-0.28299819109345203,-0.22905197406930408,0.07021624107993144,-0.01213092195025879,-0.13203216494657793,-0.13406776308039464,-0.26248312932397844,-0.12458809013283215,-0.09279128467954131,-0.07007143825778928,-0.08153446461440719,0.09539310110006062,-0.1878873498181761,0.2834080870007186,0.15216984672973535,-0.009306162794067376,-0.20402202737921452,-0.13430540314241746,0.09620818568063759,0.003324550085202865,-0.009359257403985436],[0.16169723557413404,-0.08651695026291534,-0.16980001234658793,0.15985556412482227,0.225217837960261,-0.07442938858062935,-0.09056806278884266,0.3147182591394107,-0.04257909857593834,-0.21268359650460417,0.06979531036913433,0.009993600508306357,0.22653835443512943,0.13938160044773773,-0.1375624606743722,0.1403837226595502,-0.2178696103134846,0.07714676821445235,-0.06581829633435077,-0.18467882436910418,-0.22518462903881684,-0.004790972486970868,-0.2481018522445861,0.1026320307743107,-0.09579273032589826,0.16884272335114217,-0.212521731171898,-0.17506621139581774,-0.05871026136554121,0.12499526078167406,0.1745521831017431,-0.1965754522728534,0.18699898750545893,-0.13213829392835594,0.038502842963105924,0.021024434516440017,-0.3214791002524339,0.08620263277273706,-0.026696810310381815,0.14227818626998287,-0.11603883522076891,0.06697423845873067,0.09730518355816144,0.1474420698785609,-0.1007819148741355,0.02592268834233698,-0.2601623232482561,0.19254053505323443,0.11215866947089623,0.19256593550992948,-0.25590757797896063,0.03029821067267016,-0.054548883652422775,-0.07412099660960408,-0.2293237896146561,-0.05242376694963121,0.16634149857899966,0.2667336577645161,0.17966873488579493,0.18479791501350334,-0.02518155091363297,-0.03216716929006113,-0.09996731942939395,-0.13650932067140845],[0.22799228575740071,0.1193949368728651,-0.051937346558724756,-0.03788055620946822,0.08522073128135035,-0.11368587208915991,-0.15533075551521672,-0.0026142149380634526,0.08244233628235707,0.19200819142744463,0.22855586678677878,0.11915482226386283,-0.09643063156702751,0.0002870259491761274,0.20897818839397023,0.15655548290294438,0.025121631188696664,-0.06843594557222496,-0.24972138525573898,-0.07351182933814936,-0.22783844916254692,0.1187090412522841,-0.0846646979550279,-0.16896471839677352,-0.2638143677901106,0.05011742808315164,-0.01975701384299005,0.05602659533456989,-0.1262620965386591,-0.1279229441431147,0.11953410271587551,0.06315930421906962,-0.10385936328671351,-0.10377118794275254,-0.16212430266806607,0.1437023490134487,0.1727985896342001,0.08784850762387743,0.12689902341669795,0.15653874957699018,-0.17938515088038837,-0.27344722435653535,0.004759355909020669,-0.12895885702251395,-0.010961777850447963,0.09358281700224948,-0.13805016665360295,0.04240794584183482,0.26494218482016657,-0.05355569507011009,-0.16292959029109771,0.11107851540831477,-0.16182956387751923,-0.026845801262425594,-0.07754939912995426,-0.12575960195768324,-0.023606659577389697,0.13912060881075786,0.16097056200671706,0.04936459918266114,-0.18301855097514563,0.17315418917431502,-0.01617115719385508,0.1361986852849916],[-0.02455247916893697,0.22072529633776986,0.004738616550639592,-0.25866626032615275,-0.25083459867899205,0.17054744751301873,0.04752718142988167,-0.19190817305571087,-0.1977151777259462,0.22210610575879505,-0.15069607134275714,-0.2725252659469932,-0.043237216218419174,-0.16475841983316053,-0.03815876992121019,0.1336711639250383,-0.07641670802847006,0.08679765009570066,-0.17524779882571018,0.09654434742287883,-0.18046788378087683,0.22623036314262268,0.10061020628185521,0.15483452862131766,-0.12484143669078283,-0.06463410370786311,0.09662825428895279,0.18950659168423034,-0.00013030057248009748,0.012743601322337534,0.19932183374779572,-0.04858111613931809,-0.14312091947810518,0.15085431605777078,-0.028177595398918905,0.20120140471781744,0.04905903429968916,0.040546417939237606,-0.3209724677635284,-0.18833051465037529,0.1325063750249929,0.014996937173051849,0.1071253869221869,0.0008417409967411708,0.07571342882127972,-0.20710122946991014,-0.08145091993274038,-0.07445594977089437,-0.014713985406409249,-0.24558828286893086,0.2630812777740485,0.013409076091821728,0.05459239822315173,0.10275449368784152,0.008362989756280997,-0.19577132299359715,0.04278454508448613,0.008751264762048624,0.07443467961060839,-0.142573411936747,0.13784312361126813,-0.1603138961793268,-0.27811161030612247,0.007036806240162716],[-0.1797953596741679,0.033721120994332096,-0.08008059257458457,0.07120801314690335,-0.18243199889693812,0.1717934457212702,0.12840785753123465,0.2271172757907969,-0.08965700946619005,-0.061137314596920365,0.12747929944678893,-0.19481882073598691,-0.015491351761930821,0.19795773387619944,-0.04402287097973516,-0.1502188558221239,-0.2615079633004133,-0.02472026295499874,0.13810934796488214,0.18823101333226416,0.08041412795732548,0.10967894166607313,-0.09485096449284124,0.06870881321449697,0.18841084867934305,0.27085495933578785,-0.13586097819744442,0.09150603628288972,0.2051939941093862,-0.1700982994013352,0.14968024831918145,0.19952983428321427,-0.06877627175468518,-0.11842156068378074,-0.16818349154683399,0.21205069922703906,0.1442651168282006,0.04055365003882255,-0.07132024703517423,0.02016774239071772,-0.21081763879180448,0.21099203112637252,-0.15912298247526932,-0.1562456466728054,0.020149949227281937,0.15726614635081107,0.1809850426818617,0.07030629491940633,0.06686648515978154,0.08470585282306958,-0.23915824476835365,-0.12054516020154354,-0.03156147829331548,0.2505647448096245,0.0835238011050543,-0.13605937350147115,-0.07225277748419034,-0.06019684246456787,0.08178500647072198,-0.16340311900507146,0.0035800350085424966,0.03676828324587433,-0.12484209997945021,0.03355223115915974],[0.2851960741678276,-0.03045856583579059,-0.14677787952182536,0.22190579929181542,0.26170042758646417,-0.1715812357738061,-0.1820069188617304,-0.030474354822442838,0.22285340459529382,0.09521280238679243,0.23142668471282843,0.007342427971756076,-0.215760083592926,0.027265579843740225,-0.16100275950258824,0.1417319212267573,-0.1269396815652776,-0.24034575691875218,-0.10594247787494371,-0.19916239444541736,0.13567724930163919,0.020821339013421456,-0.1139454735487696,0.20898670921312051,0.1798972277318819,0.023718851840761914,-0.10679824750067361,0.2551159797781417,0.09395849304468536,0.2062999329500714,-0.104279441880225,-0.06314822002604428,-0.0715663527331818,-0.2527706830335785,-0.06938324936532782,-0.19493634046450345,0.03046407439235378,0.057270411846131915,-0.1975251344868114,0.002820440934772377,-0.23159448779802108,0.16746190595533847,0.007133357993523992,-0.21512726275348024,0.13213634727186777,-0.029836064735933664,0.1479205685337509,0.15522150734123957,0.10489236176752743,-0.16250247762804002,0.165682399839246,-0.10224707444807062,0.19817320461236412,0.08258650812501316,0.17980712485999037,-0.18776486047592128,-0.14165018355718798,-0.200198168803416,-0.15952321845571446,0.11941476228758577,-0.09899557926064441,0.18634517967731035,0.13678969189596707,0.190733644216816],[-0.09083520013967204,-0.25069174543957473,0.0699415530048734,0.1352137411580001,-0.16149137552898904,0.03858123971747658,0.10442975597832714,-0.10790925182672013,-0.11420093249884286,-0.09265746873464395,-0.1067970599536353,0.03793863843218158,-0.13157185769863508,-0.2861511279912441,-0.08860651493250311,-0.27028309726815397,0.07352879673909651,0.16860327319696705,0.2963014702845999,0.1059650007118338,0.20601644690840723,0.07690233222946145,-0.019714652389059326,0.22220394315400843,-0.09028393176588063,-0.10158121935370537,-0.02334865724350455,-0.12891428017760034,0.20109212325194983,-0.1181818548214916,-0.08457502806172952,0.08392187872982608,-0.023543441119005366,-0.01250300827130393,-0.09653344468280234,-0.05866463643614248,0.26070421555213713,0.19631916531409715,0.18169834908367852,-0.15095074679985934,-0.09379962257734745,-0.05522571677476388,0.1521984656010627,-0.093820588373505,-0.07157933297498259,-0.17250387159725952,0.003989956320666657,-0.09374274049249172,-0.12843723629018075,-0.009726610476004966,0.2711359981198181,0.07175112518255651,0.14917791221638063,0.2352800393180515,-0.1108560571561657,-0.002243874609674892,-0.18058194692138763,0.052540573782963264,-0.2309306523076416,-0.04175564758511494,0.182897984679221,0.060723956990539764,0.07309691347304008,-0.0515389537515356]],"b":[0.19928995934433752,0.06581842865559769,-0.016875764797529395,-0.09847507629992035,0.23548473342773515,0.002083985981389582,-0.09040215737704595,0.012240817160294936,-0.10526255534926517,-0.13520805245035117,-0.16443922592390176,0.1425083377634778,0.10753381290111105,-0.11550340013002573,-0.05578807862429967,0.1244678486995653,-0.28046277691844185,-0.044663590733970644,-0.13104410102655828,0.07072404386540944,0.16564985116634506,-0.22409815581299292,0.2013765219714659,0.04569420629272779,0.05350189292370432,0.2468703208250754,-0.22669464706640513,-0.11910583889666668,-0.15761944314897514,0.00810881686674112,0.030466263284987808,0.119354333098324]},{"w":[[-0.42088962706749816,0.3402174292413957,0.2021060377317979,-0.19709748495475604,0.1358326338891466,0.1348465657468932,0.39029697897000365,0.1232680181979485,0.37207115285533005,0.016730297732955354,-0.43112106993384686,0.3038761145942662,-0.15026160803925606,-0.07238951660892944,-0.2161176719270835,0.34605438744726036,-0.3577273640490796,0.187413881606143,-0.3814000870928148,0.2513251462437524,-0.34690729383934266,0.3706985470005327,0.33402017369685827,-0.06842279227309382,0.49055617740148405,0.39350651769893036,-0.4594051718296423,0.42223646821202004,-0.001218974263700176,-0.36683530013645427,0.01915516237787231,0.012917240655724896],[-0.0985082367499119,-0.024391646823748964,-0.34939291655057514,0.18283033122786127,-0.0749757655086352,0.2449855604233884,0.028129204084767594,-0.13504114140645546,0.02161170884381048,0.35612139008239724,-0.17405164909951393,0.052185714206422006,0.04486592085684664,-0.17288475376346696,-0.21276829367767075,0.3717085172586392,0.16912639931783205,0.1926809888231242,-0.20397578197794947,0.04429255045864751,-0.03796459091930615,0.4253789427480035,0.03066668323994262,-0.23973291504517746,0.5736723607625643,-0.17106778937053563,0.1054529833912421,0.4094682907760511,0.10246103081682066,-0.2328008559555669,0.2995043726008329,0.12110029227511195]],"b":[-0.3722087238435795,0.3806119066347239]}],"target_mean":[5.094464690364049,5.4629859124649265],"target_std":[1.2550789276798135,1.0105335044116035],"flops_ood_cap":14195813614.0,"n_records":594}