{"input_spec":[{"kind":"feat","name":"n","log":true,"mean":8.560154405690174,"std":1.927821006969712},{"kind":"feat","name":"nnz","log":true,"mean":10.647445507333993,"std":2.317140682535169},{"kind":"feat","name":"deg_mean","log":true,"mean":2.262947041588553,"std":0.9777927041403114},{"kind":"feat","name":"deg_max","log":true,"mean":2.8447865966132806,"std":1.4075289057655327},{"kind":"feat","name":"deg_cv","log":false,"mean":0.4946472077919034,"std":2.6077827148015014},{"kind":"feat","name":"bandwidth_max","log":true,"mean":5.910009778819664,"std":2.653032164639627},{"kind":"feat","name":"bandwidth_mean_rel","log":false,"mean":0.06875421966922335,"std":0.10972326659497361},{"kind":"feat","name":"diag_dominant_frac","log":false,"mean":0.5837007610956227,"std":0.3736902916781009},{"kind":"feat","name":"diag_present_frac","log":false,"mean":0.9962876992796249,"std":0.038545381442972426},{"kind":"feat","name":"n_supernodes","log":true,"mean":4.919196631351127,"std":1.5967963997711347},{"kind":"feat","name":"fill_nnz","log":true,"mean":12.572483524889083,"std":2.9068576821537317},{"kind":"feat","name":"fill_ratio","log":true,"mean":2.13466156569161,"std":0.9612770860097314},{"kind":"feat","name":"supernode_cols_mean","log":true,"mean":3.7375331939599126,"std":1.2486830885571316},{"kind":"feat","name":"front_nrow_max","log":true,"mean":5.260857680836123,"std":1.5237564447778025},{"kind":"feat","name":"tree_depth","log":true,"mean":2.1698911640044254,"std":0.8341480590293703},{"kind":"feat","name":"tree_width_max","log":true,"mean":4.4685533553109416,"std":1.8566870673712332},{"kind":"feat","name":"tree_width_mean","log":true,"mean":3.0255959480576102,"std":1.6411522232453306},{"kind":"feat","name":"factor_flops","log":true,"mean":18.018269073758763,"std":4.33503844104233},{"kind":"feat","name":"arith_intensity","log":true,"mean":5.485196430652762,"std":1.511105919636955},{"kind":"feat","name":"flop_top1_frac","log":false,"mean":0.1838108047776435,"std":0.20348054617212025},{"kind":"feat","name":"flop_top1pct_frac","log":false,"mean":0.24217498494538037,"std":0.2512673751536499},{"kind":"knob_log","name":"nemin","mean":2.8480025331923113,"std":0.9603693938685741},{"kind":"knob_log","name":"relax_width","mean":4.907380296088826,"std":1.7902235758873313},{"kind":"knob_log","name":"panel_nb","mean":4.187762053609231,"std":0.40977367656573316},{"kind":"knob_log","name":"scalar_gate","mean":8.318084664219281,"std":0.7214878169919378},{"kind":"knob_log","name":"par_gemm","mean":13.878376980897416,"std":0.7772287068946541},{"kind":"knob_log","name":"par_cdiv","mean":15.800926305172185,"std":0.7453164147293136},{"kind":"pivot_u","name":"pivot_u","mean":0.264950339780427,"std":0.32474600657006214},{"kind":"ordering_onehot","value":"auto"},{"kind":"ordering_onehot","value":"amd"},{"kind":"ordering_onehot","value":"metis"},{"kind":"method_is_mf"},{"kind":"use_gemm_schur"},{"kind":"scaling_onehot","value":"onepass"},{"kind":"scaling_onehot","value":"identity"},{"kind":"scaling_onehot","value":"infnorm"},{"kind":"scaling_onehot","value":"auto"},{"kind":"memory_is_eager"}],"orderings":["auto","amd","metis"],"layers":[{"w":[[0.017336423628570984,-0.15039084593035698,0.07783533612105031,-0.23671250259814555,-0.37185324088728594,-0.019142863090547284,0.19490060758617786,0.19295788210936837,0.12057884823432495,-0.19639586563890873,0.20571234432018162,0.0054971895684488995,0.23816421667241444,0.19660535871781823,0.22697469231200973,-0.11127518774261304,0.039026066010140484,0.22582651991436503,-0.13842235142855752,-0.1786753131009485,-0.07198828175235814,0.06989478572059281,0.3601220852686655,-0.0701507578160383,0.010193936339785117,0.03258712407977651,0.027174185593805786,-0.009290587124594255,-0.4506066053590851,-0.34365137079661884,-0.6211226448236962,-0.14516468562273196,0.04173617559893344,0.05021393974672866,0.11042406840210496,0.09795396055245503,-0.09715961777460923,0.012966623442487146],[0.11317772124414568,-0.054860182433576286,-0.12605842449789428,0.17568125100036697,0.02762130826399358,-0.12536528688707416,0.2874000491718163,0.33389086784799976,0.08763774655261865,0.1735507221460486,0.2295588960006636,-0.1361679386555311,0.17290316132983077,0.11016105136431344,0.18045502033449742,0.15333240086375516,0.06858622387239938,0.005593592997086179,-0.16656534681669238,-0.04075184060624688,0.043475296667406065,0.25450043223310737,-0.016040526711949325,0.05835417571711965,0.15511145505343044,-0.02723332244736697,0.00778752599568712,-0.02109282350867262,-0.07788699413420763,-0.11806438034267369,0.04167056578695336,-0.008106755220239546,0.010886257326197033,0.01944423523578882,0.03232036929893155,0.04029961621985091,0.1529359372622863,-0.1220089361033076],[0.044721085883215626,0.16506079007173818,0.06185271584216214,0.11920698796578608,0.21842881709854833,-0.3232995115787517,0.22943258494034277,0.01793715417627958,0.07959886401890306,-0.061890524648352346,0.21301798198867644,-0.22773781701605145,0.10090977093770605,0.17150127955023478,-0.10106277919272505,-0.2856716960675235,-0.00828076369557912,-0.11572933459802147,0.03926700128501308,0.12878706830690653,-0.3552115267448313,0.0384596485040076,-0.10466046817788585,0.010353496146183075,0.11317184699222096,-0.042255932368200466,-0.006412747689117399,-0.012487135351842123,0.025497411124191866,0.43315914240291886,-0.10379720791877291,-0.3958390420808394,0.35818863854014255,0.11459805327938483,0.3416854869317426,0.04416434879138136,-0.0693521150882106,-0.03210568682761963],[0.031101349424946242,-0.22967432235472454,-0.1979050419587842,0.19949900419552352,0.1052534622931242,-0.02953014417042631,0.0009374728520285232,0.24387318907899283,0.306702156406872,0.17528248775848804,-0.03506513712941209,-0.04418415395185664,-0.05110534181003916,-0.07246462355024548,0.06913801873197635,-0.012194997367070474,-0.15012842880888191,-0.148498269207688,0.3140900560886886,0.09305181909527101,-0.20483366180307583,-0.22529211136500174,0.2533138325306078,0.015106206618992509,-0.08999355985313168,0.043502312193574824,0.0810168696113487,0.02546330053976496,0.19319693603891025,0.1121524639300907,-0.15148356808099278,-0.4164321524967973,-0.12443183982890918,-0.017795995398244138,0.05650369809055729,-0.024987999484490025,0.03414390187223594,-0.09743391768320926],[0.020314615904090217,0.2215307849991052,-0.1266598726848336,-0.04215452926155461,-0.09881554241080824,-0.08823717401822807,-0.03819136294369531,-0.026430083502420227,-0.1237681237819052,-0.14636111683845618,-0.018726509344847854,-0.2525670412737776,-0.05027203649804018,0.2750598654455232,0.09970172724109219,-0.16771629795273116,0.2759081729536832,0.12745736134071073,-0.1598899970459588,0.29745853308383796,-0.11166515279843273,0.05468168343178492,0.11366750018940766,0.027034816599154812,0.04305140839110532,0.14868756506000616,-0.15620406603746373,-0.023870229132265643,0.1358791669394814,-0.10578815320980166,0.1617377599078782,-0.02808358204415073,0.017606987723750057,0.08980946754297418,-0.0006123817119199378,-0.02011140414834894,0.29198228203931137,-0.12215460427354106],[0.022276964379698238,-0.2409217203241716,-0.1180872839975151,-0.18655481209000133,-0.01959969510519844,-0.13445878964339644,-0.033987290573157115,-0.10294057283779348,0.04695636254044255,0.03262649891892447,-0.205516094295017,0.17027175691126611,-0.2241223830542893,-0.27387093819495895,-0.1801246725310632,-0.017385028333298785,-0.1749631240000621,0.17025897880594254,0.18629667916576695,0.3086584976598202,0.2517579562603266,0.04137768604701286,-0.033994058232295336,-0.10455898391367087,0.15582995434388294,0.03350437476233209,-0.10747059757936325,-0.036102469041798084,0.028581771730470305,-0.059875203231268805,0.3681365046135769,0.22818879715811388,-0.1789716034963652,0.14794704549977533,-0.029924075831365023,-0.0731136568804932,0.058015368661877266,0.12017675815980798],[-0.0618528688311091,0.1873710031765977,-0.0615594922013501,-0.2676423438301017,-0.2818057409587081,0.3176595073532518,-0.21899042296083407,0.1325463617381581,0.1603656887138369,-0.1518559742022633,0.025292314432592975,-0.29057145788868255,0.2593386242923742,-0.051105600646201434,-0.16207594022164384,-0.011987716173563123,-0.15239200108791207,-0.25569798136248373,-0.2563471894856568,0.09786230472633896,-0.2868052331057399,-0.051143697729631295,-0.11327091832322359,0.12449720511651712,0.0033936150239526346,0.1440780181667656,-0.0012046375950259254,-0.054848997984827966,0.2734740608739879,0.11795898176901777,0.12168028925875703,-0.050362205808159144,0.06319397956313164,0.02680742582714836,0.06685418217682794,0.02789896107301962,0.06988406339969143,-0.0920659158952708],[0.24506316303416245,0.01075953954535839,-0.03636448338860625,-0.12224710458155981,0.2290522815275881,0.11533743796477536,-0.15037421467098114,-0.1862740065588467,0.1381802243769651,-0.20863239114704513,0.05895449423298127,-0.045277007941499664,-0.0044924700300103945,-0.05247318854905397,-0.17644449176152208,0.03221306597633221,-0.24384306185807705,0.03330383277330451,-0.21892110572466936,-0.011420711321428247,-0.08747614649135028,0.04739517492181888,-0.18200537333012748,0.1829751427271528,-0.16330165782369072,-0.1854103632277678,0.15961997949773674,-0.26406413383848293,-0.3891008324014267,-0.23598207049361594,0.11917414523446508,0.0273965103912763,-0.39911601021361937,-0.04186455288189002,-0.13416620784704186,0.21758855433234428,0.2184155976859906,-0.05788251245983184],[0.2699336677865435,0.37873748578404,0.2422984448747444,-0.2179625613935058,0.11362593501883411,-0.10416023968255207,-0.2038109821090955,0.1418078681175725,-0.01631745185234039,0.11388330284740143,0.21950357884491103,0.0032410839281869176,-0.012473304276340937,0.016353745238610384,-0.09252668411159005,-0.11110335888349232,0.3098151832908244,-0.2343635696626446,0.0650689461752416,0.15392561384149164,-0.18793958074751788,0.018031972038647363,-0.21523122873996423,-0.1375138094778401,0.03834234620462636,-0.011371370011607687,-0.03796505512297336,-0.06759115514822675,0.3247659672450988,0.15498835170945738,0.13588623185669355,0.07660224041318721,-0.1554054753664525,0.07428683044831182,0.009687052174819528,0.23725990333770997,-0.014278279841469638,0.06024088437698532],[0.043222389637182626,0.04442401126213697,-0.0697071724959073,-0.13088092376470706,0.07345266682242649,-0.04992774648414875,0.08258005919101545,-0.2602109546941517,-0.06098195419890023,-0.09401962902872561,-0.2126335874958769,-0.025559668506622252,0.06565144818606042,-0.3448715806955467,0.07519528881537445,0.058651470666465075,0.35666180562563987,0.228024866390404,-0.11356283308574582,-0.16372571576088799,-0.21882227643217111,0.1359779471285034,-0.26715020005553136,-0.09011975650589672,-0.000925517982015732,0.10676090114459608,0.013396187489672392,0.045097590220168855,-0.36052507209213985,-0.2733817342845905,-0.029609045847615333,0.10521087243823032,0.0587135654357986,0.012289954279057984,-0.06629933604483997,-0.04214015082668224,-0.03760161842143831,-0.1252172494772195],[0.13205986661406688,0.07366248503508703,0.042971412384774886,0.11151494235379637,-0.05035338813184509,-0.20150346144949768,-0.3917154122933832,0.06929345503992244,-0.3005454889636944,-0.23452732608914384,0.015636302845728436,0.004224423920801042,0.05883585339633741,-0.11331357906754232,-0.3193424232363277,0.2185116272586093,0.12434997621839304,0.10822458896785075,0.0826530656371576,0.15480227887175002,0.09384664186862082,-0.10351304180281623,-0.1209060408890878,-0.06894876630615297,0.1665912770498498,0.07041247469086157,-0.03976607528756727,0.034426425201981144,0.4420445768098587,0.18853668553247535,-0.29073413866101244,-0.29047357464781814,-0.16078929041898224,-0.06024771974391613,-0.0024000996428525396,0.06983064230689533,0.061291974106794433,-0.10638532611769587],[-0.010480355294054465,-0.2623131704587304,-0.141164273662297,0.030010640075166982,-0.0870256084482556,0.2549854807818232,0.27592070532257595,0.08677476257171704,0.06324234519400138,-0.17816136228679488,0.007228501629735471,-0.12211493615728648,0.012525083447171296,0.27697998412624364,-0.05486221039170572,-0.24898820940116978,-0.06835806937972727,-0.016904066574975285,0.11693880591579225,0.006661170438084108,0.11790489898269219,0.0785817152130966,-0.06891474373593771,0.07040265517344203,-0.01742649382405831,0.03414758707712318,0.07138927390256666,-0.1469734277666092,-0.5932705407897212,0.05738369313082046,-0.14619619477571688,0.05436787142523141,-0.255045463260137,-0.016063422068232303,0.12203621139521453,0.15602534695523076,0.009308343822498509,0.12156455115526867],[0.051298541328742404,-0.18815595389817533,-0.09568533835499239,-0.23943131123834507,0.004574061607513879,-0.17409790419795906,-0.10637291004207655,-0.10135117620844232,-0.2056362689296877,-0.11558823941616625,-0.14556708414765865,0.132029788121837,-0.2147178735359255,-0.17571234780451164,0.04926892487724202,0.35145364119873884,-0.05498859093649248,-0.09307663725924041,-0.13671299860593095,-0.03891402923273018,-0.04356197070664328,-0.3368889855125723,-0.1040663393095083,0.030561755298380625,0.13834387290665892,0.15631370010261794,0.08353830632248739,0.11283418563416965,-0.11564954156081608,-0.03716828592303677,-0.023486006456506264,-0.12419331464066126,-0.054191055292011056,-0.050564497217904826,-0.16616595664887013,-0.028816683330629443,0.022615113418015254,-0.2843862305843471],[0.10734353775923898,-0.2967130325955194,-0.11744817185553066,-0.18072735116423938,0.00498313363059697,0.09542485803822666,-0.0715472754059048,0.05075601255377692,-0.07055133403885716,0.23386247215411712,-0.18249917229539636,0.16010386515609004,-0.2184725650573415,0.21623040899900825,-0.06136190972983221,0.07510006456737006,-0.15486754180853918,0.2083275771189093,-0.21739675879931744,-0.02048082618222092,-0.04734294472734894,0.03750968975771835,-0.33006665608724917,0.08765909112717316,0.04736833187232484,-0.0948234367186771,-0.1393142569267903,0.01740984952368889,-0.40076418045264367,0.0026062014348959784,-0.061089075611777205,-0.05914621098289307,0.03321222998836491,0.041513222655619145,0.18632414619429813,-0.07632250716181199,-0.20600353758999906,-0.0021225490450516014],[-0.23891852060834312,-0.08670321500766673,0.06279233316810397,0.2561000289996133,0.22960575612147585,0.13354187900039796,-0.2762326922118465,0.11742226779731739,0.03347078377001504,-0.045018588217449355,0.1475822788079394,-0.11870417359423781,0.2717010132667886,0.04916128437023355,0.1565523065862682,0.2916645042957308,-0.30383795868428426,-0.11703885255753818,0.10160140745902911,0.0033776790379234627,-0.1839096038808563,0.1304956861358584,-0.16450376828507327,0.021819298169665713,0.03721045351071095,0.08878110047812522,0.0013881707071990489,0.014440171472170834,0.33536934926615447,0.2524003657718411,-0.006009784023793928,0.057034700216544575,0.047439554213593416,-0.09596966590547575,-0.024601432411985785,-0.1135228403084572,0.058380810631830315,-0.11621877156185426],[-0.16526521041469183,-0.13497253302356127,0.2796899554737722,-0.015415264888679192,-0.02647810757858273,0.33034573504476916,-0.1758066086694751,-0.0029443955348813578,0.15137756352544104,0.1581734448943797,-0.1653312677913091,0.21455092124124106,0.20065795285416507,0.08540144767201172,-0.2915328129477558,-0.1656757181712754,-0.000867040293481136,0.18980380580783163,-0.04021458182133591,-0.25344135577359334,0.2305288823040964,0.22649985963293692,-0.17169369670550605,-0.030481125378993418,0.24788547044317,0.14079677134893492,-0.05400785186516098,0.18301772974750175,-0.5784530116742528,-0.25097717718181545,-0.07101641853986156,0.11167356102209536,-0.03685374676610825,0.034824763030559085,0.3606516293885816,0.30599209168507124,-0.06543223248561891,-0.08258942339598735],[-0.2801734033035066,-0.1163568590115546,0.16690687386976677,-0.044149714682239244,-0.06248076048700097,0.09125252701861537,-0.08466659035337146,-0.07869496297517715,-0.19048401781732283,0.08971854696681822,-0.020344935420911182,0.1063988945221336,-0.2862121648855116,-0.020814244662889114,0.2099324392680144,-0.012337203704657438,-0.14382050713118086,0.26168274914546097,0.22462755568088602,-0.2058865414986745,-0.10446175233330122,0.35947842521389617,-0.23698221647185191,-0.0411240093078055,0.13159533288957367,0.11815582666280729,-0.047715244147880025,0.07695070147470523,-0.044255052272612685,-0.1845773133012436,0.39469822710665525,0.23603965785699055,0.19960781659731172,-0.08994442760509852,0.12158069899167671,-0.285771602785419,0.06183671289816563,-0.19070491226972405],[0.14899990034025543,0.0023130526529047324,0.17666866253771543,0.21697051079717664,0.15556945263828245,-0.06800524365758254,0.04680594554399902,-0.23192274256426387,-0.011197277768272862,0.15650137286253202,-0.12512129979309033,0.18343703624901983,-0.34685082999945493,0.2565232513302335,-0.11641587532344777,0.04452056604181817,-0.09684626689120827,0.16794753262176582,0.1552476184549417,-0.14652153809637322,-0.34913420881141866,0.04497217423379869,-0.07214440682832167,-0.20033816471597515,0.011412378500520366,-0.15958103889278347,0.024766045068670615,0.11058830266596356,-0.3403671077692225,-0.8209707059699105,-0.09490095843257305,-0.06257157398874617,-0.046666024366704494,-0.007917913867286994,0.3576072958921836,0.285304212524825,-0.010028509817831535,-0.04514884809127748],[0.09233139711062285,-0.26039006207077564,-0.20229396875517197,0.14801070879834344,-0.17056345783626783,0.15762680079870398,-0.23051357112455614,-0.09627688219217018,-0.21501163838749307,0.0196300255376677,-0.06298514504614908,-0.23474340025852927,-0.27328745596863013,0.14525576188574188,0.32424691620654383,0.12112248007578581,0.03796619419875238,-0.036069454760808084,-0.16143581526196282,-0.051504187757148864,0.18255474332273083,-0.16922190087269254,0.1597449669469446,-0.1450428508357108,0.0468501286158112,-0.12622151881108326,-0.01329803815030437,-0.08995511619754037,-0.1082497871808432,-0.2639744445431214,-0.2165668917721317,-0.0653412092452331,-0.1826048383119161,-0.08259915980017377,-0.05446801246105369,-0.003126963997091328,0.164187181287596,0.046116532954608484],[0.140093172366268,0.051418706514839256,0.18232938633378373,0.08271568756572402,0.15856049640227945,-0.060400334133739325,0.25114738878267295,0.04720081626067821,-0.0012884882474615935,0.2630655969898977,0.19762995825583374,0.1540684840168577,-0.298918158008706,0.14531834205044106,0.12792801696259873,0.018254729435091453,0.08078205163979511,-0.26054097254353786,-0.13576926051863766,0.06101785193752152,-0.028101577812058968,-0.01624036900805115,0.5828899198163794,-0.01816759238211914,0.06419388259843269,-0.15449836737054007,0.019551931734320818,-0.09665986049032159,0.07551696141659428,-0.24373381551601872,-0.16799239237902655,-0.6609258338923338,-0.1503001056608668,0.13546666657969977,0.00021896109273250526,-0.17057228136023275,0.28932111406218236,-0.022182540064438976],[0.28966038744572825,0.059486300887634166,0.017576743024167833,-0.06298143702441905,0.18294716413428902,-0.042464306348446626,0.1042512298416791,0.09454165822164408,0.08907470486638187,-0.05024813767930838,-0.03149314648326844,-0.09337352769245227,0.05402074485962966,-0.2861521262602414,-0.12968048749273012,0.299472525106307,-0.17900839709080232,-0.006192850838034869,-0.002598566451076806,0.04300436976812757,0.22407391006674915,0.07874665884594322,0.08284066545005833,0.05137968746854264,-0.13406380691138922,-0.07598011747410006,-0.021175916731577694,-0.11407293921900219,0.357856082994038,-0.05476604438361239,0.2988837068565339,-0.24495703270918623,0.1160354007513696,-0.07109728661906259,0.11502454293453636,-0.08987359198748043,0.0169585014858869,-0.17973092853157743],[0.1439863966527825,-0.1145645041481219,0.24135156482858666,-0.1589946227587306,0.061454623770315804,-0.010269056597326931,-0.03342446585206105,-0.06049941815962286,-0.0790766490344916,-0.012684169741422602,0.2008114629430105,0.23890997943836026,-0.19522596574075293,0.13589252929603013,-0.00371677147299961,0.2305225000424887,-0.13384577154360403,-0.012176210434071017,0.02657345139416306,0.02245483223663167,-0.03341429718147246,0.14614360200877255,0.6478960808235059,0.06967168065544932,-0.05024977733110049,-0.044466788016001284,0.028156594750519612,-0.018990611643934494,0.3207774908870941,-0.14568058052393126,0.020434440737560244,0.14324450541117165,-0.061357132621233705,0.14205009518028236,0.20045660719883437,0.24891141228601746,0.18448069866353692,0.048586007824506595],[0.019069579769023803,0.046790313664798515,-0.13051818130634094,-0.3657611171175751,0.0584428804885276,0.10537137398117538,-0.013324821877666048,0.04464811834415412,-0.13096969328867228,-0.11252177786707433,-0.18106504001120477,0.03516454506501315,0.13316017645974348,0.11370827307060344,-0.017990039358709076,0.0907514416080547,0.13610889100718368,-0.12447710677150324,0.274990193640898,-0.20655418233300102,-0.0950602332724416,0.15502828756027512,-0.05507859507583727,0.14432675210248436,-0.13109300779935307,0.08894759696201085,0.10005419579223138,0.1750880896863109,0.3100109315535448,0.29503897348588604,0.2973968632697255,0.007096182572621573,0.06880083400695633,-0.23984713455394985,-0.20090050514096258,0.022485282534736382,-0.23335043756416968,0.030360788570488146],[0.053291488146403256,-0.2370308146073483,0.24644925572669146,0.08230639203266704,0.16316023174759384,-0.11084090529418193,-0.11730212864394188,0.28283433022673926,-0.16503803090748442,0.1348192562240057,-0.14580514352656435,0.23779685646990148,-0.10952274351328538,0.07269783705517582,-0.0779779875418685,-0.0028066084796915768,0.09553459149199266,-0.06153405541152005,0.09054206742967028,-0.3252959491627171,0.2782303004894524,-0.0031412424072131697,-0.18534694668492932,-0.053914210936360764,0.14747333981571242,0.013181584737480257,0.22490217013470348,-0.21763781661055498,-0.5677902201336278,-0.7061696850295457,0.026641031403155362,-0.2894525478100773,-0.28710874516473134,-0.15534664454652738,-0.21712731496468474,0.13439298360054885,-0.3504546679948944,0.11933514267867197],[-0.18186725863325454,0.05089771979603544,-0.15365187016391257,-0.03165904562962566,0.01711606353837456,0.15140440235912986,-0.06215551327049799,0.1242631394213914,0.007234327320939596,-0.14104792822258336,-0.054207598152353646,0.050866343397141925,0.026878993478592142,-0.18198488303072627,0.18075390758798493,0.21729825224771734,-0.014759963219221083,-0.048940516839183296,0.02040268813190686,-0.08396957662311696,0.10997050870167761,0.22366147544660922,-0.03964227962759789,-0.14277503056711166,0.07310739951193188,0.171809980379816,-0.01797474515682188,0.14618024846454006,-0.19911722299885243,-0.04347582942907811,0.28092544383735274,-0.14226763927553998,0.3141773241130421,0.0425437853868852,-0.2211089450400932,-0.18171952011023812,0.24460950438046833,0.24103588688874678],[-0.0320509953291566,0.14837011743625417,0.11837699312804727,-0.07294577493116557,0.23794909711851797,-0.014186823330949594,-0.11194998165332631,0.19725292506869088,0.2331764364506733,-0.07118763630045251,-0.07059454361129062,0.006585466771877445,-0.36857314971058563,-0.00609216945779212,0.18855672798326947,-0.02814776822441353,0.1574649058759479,-0.1605807124131457,-0.06600019079894826,-0.11937852860243502,0.13203290925164374,-0.0008612205574281957,0.14115745517297468,-0.11471199696770625,0.14308251469049288,-0.011475348799223678,0.05445815047149675,0.0238938823720329,-0.4659895602308959,-0.3044639113127535,-0.04752000358605418,0.17944348542739355,-0.08468033946492041,-0.13064879391018763,-0.08328287675258313,0.15601934732796097,-0.06391774291003474,-0.07021247356405298],[-0.11446175681319203,-0.02419752879663618,-0.1511265299645101,-0.31656392756292023,-0.08426414243212875,0.03242807629635931,-0.028442146026259343,0.014780418642927754,-0.0822772303262524,0.031015004915234033,0.1344305759409849,-0.004569646677889975,0.5185010670582912,-0.06402324162683977,0.0285737590734095,-0.057008406116103125,-0.16637661402609036,0.013534350211434669,0.2214003326089584,0.31879312327740505,0.14739720488413965,0.08279137367534044,-0.07626506400123423,-0.17305293597426355,-0.11108820809391641,0.2659271021733666,-0.0031162396806579343,-0.14587555137104607,-0.03802430578808636,-0.07027992991648875,-0.6940966230180124,-0.6428632995843583,-0.12688271846931548,-0.10984971461054649,-0.2407422484959031,-0.2096969080708406,0.03529293307359145,-0.027008460166417822],[0.279508308776227,0.20794151665894783,0.38961718445560434,0.042816352763145625,-0.3253435648245942,-0.32038830819420916,-0.14144201851096994,0.14402007688437418,0.04924821072344788,-0.16156064416143134,0.03705945445797635,-0.0638479090648437,0.27418877025186583,0.16578913274686732,0.39542245648606783,0.10230789398877924,-0.3514369581289244,0.06262558199343679,0.15853503073193712,-0.1266025407796334,-0.11168493372433043,0.020405216672237946,-0.10050104704977571,0.013846137401684616,-0.022834354565944768,0.12383797797706667,0.10349734799585152,-0.05323729335607573,0.057982320808965614,-0.17330082890820947,-0.05874195131080086,0.08681140464554607,-0.06171827591807405,-0.09899950613652389,-0.0924720082051169,-0.061822426592791496,-0.12510735441725218,0.09268506335745341],[-0.010001410894346459,-0.17242280933401447,0.18142728968739388,-0.0421374478632526,-0.09014306785700568,-0.07837361796107128,-0.1867410606395465,0.11223763511292917,-0.2551763279491226,0.09888922588734131,0.17231836064574368,0.06482946663100818,-0.12225838766805468,0.23104935921825476,-0.047206200453914014,-0.1393378016118193,0.1272185429183707,0.09413105626296529,0.22163262957751667,0.19521719468931334,-0.005345704185151566,0.23886306675588864,0.006365407084970296,0.06301160462924865,0.013535354640006124,0.17532573399398924,0.05945637385121609,0.04952516085721319,0.3008376788768615,0.46558175756429815,0.2064447190962736,-0.37969859149470647,0.27222186978309193,0.05754113626783157,0.0004502143443957389,-0.07457121349681609,-0.09346719613309444,-0.18303644577084363],[-0.002648202921060296,0.1321131138724255,0.03751754590552868,0.03073204256787056,-0.24169948866773128,0.34344119717477994,-0.21151875582766355,0.19438394145961296,0.1435789115721205,-0.10519782045416083,0.06742711691341233,-0.14236050821640867,0.016269628986118292,0.2346443522247342,0.1461325645175951,0.10974959586819397,-0.27186117131791504,-0.20755324310990264,0.2645482515289948,-0.11353070585611075,0.039355912915777946,-0.17803053268642055,0.18129798022194346,-0.02020497128282401,-0.003213060644290692,0.10589618780261542,0.018376436428722,0.060720818215625076,0.08179289879408778,0.122012892067106,0.5618721729162198,-0.31773535754235155,-0.057337490932673006,-0.031697897080789454,-0.053013774915819115,0.06136395167629002,-0.03260246657205181,0.11393006134399558],[-0.1413285742872167,-0.13604794152265928,-0.05896625545367755,-0.1356606599032905,0.10589439558924542,0.06225973047839858,-0.14699933727381884,0.1330711371507284,0.1332516290128416,-0.09333048130032037,-0.09172613397607121,-0.04931208179444517,-0.17326288993489986,-0.33180025000048496,0.20470373857027527,-0.20062466655669145,0.18698456265041558,0.16324543735010555,0.0653951711014197,0.03191970510591396,-0.02644182579121295,-0.19637103745591725,0.0730603970931469,-0.10043736130367845,-0.18503997705928937,-0.10581511672617824,-0.11545526146863211,-0.12470977927600589,-0.31909878322568724,-0.28822379679408144,-0.11421380045058248,-0.6274446512348675,0.24915216888823388,-0.15411556204604485,-0.08711217778171458,-0.18527380345748226,-0.06107223733490426,0.10318564272056945],[0.08194939339787019,-0.1714887391434721,-0.12149817198658132,0.23629083795159578,0.01769084796215847,-0.3106273540420431,-0.08030426796363573,0.07349802984250514,0.05195222027825609,-0.1634249427949974,-0.08138752212421484,-0.041507242406941744,-0.07922053239524253,-0.10276606836472998,-0.2944400457274008,-0.07111024415241765,-0.12190805732944392,0.10384624205759184,-0.08231887508095768,0.08990909003536136,-0.22009040283777118,0.12937724812707146,0.08107673712137337,0.036397333702166634,-0.02827563218893636,0.09367445038618422,-0.007318895820565916,0.08211507442025229,0.16093746748891713,0.4234503648441917,0.09033391834218107,-0.12026319396558965,0.16642224660634566,0.011610729812271351,0.06846712538491491,0.1539015963583568,-0.03975247183121482,0.05063319405369098],[-0.10010344354680417,-0.008789914192471741,0.09545872067121855,-0.2591273746092755,0.2670331442195272,-0.07608629356478894,-0.07864640300880402,-0.1114918228781441,0.35573591005924493,0.025246393171009664,0.03946074878326945,0.021185492036334203,-0.4446861712569571,0.07873038962898725,0.05109699903079827,-0.2500371781243816,-0.010022610295493504,0.044391606246744264,-0.03996603104443656,0.13245368324511844,-0.030787930433352807,-0.0702518402808247,0.13317315577169223,-0.03244079225122372,0.029452087789661276,-0.05843051140748583,-0.13339851021375432,-0.10465515806237757,-0.22879777449956146,-0.30619051323058727,-0.01461652472643987,-0.13083364384371715,-0.0364193271338574,0.18681194700683978,0.09918971257977056,0.3053734223810457,0.27527808812430166,0.07096301990537307],[0.03991585684593422,-0.3438336110145424,-0.22715923060479304,0.1929323163601338,0.07378111622837685,-0.19732914112785466,-0.32651487228903653,-0.06593187592804901,-0.22871297232561616,-0.012645682114180077,-0.3115307507828525,0.05245777517613745,0.054278200395253995,0.11710528724213033,-0.2060886927956469,0.05392986056182285,0.3030237863641105,0.1349947324566227,0.049527105724263124,-0.2201946800618423,-0.13480159891369167,-0.04616213271498886,-0.15333663674483167,-0.02065852228817001,0.01816049506387794,-0.08965001597478635,-0.02079954742088184,0.04722295705861285,0.2823801240634445,0.2855403173036972,0.02450420777801208,0.245419897859352,-0.051416183221130604,-0.14385524437244945,-0.119146455836447,-0.06185633492578361,-0.18249352103908276,0.029252274269019846],[-0.2447260033194084,0.1697820442556296,0.10503402356326397,-0.0032447593312264485,-0.23686495092459636,0.025739135131635702,-0.1225362591750708,-0.2913424711298135,0.1361427906591199,-0.08455034285502508,0.23584504759494127,-0.02111339263362486,0.04254895995404052,0.0378063079468575,0.3052777518011208,-0.11589298573331085,-0.02729005001001906,0.26001314455622104,0.03705135602416736,0.1380368379909341,0.10353340677680453,-0.14539811889408732,-0.05270766501688079,0.05348762841595086,0.04129458257024195,0.08077561094835438,0.09633043132905396,-0.00337330667930474,0.3355781690313977,0.0656258513437116,-0.8343730893203508,-0.3378944779271255,0.04797508190115907,0.05493866649448844,0.05163124205689104,-0.036379669965503,-0.01895412910808859,-0.04465510649346083],[0.013227585652767583,-0.28667865258976116,0.13870609095648884,-0.016475984236788394,0.039096702491049296,-0.193114182271681,0.25289603021057583,-0.03626750845124202,0.1993994633273318,-0.1735440695829209,0.0439082698072147,-0.12385235189710621,-0.04250264012704785,-0.2537353079577643,-0.3683641597573591,-0.18006913382826933,0.02318400972176783,-0.2259602948463098,0.012883287915582655,0.00942007748483322,0.10899322814587692,-0.010939882690903641,-0.04466115136044819,-0.013212686218765552,0.042978675091721534,0.05446311104800478,0.08530119889599948,0.009330846060191881,-0.08182848731345625,0.02270235836862654,0.0010719380186007025,0.1162039774386015,-0.0009780607247493515,-0.021789345628497245,0.0009915787525169506,-0.02163565607399925,0.03704613898591021,0.03621401620933887],[-0.003037796971861314,-0.014315464362298766,0.12365544439624657,-0.04513089454513828,0.09468191982757442,-0.03679921261456264,-0.038344356240071195,-0.005826074391466345,0.032925106696961116,0.15471347128243054,0.1267825316608293,0.11114064362602316,0.10580941457565422,0.41820168373951333,-0.12474475262419223,0.1283988216387805,-0.03200163084935825,0.02746189417370604,0.022445504995698497,0.15979227113829186,0.12369294206244406,0.08757974735301396,-0.13361593191835944,0.17304197826935333,-0.15932184576272873,0.1110895737021276,0.15656038391446225,0.024991073516108502,-0.6017644966895636,-0.47737099638462993,-0.2270838997448053,-0.5265163964747316,0.06108471197258537,0.26972667016919555,0.365597323186231,0.23581748565829017,0.11378250574019572,-0.1296051369425305],[-0.001236608873025673,-0.12013777937411324,0.276724690007791,0.05224712141379025,-0.1998123525152464,-0.028529632268039902,0.0915105278868123,0.042589952676571036,-0.07199489784590317,-0.14618306095564462,0.07033607102225438,0.38265990330583405,-0.16969473968256282,0.1506422967009459,-0.31405495496297964,0.28088478534156947,0.025653929273036075,0.2983651806586623,0.2395393845962109,0.12226255488178983,0.19896355011596453,-0.2276736933145041,-0.348013306884113,-0.013672798995442962,-0.1792969000955665,-0.21849993759861736,0.077855426037428,-0.012230920347045676,-0.36448299048819766,-0.09250540266085137,0.07183633350810056,-0.0036571131971083587,-0.061848625913084425,-0.05096880570263812,0.07155017941468375,0.17060746693046427,-0.06978710191304843,0.2390557950600191],[0.2207258185785101,0.10497667985725177,-0.2877533394879582,-0.13192826598339708,-0.09631776880970044,0.11340683064625881,0.0006299982990415182,0.1293265582463903,0.05074801298379648,-0.20233469602684134,-0.23860196531196443,-0.4605031271373251,0.2884129125481775,0.1572948348961187,0.01352376373672762,-0.22510885795525323,-0.2543649138894962,0.16464877799234398,0.02551917411626376,0.19998466651677815,0.17337064345771283,0.09239090348740576,0.21118917098886494,-0.07291938857898028,-0.17996986484613725,-0.02587588109189767,0.09166366483669779,0.16107652869162153,0.22104796426347975,0.162910083211505,-0.06488136029650399,0.2717551308785652,0.1936225131107864,0.16504884459715397,0.07577908580626158,-0.0810649558345773,-0.08936515309029926,-0.22589502688038346],[0.10185890480849334,0.23447525694648308,-0.05349277639770682,-0.1574720038797153,-0.28206170331930597,0.23313336227132286,-0.27573488742892516,0.03748498280192344,-0.18857156703427466,-0.09430143497451061,-0.023945100001545545,-0.08933200460395428,-0.0427478966848943,-0.05694704155526607,0.12366854700818862,0.13399008409059357,-0.28961013273304675,0.046268054844058104,0.12506831014901104,-0.14399287985985867,0.26856274827161664,-0.0606906810090145,-0.008470131375171231,-0.11475744157779288,-0.07024435435356849,0.1253251279033079,-0.14059616646378537,0.0687727105926002,0.02213194059871702,-0.13094446718882444,-0.3721170901598526,0.044732768125454986,-0.09430688002821705,0.24562733038382978,0.025122719409122866,0.3817959141889525,0.24910501327674098,0.018366491428966198],[-0.010408338645038163,-0.06599028923536686,0.12702928035155567,-0.0703980327361815,-0.8947859410130974,0.017809584237013835,0.13706674318246875,0.31358111899903124,-0.03842997928860365,0.08826406142422258,-0.01685963082928681,-0.0065457311059876275,0.22937550695982895,0.09155376543784434,-0.2893083212603236,0.1295437881028226,0.07611916504664883,-0.17363560539480205,-0.1584912564690876,-0.19341506217759172,0.04672860920671449,0.006788643208955909,0.047560333755791676,-0.07032752119196818,-0.05189306530148394,-0.040937941580313865,-0.08835332602876327,-0.034905260325810934,-0.09817661433340233,-0.2645313600305689,-0.18329848101075974,0.1098155861461838,0.033647489475706685,0.006721157907496163,0.10806055954226351,0.01657620452350111,0.17676426267652934,-0.07757119367987245],[-0.016266192434701433,-0.00043049689483068746,-0.3721016758275981,-0.0454553381374034,0.14244586400301956,0.37641966677928823,-0.1031897120382445,-0.09808993139528109,0.0993567311259539,0.1459359100060054,-0.12652101313365585,-0.1860030337763832,0.06763953076337967,-0.2769262525273781,-0.009679082535989205,-0.08738842700252204,-0.13149267635596612,0.0064607892860724485,-0.07729994360482965,0.19334919395634062,-0.11074219773205082,-0.17568239284834913,0.018410924944250145,-0.041733402026771727,0.369785983531925,-0.06228663845179226,0.009077711920768545,-0.03704129846752646,0.18589378634486722,0.10455554892737777,-0.07592620995742448,-0.4810695676217723,-0.37300811670092904,-0.0401344134274154,-0.1196224364227115,0.12140277965878774,-0.1622200795888495,-0.040236816264588374],[0.08416966370971965,-0.0005170809068601959,-0.12138871013663484,-0.07115159584452478,0.2191511565844121,-0.15993162913928,0.1513512869255955,-0.130616773141799,0.11430229566912144,0.021272064202730163,-0.2519806434921704,0.24533017236316448,-0.14490639807210423,-0.33593507362699815,0.1165739491403477,0.1156788563168907,-0.16200390418518654,-0.2558206919244945,-0.028722366551884843,0.16798567575935205,-0.2136985070720139,0.14539611340615913,0.023836789924751172,0.13672715193862703,0.16196539867122342,0.007509559253896302,-0.10784891681548894,0.07951149475169382,0.2723995197079292,-0.1877266576618557,0.2088479539031554,-0.5738679499305575,-0.10146983561158068,-0.3636703205675736,-0.20740667598644985,-0.23106570995560594,-0.4199534179364172,0.09243421006700431],[-0.22323241393649745,-0.04265439898784863,-0.4267776735907796,-0.04622170705605511,0.20150838721000316,-0.26255565602694847,-0.19848622068702101,-0.13968810003454293,-0.17950883235395662,0.287372515237731,0.04828199273452727,0.08346279420759736,0.03774589221477385,-0.20163202582213374,0.14058065563809438,0.12941778069813653,0.33030957799398136,-0.24145888098484003,-0.1009363151456429,0.4177580381936094,0.0332043497954807,-0.22339129973661437,0.018205639538196913,-0.13526584200399364,0.29851329576149815,0.10567006986210706,-0.11201087859437597,0.02439520726939615,-0.4730354646279126,-0.19337384839442845,-0.4337818083249715,-0.2609401663625902,-0.10437888673458162,-0.15791923886373918,-0.15266577159295044,-0.2718296226002397,-0.10691723665920996,0.005070553820965051],[0.1377505472721914,-0.14454335947738958,-0.35729155008806396,-0.2655797105171665,0.1827415337459107,0.10604972372069825,0.0850071665907942,0.2027345129401729,-0.04864299784469254,-0.028769912609035168,-0.16004071658430388,0.2805281131843098,-0.05952936865117311,-0.17962211450023632,-0.23074851812683803,-0.0930329656412358,0.26837664484047863,0.26376294783649684,0.14325581708387125,-0.05372760938912902,0.24861877881322275,-0.03672746810727093,0.01651484281620568,-0.006048103174174075,-0.024051320101545155,0.03952878695054624,-0.04568384428937953,-0.03503757035976696,0.34365211655079275,0.4723187788466412,0.2853672791592765,0.07238878015276189,-0.03772180696404833,0.013577455203926293,-0.0726260605316418,-0.0801510487959136,-0.04638606305336097,0.09608752928613451],[0.1328519336355953,0.22238312957833023,-0.3045835972216388,-0.04390350007857432,0.07050298324651263,-0.006287327963149497,-0.09165770239891247,-0.20079393978797613,-0.02367328632151847,0.03314317872694825,0.053806536751986975,0.030656429132473507,0.3896401069128523,-0.2878816526686857,-0.1987618878542082,0.11132751453665723,-0.13503974146781048,-0.14082102778574468,-0.2735923794948388,0.0792775225860018,0.055482537669705005,-0.029086975875590473,0.6077995206536285,-0.015125193765461268,0.080358824779091,0.07833495067639042,0.1825237269822422,0.05476622092904323,-0.2750691192218188,-0.20393361893497075,-0.2847605165854489,0.1330069212807622,0.12905156349325983,-0.022811017280351606,-0.03354829549439334,-0.004755395668474901,-0.0015047102426151196,0.06001190150918171],[-0.0804276346724586,0.008003424789585116,0.1217734894088198,0.10706106874705754,-0.06968145142170667,0.08438091116127316,-0.04328076925958269,-0.08607264337845563,0.07192760340106515,0.1257010999389761,0.08964587855794795,-0.21096282670754551,-0.1520069379910777,0.06155419105276881,-0.6595703710098125,0.23274350655642057,0.006344583904361248,0.06720974446871998,-0.20481197894785402,0.1284357239575909,0.20125187569612718,-0.08450325724017275,-0.06710900657257608,-0.06502482227216537,0.015424465089091195,0.04546750576854053,-0.022093400910804417,-0.0522973495732231,0.5191886400493196,0.3823238428039628,0.40137855622045815,-0.21724412990085182,-0.060434818651744715,-0.16684680172497288,-0.054929814613841874,0.04840672277253223,-0.21050520636794248,-0.10920446734001811],[-0.3152357985390284,0.030836215642314105,-0.2092428693955803,-0.05091365779459373,-0.08998148609884958,0.1409591472556097,0.0882807584209546,-0.004060420768091114,0.16953608360656627,-0.014176115954233516,-0.05735300520909085,-0.024196700370608764,-0.18893678585864088,-0.06764336204041677,0.010855117235451572,-0.287935508671449,0.15129484144795033,-0.17329199943300913,-0.013077323211218267,-0.20847344532746898,-0.3303184844697414,-0.1552030928733366,-0.009476274702855315,0.10102315404160027,0.20306860200036078,-0.15749289615662856,-0.004654284712273014,0.0023363984437122657,-0.2400952350669212,-0.0488517614717982,0.18228781887268555,0.09138567833122313,-0.09401220009318478,-0.03458966414559471,0.17838748880668046,0.20814913263671872,-0.17602928954705627,-0.2155214702205379],[-0.0794145303629887,0.08003817786527967,-0.145550202528535,-0.09496318866385693,-0.2090354118801207,0.31311453498041436,-0.17391993375357598,-0.1343030353817402,-0.07241983338207346,0.13395190237079427,0.2593208972998476,0.3490253029209597,0.0019683557585581882,0.06143528032207472,-0.13036260585334516,-0.22999648290366448,-0.11288271444934367,0.25623080850483837,-0.048674939857128736,0.0676437451754535,-0.3490460873022902,-0.05975214399032748,-0.10704652944143406,0.03176598278528833,0.13728006621378433,-0.07109792926801035,-0.1499326939052119,-0.007261149193734475,0.039242600643501484,0.3300417513515683,0.2574164129259579,-0.31281125380031033,-0.004843273087266018,-0.14180974223214696,-0.029426701383117655,-0.1740849792262095,-0.058965026084902034,-0.15708048672938976],[-0.00836661677446343,-0.04891004984577617,0.19630908633262742,-0.16350710074640767,-0.08199761377481013,-0.04502546461178764,-0.052557550126698445,-0.1666625846026764,-0.17493086011986553,0.20808514959266022,-0.134641139083706,0.01180571285241315,0.03379663999026144,0.05285251822674888,0.08164947839876313,0.23336494544160427,-0.25990897575021216,0.13327351202532817,0.1504751248140856,0.3146182068796351,0.18833844258634982,0.12004097122545909,0.010881445098432991,-0.038191817701254537,-0.06118104783122243,-0.05537689427459779,0.052475916538835064,-0.0768949358559041,0.5938017838649112,0.42712687908948666,0.10210797467976676,-0.3321308024136171,-0.2699321557032752,0.09985775066284948,0.14178415765050165,0.2359950990381891,-0.02452812240452112,-0.12606546056702517],[0.04921108401240231,0.252011304729473,0.2811550045582495,-0.03667380866545713,-0.8535601793113888,0.23478012754777897,-0.03915702806597389,0.0013918602448357528,0.30294860492300674,0.0610087914375927,0.23813732546452293,-0.2168417444786918,0.21755988369888157,0.19049122899289897,0.1177338794150058,-0.07326869934015466,-0.025637053958760907,-0.03966323752191855,0.19246168021586202,0.15826312462758554,-0.02469217337946941,0.10040475235172934,0.04669515824146871,0.010569816154410442,0.004099996889692028,-0.044663952087171846,-0.00732216738476116,-0.09006018961247765,0.12163244818433305,0.23766537082796463,0.25654893966201975,0.1135029481148459,-0.15883328493398144,0.025488833690000358,0.11840084814884495,0.1927143390060928,0.10276661068119443,-0.17181722870636074],[-0.05193681786051128,-0.09043780279799174,-0.3269269743591113,-0.21388423297283216,0.0035391447482735513,-0.053584389404446604,-0.04697384162378965,-0.07928979358269733,0.1640608055764859,-0.029147083684711902,-0.2248281417955313,0.32324940464929774,0.11915955964431343,0.057317316029836154,-0.06499651063490393,-0.3854820493839413,-0.2554675567430441,0.16063131867823352,0.2377582607078683,0.027577322239109376,-0.11249008336800179,-0.009197627493316827,-0.01659381529531083,0.14836963125987046,-0.12520036087272177,-0.25448440085274615,-0.03881717796207137,0.12304302350660937,-0.15208933550239978,-0.2825328464627777,-0.43208664430324834,-0.006250216368908495,0.029879592283434904,-0.012092630790578922,-0.017359028668454568,-0.020412315258566543,-0.005744420653450241,-0.14833713768416887],[0.29271391972807276,0.21425946023566222,-0.1887315024561366,-0.025493991299322002,0.04445607800185489,0.06865058515792649,-0.05019430144130376,-0.12315760586608306,-0.026677606560680703,-0.05862482459565128,0.09183725333792658,0.13399458502016112,0.06003296210447492,0.26979817172569753,0.2091573784184822,-0.06240632777123634,-0.2283006646076519,-0.15265403655948695,0.01712723163279752,0.14775889187756677,0.21160656125019048,0.03201861225911171,0.7358854855444467,-0.07690060669833426,0.046927918489005294,-0.09447641182654538,-0.11111641267084006,-0.03320826710531072,-0.08921774869398852,0.32749866677704537,-0.053552929654364236,0.18976519778460813,-0.03818291752330265,0.13277816589067776,0.17617051917351667,-0.11580163198336674,0.047777855719825874,-0.1271652476201221],[-0.23540509859496986,-0.005460336778812814,0.003355168594277539,-0.133143891854597,-0.07218353721601754,-0.05908738555395443,-0.03502428795737994,-0.09463845900074287,0.19095403571985606,-0.26688786052324426,-0.09211216230026659,-0.2718499170258504,-0.26190529637477133,-0.1092747456352109,0.1333189059035765,-0.023297798934263883,0.12198974249678737,-0.08619223862695491,-0.08687043372814533,0.10685617940181627,-0.12432835554648462,0.09230529376203107,0.19598328954177957,0.10221395190228783,-0.18211984944213147,0.07666731239353446,0.08468800468933896,-0.0007310905903027492,0.027962204748006644,0.20231583076869122,-0.04159380619653667,0.001882758610216397,-0.07990340578728311,0.18594441953215335,0.23158059704408457,0.07586317721132431,0.1364530987045692,0.014870710401647095],[-0.08264811429433076,0.2411137270757228,0.046939433662104436,0.0746477533327039,0.10883382078583839,-0.10331682397660673,0.07689229613180765,0.2255461110012897,-0.004249310498014251,-0.0958885552862254,0.047174291434241275,-0.16766707460711114,-0.14298252383128893,0.26447121512972444,-0.19462197358257424,-0.1216393012262574,0.17064468250586093,-0.12390050777339694,-0.01497500560161394,0.013134459451089205,0.1487480343601221,0.005750203397669446,0.005202483108377045,-0.12634209009164682,0.09093054458691968,-0.009295020225422185,-0.06502539943920109,0.06613013240350085,-0.1719405568483568,-0.6147779724470696,-0.49984807788044544,0.4045510659112296,-0.0636905633915783,0.04882793494877185,0.04288063016584425,0.07442442229555164,-0.041924524102582884,-0.14236483928753535],[-0.18386726001966688,0.06034553682018097,-0.19355985863157563,0.02200560020167472,-0.12210847668768311,-0.05478966390729453,-0.02615359326540348,0.06358307951365465,0.28990182420791333,-0.17085759278656532,-0.0672918781380478,0.007410226148945647,-0.11531988700267232,0.05949507826472089,0.24090015064971113,-0.02815279754469197,-0.033529816316338876,0.10843845233277973,0.22874604465179768,-0.10441121063973319,-0.19973507203094953,-0.042378005885909634,0.04258492620760385,-0.1601666998648044,0.10070510961225462,0.053986525402355504,0.13494561823520274,-0.08713429195637677,-0.150750539391856,-0.2855720114480507,-0.27770262178685745,-0.40310559332470886,-0.02252626433033408,0.035652450788688624,0.0020196100756208566,0.23843010607447582,0.002450785590779465,0.13136149401307196],[0.029917622730739984,0.09518460882132111,0.25520848157691023,-0.11418245192426159,-0.1202019021792644,-0.13261864959359507,-0.2273065760323856,-0.254563896310144,0.34553087924991804,-0.021026625508806303,-0.18051020929090322,0.09273323240936575,-0.28559054852512017,-0.01151186856136818,-0.27583923591742693,0.06352672808434312,-0.07485489308819274,-0.2037847300883908,-0.17066438750378535,0.16783053468923556,0.1842721466448245,0.05553203150141815,0.2516361881825797,-0.04258424213382782,-0.031063624992274816,0.10478967114375307,0.11033576248289163,0.09161625157396477,-0.2576060190471861,-0.07455262026143256,-0.1891778884070045,0.3918190622567396,0.12092556925742157,0.2767257282605901,0.21278834447497505,0.06312958609480239,0.10457747924546698,-0.050027217993427325],[-0.12755442861982272,0.006098942508018568,0.028468972109745035,0.11809562220328691,-0.4413706729861645,0.13151116876193478,0.11522197099073052,0.18772450734053828,0.17014468794660276,0.10563387015270671,-0.21149879796764945,-0.03841854825213706,0.023589356809494297,0.2437926366977598,-0.026742181684981846,-0.026500670260868272,0.1644580374742581,-0.021601899790482746,0.18666366049426947,0.021255217257488506,-0.01957865093629111,-0.08955535020690472,0.24626937025839254,0.09508339690877986,-0.10336887471901116,-0.12922088757735367,0.0879569568457902,-0.15350281778008495,-0.2771023819721537,-0.587430558411,-0.15144866905482246,-0.3354366726331601,0.028749204631807326,0.1850686954849904,0.15218931560393245,-0.03770975797563745,0.2263236332466883,-0.02329878915800778],[-0.07382219771786977,0.15304989393842255,-0.022368310814182838,0.007348788467290579,0.17959036437651502,-0.015118219543768832,0.04067699481726802,0.1002251555512722,0.16988650710904343,0.06504422177077025,-0.02082797253742992,0.027726502652618733,-0.17409605217013244,0.001618167059738628,-0.2469927514219887,-0.05196323941885927,-0.2025588521754294,-0.11834100726515037,-0.19003327281963442,0.14280462098169436,-0.0909597143237963,-0.1779803720919924,-0.11382409378458701,-0.1285150622766037,-0.10228765649927855,0.25424982887666203,-0.14158041325501816,-0.015360091329135394,-0.1838769748833726,-0.00988605708726506,0.1358735541121611,-0.47040562201746955,0.06925809537921027,-0.14717525910230203,0.05233024134935298,0.024307866710130875,0.1240792384544202,-0.2793794910781556],[-0.09919828954890662,0.19102870192885382,0.2792683478289057,0.2512390112388028,-0.16394293324398906,-0.056589923769084866,-0.15122499201536602,-0.10984623449752773,-0.20720489660162955,0.2549935221904299,0.280717661682886,-0.024621555047033932,0.18208696579200734,0.18946224328897937,-0.14547110220787346,0.1246358428216305,0.27654858583089764,0.09927171520507956,0.18346849731437292,0.14305926444124684,-0.15162102583612122,0.05688874663256833,-0.14836847474854015,0.06239048825584015,0.03769395768951725,0.0776974466336958,0.04035114900985875,-0.024033044437999685,-0.36728582236427326,-0.3508590183394393,-0.4881369573512449,0.11847173015607146,0.2687252936878321,0.16854985606773434,0.17781263075058215,0.03399264089894397,0.25357298114432314,-0.028069511687459962],[-0.25850912116447533,-0.1109419499903549,0.15281527902724423,0.09306983984868947,-0.07753875897700271,0.25539753869932896,-0.1806651699986198,-0.04485192072709944,-0.14062405373796152,-0.28664017634317085,-0.09952729915628764,0.23205034985464695,0.11886000529690655,-0.1803658759805391,-0.07286993830379616,-0.17268346968543563,0.13283735140816327,-0.1336466594717377,0.030904632274596385,0.1792631208622264,-0.07976705993073975,0.272957684674902,-0.0126418402212998,0.1991884279418348,-0.04376684080878534,-0.02388911411698955,0.06827967678664415,-0.09177707500775378,-0.5000265777950507,0.20092186732629433,-0.09107773162580225,-0.10365579741946564,-0.17451210611034934,-0.05557452332446037,0.08497889765168037,0.03684899096800632,-0.06709327899313892,-0.009603271914964302],[-0.1464750597199242,0.03084279162446407,-0.32078784616213785,0.19344787374555,-0.016773873176694883,-0.06307514711563782,-0.08686045054600668,-0.17618638945236004,-0.07383054791586542,-0.24893485469161178,-0.13015728963432818,0.24742005230111613,0.06421972378650986,0.11066601878427514,-0.01729056004028485,0.12166547255690602,-0.00679141062284207,0.13050050694925733,-0.14696247543408547,-0.01977297335226743,-0.02017181878851549,0.048324861429300835,0.5176319156458952,-0.12501906964769627,0.104635204543045,-0.08916409559017859,-0.16135680218836781,0.01640903005763105,-0.21655992393089402,-0.12256782373075484,-0.04858979578023613,-0.021297727764953023,-0.28730042811094103,0.09730792414797457,-0.004676447736386393,0.2326410571797295,0.09116284779221107,0.18052904691091468],[0.024279564401074694,-0.2445761737013118,0.09906563405224922,0.3162209389786592,0.08791743322461708,0.11531121802910015,0.22687211065895613,-0.05460202827468661,0.13358160346208417,-0.01945705943364027,-0.21532484045208058,0.34001329931856433,0.03787270319018162,0.06982992702254227,0.36940401138975043,0.09479945230089544,-0.43861946761032555,-0.2081457912545849,0.1745758079524824,0.07675774220851718,0.07164182296365985,-0.08343267844532137,-0.27352670609360746,-0.035819321932492765,0.2692457861272791,0.05573075929598243,-0.07199157435983379,0.0255698359211062,0.18286917433578972,0.03128574321963884,-0.124262899905993,0.3104240063404054,-0.18716302379136926,-0.16470357517061912,-0.1396565141822033,0.011460770176077068,-0.07795802213691565,-0.004539255300470512],[-0.14154022283737622,-0.07208733471135545,-0.15428103348392122,-0.11215056131783478,0.1546772828487759,-0.08699441532315563,0.13499019607106325,-0.10363793711726968,-0.11447380420521992,0.1617529735930835,-0.1746301407895656,0.0020741103063952986,-0.15724156960662328,0.01926087958678147,0.19196169382253048,0.3139996780107968,0.16221646185943742,0.09664631855020929,0.044220288218208836,0.07310711178669935,0.31176782604489484,-0.14957932084327596,0.03060014176964769,0.01239232456320069,-0.19415524393223418,-0.06959206914543249,-0.10490226128976697,-0.024065471729816688,-0.40060675968586956,-0.3610858294157137,0.11446796861592148,0.2655411177528683,-0.14493868996119197,0.05521625838032716,0.037027564023494365,-0.16418827265135996,-0.1104714190031632,-0.19567216438923418]],"b":[0.3361817226327852,0.2546343161285082,-0.051822436697391144,0.2287212750679313,-0.038710831396511707,-0.031609590901199386,-0.11699021759073741,0.11506290928595911,-0.13874250274099756,0.024934453530158322,0.10053232221913874,0.282675795754307,-0.42997366944477866,0.19000303555700646,0.07379469668472549,-0.018404285128971243,-0.16159393462422933,-0.0627551123732941,0.0357225716618094,-0.06540406184399299,0.02418860295924981,-0.015412979907429458,-0.11956463174783401,-0.02323769883372631,0.13798704103310774,-0.1392920285290907,-0.2557065959926733,-0.042410139115975555,-0.12097507204832415,0.11835260705991293,-0.2801565691460956,0.26234377700236994,0.32104351007499565,-0.04022584981526862,-0.19028321995973896,-0.008536702789204917,0.49990511238061514,0.16860940555242018,-0.2519387112854524,0.12849797892850648,0.2917455269471006,-0.21920780425703795,-0.552669443704569,-0.05903473750481236,-0.14923621808063725,-0.1328547580326297,-0.0543410894488429,0.06227954786357386,-0.3014081145348375,0.08597178847492803,0.0813447156570379,0.13374178215389593,-0.10151969109160335,0.015388848079716983,0.20937860127309377,0.2815484965446105,0.13676981121188828,0.15188669886480646,0.16667865150881467,-0.020675672129418062,0.14099059441687176,-0.08653731412513138,0.022953618792279532,-0.04269609105271348]},{"w":[[0.25200227228701666,0.126007508982791,0.14111215962441007,-0.22754569105681946,-0.03810655868078835,-0.21626918465367795,0.08712998019457956,0.10432473457637609,-0.010708669189934716,0.08197829413775934,-0.46518631789922293,0.29460541804349827,0.057557058494109595,0.1086053372081304,0.010839574694321591,-0.05610101704948636,-0.0381409430347563,0.05140762504119831,0.07912561570072725,0.13758705285049544,0.03606030800989392,-0.3027154972270221,0.2536647255082765,0.2020259089790998,-0.06021047840288908,-0.3097611403580755,-0.03415169161291971,0.18795566683012396,0.03203442309610293,-0.33428712820037093,-0.20527667660964702,-0.06440732215338861,0.013737342551746062,0.08834536956684347,-0.11074069296646219,0.007197459607481876,0.11469283435837573,-0.11928550155107616,-0.039492978127911374,-0.06394534371385445,0.1717623909789142,-0.23157166043456934,0.08673572027976442,-0.15450809546108552,-0.15375010051483118,-0.2786517657274475,-0.031183638646534735,-0.031224684800117693,-0.1206138650857168,-0.1708310389235602,-0.14706339500554427,0.02310610605643688,-0.18496178390019327,-0.1573486795567222,-0.08857732455615591,0.06798316334082298,0.19373690111333597,0.15816527192090785,-0.11926137062915487,-0.3924993823936146,-0.21143209000011876,0.08925980221517762,0.07696701664224838,-0.1194802436043808],[0.18327146540588127,-0.11488841915783307,0.14323121853823065,0.2690170750910626,0.2097504089187914,0.023306859017578382,-0.19552181409522032,-0.2294808470707431,0.049924950469735836,-0.06143304592403889,0.059162235312280015,-0.2713879091107608,-0.17531402142928318,-0.0006355641343966992,0.19468701164020605,0.12240101870974471,-0.011952693922175876,0.018343831610005325,-0.032499185848433934,0.07941163855740299,-0.012511670990442748,0.13378284347639327,0.006458210087467457,0.23089072311472747,0.0815659779492049,0.1050856436948751,-0.02100067391222905,-0.07417974055016052,-0.0021818629455812623,-0.07420516292076886,-0.13947535712666814,-0.06870083836109607,-0.015879551016777196,-0.1225588041689381,0.1402438840487611,-0.08458169988065911,0.07773154367688553,-0.030246847677756497,-0.1183957299773136,-0.035150729005254136,-0.34932881964681395,0.1348851215115394,-0.19734371720880184,-0.09666660401287962,-0.1723685500511181,-0.04066135696879836,0.3341205792138387,0.06810353217527927,0.019054988222477004,-0.1205789084196744,0.07439366087953894,-0.0033348849508489423,0.06384952950803036,0.03981481021811325,0.05727419384005105,-0.16001024765901614,-0.2232565710860289,-0.1366370602547287,0.060069463965177004,-0.14991347636791377,0.1291890501637966,0.11463890689983863,-0.37149865754662076,0.08187325849806741],[0.23281324414484694,-0.1027087678256656,-0.24019123234766837,-0.1756289974718655,0.02329116491446286,0.2595737788914803,-0.040092522760821786,-0.006654957888074999,0.010919997141517087,-0.10467767744282187,0.19843808065246166,-0.03519293726608409,0.23932365232904088,-0.07593925079384192,0.18044294244195094,0.17572210004795558,-0.2850021500429267,0.1341868692583005,0.1481474550261971,0.08381462633611272,0.19334900127091567,-0.10609730725760166,-0.013246737002013984,-0.04186385069702306,-0.2665183707888519,0.04179021086918717,-0.20471648407599044,0.15820755916273044,-0.19560703414867056,-0.0873372124967707,0.287047261429469,0.18137606376152496,0.1472573425186605,0.06306774705999174,-0.2546842974905764,0.2690606995463618,0.31256045327165155,-0.18470029648589917,-0.05048110230780616,-0.09535215059992143,-0.16232223468023105,0.334488081139555,0.3507840282515746,-0.03880799369855938,0.19021623370917695,-0.39430491793634054,-0.07898094013558773,-0.21272954050768902,-0.17325670101318713,-0.015249265466805374,-0.05070937281668645,-0.16234435448467338,-0.36454888434287236,0.1753254489869004,0.11419571754756472,0.02413749519880706,0.14120355776146065,-0.1228053229707095,-0.16038911375246548,-0.20296904982072125,-0.02306377700821002,0.06416524504817825,-0.04483178218997749,-0.29966609140044914],[0.228829439199619,-0.019313082600795128,-0.684069941341409,-0.06203904686686892,-0.05844798344609967,0.049914027462517475,0.03139415868672943,-0.11305625828140546,-0.18738159517136474,-0.052560197391857785,-0.11453093620668306,0.19649890765683195,0.14487220854051597,-0.32606217268977394,-0.07692017739026974,0.2799682839486896,0.21794800923846794,-0.029387574607292043,0.09850957319443675,0.05064146939822328,-0.12123510527891032,-0.28653988835933,-0.021001742964626122,-0.23876411965815167,-0.46464909654288306,-0.08978642449292022,-0.4445193915105693,0.49974582246880506,0.025147688831401574,-0.05281589339064491,-0.08521861793279321,0.18369576165908028,0.07496340223199091,0.2650522042980169,-0.677707366920208,0.007545201780337119,0.009947957762511995,-0.07395881252290377,-0.15851301043952662,-0.2835726959113547,-0.30742048382772175,0.16565686520248404,0.3788686333284453,0.24630446114433754,-0.01782294584510941,-0.058845280298386336,0.2538734092866261,0.1374781114045486,0.12656637249241584,0.23619130147351555,-0.2672492570307167,0.02576062871292816,0.2213219030643829,0.04219233945299843,-0.07198142983248115,0.3057417211761165,-0.12095649144100341,-0.19773192538742773,-0.06583504471017969,0.016399367292110164,-0.1453662770317329,-0.3632679829739432,0.08209082766655643,-0.07353090937522531],[0.33105157114783074,0.12381295522658205,-0.08969507520304723,-0.2373147440383047,0.1742815907562326,-0.18664870086483823,-0.05280211547465338,0.40672927613023424,-0.22198026019985267,0.05813207331429777,0.23682391828664914,-0.020096432729711268,-0.3417519173867349,0.11288582767709518,-0.33880280534885887,-0.07283672783640771,-0.1513068672515531,0.0002260621153337486,-0.06370364802166249,0.2329042474070917,-0.2630012261467612,0.16472648701299838,-0.2698503458942401,0.35657209704983506,0.026219601758283598,-0.02398644481660515,0.40591326950281353,0.07348981037164697,-0.11925303468016003,0.2282259623343631,-0.2656611255661549,-0.03460237981936177,-0.06272423371535622,0.07212691244552674,-0.23491326774666482,-0.34929396333273377,0.03907586407073627,-0.1575603138560922,0.0005705134255446598,0.18886670795442334,0.361005000478779,-0.2528605090820056,-0.01703777306008539,0.07332063011402319,0.01236581893694697,0.2837523070563067,0.06546587475737341,-0.2052507934901347,-0.10885140906710629,0.33220525878741874,-0.05998344026448286,-0.009917508366186946,0.062403687587678884,0.0701243408981124,0.1487539526923654,-0.14276253666912778,0.30237605680537283,0.014807842389909608,0.1740848489893818,0.005833891938203713,-0.1997426724856241,-0.0459450087528429,0.011453146330151799,0.08209731010416053],[-0.2290505382395163,0.1196177622099237,0.00735703956118537,-0.1326246500945205,-0.05648489783369724,-0.006822085171556609,0.2426562396642938,-0.30843136961725265,-0.49151774850364166,-0.36534664262077293,-0.01361265099090829,-0.13873367630765923,0.16506716139598399,-0.0886338687208452,0.05265538520468987,-0.38140141389055066,-0.08800087368372343,0.029541987887898535,-0.05693027770125936,-0.13340612135570407,0.19042250008375022,-0.07530521820425506,-0.12231938464660343,-0.15523119352138198,0.17086065160159955,-0.15385802998541936,0.04530030145148136,-0.1523279545880331,0.06906500005039168,-0.024082307123449172,-0.10210703839517929,-0.27603235124622544,0.061349700304372215,0.2592275805629519,0.23099691902585817,0.040204359682370794,-0.17352652369175112,0.030679003992413537,-0.17459360072787014,-0.00291803184343729,-0.13605731494994497,-0.06982739090348127,-0.44969966964982067,-0.3775533129604583,-0.006553789348980699,-0.3515290078131237,-0.08448133050529855,-0.039503601997878925,-0.4177151814174525,0.3007908808941746,0.03951991897940331,0.017023152203846433,-0.004309071604792546,-0.006184226260302097,-0.1200179823847882,0.18996398393595806,-0.10545907588072365,-0.07553519502452453,0.1870418670724986,-0.32563519454741446,-0.4561444467321001,-0.27274671300193865,0.05537516409237317,0.19451641958499521],[0.18962942168018554,0.20083470482855692,-0.23189041169111857,0.1878318169709163,0.17759687914890754,-0.12091437450814954,-0.20412725954602795,0.1966683532961127,0.23362328487002715,0.03957995113577551,-0.11095398523656548,0.09547937599351726,0.28484398866731925,-0.10720708691654465,0.14267067646691062,-0.004225748401219674,-0.16040374128779994,0.03937361529380018,-0.12405075131823345,-0.007531509759170393,-0.16434012540638349,0.07990663644279479,-0.16221338973997268,0.08398429630458319,-0.12847959992264313,-0.07527941556881933,-0.08175168316981679,0.02778854462605453,0.10559602517284192,-0.05170171419957004,-0.4414816677181929,-0.11615026550203607,-0.05793352021131464,-0.16764414990149723,-0.007259493948035897,-0.18733894452135608,0.07492409054472157,-0.009635756801314215,-0.09075963751014131,0.12118482665004965,0.23805309388866,-0.13855395997521147,-0.03560189108657194,0.17167440377050258,-0.016802887016974577,-0.10872991925347973,-0.17189077921316684,-0.21611340093715659,-0.16886000622024464,0.10127171569900649,0.13624850424193488,-0.05644836652475129,0.17016432657291522,-0.01746736017656892,0.18666939026546062,0.04439613045594827,0.14893790200917362,0.22146175245208863,0.16191326089531924,0.16093382247744556,0.0764151127510782,0.24099978715357018,0.19599829839505203,0.0946167947076389],[0.33865398680645153,-0.09703611841284984,-0.32478085468064516,0.2432606666079286,-0.20702489712290958,0.03518854048834764,-0.10122151129844323,0.03298377107057136,-0.05635615763890881,0.18022829343920935,-0.0400865881769044,-0.16771023155738216,0.35654930368017573,0.19179952886933813,0.09274722608697601,0.48947739168001847,-0.5186170327136926,-0.09681709091595433,0.12868969781245376,0.20715885561350134,-0.0985731016971143,-0.2571924440066756,-0.05068000971293012,-0.2258820088484397,-0.16263891579374956,0.1673788876957378,0.01767083857123668,0.213118102824734,0.039224419473257256,-0.2844731420744737,0.42311725718496457,0.06440230130956393,-0.07245557409131725,0.06785217617424368,-0.33332262468060564,-0.05035102645301712,0.2927387119405492,0.15928756698808902,-0.19819005188560737,-0.19304974949955125,-0.192340849356272,0.1813941705810342,0.40302766642384225,-0.21022027436214108,-0.07220801393035153,0.16466883061861848,0.38239882585896856,0.06570382043645942,-0.26289812072075897,-0.2625237804805894,0.18176309650310876,0.08033241494462585,0.03650365588119012,-0.037122357908410314,-0.20438100033957204,0.12236032108589685,0.02048848303376315,-0.25309695907276425,-0.018750349060374132,-0.06001019614513366,-0.12070091573986479,-0.10749976373967884,0.12621995352470258,-0.1780536767608625],[0.1646924088192604,0.09584153417680272,-0.042604462759260005,-0.21822875858576918,0.07225961123121206,-0.06511635155768287,-0.0928129707615918,-0.17738004819236955,-0.06973409850859776,0.06071611711695687,0.18820639591783175,0.12698817107250135,0.03017740169599769,0.059639035361147286,0.009914602802170616,-0.10495000612342993,0.12274472853676031,-0.0771922908913845,0.08776319625974559,-0.08093152278174517,0.2081616549652878,-0.09073416190485263,-0.0560251589544396,-0.2033342434867022,-0.023466361593677043,0.06379778317643534,0.23479758045315047,-0.11676708870595862,-0.013427156466380478,0.0336138332728887,0.14456344381516217,0.017077479120209727,-0.129330423063071,-0.11223376890867215,-0.008428241916310529,0.0893747757469131,0.19607779532824973,0.3000306690582408,-0.15844482252106848,0.13924707303533704,0.15374921548810078,0.19631234856638935,-0.20267143024279552,0.022842176657914763,0.07539083682499532,0.11039341272974226,0.010567704787538589,0.011848637100722743,0.14215769645828694,-0.043938351732689895,0.009485907316543047,-0.15634353988135058,-0.26853630232350423,0.02618528601145853,-0.12004811066049058,0.17675232394193302,-0.033582130977293706,0.14448160735622223,-0.14358353596824086,0.11365970546476455,-0.17264193548777051,0.20212584702618305,0.03381438179266548,0.01902649623121598],[0.027632562576702078,-0.08876429364548344,-0.29727980698546197,-0.1424826113608239,-0.008880718676603845,-0.02513716795113624,0.16454702512850855,-0.22197843453269014,0.18619920048831665,-0.5121279656634473,0.02482713725208768,0.3499211170495842,-0.16970323865799716,0.2378868886304646,-0.3016708847457218,0.09645623553271693,0.04953609068044715,-0.20159009550417006,-0.20450308634557188,0.20477756820772225,0.130724746482517,-0.1014027685369975,-0.01915264098874759,-0.3047274241160289,0.18741317135918203,-0.41305598445681685,0.12329138587051694,0.17850652444963022,0.12229096641244572,-0.09275494623835685,0.006144383808184764,-0.14371018321653245,-0.1596329624782648,-0.029397132055401246,0.030434414830334103,-0.30428835137023846,-0.02292910017143617,0.07467347549277557,-0.16776180276546,0.10055920257075106,-0.04464111454136489,-0.1855736253782358,0.13304462857270363,-0.09166668708464401,-0.23447357696892374,0.07015604657612,-0.16590043713777355,0.2801605800755116,-0.29681126401561386,-0.13452634888828016,-0.2331445910247356,0.11992580174564549,0.11284536467764761,-0.10604441254994078,-0.03703567223558932,0.11708829812610713,-0.012845383266153839,0.08061023222333591,-0.18862000151147218,0.1926348583706151,-0.0477333026640856,-0.005386857994031369,-0.027148053762188037,0.12297834624488528],[-0.06667092126465071,0.11382229186097342,-0.019143215657009847,0.12988842612180004,-0.07228010727111207,0.11411035872617231,0.07841370463844038,-0.09552064873707183,-0.22174413389704126,-0.17150524745770745,0.13296851912465668,0.09882619233991874,0.04537570406060423,0.15684105096054918,-0.3862039896482219,0.14605646186540436,0.13064854809919632,-0.3294250914558137,0.16075882536951996,-0.19733756073927583,-0.15451048257031885,-0.08217474072192539,-0.036417995900074496,0.23884776714502476,0.057964563463099826,0.06541963088237218,0.16574328447606154,-0.4600267426538543,0.15181745141950195,0.08984389561566399,-0.021948009713764424,-0.04964777530198713,-0.1320779877642477,0.14585146545850403,-0.19813406353214194,-0.14232060182684736,-0.11476268990055732,0.007569971163587556,-0.17149404604266233,0.038713841577529204,0.2649605048457338,0.007455481420831844,-0.12405374109487291,0.15815661020787244,-0.0014825695494705582,-0.3579298204922106,-0.09017092393075733,-0.3094022003624099,-0.3148670587431723,0.20894641055487664,-0.1380949091447552,0.17810593346836634,-0.265055137782924,-0.08918933669286319,0.11408552600024895,-0.23229367677316706,0.24115465301814004,-0.14425541257336316,-0.0569739790973823,-0.24951778310946743,0.03987612726691944,0.13920866946562754,-0.2487378222711278,0.15858224939161958],[-0.11892392897334988,-0.21674466611235163,0.20552298906035912,0.26946444763060595,-0.08189987991027867,-0.038137826077128956,-0.058391067023363274,0.07514165592802481,0.033509536255313076,0.1450970674345399,0.006631587121558072,-0.016477383642131582,-0.24002433831215214,-0.46588415626206264,0.10558452640474059,-0.2628399261649458,-0.0414731748286971,0.007286950799668467,-0.15187099145336683,-0.1420263726177564,0.20589774064875213,-0.02738080872126384,-0.010097438126987974,0.25314634085700555,0.06420906660035165,0.15093626816548278,-0.38409672051890487,0.17322534409619095,-0.2323253100408634,-0.09110108693826334,0.02294070484521011,0.027651817486657945,-0.2388445218258921,0.1827199558712458,-0.29030954125681546,-0.3147046286059332,0.1424503644400356,-0.246147647209759,-0.4447359791324909,0.043901732389852705,0.07194401839703943,-0.0700025900631842,0.005885912183377352,0.2660637060221449,-0.2028476491166835,-0.09761451482743129,-0.1705168023035075,0.0662935825704915,0.10076850562615026,-0.7014618407648595,0.10702932001690217,-0.30362996886722143,-0.15951432575603092,0.024576152600828963,0.06991494557058031,0.08306031047116848,-0.04983719861837045,-0.2499023952678923,-0.028157601621835896,0.01273524479778154,0.04851870231319404,-0.005228310961029407,0.16208171523483267,-0.019211893703931227],[-0.4892705704576067,0.12361156531778575,0.2494282052038645,-0.2726020671100816,0.07133344148984057,0.06753923959158674,-0.32898934799888385,0.23487763027598801,-0.14528763493385674,-0.20387064615906583,0.26279109984833304,0.006329206862813815,0.05320591818747444,0.03751729870978938,0.13109193036663627,0.2719634123072157,-0.03776736100816525,-0.032779205288712934,0.005873499431462947,-0.15760239623716737,0.16555157153967415,-0.040324423118172754,-0.12024323058150344,0.013990711429597059,0.020827569851376293,-0.28364162856200376,0.2706758811540803,-0.34388038744121263,-0.06465637351375578,-0.07705213356933069,0.17932973073890193,0.16066065220456777,-0.15078454094794214,0.0805027763343659,-0.21371678691408438,0.1828149672035739,0.13966020693297482,0.2616096114684522,-0.14293995501932083,-0.1508749595525672,-0.15142478497295694,-0.35373981616081307,0.08290037580513594,0.0815037561868886,0.17796412486789648,0.04764065220785026,-0.05671218723634393,0.025549539201480582,-0.3580637025133292,-0.08089411327739321,-0.1975287536628997,0.08044535411044375,-0.0074280028610622965,-0.22908083203775642,0.2065622751485126,-0.046732388660935466,-0.04750495150619918,0.08520108526066097,0.12248955765488194,0.14761952971785638,0.09555092032402922,-0.11429079059287722,-0.17866761010951204,-0.1585012879577797],[-0.009060378195291142,-0.06580817494322169,-0.17320259297822277,0.03460786085771991,0.028590466221166375,-0.06702891686586804,0.053809988068110666,-0.22139728643880094,-0.24140621958484842,0.14929629172534237,0.19818100318052345,0.09026613407121822,0.13165930098266354,-0.12267794574963892,0.0071167249975762565,0.21866408307404556,-0.22541249580963074,0.45546658472618246,-0.23230159330853173,-0.029670683543164964,0.04342671531054952,-0.1329352884273112,-0.015056939566897428,0.10093940691815041,-0.03501652934242657,-0.000522224038929936,-0.19215146675403216,0.11938508933000533,-0.04880562077475024,-0.26510601918609794,-0.024181329876699874,0.026868507384237076,0.25871672116513633,-0.06490576331627627,0.21844083334789574,0.10223874810605156,0.33897130467635883,0.25406619121382473,-0.151278847532557,-0.062195046187530995,-0.1273060439851317,0.19054782002700485,-0.1106099390793729,-0.019833497755919208,-0.03760470012561728,0.02844810728714612,-0.11828647761961553,0.25353664430393597,-0.02335693068429716,-0.18943436266480163,-0.11421722556890992,0.23073836877663412,-0.21507036196409426,0.17213293441494945,0.09456751805417733,0.13600659842119414,-0.11759919271517676,0.10114704383597643,0.20346870754915633,-0.024021832172440256,0.29494956521146476,-0.13485652492494793,-0.17092860909470178,0.14888746719147544],[0.09662068702155338,-0.213217568024322,0.13483914579623144,0.030875598663125614,-0.09103835298607779,-0.041444616337502606,0.11022569560256895,0.23005382767039484,-0.30145543110677864,0.07878063087468883,-0.17473988296791518,0.019563478452479556,0.047289198709601916,0.13688458682552287,0.2568041447943866,-0.02474028223438943,0.052198290000593076,0.04480345993985607,-0.16500359525452096,0.052935012228244295,0.08505184349571253,-0.27456509660446365,0.045982236232238294,-0.0872803650567917,0.13042156232795693,0.1550124401791875,0.020878021506250437,0.03559547078457666,-0.054878664965877115,-0.03581778345605276,-0.06215561416310089,0.2806228087044786,-0.2553235738850832,0.03388108245048045,0.1120711941031595,-0.15044425585238919,-0.19912288185941904,0.003851674704986746,0.27657687827213034,0.2605520819135216,0.2773091394978903,0.10997941405374656,0.13186317315067986,-0.05189854995325009,0.13997292771473727,-0.15626609901736352,0.04996478544077752,-0.0043397915462793715,-0.09976543684161523,-0.16388728801007105,0.22234094343429858,-0.2871829446078066,-0.06472085663773942,0.2111644598014781,-0.191668736714748,0.00933934657017749,-0.2584159335341457,0.24256309619873836,-0.1724303682860215,-0.30918419124742547,-0.07844604000028232,0.07465807377732256,0.2624864508998059,-0.040548502870054556],[0.0322622080885804,0.24324226220737186,-0.1793544605740862,0.28797602825948243,-0.33386013954234756,0.21409640511845718,0.11898518247421594,0.04035127169976347,0.0959070736502975,-0.03924217971553098,-0.20958883358125419,-0.1742855617277342,0.08780550579988776,-0.029106340781727327,-0.18809421690332867,-0.10666956978932289,0.026897295655193065,-0.04327964310503094,0.10974513911206901,-0.07850950865431221,-0.007004642242239607,0.11346544049337591,0.07329456453176077,0.2466599342400305,0.1816247957744583,-0.258922752435103,-0.011369911182292337,-0.1863387677821913,-0.12608417566463545,0.06125157482523235,-0.0867422235052755,-0.2126290071295011,-0.12642944875210904,0.0929542332996691,0.04912585312584402,-0.1953924017414028,-0.04083980128843979,-0.02797528347204759,-0.12246735362076396,0.20639514160314984,0.0495276676813783,0.10763487286518529,-0.27565221604567697,0.01469198087241043,0.008129290923907385,0.18661168295067454,-0.37963343629141477,0.1278466924532454,0.2634502499734576,0.06433845501359772,-0.09649840338592125,0.120912683207477,0.038991744947140375,-0.0032545793212535043,0.14834497490812323,-0.1540460142644472,-0.05350739605874663,-0.21930940515726446,0.06451247338639214,0.20847204239106895,0.21779371502633324,-0.23437684076367293,0.07112500186778538,0.13797318229957672],[-0.8945909726043969,-0.43659287404432484,0.06894269565214302,-0.045671371263505574,0.08223998953750723,-0.058063306800334724,0.3393511967112151,0.16732527617382756,-0.2860704115553282,0.21904493387830473,0.07613848529347132,0.08756954523253098,-0.05523316691590102,0.22720273983049455,-0.25202448682947026,-1.1625077995825237,-0.11155602644258794,0.15484081407191994,0.35947175212941174,0.008630067396655186,-0.16237293936671943,0.15843913168643595,-0.22029769071034727,0.23890449562673519,-0.2657661972569511,0.16090278340740688,-0.08577691629740075,0.09509924596839765,-0.1672516676325533,-0.05511910453313969,-0.30345152657466096,0.04861749860352974,0.16582540300213197,-0.03220338754043807,-0.45049901821623545,0.11877984184888905,-0.013485318275794049,-0.30906609493944254,-0.19844124238591426,0.3308588060625304,-0.11469891498801116,-0.5483058166401943,-0.6000459160519471,-0.3451358189356867,0.07967017613035315,-0.35738757020142103,0.19404038147711364,-0.183248053393949,0.023209083855447676,0.030199498011255314,-0.37501777690881855,-0.07191770223943629,0.184121144264089,0.15328877016814046,0.3228037549219572,-0.3360023331758807,0.2580595525347038,0.03726545428739918,0.018626193853128976,-0.10521466736791528,-0.31413868683236423,-0.121177274257973,-0.3592898948586957,-0.25073391471426093],[0.21475160944062013,0.10755695435761678,-0.12500922979976173,-0.018915732652285078,0.1883511863294989,0.1558566317906134,-0.016016541774233093,-0.07563141718238203,-0.029896865405782357,0.006796834567329246,-0.2267873950371454,0.10684371708513364,-0.012571908294222497,0.014283483908321175,0.1978089756846457,0.12564164016375956,0.2216573110203854,0.20641666683085258,-0.003189011455696186,0.23488049023365287,-0.1124556318200495,0.04887942454674034,-0.13964555651621718,-0.19872225028976054,-0.14426327541608125,-0.2885129262590772,0.1738881274098956,0.021183405273021517,-0.19256180773419293,0.04799802621006769,-0.048690935750574815,0.2429384074015285,-0.07529206950062695,0.16896843143779142,0.3105973753933333,-0.1955971951846043,0.06947146325595432,0.14471433943138914,0.19208029604034593,0.26958065234063566,0.2318591696792683,-0.06897594473107542,0.007851783113346111,-0.04428354807891136,-0.20691583003564212,0.023996197342698485,-0.07860435672364278,-0.13387903570288423,-0.18663226359049936,-0.2599543238989501,0.21992184273965285,-0.10700630640914217,-0.22668244861333087,-0.18416263984111772,-0.01712895271017309,-0.22257915451477464,0.02698368802080649,0.13592243867301482,-0.21686661418493938,-0.10951957074945595,0.22886483303194388,0.09930648935446755,0.1364682642830259,-0.15496091215458507],[0.2798712755955759,0.026596961699217537,-0.031731522062230934,0.2624267859434521,0.1748944393437806,0.2613866150138543,-0.13612201537240623,-0.2246075788147433,0.1308198470886007,-0.06496046113204088,-0.4238677525453111,-0.26385807214171125,0.2698026131030952,-0.026012967612248222,0.05478203727373179,0.021230847139283103,-0.21060482079803375,0.05973527223395728,0.36058085069090445,-0.13889370733977174,0.1203166812402811,-0.3175309726620824,0.3213336203600983,-0.11439280328586436,0.0414822553718681,0.08361247195129855,0.07773007549742898,0.14456425086380906,0.024779397132361262,-0.13595822692205017,0.15976689048119513,-0.14605179967999593,-0.1634431517859926,0.19611005854352753,0.09633550671301114,0.08884735124433364,-0.11152627513805771,-0.1746685147601247,-0.11530809466101759,-0.09068920945125276,-0.4194463463878868,0.16292925907791525,0.2657183691274475,-0.6112010859540488,-0.018170150921485835,0.1844503521308284,-0.12367123983015683,0.05350442165745271,0.2872092128223848,-0.041809844604601666,0.08312875772895707,0.1285541503364242,-0.10965255716840087,0.09769126511875835,-0.0843781829178295,-0.018310105221798167,-0.18472815515402133,-0.21126176188998827,0.09304700605562505,0.07901744683796975,0.016150554083961897,0.23301580799439353,0.17182402792527035,-0.29086599192260226],[0.09778282747369174,-0.007637793252870841,0.20615185375793713,0.05233514007033602,-0.1224294772035446,0.057332313509470566,0.017407314277902666,0.12013784856324408,-0.05632106044439133,-0.10913604305615549,0.09511303679302502,0.2545048238203751,-0.16403137182634192,0.2712450584192107,0.11070580182791576,0.1817322340413766,-0.1492210237475144,-0.10292803184151164,0.07543276635028785,0.16000366124982998,-0.28028725690205,0.048153955601600754,-0.16560701104711512,-0.10414818619607476,-0.1185452832554294,-0.2034833368112142,0.0447056760045839,-0.17765010083079297,0.2492797368190214,-0.17547749154056067,-0.295760289458814,-0.0488615157823333,0.047873626458676544,-0.18405423859432365,0.12000628626318437,-0.12180917809258747,-0.06687063400096555,0.20042765540799193,-0.1918521436029271,0.27043041224658376,0.07188147697982399,0.04356561509203135,0.15051519227038912,-0.22019381555350245,-0.2929515289515337,0.050241663092227336,-0.4595414623503835,-0.19590783073711873,0.01590554757645779,-0.07821459740821297,0.03949774032689195,0.11512503577016181,0.1850112378485183,0.2084967154343191,-0.12430778103234584,0.1475074898579725,-0.3165580805788529,0.13122272515687813,-0.08570642142533294,0.28529444269409415,0.03191451864290561,-0.10611212312572857,-0.029912381391633668,-0.11279146676852982],[0.03517208640130121,-0.1917049345332163,0.019328019525517444,0.029832398874620712,0.03782755546109669,0.19403313662614305,0.09588877029395007,-0.2066648585032274,0.004768489263473564,0.3165592973551499,0.203978057175181,0.12155416719913209,-0.22554115567245459,-0.3968621481403974,-0.2233694747500994,0.1939963938542706,0.19916057844612586,-0.01376879542330767,-0.02310218634920889,0.09377068144861464,0.033266081526564045,-0.19082138663116582,-0.31262951747880446,0.16916305786410635,-0.0010688883189347307,-0.11618227916374547,-0.07024488400830363,0.08325537898784723,0.07628063566328909,-0.14335064599690456,0.13921714150148198,0.17023309454770266,0.14471069151259522,0.12300351540750039,-0.10721111548579065,0.030778301006080745,0.04990072146118892,0.11776338049753829,-0.08788742270656763,-0.021513931268676487,0.13553418289354421,0.037550769951190034,-0.02288630042128483,0.12452946534462013,-0.10988849258288673,-0.20053966290704303,-0.14065698989539938,-0.03344215469363322,-0.4391326127199812,-0.08377920734406374,-0.005589529617124459,0.25468416591765664,-0.09474235636977671,0.07006085723263043,0.25277166993463873,-0.034485321028162215,-0.03549566774074713,-0.22383831289536749,-0.20467820727761057,-0.1779535936586136,-0.30418117543157347,-0.09475247491741859,-0.0219051972801295,-0.19409842699978105],[0.022463416449454404,0.10585837493954726,0.13543529830866458,-0.22347992003411793,-0.01335946753085194,0.04492008035655412,-0.053116182953348,0.07086428748387774,-0.0680405168596311,0.241989663158161,-0.25470955798968936,-0.23806378064020578,-0.06575934458583088,-0.2518129981450354,-0.1348451472042595,0.06307391937841846,0.260017050784548,0.11198400937782274,0.18237812478900559,-0.061941196892997236,-0.09045968925829685,-0.22519839306115413,-0.11090534841905263,0.08669079648866428,-0.17869802693029777,0.08714381611971528,-0.11756554163977896,0.20130664530789635,-0.3293565847074538,0.1656732967232203,0.23521204575271215,-0.0807164290286209,-0.26280391530014646,-0.07355325097742481,0.19694671756453647,0.14747764866067672,0.25579504551713467,-0.41782404990148514,0.09036391097305776,0.2232103157529218,0.14191653391021034,0.16012677506645764,-0.1405749993552978,0.14904961258421415,0.04922509043663497,-0.08819226286257505,-0.3412215198626195,0.12394302552521841,0.21516532549071216,-0.2263256504995879,0.1489441963422588,-0.017614891209065866,-0.002991505291886939,-0.001073881316497916,-0.05190759371842699,-0.17237983607074353,-0.1717728384390055,-0.007033693594720948,-0.0957237532040808,0.0244132064231451,0.03749484264957753,0.07651856865124589,-0.004318880899613755,0.01784023226768746],[-0.02485309626861043,-0.05143992608203889,0.07375085272652587,0.09620411982786797,0.06083772827240351,-0.07645138171490533,0.021249728599381953,0.29770094197700037,-0.04834348644605697,-0.1467043345904421,-0.18162266303173527,0.057153580125639286,0.0607377839570387,0.13848405695733296,-0.2708931096574869,0.11074079239635157,-0.05643381317457457,0.2174535306530824,0.04546438724865085,-0.0916657449552473,-0.026665409487976664,0.04588721256682944,0.10698863853193799,0.264706381041967,0.2023174062664206,-0.4252628049140047,-0.1339377608330415,0.08388735133884545,-0.2904753853985255,0.014030014034257078,-0.32531766417204877,0.2688438633992037,-0.19240025509347855,-0.305671897408823,0.16350462757735365,-0.12427669923118344,0.2519386120108985,-0.0238637423546486,0.26112674345707826,0.03349198637472619,0.038877465884286956,0.019838895996076102,-0.1864551823657392,0.0920487264140727,-0.1560508760363256,0.15646769522425866,-0.08461080355882798,-0.10213533932947046,-0.11632563773743847,0.03836703290127227,0.046117821364843645,0.008210441950515507,0.21591146075851642,-0.1720371309895559,0.19686141718296343,0.027556767771129944,-0.3038757380595322,0.06690268567574814,-0.11548532738977253,0.1262011063482177,-0.07673754891681428,0.12248034579428435,0.07937744465816644,-0.10607018036662615],[-0.020557479865753403,0.2504859832044746,0.18004396382985755,-0.08486491941003431,0.022616777334004193,0.10831513382394582,0.2032601208386924,-0.07514058088573257,-0.15496769588552786,0.19859980162303068,-0.12184792250691337,0.1782314671723588,0.09816883977615899,0.12217537770189353,0.2510263566795441,0.22655317779574966,0.11715141579563335,-0.07542105339114949,-0.08093580311221497,-0.09448031635260416,0.2148800982552562,-0.10813009798253248,-0.014223337689948561,-0.02722636595839281,-0.016658877148239017,-0.11970364267376674,-0.1486435136602931,0.18689783322904416,-0.1262980357407279,-0.11459324441349453,-0.2693058914541087,0.055554054707424944,0.1801477316701632,0.2560032631909054,-0.08848184462807358,0.0994808842338693,0.25821791095265073,0.17123954300281252,0.154599314170155,-0.06816805775917775,-0.21611748179793364,0.11261162160264244,-0.1401843458053518,-0.23975203926569832,0.1544009699808431,-0.23000300445176108,-0.13301975970125623,0.075642948912903,0.23957258464004355,0.3187088280462653,0.0058250537609754165,0.24250280905446536,-0.06313951196562044,0.21274593412365903,0.09058085377998297,-0.055477773065613974,0.21335206350282354,0.15863032799684132,0.10143629769042026,-0.058124386600171045,0.33483315205800834,-0.18664470311382972,0.17827060340518713,-0.18920392121255328],[-0.08462140124084132,0.15721290336994806,0.06566440172866324,-0.009319502442948486,-0.01687729582396897,0.0753497153024336,-0.1548466085866489,-0.01731236147273713,0.24373570450580798,-0.015358702902640041,-0.07490902859420046,0.06289537479441444,0.13018293659462146,0.1926517553358157,0.05351541119891285,-0.1295007177673344,-0.2350925197835824,0.22337611302438315,0.032983443341466155,-0.18757662936131111,0.11680964465119527,-0.09542553289011366,-0.11453678315299888,0.006524194503328758,0.10948362748389379,0.08515367781937415,0.1718897928987168,0.07711868500975629,0.07630808590439744,-0.2909255181539833,0.23045508440997167,0.13510658399462164,-0.15671635351141616,0.023594762229466715,0.09877016169563534,-0.24131632926537133,-0.01947337969321935,0.1731267812333181,-0.3037612717320779,-0.0197768234799199,-0.026669135223200427,0.12929535735998637,-0.23319733802299358,-0.04795515588666395,-0.3841323398345709,0.08082175376428075,-0.2830385970626498,-0.08244041211452803,0.16061296266170816,0.11778494296474568,0.08129989106669336,-0.248360308412388,-0.040671422132518696,-0.33530315763057866,-0.06900526666724001,-0.08660686716304677,-0.37443265801331593,0.0953241085371862,-0.006137938935112809,-0.2641572557589663,-0.04855831190489958,0.2774815916340832,0.16013227959530013,-0.22422452066136503],[-0.4075030673503385,0.12441837337189403,0.09353213152238142,0.011991605621708718,-0.3371411259407536,0.0918974479381524,-0.23697756735407888,-0.05732122599776866,0.06657920468434912,-0.43739357603162626,0.21863701269789598,0.10258123741253719,-0.3337410538887295,0.12395568595532078,0.04568306672117528,0.006258591426340591,-0.0916999814675269,0.015351246515938102,0.1320285438807929,-0.19984865137128177,-0.2554227459113899,0.10629760224988226,0.01587666803808564,-0.021705140367163648,0.010498592830500005,-0.18558978530951808,-0.2901339285141826,0.11285425822697845,0.340023592924941,-0.1011389829570934,-0.23867641751758234,-0.18304382166777905,-0.05874086330583324,-0.19525764643198149,-0.18808705046929242,-0.41854206190013327,-0.0809393888292635,0.1134505398737019,-0.20678384238741718,0.03663032526359245,0.2593844886228502,-0.27023800747951593,-0.7502684544554237,0.01187870474990307,-0.16011431899028272,-0.16054047805054986,-0.058296286520279884,-0.14750533040623423,-0.17676885290133115,-0.06632024235076359,-0.03180541451688695,-0.13097016202027031,-0.024472790304389713,0.07965201899205006,-0.009631722086362586,-0.19282559998194795,0.2433622428248636,0.19713586250751197,0.02809612270467818,-0.20658282970998998,-0.11598926623924867,0.06936492887981822,0.047752237937809416,-0.07540407675790171],[0.302555039128563,-0.3455102441622598,-0.08874768701712475,-0.07642838492530132,0.3833971681452687,-0.24344236509793768,-0.2270121597069497,0.1980570255006208,-0.2166108966102142,-0.065550863323273,0.11263661914647895,0.07694591996727017,0.035159880013699046,0.050749928848016615,-0.049171102224389224,0.1900647408226454,-0.1600135909838343,0.1894100931924225,0.024062507265720057,-0.2310721598940105,-0.10979824422371269,0.1831980489498167,-0.10871588787113762,0.12604488777227468,0.023249225269351515,0.1691985400043942,-0.39476761944625477,-0.07624925897935922,0.04823925203698696,0.06038995386425513,0.08157787354917537,-0.15688267087369573,0.18245421984831814,-0.22148943678921418,0.01614262574012704,0.021202707203370967,-0.1603862580862221,0.15683325930017225,-0.1143862900302951,0.08999316260256544,0.03736846913760255,-0.09437773898809945,0.22432824559766443,0.27547837669830044,-0.16164641776599953,-0.17493115934493314,-0.29255243363433103,0.11556424408459184,0.13930682758452512,0.190617989489686,-0.20088011156752336,-0.021232064239155142,0.03737926812629229,0.010026953728937384,-0.20175896406711352,-0.00691689371443937,0.17573446945866641,0.2581696662655412,0.23751760618386464,0.0695445097405137,0.042566044993105775,-0.16289006680984922,0.05178879429698091,-0.12498566385971252],[0.33600790131944763,0.03683135394206464,-0.10169125987026588,0.03914030850621969,0.10736113111489781,-0.1412029508535135,-0.18326799728043472,0.04124475193634077,0.025541961163187663,0.1894653275473393,0.16021425696935374,0.13525255434225728,-0.06004229587786173,-0.05911818210579647,0.2399192368659577,0.19220370491710362,0.03696340280013094,-0.08393251308857139,-0.19655052408042564,-0.019326303744249554,-0.2961051863426197,0.05221334846052497,-0.07179504256374804,-0.029360130589195833,-0.3138434194574669,0.037336454366561196,-0.024963217409457217,-0.08546666970269494,-0.11446623071199209,-0.14234780998308505,0.02583751295206694,0.1641831906959922,-0.10036830815441848,-0.2135080515802817,-0.11904064065568852,0.09505617927252624,0.12904910842440168,0.1633918857774237,-0.04807305954703673,0.1505725260874668,-0.05200355024144827,-0.17144892413720894,-0.042285437447312293,-0.1223816516917378,-0.006025460759363943,0.2684606163312353,-0.07884782629888035,-0.16031702302452358,0.24672857944623378,-0.03803383947590337,-0.06309442925396334,0.11409674696752227,-0.04090635361373005,0.16456174025501089,-0.017737332883244836,-0.2635046403203278,-0.055261271356014253,0.2249722087745221,0.18748351528379828,0.05554552377685395,-0.38236774234155074,0.15097859084775075,0.011622213407980161,0.18142285775319783],[0.055056437578944864,0.35158051310545346,-0.022292228782025515,-0.19727516966063935,-0.0920596387647535,0.257729639265089,-0.05187903790196265,0.0718389743050563,-0.006413607217003332,0.3818987347419765,-0.10122522366640632,-0.20333582141560497,-0.06204852569668649,-0.20193612761019233,-0.17002540503912394,0.056483747455094255,0.02742301371227913,0.09409460666227974,-0.05113409454343759,0.28862192592915376,-0.20244923731472142,0.26875906931048854,0.1074457995483967,0.24665261787466009,-0.08274565791819122,-0.06373933554902952,0.1701373811715878,0.2839611196440972,0.12594529535929724,0.15824187088663413,0.14597808501683499,-0.06627145670217625,-0.09645723877069556,0.16222783398818186,0.08382089457155578,0.27483858513673887,0.11363217457570547,0.0592031059799498,-0.23339443314008937,0.04135397591057191,0.05838496128462729,-0.20470452618635196,0.1100656573194404,0.23915590585002097,0.012664547825597621,-0.031173609033806633,0.14994585365925076,-0.1457593416166287,0.030628247028588546,-0.1617240362905225,0.34449538142724273,0.05143826389139307,0.011779261979724552,0.13871043101150954,0.0065510580807941745,-0.22491800917193155,0.17524590815135926,-0.23175212102296686,-0.09389757787613326,-0.19212290410294786,0.019194947321171586,-0.02899110238656691,-0.32438949909633297,0.10459553792727046],[-0.11394004704169601,0.10369960801640389,-0.008178142525187079,0.04323895302681634,-0.04075552798926068,0.16195343554644687,0.019402071275329294,0.18129470233971595,-0.25301094088093035,-0.11499688514223588,0.1118469616533222,-0.15259923961578653,0.012740115956667122,0.24622626290064792,-0.03955286494530644,-0.1610263869923269,-0.26632534610392183,-0.17953744944338107,0.1641521075064396,0.22851322426083004,0.08573172055920313,-0.01856665161497472,-0.09061003130853264,0.12391255254965147,0.18104554914855217,0.16223836302750386,-0.25206162806639265,0.0887490815014977,0.09256168031419981,-0.3635780910489306,0.14582801047452731,0.16680358006889034,-0.03528271401618572,0.003514292394320968,-0.08134436023559133,0.2359132778209398,0.2661769828564892,0.0027834168108582117,-0.07125180947305222,0.10058834284783066,-0.15752404663552,0.1504368066250866,-0.1608793982179107,-0.27601592112958434,0.05948071724881277,0.2363323502097875,0.19161902383875465,0.1170152484300196,0.1239660074573375,0.15548581446005588,-0.49444320973391237,-0.26496407476152717,-0.2127507331681187,0.24819460563255374,0.1299675766855237,-0.07752140907320322,0.009214789049196396,-0.09716403604148416,0.05965734473539045,-0.12456457603747244,0.03555216768504748,-0.11681319875422343,-0.12230996138416986,0.04170699763172726],[0.23935624664937485,-0.03251214951278787,-0.14579980025551698,0.17704685871191436,0.24930342128414895,-0.1838432517915009,-0.3184103805163416,-0.11904777822370631,0.20166545730543162,0.10502121144862342,0.20125695873850374,0.17676377881972327,-0.2334643725704095,0.056426207833657906,-0.1903538397566532,0.1472706926899525,-0.24214455147388192,-0.1484836463283606,-0.2452298601450268,-0.05856064724979944,0.17037447864524266,-0.04329630433046264,-0.11118292937725979,0.13535074758896465,0.18188414478995782,0.09712955180511455,-0.25097638838822817,0.23810232882545565,0.12436954632084513,0.1113413232517652,-0.043618237782024755,-0.018469313588344062,-0.08270661099847158,-0.17407164752898108,0.05334430514652363,-0.21600247209642368,0.09280431627117454,0.05756046532253497,-0.04926807644727975,-0.140581303827674,-0.18319246979704484,0.21101837143491356,0.1317444977064684,-0.20956801801859384,0.09551369023957583,0.16510257041125947,0.2107375173061094,0.08979764875952798,0.0838583034539139,-0.07943159017444516,0.21266184057359327,-0.1924680932599405,0.12517871474191414,0.08041886489068259,0.27056810891369243,-0.14150224918544937,-0.0692449949025797,-0.10168185695877054,-0.14438059872362932,0.21769800942182083,-0.22246136654536677,0.11005700806979264,0.12691051491823588,0.11659290215449805],[0.0230548749724738,-0.356297362406571,0.09616869243038596,0.15593528448027041,-0.15527044991810515,-0.0068940621389631225,0.1249964391875813,-0.016163089828056188,0.024871999628231427,-0.14480591258304734,-0.19183494226480718,-0.03515947579740315,-0.039637544103020506,0.09050819003571266,-0.2151916374171865,-0.04570303698354281,-0.17022865034322818,0.02513525503345561,0.22604839951772582,0.20165114350004965,0.2896713532334799,0.04133405911719946,-0.09742202571164499,0.31415157926654913,-0.022480687663186272,-0.08344481018462394,0.04820153096747343,-0.2102657428553282,0.4608917889883514,-0.24856181496442464,-0.44472253095390385,0.12584017417941964,0.0011016695445096758,-0.16483563543290722,-0.06823464674552181,-0.04056756362190537,0.09080801237939254,0.0317106757806869,0.1274443119663637,0.03092575640464409,0.16683212051692792,-0.398271622099221,0.057523437778189516,0.02638222380332687,-0.2248941238215574,0.07769586133526853,0.12241224863878362,0.053444590433661836,-0.06804526271733545,-0.01674990246841386,0.24007292561719598,0.036458478544576484,0.24489345331017442,0.2082747866258564,0.057076682443056165,-0.061711763762759664,-0.31064052295231676,0.028333111169512832,-0.14583984102111688,-0.01952275605470385,0.18221452262910265,0.22807925329957504,-0.051508387697076094,0.00965836889135748]],"b":[0.11774885988603336,0.22189435237522318,-0.0231338028403351,-0.1329448961130947,0.48146573614086635,-0.05740272053470793,0.06215340462097452,-0.10943993077802962,-0.06646315732463971,-0.1520777523900002,-0.09995028494482627,0.2228378144000128,0.11940651753106175,-0.02816716583852554,-0.07413582308177895,0.11852319421389079,-0.10179487421616203,-0.056170179561970984,-0.14763842936009494,0.13504046755833646,0.27797583058431286,-0.2879106546788389,0.3215096626426107,0.12753178949225824,0.09322972709782178,0.39286893025869635,-0.22141860442911854,-0.1991273087149184,-0.29255209171295093,0.07795776721687907,-0.08827434065757797,0.055440168001948086]},{"w":[[-0.44826494965277364,0.28590707994061215,0.17084303350353475,-0.10458749595879044,0.1222054971726127,0.39811543639311403,0.29947806912435276,0.1156029849012737,0.23352010235287726,0.15392629816282763,-0.28227415120445076,0.32567251104702527,-0.19204563611761527,-0.13828752840963357,-0.20474054763632815,0.3558770378521151,-0.09299980942665612,0.10013808155330786,-0.25944578376681815,0.2473783311209133,-0.38832634634706764,0.2501586860960056,0.45530537705150936,-0.08739139326427371,0.4203352971023665,0.5760010506966515,-0.43486666678699715,0.41197930858109677,0.0739348701716429,-0.3483926721173787,0.021729280597055145,0.006886414167010131],[-0.28012834961012045,-0.17738679052216957,-0.440027698989141,0.5879973796359299,-0.17185002954984296,0.43118492977672357,0.0039234757776334525,-0.3856452712245827,-0.005851523821396908,0.48613869980222635,-0.2899560280052098,0.08973732693032044,0.054332346797994514,-0.20542707090811427,-0.2057605349604668,0.37794357739486023,0.7584677784303195,0.21641917707729905,-0.6041329223356334,0.09807696011185293,-0.10250393843156191,0.4081525210468071,0.12441264440404576,-0.25399483614600543,0.32295459926297687,0.06819139577270608,0.00045764471263065647,0.4589827490932983,0.2935048124798918,-0.2727483482347522,0.279954006449357,0.23424243974107561]],"b":[-0.41533278060640555,0.31366570048539033]}],"target_mean":[3.3873108573194664,3.658511305051173],"target_std":[2.098262796496215,2.226790324012284],"flops_ood_cap":14195813614.0,"n_records":7652}